tree
version=v3
num_class=1
num_tree_per_iteration=1
label_index=0
max_feature_idx=41
objective=regression
feature_names=Column_0 Column_1 Column_2 Column_3 Column_4 Column_5 Column_6 Column_7 Column_8 Column_9 Column_10 Column_11 Column_12 Column_13 Column_14 Column_15 Column_16 Column_17 Column_18 Column_19 Column_20 Column_21 Column_22 Column_23 Column_24 Column_25 Column_26 Column_27 Column_28 Column_29 Column_30 Column_31 Column_32 Column_33 Column_34 Column_35 Column_36 Column_37 Column_38 Column_39 Column_40 Column_41
feature_infos=[0:1] [0:1] [0:1] [0:1] [0:1] [0:94.629997299999999] [0:1] [0:1] none [0:1] [0:1.8550000200000001] [0:1] [273.14999999999998:1041.1500000000001] none none [-473:41051] [223.64999999999998:372.14999999999998] [0:1] [0:768] [0:1] [0:1] [0:1] none none [0:12288] [0:1] [0:1] [0:1] [0:1] [0:1] [0:127.129997] [0:163800] [-64:96.75] [0:1] none none [0:1016] [0:1] [0:0.99900001299999996] [0:1] [0:1] [0:1]
tree_sizes=2653 2735 2736 2773 2789 2773 2811 2816 2851 2840 2867 2883 2856 2867 2873 2848 2854 2866 2853

Tree=0
num_leaves=31
num_cat=0
split_feature=5 5 5 5 5 5 5 5 5 5 5 5 5 5 5 5 5 5 5 5 5 5 5 5 5 5 5 5 5 5
split_gain=1.4376e+06 24986.4 5700.52 4853.62 3026.88 1133.74 777.16 763.974 566.334 161.328 147.824 136.872 134.204 109.838 94.7074 88.93 84.1647 25.6277 24.2019 23.1253 18.9958 18.6263 17.9539 16.4537 16.3805 15.6564 15.4619 15.083 14.4324 13.7299
threshold=24.754999200000004 88.045002000000011 85.735000600000021 89.920002000000025 81.189998650000021 86.965000150000023 88.965000150000023 91.139999400000008 84.145000500000023 87.534999850000005 92.154998800000016 90.505001050000018 86.344997400000011 89.43999860000001 88.534999850000005 84.99499895000001 82.889999400000008 92.895000500000023 87.284999850000005 91.594997400000011 90.18999860000001 86.639999400000008 83.514999400000008 87.795002000000011 85.344997400000011 89.204998000000018 88.310001400000019 90.810001400000019 86.060001400000019 89.670002000000025
decision_type=2 2 2 2 2 2 2 2 2 2 2 2 2 2 2 2 2 2 2 2 2 2 2 2 2 2 2 2 2 2
left_child=-1 2 4 6 -2 12 14 11 16 18 19 20 28 25 26 -10 -6 -12 -7 -9 -5 -14 -18 -11 -17 -8 -3 -13 -4 -15
right_child=1 3 5 7 8 9 13 10 15 23 17 27 21 29 -16 24 22 -19 -20 -21 -22 -23 -24 -25 -26 -27 -28 -29 -30 -31
leaf_value=43.329999868878403 80.06820020914941 87.4248451533891 86.27076093708132 88.357776560673457 84.448728943000944 86.898610207540315 87.863984478252803 89.00869618613649 85.623715200327496 87.173659980428098 89.561052899996696 88.669022329337309 86.586205785482989 88.110444969824059 87.707242430683294 85.896136870609581 84.949514281228531 90.019111557280368 87.048291152987531 89.240246483043308 88.511786176145179 86.736286344416072 85.276287052356736 87.298781129414238 86.085020853761506 87.989316539043173 87.54669375474316 88.827462905593862 86.423827556349252 88.236957854335444
leaf_weight=188 25 548 309 362 59 633 507 230 249 526 95 271 452 461 854 220 72 45 471 203 448 381 101 525 240 490 496 337 307 401
leaf_count=188 25 548 309 362 59 633 507 230 249 526 95 271 452 461 854 220 72 45 471 203 448 381 101 525 240 490 496 337 307 401
internal_value=86.66 87.4495 86.5769 88.1433 85.4983 86.866 87.8088 88.7744 85.6425 87.0959 89.2617 88.5775 86.524 88.0386 87.5838 85.8644 84.9644 89.7083 86.9625 89.1173 88.443 86.6549 85.1403 87.2362 85.9947 87.9256 87.4827 88.7568 86.347 88.1693
internal_weight=0 10318 4570 5748 966 3604 3757 1991 941 2155 573 1418 1449 1859 1898 709 232 140 1104 433 810 833 173 1051 460 997 1044 608 616 862
internal_count=10506 10318 4570 5748 966 3604 3757 1991 941 2155 573 1418 1449 1859 1898 709 232 140 1104 433 810 833 173 1051 460 997 1044 608 616 862
is_linear=0
shrinkage=1


Tree=1
num_leaves=31
num_cat=0
split_feature=15 5 30 5 5 10 5 5 5 5 5 5 5 5 5 5 5 5 5 5 5 5 5 5 5 5 5 5 5 5
split_gain=362019 6288.96 1778.13 1326.6 1006.45 240.913 229.258 206.331 188.338 152.126 50.5611 37.4594 28.2889 27.5959 19.4291 19.2954 18.0717 13.2443 12.5118 19.3372 6.01991 5.00613 4.50636 4.23448 4.09781 3.95786 3.66051 3.49832 3.11577 2.66854
threshold=2186.0000000000005 87.965000150000023 87.159999850000005 89.810001400000019 85.979999550000016 1.0000000180025095e-35 91.005001050000018 88.784999850000005 87.094997400000011 84.609996800000019 91.889999400000008 90.360000600000021 89.329998000000003 86.505001050000018 85.485000600000021 87.465000150000023 88.420002000000025 93.255001050000018 83.775001550000013 81.689998650000021 82.564998650000021 90.670002000000025 91.395000500000023 87.670002000000025 88.170002000000025 92.505001050000018 85.110000600000021 89.560001400000019 89.079998000000003 86.215000150000023
decision_type=2 2 2 2 2 2 2 2 2 2 2 2 2 2 2 2 2 2 2 2 2 2 2 2 2 2 2 2 2 2
left_child=5 2 -2 7 9 -1 11 16 13 18 22 -5 28 29 26 -10 24 25 19 -4 -21 -13 -8 -17 -3 -12 -11 -14 -9 -6
right_child=1 3 4 6 8 -7 10 12 15 14 17 21 27 -15 -16 23 -18 -19 -20 20 -22 -23 -24 -25 -26 -27 -28 -29 -30 -31
leaf_value=-21.664999008178711 -4.2698239430785181 0.3514458220488379 -0.35565365776419638 0.84683311154030538 -0.14193945894303839 -23.501909065246583 1.1443955255706957 0.57829553540631784 0.15212308485087425 -0.43817394616406991 1.3946343854416248 0.96783318395298235 0.69488544158197474 0.036568540909902608 -0.2359084068740929 0.2254543780169872 0.48407757867522327 1.8709436416625977 -0.62638707978002139 -1.1087399174769719 -0.83498275764589391 1.0490326497865761 1.2422650459280424 0.28969674605120255 0.41382055609812357 1.5548234159296208 -0.347458818804325 0.75688472446405664 0.63273330537640315 -0.077582433250884111
leaf_weight=166 25 513 20 743 267 20 269 567 703 218 129 422 491 745 362 483 774 20 178 24 123 345 209 547 541 55 227 424 490 406
leaf_count=166 25 513 20 743 267 20 269 567 703 218 129 422 491 745 362 483 774 20 178 24 123 345 209 547 541 55 227 424 490 406
internal_value=0 0.394034 -0.0652296 0.725758 -0.0408013 -21.8625 1.03552 0.547075 0.10541 -0.440726 1.27613 0.926847 0.65925 -0.0297269 -0.321926 0.215984 0.426064 1.48452 -0.718616 -0.81692 -0.879678 1.00436 1.18719 0.259571 0.383462 1.44252 -0.391899 0.723615 0.603532 -0.103115
internal_weight=0 10320 4328 5992 4303 186 2192 3800 3151 1152 682 1510 1972 1418 807 1733 1828 204 345 167 147 767 478 1030 1054 184 445 915 1057 673
internal_count=10506 10320 4328 5992 4303 186 2192 3800 3151 1152 682 1510 1972 1418 807 1733 1828 204 345 167 147 767 478 1030 1054 184 445 915 1057 673
is_linear=0
shrinkage=0.5


Tree=2
num_leaves=31
num_cat=0
split_feature=38 5 16 5 5 36 30 5 36 5 5 5 5 5 5 5 5 5 5 24 38 5 5 5 5 5 5 5 5 5
split_gain=93794.8 1511.36 422.468 285.895 263.62 242.363 150.292 60.7864 57.1357 44.843 41.7319 36.8183 13.5955 8.72799 8.40918 6.65751 6.46575 6.43297 5.64506 4.4575 4.4541 5.03161 2.92333 2.49721 2.42989 1.8697 1.57958 1.0719 1.05655 0.962715
threshold=0.17100000400000001 88.215000150000023 266.02500000000003 90.034999850000005 86.43999860000001 38.500000000000007 87.159999850000005 84.735000600000021 26.500000000000004 89.045002000000011 91.310001400000019 87.215000150000023 85.764999400000008 88.704998000000018 92.404998800000016 17.314999600000004 87.715000150000023 90.43999860000001 89.534999850000005 2863.6500250000004 0.74524998650000007 83.895000500000023 86.810001400000019 90.954998000000018 91.755001050000018 85.139999400000008 93.255001050000018 83.264999400000008 87.889999400000008 89.295002000000011
decision_type=2 2 2 2 2 2 2 2 2 2 2 2 2 2 2 2 2 2 2 2 2 2 2 2 2 2 2 2 2 2
left_child=5 2 4 9 6 8 -2 19 15 13 17 22 25 -3 24 -1 -13 -5 29 20 -8 27 -6 -19 -12 -9 -16 -22 -18 -11
right_child=1 3 -4 10 11 -7 7 12 -10 18 14 16 -14 -15 26 -17 28 23 -20 -21 21 -23 -24 -25 -26 -27 -28 -29 -30 -31
leaf_value=-10.832500457763672 1.1784547453834897 0.21634269607724346 -2.2400989633807469 0.45325991761733275 -0.0075417116505674796 -12.686502456665039 -0.15617018970934785 -0.20476013270987048 -11.569554124559675 0.31548296925735086 0.60943071753525535 0.10400003700078218 -0.065286018929349848 0.28563656099140644 0.77535101726873601 -10.526348749796549 0.14417483545692542 0.50438776824336784 0.3870654566559249 -0.57095688879489903 -0.46084878420176573 -0.29463518639000097 0.043871518761017123 0.56102681159973145 0.69110678401711867 -0.14783876568296003 0.93547186851501463 -0.37256768529231732 0.17577856144319803 0.34680966041526018
leaf_weight=115 21 1052 21 488 505 22 34 222 28 491 242 957 661 800 67 21 506 520 835 20 73 196 611 311 146 412 20 65 554 490
leaf_count=115 21 1052 21 488 505 22 34 222 28 491 242 957 661 800 67 21 506 520 835 20 73 196 611 311 146 412 20 65 554 490
internal_value=0 0.200566 -0.0023245 0.38102 0.00739087 -11.1282 -0.150886 -0.167473 -10.9191 0.30102 0.54459 0.0934755 -0.11546 0.246275 0.671667 -10.7852 0.133794 0.498826 0.356849 -0.341073 -0.328579 -0.34613 0.0206066 0.525585 0.640164 -0.16777 0.81216 -0.419267 0.160692 0.33113
internal_weight=0 10320 4858 5462 4837 186 1704 1683 164 3668 1794 3133 1295 1852 475 136 2017 1319 1816 388 368 334 1116 831 388 634 87 138 1060 981
internal_count=10506 10320 4858 5462 4837 186 1704 1683 164 3668 1794 3133 1295 1852 475 136 2017 1319 1816 388 368 334 1116 831 388 634 87 138 1060 981
is_linear=0
shrinkage=0.5


Tree=3
num_leaves=31
num_cat=0
split_feature=38 5 20 36 5 32 5 36 16 24 16 5 5 5 5 5 18 5 30 5 36 5 38 5 16 5 5 5 5 5
split_gain=23448.7 380.244 192.84 173.556 84.8154 66.7467 53.8597 51.7997 27.8706 19.8565 16.9453 14.1379 12.9761 10.7187 8.10871 3.90094 3.2539 3.11716 2.44484 1.98773 1.68705 1.67838 1.36911 1.35349 1.32949 1.10008 0.780679 0.780176 0.46385 0.452027
threshold=0.17100000400000001 87.889999400000008 1.0000000180025095e-35 40.500000000000007 89.875000000000014 -6.1449999849999992 86.139999400000008 28.500000000000004 226.02500000000001 2068.0000000000005 261.77500000000003 90.99499895000001 88.729999550000016 84.404998800000016 87.170002000000025 91.74499895000001 566.2999880000001 85.505001050000018 92.49499895000001 89.255001050000018 23.500000000000004 90.384998350000004 0.7438500225000001 86.784999850000005 256.95000020000003 92.664997100000008 88.389999400000008 87.420002000000025 83.264999400000008 90.079998000000003
decision_type=2 2 2 2 2 2 2 2 2 2 2 2 2 2 2 2 2 2 2 2 2 2 2 2 2 2 2 2 2 2
left_child=2 3 5 -2 12 -1 8 20 -5 -10 13 21 24 16 18 -13 -11 -15 23 -14 -7 29 -18 -8 26 -17 -3 -16 -24 -6
right_child=1 4 -4 6 11 7 14 -9 9 10 -12 15 19 17 27 25 22 -19 -20 -21 -22 -23 28 -25 -26 -27 -28 -29 -30 -31
leaf_value=-6.1480319897333784 -1.4827103052288293 0.09332038570304281 -6.954115499149669 0.47228073802861298 0.20388092998510751 -5.4262334263843037 -0.010575475478407167 -4.6372783865247458 -0.55564130745504214 -0.034527750290704498 0.36968100462108849 0.28825325646696709 0.14859442020283092 -0.098712634333005214 0.041755350471848383 0.34498755414904009 -0.31522614012161893 -0.044882989604477667 0.17922053373767993 0.17878247384172286 -5.2660068511962894 0.25211975856948254 -0.2317361229658127 0.021149937566873188 0.23091739602386951 0.42027911638456678 0.11665932737745331 0.066607794714331509 -0.17691442018826686 0.22695178228386481
leaf_weight=24 20 1061 22 22 390 92 778 28 23 33 20 507 1264 530 458 211 24 546 20 959 20 536 50 592 20 63 541 1017 169 466
leaf_count=24 20 1061 22 22 390 92 778 28 23 33 20 507 1264 530 458 211 24 546 20 959 20 536 50 592 20 63 541 1017 169 466
internal_value=0 0.100283 -5.56409 -0.0132317 0.18143 -5.37762 -0.00636815 -5.24555 -0.0861044 -0.0949105 -0.0871869 0.260388 0.136806 -0.0939453 0.0330686 0.314231 -0.181849 -0.0713976 0.00566723 0.161618 -5.39762 0.230179 -0.201855 0.00313361 0.102801 0.362299 0.101202 0.0588909 -0.189431 0.216441
internal_weight=0 10320 186 4302 6018 164 4282 140 1417 1395 1372 2173 3845 1352 2865 781 276 1076 1390 2223 112 1392 243 1370 1622 274 1602 1475 219 856
internal_count=10506 10320 186 4302 6018 164 4282 140 1417 1395 1372 2173 3845 1352 2865 781 276 1076 1390 2223 112 1392 243 1370 1622 274 1602 1475 219 856
is_linear=0
shrinkage=0.5


Tree=4
num_leaves=31
num_cat=0
split_feature=5 16 10 15 5 16 5 36 5 24 5 30 32 5 24 5 38 15 5 24 5 5 18 5 27 5 5 5 5 5
split_gain=6123.17 442.951 376.398 104.402 82.8843 25.6886 21.881 12.8761 11.8337 9.85835 4.78618 3.98249 3.36025 2.99833 2.81514 2.81509 1.89344 1.46452 1.36538 1.28592 1.15099 0.944875 0.800177 0.573094 0.465043 0.441203 0.392947 0.385506 0.376265 0.317906
threshold=80.125000000000014 321.02500000000003 1.0000000180025095e-35 663.50000000000011 88.639999400000008 263.77500000000003 86.860000600000021 31.500000000000004 90.110000600000021 2068.0000000000005 85.235000600000021 87.594997450000008 -1.0000000180025095e-35 91.354999500000005 2257.9000250000004 87.634998350000004 0.73085001100000013 31003.500000000004 84.404998800000016 728.00000000000011 89.610000600000021 85.864997900000006 728.50000000000011 83.139999400000008 1.0000000180025095e-35 88.229999550000016 89.110000600000021 90.729999550000016 86.479999550000016 87.170002000000025
decision_type=2 2 2 2 2 2 2 2 2 2 2 2 2 2 2 2 2 2 2 2 2 2 2 2 2 2 2 2 2 2
left_child=1 2 3 7 5 6 9 12 20 -2 11 -11 -1 27 -8 29 -13 -18 23 24 26 -12 -15 -19 -14 -17 -6 -10 -23 -16
right_child=4 -3 -4 -5 8 -7 14 -9 13 10 21 16 19 22 15 25 17 18 -20 -21 -22 28 -24 -25 -26 -27 -28 -29 -30 -31
leaf_value=-2.4489985054189507 0.22910557793000261 -4.9660878002643587 -0.59661679358586017 -3.5525596755923647 0.069035106453201697 0.56635070135373444 0.2001631565284557 -2.1850033938884734 0.11691321701639229 0.13986844941973686 -0.037338796591582506 -0.22802391089498997 -2.6581696391105654 0.16654193873456793 0.0092779609309167482 0.039891423440167273 0.046828842898830769 -0.16256774158069962 -0.055530529546115592 -2.7288097226342489 0.099475209649276974 -0.017294529424738934 0.26876592570915819 -0.095244267281699685 -2.5503453493118284 0.05439564090149878 0.083663702550788283 0.13430271055650797 0.00082174635630408361 0.024239762569715481
leaf_weight=22 37 20 23 33 853 21 26 20 756 22 408 20 20 447 572 1088 25 38 312 43 814 656 20 188 20 1012 994 551 509 936
leaf_count=22 37 20 23 33 853 21 26 20 756 22 408 20 20 447 572 1088 25 38 312 43 814 656 20 188 20 1012 994 551 509 936
internal_value=0 -2.73316 -2.48643 -2.76153 0.0533106 0.0143334 0.0123515 -2.5527 0.104899 -0.0268198 -0.0311675 -0.0689614 -2.62273 0.136531 0.0362273 0.0350459 -0.0768418 -0.0714712 -0.0769684 -2.66878 0.0838112 -0.0166314 0.17092 -0.106564 -2.60426 0.0468811 0.0769078 0.124244 -0.00937935 0.0185646
internal_weight=0 201 181 158 10305 5870 5849 125 4435 2215 2178 605 105 1774 3634 3608 583 563 538 83 2661 1573 467 226 40 2100 1847 1307 1165 1508
internal_count=10506 201 181 158 10305 5870 5849 125 4435 2215 2178 605 105 1774 3634 3608 583 563 538 83 2661 1573 467 226 40 2100 1847 1307 1165 1508
is_linear=0
shrinkage=0.5


Tree=5
num_leaves=31
num_cat=0
split_feature=5 16 5 32 5 36 16 5 5 15 5 5 16 0 39 5 38 5 16 5 5 5 30 10 5 18 38 5 30 5
split_gain=1530.79 110.738 104.439 45.9901 21.0318 9.09642 6.43901 6.504 7.56169 5.12486 2.67472 1.92728 1.7618 2.07526 1.72726 1.38683 1.34911 0.736243 0.403872 0.366389 0.296663 0.369891 0.229599 0.222629 0.241247 0.19799 0.172583 0.164368 0.149898 0.160748
threshold=80.125000000000014 321.02500000000003 20.189999600000004 -6.1449999849999992 88.844997400000011 41.309999450000007 263.77500000000003 86.479999550000016 81.689998650000021 663.50000000000011 90.43999860000001 84.770000450000012 295.52500000000003 1.0000000180025095e-35 1.0000000180025095e-35 87.625000000000014 0.7438500225000001 92.360000600000021 228.77500000000001 89.755001050000018 84.99499895000001 85.625000000000014 1.0000000180025095e-35 0.42949999850000004 92.895000500000023 566.2999880000001 0.77590000650000013 88.139999400000008 92.49499895000001 87.255001050000018
decision_type=2 2 2 2 2 2 2 2 2 2 2 2 2 2 2 2 2 2 2 2 2 2 2 2 2 2 2 2 2 2
left_child=1 2 3 -1 5 -2 7 8 -7 12 19 16 14 -14 22 28 -10 -12 -13 -6 -20 -22 -5 26 -25 -18 -19 -17 -9 -30
right_child=4 -3 -4 9 10 6 -8 15 11 -11 17 18 13 -15 -16 27 25 23 20 -21 21 -23 -24 24 -26 -27 -28 -29 29 -31
leaf_value=-2.0866300150752068 0.27831401945196932 -2.4830438591539861 -0.16560914067085833 -1.40399522673 0.04170281605427132 0.27061006045815622 0.28317534781637643 0.005973546153766769 -0.16011414730123111 -1.0968704290928379 0.069345391373802995 -0.077618542762938891 -1.1296806324273347 -1.3547277337028867 -1.2771491033059579 0.019172004249963428 -0.092470954764973037 0.097533177770674231 0.027372921123927415 0.053901536138810678 -0.028302157174181039 -0.009075283959973604 -1.4780158936977386 0.11873396678316978 0.051961715468981616 -0.043614091518673001 0.15575708204082081 0.027102371345782646 -0.053772114047949966 0.0073862062057568918
leaf_weight=20 31 20 20 22 1929 22 21 1770 28 31 1196 25 20 21 27 1268 22 20 43 904 359 825 20 31 24 361 35 1348 22 21
leaf_count=20 31 20 20 22 1929 22 21 1770 28 31 1196 25 20 21 27 1268 22 20 43 904 359 825 20 31 24 361 35 1348 22 21
internal_value=0 -1.36658 -1.24321 -1.37708 0.0266553 0.00814855 0.00678341 0.00583408 -0.0206052 -1.27643 0.0542254 -0.0244578 -1.32704 -1.24495 -1.37582 0.0158928 -0.054166 0.0729457 -0.0147053 0.0455954 -0.0134234 -0.0149051 -1.43924 0.112091 0.089597 -0.0464205 0.134585 0.0232584 0.00526492 -0.0239041
internal_weight=0 201 181 161 10305 6166 6135 6114 1685 141 4139 1663 110 41 69 4429 411 1306 1252 2833 1227 1184 42 110 55 383 55 2616 1813 43
internal_count=10506 201 181 161 10305 6166 6135 6114 1685 141 4139 1663 110 41 69 4429 411 1306 1252 2833 1227 1184 42 110 55 383 55 2616 1813 43
is_linear=0
shrinkage=0.5


Tree=6
num_leaves=31
num_cat=0
split_feature=24 30 16 15 32 10 5 5 5 24 36 5 5 27 16 36 5 30 32 30 5 5 16 5 5 24 15 5 5 5
split_gain=412.7 124.898 129.608 53.2771 16.1242 6.96324 30.0223 7.10202 5.3365 3.95057 3.2302 1.65774 0.996598 0.955875 0.782552 0.727724 0.45722 0.503265 0.443882 0.559055 0.380743 0.485952 0.349094 0.344482 0.19408 0.142148 0.132951 0.111443 0.390301 0.347632
threshold=1968.3499750000003 58.815000550000008 304.27500000000003 663.50000000000011 -1.1050000149999997 1.0000000180025095e-35 81.189998650000021 82.24499895000001 88.49499895000001 3103.6500250000004 41.309999450000007 85.889999400000008 90.889999400000008 1.0000000180025095e-35 228.27500000000001 18.500000000000004 87.139999400000008 92.375000000000014 22.724999400000005 93.24499895000001 83.139999400000008 82.889999400000008 287.52500000000003 89.610000600000021 93.125000000000014 2319.6500250000004 31003.500000000004 84.270000450000012 84.145000500000023 84.020000450000012
decision_type=2 2 2 2 2 2 2 2 2 2 2 2 2 2 2 2 2 2 2 2 2 2 2 2 2 2 2 2 2 2
left_child=1 2 3 4 -1 -2 -7 -8 9 10 -9 14 23 15 -12 -6 17 -13 19 25 21 -16 -15 -10 -14 -18 -22 28 29 -28
right_child=5 -3 -4 -5 13 6 7 8 12 -11 11 16 24 22 20 -17 18 -19 -20 -21 26 -23 -24 -25 -26 -27 27 -29 -30 -31
leaf_value=-0.19266982823610307 -0.23577316888466676 -1.7577391490340233 0.5508142641999505 -1.371880482350077 -0.70328949746631442 0.59737480711191893 -0.27781493704588639 0.17399037463797462 0.018003615893021095 0.22412443096982315 -0.0938757942058146 -0.00049941312777360375 0.039815633683434985 -0.78215633084376657 -0.012794994417792903 -0.57316271622072568 -0.030723589726469734 -0.080306369112804532 0.083417813677806402 -0.074629317037761211 -0.05001849511071392 -0.11505813169337455 -0.69388251503308618 0.027232005070865335 0.080812677368521685 0.0096420574678410167 -0.025163443189686035 -0.0092226247828048162 -0.075053614998857182 0.038705878017935902
leaf_weight=20 28 26 22 28 21 22 21 27 2321 20 32 1606 765 24 26 22 22 20 20 20 23 21 21 1792 30 2526 101 822 30 27
leaf_count=20 28 26 22 28 21 22 21 27 2321 20 32 1606 765 24 26 22 22 20 20 20 23 21 21 1792 30 2526 101 822 30 27
internal_value=0 -0.742235 -0.575127 -0.757265 -0.59792 0.0132311 0.0139084 0.0126588 0.0132538 0.00231992 0.00148654 0.000607082 0.0251568 -0.690022 -0.0168506 -0.636713 0.00508958 -0.00148105 0.00921781 0.00863993 -0.0145032 -0.058487 -0.740962 0.0220243 0.0413627 0.00929353 -0.0124422 -0.0115603 -0.0237219 -0.011691
internal_weight=0 184 158 136 108 10322 10294 10272 10251 5343 5323 5296 4908 88 1082 43 4214 1626 2588 2568 1050 47 45 4113 795 2548 1003 980 158 128
internal_count=10506 184 158 136 108 10322 10294 10272 10251 5343 5323 5296 4908 88 1082 43 4214 1626 2588 2568 1050 47 45 4113 795 2548 1003 980 158 128
is_linear=0
shrinkage=0.5


Tree=7
num_leaves=31
num_cat=0
split_feature=18 36 32 30 30 36 16 24 16 5 16 18 10 12 5 5 38 16 5 5 5 5 5 5 32 16 12 5 5 5
split_gain=145.14 98.0833 77.5908 20.1743 31.4567 16.6537 7.45078 3.67238 2.08618 1.79738 2.42705 1.07807 2.22504 0.675689 0.428914 0.268897 0.175645 0.165299 0.0997192 0.180699 0.105283 0.0923906 0.204597 0.151717 0.0918685 0.086955 0.0704059 0.165205 0.0658249 0.0827255
threshold=475.00000000000006 26.500000000000004 3.9650000350000005 56.440000550000008 87.159999850000005 17.000000000000004 298.52500000000003 2068.0000000000005 266.02500000000003 88.875000000000014 260.75500000000005 570.95001200000013 0.22950000300000004 357.08999865000004 86.860000600000021 91.755001050000018 0.73749998250000004 228.27500000000001 84.270000450000012 84.145000500000023 84.020000450000012 92.154998800000016 92.020000450000012 92.255001050000018 22.724999400000005 256.95000020000003 379.08999850000004 92.895000500000023 90.079998000000003 91.594997400000011
decision_type=2 2 2 2 2 2 2 2 2 2 2 2 2 2 2 2 2 2 2 2 2 2 2 2 2 2 2 2 2 2
left_child=1 5 -3 -2 -5 6 13 -6 9 10 11 12 -9 -1 16 28 -13 -18 19 20 -19 22 -17 -23 25 -16 27 -25 -11 -30
right_child=3 2 -4 4 7 -7 -8 8 -10 15 -12 14 -14 -15 24 21 17 18 -20 -21 -22 23 -24 26 -26 -27 -28 -29 29 -31
leaf_value=-0.14164485879242419 -0.36667106217808193 -0.4845743385022101 -1.813889669875304 0.52829536949766098 0.17086828012457667 -0.50541426555386615 0.15860579230568625 -0.1938359277555719 0.16370261180037188 0.01135480773015312 -0.17338589206337929 0.040347476828504696 0.036331869196146727 -0.26494532823562622 0.0050745715950488183 0.028897447730886979 -0.040802712161694801 -0.014557248459238073 -0.0029706393951785411 -0.050095683925094142 0.020137379103322962 -0.013788772824530801 0.082493298531820372 0.039693882916958967 -0.029076686385087668 -0.026448663885027847 0.048247437458485365 -0.006944919635932292 0.016567071257240881 0.0023405244235288015
leaf_weight=25 36 23 21 29 34 35 22 21 21 2344 20 22 21 20 3889 69 31 115 1896 31 27 24 24 49 20 22 36 31 1438 110
leaf_count=25 36 23 21 29 34 35 22 21 21 2344 20 22 21 20 3889 69 31 115 1896 31 27 24 24 49 20 22 36 31 1438 110
internal_value=0 -0.495049 -1.11902 0.00697655 0.00827947 -0.225884 -0.0798612 0.00681464 0.00627104 0.00594818 0.000507504 0.00107811 -0.078752 -0.196445 0.00163203 0.0140136 -0.00409657 -0.00456217 -0.00401917 -0.0155106 -0.00796038 0.0305127 0.0427286 0.0223977 0.0047244 0.00489725 0.0298846 0.0216213 0.0130258 0.0155561
internal_weight=0 146 44 10360 10324 102 67 10295 10261 10240 6115 6095 42 45 6053 4125 2122 2100 2069 173 142 233 93 140 3931 3911 116 80 3892 1548
internal_count=10506 146 44 10360 10324 102 67 10295 10261 10240 6115 6095 42 45 6053 4125 2122 2100 2069 173 142 233 93 140 3931 3911 116 80 3892 1548
is_linear=0
shrinkage=0.5


Tree=8
num_leaves=31
num_cat=0
split_feature=16 18 27 12 16 24 36 5 5 16 5 15 24 10 5 15 5 5 5 5 15 31 5 5 30 5 10 39 32 5
split_gain=103.225 31.3221 38.7983 13.9013 14.8589 14.7951 12.2866 4.17305 5.05148 1.23598 0.469298 0.452619 0.359559 0.171148 0.150141 0.131316 0.107128 0.113111 0.0708196 0.169069 0.0676083 0.0936995 0.066381 0.133838 0.0579186 0.0719767 0.0560222 0.0485658 0.0477338 0.0445723
threshold=321.02500000000003 331.00000000000006 1.0000000180025095e-35 328.65000000000003 290.02500000000003 1968.3499750000003 27.500000000000004 81.189998650000021 82.564998650000021 265.52500000000003 87.74499895000001 39987.69920000001 2096.3499750000005 0.010499999840000001 91.354999500000005 31003.500000000004 83.514999400000008 83.895000500000023 91.594997400000011 91.639999400000008 33003.750000000007 158197.80450000003 91.139999400000008 91.125000000000014 95.689998650000021 92.895000500000023 0.020499999650000003 1.0000000180025095e-35 -1.0000000180025095e-35 92.599998500000012
decision_type=2 2 2 2 2 2 2 2 2 2 2 2 2 2 2 2 2 2 2 2 2 2 2 2 2 2 2 2 2 2
left_child=1 2 -1 6 5 -5 -3 -7 -9 10 11 12 -10 -14 20 28 27 -18 -16 -20 21 -12 23 26 25 29 -22 -17 -15 -21
right_child=-2 3 -4 4 -6 7 -8 8 9 -11 14 -13 13 15 18 16 17 -19 19 24 22 -23 -24 -25 -26 -27 -28 -29 -30 -31
leaf_value=0.041600222206291032 -1.1348349690437316 0.032352701477382492 -0.71375631168484688 0.3672612423875502 -0.31748635901345146 0.20734628647565842 0.56133280408435637 -0.18159704933881082 -0.053641047183191404 0.12466063299438074 -0.039596488693496211 0.06720360605201374 0.043793493705812751 -0.046261345108394469 0.024682747673303369 0.028356158470904284 -0.025148188732564448 -0.0011968910152326308 -0.014388715582234519 0.014227479323415296 0.027503577495476099 0.0082231194246560335 -0.0071315818800116483 0.024413973093032837 0.0409299307170191 -0.009856280517475358 0.0050842549681343451 0.00075905294623225929 -0.012130262597929686 0.036961947528955839
leaf_weight=34 20 23 34 28 36 25 21 37 33 21 20 24 21 21 124 44 50 3488 56 212 28 21 106 92 21 29 5768 25 20 24
leaf_count=34 20 23 34 28 36 25 21 37 33 21 20 24 21 21 124 44 50 3488 56 212 28 21 106 92 21 29 5768 25 20 24
internal_value=0 0.00216448 -0.336078 0.00437224 0.00318276 0.00429942 0.28482 0.00331369 0.00281774 0.00348356 0.00323474 -0.00123919 -0.0016829 -0.00121558 0.00579894 -0.00147467 -0.00115484 -0.00153538 0.0144461 0.0107346 0.00513123 -0.0151035 0.00526964 0.0054929 0.0156539 0.0136509 0.00519256 0.0183572 -0.029612 0.0165395
internal_weight=0 10486 68 10418 10374 10338 44 10310 10285 10248 10227 3726 3702 3669 6501 3648 3607 3538 466 342 6035 41 5994 5888 286 265 5796 69 41 236
internal_count=10506 10486 68 10418 10374 10338 44 10310 10285 10248 10227 3726 3702 3669 6501 3648 3607 3538 466 342 6035 41 5994 5888 286 265 5796 69 41 236
is_linear=0
shrinkage=0.5


Tree=9
num_leaves=31
num_cat=0
split_feature=36 15 36 38 16 16 24 16 15 0 5 5 16 15 36 32 5 5 5 32 24 24 5 5 5 5 24 18 38 16
split_gain=39.5838 27.8426 85.1453 20.4867 62.5393 18.8953 7.15729 5.61985 14.4302 3.51907 0.686101 0.277683 0.233742 0.675946 0.221063 0.21704 0.162219 0.0955975 0.0898429 0.0759545 0.0681769 0.0693938 0.174077 0.06398 0.114518 0.126663 0.100697 0.0640944 0.047881 0.0443688
threshold=60.184999450000007 284.00000000000006 21.500000000000004 0.17100000400000001 303.15000000000003 266.02500000000003 2043.6500250000001 280.27500000000003 663.50000000000011 1.0000000180025095e-35 81.689998650000021 82.889999400000008 262.50500000000005 34000.050800000005 41.309999450000007 -13.534999849999998 89.110000600000021 88.965000150000023 88.875000000000014 2.8199999300000003 3068.0000000000005 2257.9000250000004 86.610000600000021 85.864997900000006 85.735000600000021 85.625000000000014 2863.6500250000004 573.50000000000011 0.7438500225000001 229.47500075000002
decision_type=2 2 2 2 2 2 2 2 2 2 2 2 2 2 2 2 2 2 2 2 2 2 2 2 2 2 2 2 2 2
left_child=1 2 -1 4 7 6 -5 -3 9 -9 -8 15 14 -14 -13 -12 17 18 20 -15 21 22 -16 24 25 26 27 -23 -29 -25
right_child=-2 3 -4 5 -6 -7 10 8 -10 -11 11 12 13 19 16 -17 -18 -19 -20 -21 -22 23 -24 29 -26 -27 -28 28 -30 -31
leaf_value=0.089095738286582321 -0.64139632785615197 -0.16076960623264314 -1.1798091363627463 0.26414549415214705 1.0176197084598244 -0.44202674351011711 -0.08125278808176517 0.10084625354714015 0.45983336369196576 -0.17886809301157686 0.08002253454178572 0.052960261805093889 -0.10496582412160933 0.026696482761984781 -0.0033707609808939784 0.0072433878723088471 0.0043469466795820399 -0.0091613985653000198 0.009387784355394814 -0.012787708557002118 -0.028308626566459202 0.018988430482783803 -0.051436868178742851 0.022192138850223274 -0.019591922216041356 0.017002063029142749 0.029547081037890166 -0.029965196875855325 -0.0050929063744256037 0.0010756617732334327
leaf_weight=39 24 25 20 26 20 24 25 22 21 23 20 21 20 21 131 21 3520 265 274 29 21 27 22 25 98 83 22 20 595 5002
leaf_count=39 24 25 20 26 20 24 25 22 21 23 20 21 20 21 131 21 3520 265 274 29 21 27 22 25 98 83 22 20 595 5002
internal_value=0 0.00146857 -0.341042 0.00340736 0.217066 0.00110751 0.00214126 0.0411199 0.117593 -0.0421189 0.00147744 0.00167948 0.00151435 -0.0272791 0.00171339 0.0427454 0.00160689 0.0001422 0.000532303 0.00379565 0.00013098 0.000230106 -0.0102822 0.000504013 -0.00352153 -0.00141324 -0.00371515 -0.00485498 -0.00590176 0.00118068
internal_weight=0 10482 59 10423 111 10312 10288 91 66 45 10262 10237 10196 70 10126 41 10105 6585 6320 50 6046 6025 153 5872 845 747 664 642 615 5027
internal_count=10506 10482 59 10423 111 10312 10288 91 66 45 10262 10237 10196 70 10126 41 10105 6585 6320 50 6046 6025 153 5872 845 747 664 642 615 5027
is_linear=0
shrinkage=0.5


Tree=10
num_leaves=31
num_cat=0
split_feature=16 15 38 36 15 30 0 16 24 16 36 18 24 30 36 30 10 5 24 36 5 5 5 32 5 24 24 15 5 15
split_gain=38.9382 15.2819 58.2019 40.5287 5.1691 4.82635 4.47369 2.41913 1.19651 0.829786 0.528153 0.420763 0.843 0.286684 0.140637 0.121468 0.0952453 0.0659531 0.226864 0.0796061 0.07808 0.0669076 0.13402 0.0481827 0.0525864 0.0364278 0.0306454 0.0306227 0.0294104 0.0610484
threshold=301.77500000000003 2186.0000000000005 0.71999999900000011 26.500000000000004 663.50000000000011 87.159999850000005 1.0000000180025095e-35 264.95000019000003 808.00000000000011 287.52500000000003 59.934999450000007 578.20001200000013 2364.0000000000005 88.154998800000016 48.895000450000005 88.034999850000005 0.010499999840000001 86.610000600000021 2096.3499750000005 42.500000000000007 86.505001050000018 86.639999400000008 86.729999550000016 -43.300001149999993 83.514999400000008 2273.9000250000004 2176.3499750000005 33001.099600000009 89.005001050000018 33998.050800000005
decision_type=2 2 2 2 2 2 2 2 2 2 2 2 2 2 2 2 2 2 2 2 2 2 2 2 2 2 2 2 2 2
left_child=1 3 -3 4 6 -4 9 10 -5 -1 11 12 13 -7 -14 -13 -17 18 -18 -19 23 -21 -23 27 -25 -24 -26 -20 -27 -30
right_child=-2 2 5 8 -6 7 -8 -9 -10 -11 -12 15 14 -15 -16 16 17 19 20 21 -22 22 25 24 26 28 -28 -29 29 -31
leaf_value=0.11163149949163198 -0.49867536949041563 -0.6958396690587203 0.24106162538131079 0.67780432440340521 0.22380945926886939 -0.13022260631551036 -0.18106033741251418 0.17064532614313066 0.50485135130584236 -0.019963599792074248 0.069345021423941944 0.039825159113388506 -0.017067944781193809 -0.045563854789361355 0.031818144189726026 0.026492937212525349 -0.040322123603944326 0.027012420872536799 -0.024787368237688814 0.011368595694452407 -0.029555453220382333 -0.034155847021826995 -0.019668731652754581 0.022143801885519038 0.01566311021645864 0.00033628576832142652 -0.00049668856791642505 -0.0055743928883052038 0.02738257237918636 0.002080718202760486
leaf_weight=25 39 30 21 20 21 20 38 21 20 23 28 20 31 20 28 36 38 30 23 159 24 27 21 27 30 4541 1330 211 24 3580
leaf_count=25 39 30 21 20 21 20 38 21 20 23 28 20 31 20 28 36 38 30 23 159 24 27 21 27 30 4541 1330 211 24 3580
internal_value=0 0.00185806 -0.000422103 0.161935 0.0014143 0.00160535 -0.0528915 0.00111567 0.591328 0.0485755 0.000768271 0.000580389 -0.0318579 -0.0878932 0.00613223 0.000897689 0.000820612 0.000728789 -0.00212757 0.00130231 -0.00124526 0.00120996 0.00101281 -0.000826111 0.000293569 0.00112909 -0.000140222 -0.00746285 0.00118272 0.00224921
internal_weight=0 10467 10320 147 107 10290 86 10269 40 48 10248 10220 99 40 59 10121 10101 10065 1683 8382 1645 8352 8193 1621 1387 8166 1360 234 8145 3604
internal_count=10506 10467 10320 147 107 10290 86 10269 40 48 10248 10220 99 40 59 10121 10101 10065 1683 8382 1645 8352 8193 1621 1387 8166 1360 234 8145 3604
is_linear=0
shrinkage=0.5


Tree=11
num_leaves=31
num_cat=0
split_feature=36 30 36 16 38 36 12 32 36 30 24 16 41 30 5 5 36 24 16 24 5 10 5 5 12 5 15 5 5 15
split_gain=17.5064 9.29082 86.0047 74.9809 15.1975 4.85445 7.14319 1.97804 1.63511 1.20917 0.6681 0.606635 0.547318 0.21009 0.222508 0.292078 0.0979109 0.0743537 0.0438174 0.0395575 0.0244805 0.0232714 0.0222555 0.0359742 0.0307361 0.0340819 0.0401023 0.0263202 0.0195627 0.0146344
threshold=60.184999450000007 64.315000550000022 40.500000000000007 305.65000000000003 0.71999999900000011 27.500000000000004 311.65000000000003 4.9849998950000005 42.500000000000007 87.159999850000005 2193.9000250000004 264.95000019000003 1.0000000180025095e-35 87.810001350000007 82.889999400000008 83.139999400000008 59.934999450000007 3176.0000000000005 228.27500000000001 2124.3499750000005 83.639999400000008 0.010499999840000001 91.255001050000018 91.139999400000008 383.96499850000004 93.125000000000014 38986.69920000001 91.079998000000003 84.145000500000023 34005.150400000006
decision_type=2 2 2 2 2 2 2 2 2 2 2 2 2 2 2 2 2 2 2 2 2 2 2 2 2 2 2 2 2 2
left_child=1 3 -3 5 -4 6 -1 -8 10 -10 -6 13 -9 -11 -15 -16 17 18 -17 -20 29 -22 23 27 25 26 -24 28 -23 -21
right_child=-2 2 4 -5 8 -7 7 12 9 11 -12 -13 -14 14 15 16 -18 -19 19 20 21 22 24 -25 -26 -27 -28 -29 -30 -31
leaf_value=-0.24119438942418331 -0.42654661601409316 -0.98847775135866622 0.39859106118092313 0.95640393508517219 -0.14872053902596236 0.19653838565168175 0.13586446519561665 0.018403074587695301 0.12053081007408244 -0.046472004343134664 -0.029250653894533487 0.085322663373690807 -0.076434541300966816 0.047476641200482846 -0.060115848988061771 -0.020836896961554885 -0.032952522758436811 -0.02928084302471862 0.020417175947222858 -0.0010639357247522899 0.013246468371815152 0.0088038619159145608 0.0050563001211784697 -0.0096038554950306811 -0.012489570528958683 0.022819295395165681 -0.015602732468396425 0.0085915879403450045 0.0002919472297981507 -0.018810327809590559
leaf_weight=36 24 22 24 23 25 23 27 32 21 24 22 21 29 25 20 24 22 21 25 21 36 68 389 90 27 25 25 98 9211 26
leaf_count=36 24 22 24 23 25 23 27 32 21 24 22 21 29 25 20 24 22 21 25 21 36 68 389 90 27 25 25 98 9211 26
internal_value=0 0.000976638 -0.000934658 0.116914 0.00117671 -0.0144352 -0.0535674 0.0231891 0.000247626 0.000675571 -0.0927985 0.000428762 -0.0266837 0.000253585 0.000364037 0.000247744 0.000367181 0.000439859 0.00050187 0.000552874 0.000503292 0.000556965 0.000510975 0.000344926 0.00388433 0.00489138 0.00380877 0.000440414 0.000354326 -0.0108811
internal_weight=0 10482 10312 170 10290 147 124 88 10266 10219 47 10198 61 10177 10153 10128 10108 10086 10065 10041 10016 9969 9933 9467 466 439 414 9377 9279 47
internal_count=10506 10482 10312 170 10290 147 124 88 10266 10219 47 10198 61 10177 10153 10128 10108 10086 10065 10041 10016 9969 9933 9467 466 439 414 9377 9279 47
is_linear=0
shrinkage=0.5


Tree=12
num_leaves=31
num_cat=0
split_feature=16 12 15 36 10 5 38 5 36 15 32 18 36 15 38 16 32 16 30 5 16 31 5 5 5 5 5 5 15 5
split_gain=46.9484 6.86808 31.6797 9.38756 37.4142 7.48682 3.47826 1.67081 0.974076 0.776557 0.739117 0.604633 0.28712 0.260336 0.133747 0.0716474 0.0619501 0.332462 0.297688 0.054467 0.0221257 0.0693397 0.0153058 0.127218 0.0918114 0.113736 0.0674821 0.0664154 0.0530778 0.032536
threshold=305.65000000000003 311.65000000000003 496.00000000000006 40.500000000000007 0.059499999550000009 81.189998650000021 0.73085001100000013 82.564998650000021 59.934999450000007 663.50000000000011 22.724999400000005 400.50000000000006 42.500000000000007 39024.650400000006 0.7438500225000001 227.27500000000001 22.724999400000005 264.38000002000007 93.125000000000014 83.139999400000008 262.50500000000005 139678.10150000002 85.235000600000021 85.344997400000011 84.99499895000001 84.770000450000012 85.005001050000018 85.389999400000008 32971.750000000007 84.609996800000019
decision_type=2 2 2 2 2 2 2 2 2 2 2 2 2 2 2 2 2 2 2 2 2 2 2 2 2 2 2 2 2 2
left_child=1 2 -1 4 9 -5 -7 -8 12 10 11 -3 13 -9 -14 -16 17 19 -18 -17 22 -22 24 -24 25 28 -26 -25 -21 -30
right_child=-2 3 -4 5 -6 6 7 8 -10 -11 -12 -13 14 -15 15 16 18 -19 -20 20 21 -23 23 27 26 -27 -28 -29 29 -31
leaf_value=0.099617227219427243 -0.65847571138982419 0.064723950810730457 -0.66210060123176806 0.24256939761107787 0.74818796203249982 0.17326159017353221 -0.12211707326475464 -0.0050053394678980113 0.093319566837245863 0.095701793953776357 -0.092040478421205829 -0.046677881997311488 -0.030310066633521475 -0.080520913246021203 -0.028282358602155 0.021250986809571906 -0.0063052326496541898 -0.057406343033071607 0.066527120991668201 0.020547678489238025 -0.031035258516732774 0.0074530158424749972 0.02138886336858074 -0.015052738832309842 -0.02607725125659878 0.026191854483581016 -0.0033003300019297222 0.00040640145775602241 -7.3822596430833825e-05 -0.011883236394013936
leaf_weight=39 27 29 21 32 21 29 28 25 28 20 22 21 36 21 22 31 47 25 20 25 22 25 72 70 60 42 71 9291 202 82
leaf_count=39 27 29 21 32 21 29 28 25 28 20 22 21 36 21 22 31 47 25 20 25 22 25 72 70 60 42 71 9291 202 82
internal_value=0 0.00169662 -0.166984 0.002668 0.145999 0.00109645 0.000344346 -0.000145122 0.000189146 0.00854244 -0.0156685 0.0179352 -6.67821e-05 -0.0394798 0.000111962 0.000220322 0.000282499 0.000181155 0.0154358 0.000325224 0.000260107 -0.0105628 0.000311411 0.000451837 -0.00243682 0.00177895 -0.0137325 0.000290801 -0.00153931 -0.00348358
internal_weight=0 10479 60 10419 113 10306 10274 10245 10217 92 72 50 10189 46 10143 10107 10085 10018 67 9993 9962 47 9915 9433 482 351 131 9361 309 284
internal_count=10506 10479 60 10419 113 10306 10274 10245 10217 92 72 50 10189 46 10143 10107 10085 10018 67 9993 9962 47 9915 9433 482 351 131 9361 309 284
is_linear=0
shrinkage=0.5


Tree=13
num_leaves=31
num_cat=0
split_feature=16 15 30 36 16 15 36 16 18 15 19 36 16 38 18 18 16 32 12 18 16 24 24 5 24 15 30 5 32 5
split_gain=11.9923 5.50622 57.6225 23.0928 3.2209 2.82154 2.53665 2.07573 1.56097 1.42575 0.909191 0.678702 0.602579 0.322814 0.688385 0.152036 0.12734 0.021367 0.0203859 0.115864 0.0717251 0.0195086 0.0149324 0.0156799 0.0117402 0.0140486 0.0102118 0.0675261 0.0651307 0.0193908
threshold=321.02500000000003 2186.0000000000005 87.159999850000005 34.500000000000007 266.02500000000003 663.50000000000011 42.500000000000007 300.77500000000003 625.0499880000001 496.00000000000006 1.0000000180025095e-35 59.934999450000007 283.15000000000003 0.74015000500000017 589.20001200000013 570.95001200000013 264.38000002000007 23.260000250000001 353.40000000000003 591.0499880000001 228.77500000000001 3176.0000000000005 2124.3499750000005 83.264999400000008 2224.3499750000005 38997.400400000006 95.314998650000021 92.810001350000007 2.8199999300000003 92.154998800000016
decision_type=2 2 2 2 2 2 2 2 2 2 2 2 2 2 2 2 2 2 2 2 2 2 2 2 2 2 2 2 2 2
left_child=1 3 -3 5 6 7 8 9 -4 10 -1 13 -12 14 -8 -15 17 18 19 -17 -20 22 -22 -24 25 -25 27 29 -28 -26
right_child=-2 2 4 -5 -6 -7 11 -9 -10 -11 12 -13 -14 15 -16 16 -18 -19 20 -21 21 -23 23 24 26 -27 28 -29 -30 -31
leaf_value=-0.11502090226858855 -0.38680545091629026 -0.75889053955674168 0.17067145962002023 0.58111352908114589 0.19674243256823892 0.15960161977222767 -0.099208337757736451 -0.16130412677302958 0.017881026131362887 0.10399428709980942 -0.038646836689440536 0.076471663304957846 0.077792139696248347 0.033956221361277683 0.015934151146750623 -0.034634579060366377 -0.038035878488285976 -0.010162566062610815 0.022775183471718006 0.0015284067037941466 0.012337244171649218 -0.015122877838577898 -0.011311552650295199 -0.0016780369772518777 0.00022127807099119536 -0.017135114409029484 0.01084437292534858 0.029242868430446833 -0.025621388573199511 -0.0080149789403852392
leaf_weight=20 20 25 35 21 21 29 25 20 32 31 25 29 20 33 27 28 22 51 35 106 25 21 30 49 9564 21 25 20 24 72
leaf_count=20 20 25 35 21 21 29 25 20 32 31 25 29 20 33 27 28 22 51 35 106 25 21 30 49 9564 21 25 20 24 72
internal_value=0 0.000737756 -0.000715379 0.0910773 0.00112575 0.0201065 0.000725906 -0.0147673 0.0976969 0.0157612 -0.0263192 8.93762e-05 0.0131038 -0.000128259 -0.0394228 7.35306e-05 -3.7252e-05 4.57556e-05 9.77141e-05 -0.00602804 0.000180746 0.000100469 0.000132991 0.000101874 0.000136902 -0.00631516 0.000183439 0.000219975 -0.00701641 0.000159737
internal_weight=0 10486 10320 166 10295 145 10274 116 67 96 65 10207 45 10178 52 10126 10093 10071 10020 134 9886 9851 9830 9805 9775 70 9705 9656 49 9636
internal_count=10506 10486 10320 166 10295 145 10274 116 67 96 65 10207 45 10178 52 10126 10093 10071 10020 134 9886 9851 9830 9805 9775 70 9705 9656 49 9636
is_linear=0
shrinkage=0.5


Tree=14
num_leaves=31
num_cat=0
split_feature=36 12 16 16 30 27 15 36 36 38 24 36 12 36 38 5 12 5 16 16 32 10 5 5 5 5 24 31 15 30
split_gain=11.2361 13.5267 17.8661 5.45384 10.4716 3.19642 7.48596 3.37272 6.94882 1.23595 0.964192 0.900707 0.741068 0.20236 0.169117 0.140224 0.036105 0.277 0.136018 0.0194159 0.0740683 0.0435301 0.0245772 0.0309786 0.0360251 0.0485114 0.0172209 0.0150917 0.0139729 0.0194904
threshold=60.184999450000007 273.65000000000003 305.65000000000003 228.27500000000001 87.159999850000005 1.0000000180025095e-35 284.00000000000006 40.500000000000007 31.500000000000004 0.71999999900000011 2068.0000000000005 59.934999450000007 344.65000000000003 42.500000000000007 0.73749998250000004 82.889999400000008 385.02500000000003 89.875000000000014 263.77500000000003 260.47499980000003 -22.439999599999997 0.28049999450000002 92.895000500000023 91.694999700000025 91.594997400000011 91.479999550000016 3103.6500250000004 140291.25000000003 36008.650400000006 94.49499895000001
decision_type=2 2 2 2 2 2 2 2 2 2 2 2 2 2 2 2 2 2 2 2 2 2 2 2 2 2 2 2 2 2
left_child=1 -1 3 4 -3 7 -7 8 12 -9 -11 13 -5 -12 -15 -16 18 -18 19 22 -21 -22 23 24 25 26 -17 -19 -25 -30
right_child=-2 2 -4 5 -6 6 -8 9 -10 10 11 -13 -14 14 15 16 17 27 -20 20 21 -23 -24 28 -26 -27 -28 -29 29 -31
leaf_value=0.31564492543282752 -0.34172337595373392 0.43551981378169285 -0.46096341950552805 0.053502332764647657 -0.0087562853910235893 0.10526605586831768 -0.25142495174843232 0.11550990775551485 0.32798056288932759 -0.11020259582437575 -0.038602093864670568 -0.10137187791141597 -0.06648756648329171 -0.039482206416626774 0.036126807993881543 -3.2893242599614387e-05 0.061263494292506951 -0.0012268284438257317 -0.029505677354068328 -0.016570208471497001 0.035336717123027481 0.0075726258595144218 -0.014043600358549626 -0.0012587851874451053 -0.01282969799570062 0.014947505115910812 -0.0094305341572180623 -0.018633076790138148 0.0021034987661271141 0.013605142262189047
leaf_weight=34 24 21 21 31 36 24 38 23 24 20 34 22 22 27 27 9488 20 33 39 24 20 48 31 47 55 54 49 20 65 85
leaf_count=34 24 21 21 31 36 24 38 23 24 20 34 22 22 27 27 9488 20 33 39 24 20 48 31 47 55 54 49 20 65 85
internal_value=0 0.000782423 -0.000242206 0.000685688 0.154924 -0.000162105 -0.113351 0.000518698 0.104771 -0.000265921 -0.00052678 -0.000311476 0.0036952 -9.27735e-05 3.64524e-05 0.000142044 4.56372e-05 0.011125 -3.52015e-05 8.01254e-05 0.00731017 0.0157385 1.27602e-05 5.703e-05 -6.97341e-05 3.43843e-06 -8.11772e-05 -0.00779522 0.00626397 0.0086211
internal_weight=0 10482 10448 10427 57 10370 62 10308 77 10231 10208 10188 53 10166 10132 10105 10078 73 10005 9966 92 68 9874 9843 9646 9591 9537 53 197 150
internal_count=10506 10482 10448 10427 57 10370 62 10308 77 10231 10208 10188 53 10166 10132 10105 10078 73 10005 9966 92 68 9874 9843 9646 9591 9537 53 197 150
is_linear=0
shrinkage=0.5


Tree=15
num_leaves=31
num_cat=0
split_feature=18 24 15 16 24 31 5 12 36 36 5 24 38 38 16 36 30 5 38 38 31 24 12 5 16 41 16 15 24 18
split_gain=5.60284 45.2438 49.7905 33.3865 9.6468 3.42541 3.24674 1.62921 1.22491 0.740906 0.892593 0.854514 0.867135 0.823684 0.0406856 0.0274095 0.0311879 0.0412583 0.0810265 0.0208885 0.0320121 0.0211225 0.0196235 0.0172875 0.0195446 0.0638748 0.0199078 0.017361 0.0265567 0.0246944
threshold=475.00000000000006 856.00000000000011 663.50000000000011 298.52500000000003 1968.3499750000003 124846.8515 18.254999200000004 311.65000000000003 59.934999450000007 41.309999450000007 81.189998650000021 3146.4499500000006 0.73749998250000004 0.77390000200000009 264.02500000000003 42.500000000000007 87.934997600000017 83.264999400000008 0.76289999450000012 0.75244998900000015 35271.500000000007 2526.0999750000005 385.02500000000003 93.164997100000008 261.00500000000005 1.0000000180025095e-35 260.47499980000003 32996.849600000009 2863.6500250000004 597.2999880000001
decision_type=2 2 2 2 2 2 2 2 2 2 2 2 2 2 2 2 2 2 2 2 2 2 2 2 2 2 2 2 2 2
left_child=1 2 3 5 6 7 -2 -1 9 -6 -11 12 -12 -13 15 -14 -17 18 -18 20 -19 -22 23 24 26 -26 27 28 29 -21
right_child=4 -3 -4 -5 8 -7 -8 -9 -10 10 11 13 14 -15 -16 16 17 19 -20 22 21 -23 -24 -25 25 -27 -28 -29 -30 -31
leaf_value=-0.13523597278348778 0.10796435994350097 -0.69523247102132213 -0.56544583504674606 0.72846737706466858 -0.068691649080182493 0.20306109893135726 0.38631476722657682 0.047450525471224234 0.098069994943216443 0.10333254210473526 -0.093165789823979134 0.144523525564 0.014856476727272234 0.0083879496133886285 0.017596602058884771 0.014078120918920597 -0.03047160920499253 -0.0015670104877143684 0.0092045234897258615 -0.014426422011595042 0.028839468750880941 0.006413663393773493 -0.0086754418276320921 0.01466015245532617 0.0047003936881083062 -0.02582022387844821 0.015382961835712194 -0.00010262608235617315 0.01538337619074256 0.005888696708447801
leaf_weight=23 22 26 27 23 39 21 20 26 32 21 25 20 31 25 33 39 31 45 22 21 21 21 66 20 40 30 21 9617 46 52
leaf_count=23 22 26 27 23 39 21 20 26 32 21 25 20 31 25 33 39 31 45 22 21 21 21 66 20 40 30 21 9617 46 52
internal_value=0 -0.0972655 0.032294 0.205831 0.00137073 0.0341081 0.240512 -0.0383003 0.000397291 9.34291e-05 0.000355225 0.000143751 -0.000160119 0.0688927 6.88241e-05 1.16853e-05 -3.39141e-05 -8.86608e-05 -0.0140023 -1.49187e-05 0.00769885 0.0176266 -8.26175e-05 -2.50237e-05 -5.49111e-05 -0.00837987 4.81499e-06 -2.83548e-05 0.00597389 4.46215e-05
internal_weight=0 146 120 93 10360 70 42 49 10318 10286 10247 10226 10181 45 10156 10123 10092 10053 53 10000 87 42 9913 9847 9827 70 9757 9736 119 73
internal_count=10506 146 120 93 10360 70 42 49 10318 10286 10247 10226 10181 45 10156 10123 10092 10053 53 10000 87 42 9913 9847 9827 70 9757 9736 119 73
is_linear=0
shrinkage=0.5


Tree=16
num_leaves=31
num_cat=0
split_feature=12 16 16 32 15 18 30 24 5 5 38 36 24 24 15 16 16 31 5 18 5 32 15 36 30 15 16 5 5 32
split_gain=6.43709 76.0505 38.0318 25.1368 6.13597 2.48741 3.70014 1.8624 0.78225 0.556262 0.731646 0.143334 0.0547265 0.0905538 0.0406216 0.271385 0.257903 0.0426897 0.0229088 0.0204 0.0189661 0.0308275 0.0160139 0.0475015 0.0161337 0.189066 0.0515621 0.0149463 0.0137262 0.0306846
threshold=333.15000000000003 301.77500000000003 300.77500000000003 -1.0000000180025095e-35 496.00000000000006 364.50000000000006 52.190000550000008 1968.3499750000003 81.189998650000021 82.24499895000001 0.73749998250000004 59.934999450000007 2068.0000000000005 2096.3499750000005 33002.099600000009 264.38000002000007 255.42000045 162791.85150000002 83.139999400000008 591.0499880000001 84.99499895000001 -11.785000349999999 39987.69920000001 42.500000000000007 88.419998200000023 36003.050800000005 230.42000045 87.875000000000014 92.895000500000023 0.46999999850000007
decision_type=2 2 2 2 2 2 2 2 2 2 2 2 2 2 2 2 2 2 2 2 2 2 2 2 2 2 2 2 2 2
left_child=2 5 3 -1 -5 -2 -7 -8 -9 -10 -11 12 -12 -14 16 18 17 19 -16 -15 21 -21 23 -20 25 26 -25 -22 -26 -30
right_child=1 -3 -4 4 -6 6 7 8 9 10 11 -13 13 14 15 -17 -18 -19 22 20 27 -23 -24 24 28 -27 -28 -29 29 -31
leaf_value=-0.5134551133727655 0.14208928987218608 -0.97527274060994384 0.74281392954289915 -0.034487871203704605 0.28841930922240983 -0.20007863252059274 0.13434218543653303 0.09453576840645507 -0.081141185858065179 0.082517746491012747 -0.021685703432765501 0.035826839772718291 0.0301209106342867 -0.012192864699594292 0.012794925112809453 0.052186282775364815 -0.060687368595972659 -0.023863438612897879 0.022707787721984736 -0.0014749056578654311 -0.0024493965638744094 0.0250217863025942 -0.012919589947462859 0.028773689056054406 5.5389270520388148e-05 -0.044006728276144713 -0.0033146057638429828 0.011868748763975288 0.0050225336814210524 -0.021412710821175057
leaf_weight=20 31 20 20 28 31 23 26 22 21 27 29 28 25 29 35 25 20 20 23 23 138 21 24 21 9656 24 31 21 21 23
leaf_count=20 31 20 20 28 31 23 26 22 21 27 29 28 25 29 35 25 20 20 23 23 138 21 24 21 9656 24 31 21 21 23
internal_value=0 -0.00120712 0.126894 -0.029035 0.135175 0.000668426 0.000245092 0.000690988 0.000353845 0.000152387 0.000318712 0.000101913 3.93095e-06 6.57187e-05 -8.2724e-06 0.000157628 -0.0060362 -0.00169881 2.56831e-05 0.000211934 0.00198405 0.0111712 -1.98145e-05 1.178e-05 -4.16169e-05 -0.00729825 0.00964413 -0.000558321 1.52391e-05 -0.00879589
internal_weight=0 10407 99 79 59 10387 10356 10333 10307 10285 10264 10237 10209 10180 10155 9883 272 252 9858 232 203 44 9823 9799 9776 76 52 159 9700 44
internal_count=10506 10407 99 79 59 10387 10356 10333 10307 10285 10264 10237 10209 10180 10155 9883 272 252 9858 232 203 44 9823 9799 9776 76 52 159 9700 44
is_linear=0
shrinkage=0.5


Tree=17
num_leaves=31
num_cat=0
split_feature=36 16 27 16 24 15 24 16 15 36 5 15 30 16 15 5 24 24 10 5 12 18 9 16 10 30 5 5 5 5
split_gain=6.11293 42.8461 15.0538 15.0429 8.4471 6.34672 4.09423 2.15259 1.1282 0.287789 0.602102 0.692689 0.0967968 0.0740485 0.0706271 0.0261818 0.110836 0.0537408 0.027 0.0166929 0.0158335 0.0151252 0.0143467 0.0585532 0.0182659 0.0128958 0.0174662 0.0228485 0.0164981 0.0339979
threshold=26.500000000000004 285.77500000000003 1.0000000180025095e-35 305.65000000000003 1968.3499750000003 663.50000000000011 808.00000000000011 296.65000000000003 284.00000000000006 59.934999450000007 81.689998650000021 28511.849600000005 87.934997600000017 264.52500000000003 40983.300800000005 84.270000450000012 2124.3499750000005 2124.3499750000005 0.25949999650000005 83.775001550000013 363.93499985 592.0499880000001 1.0000000180025095e-35 254.67000045 0.049499999700000005 88.419998200000023 84.609996800000019 84.639999400000008 84.99499895000001 85.005001050000018
decision_type=2 2 2 2 2 2 2 2 2 2 2 2 2 2 2 2 2 2 2 2 2 2 2 2 2 2 2 2 2 2
left_child=3 2 4 5 -2 6 7 8 -1 10 -6 -12 -13 14 15 16 -14 -17 19 -18 21 -20 25 24 -24 -19 -27 -28 -29 -30
right_child=1 -3 -4 -5 9 -7 -8 -9 -10 -11 11 12 13 -15 -16 17 18 22 20 -21 -22 -23 23 -25 -26 26 27 28 29 -31
leaf_value=-0.11739762183278799 0.31038300257006829 -0.71486690392096841 -0.43331796433776615 0.50538321882486348 -0.073130826266216378 0.27263397091756697 0.11652371681162289 -0.23249018415808678 0.048534809855655545 0.049969068888960216 0.086963599345282375 0.025622668226148834 -0.03610892355656968 -0.029657753184437752 0.029746825713664292 0.023750391866390903 0.01400390239980291 -0.0099081389948189481 -0.019052635560828177 -0.00054032265882384268 0.0012873635342758563 -0.0025559846108080819 0.016049771872349083 0.028979642293138784 0.00032237758108143074 0.0090446325243046539 -0.013834280396501223 0.0072280480257736947 -0.011839551228045135 2.7979142401676481e-06
leaf_weight=20 22 21 20 20 28 23 35 20 21 29 23 37 26 21 20 24 34 33 33 47 36 24 20 21 240 53 30 78 61 9386
leaf_count=20 22 21 20 20 28 23 35 20 21 29 23 37 26 21 20 24 34 33 33 47 36 24 20 21 240 53 30 78 61 9386
internal_value=0 -0.00139655 5.16291e-05 0.104159 0.000891005 0.0367259 -0.0197937 -0.0980086 -0.0324078 0.00023021 8.98282e-05 0.000289904 9.49223e-05 2.20345e-06 6.34723e-05 4.95987e-06 -0.00565915 0.000118857 -0.00110918 0.00556466 -0.00692189 -0.0121067 6.16956e-05 0.00358341 0.00153218 -4.09496e-05 -7.05938e-06 -5.72676e-05 -1.38754e-05 -7.3669e-05
internal_weight=0 10367 10346 139 10326 119 96 61 41 10304 10275 10247 10224 10187 10166 10146 200 9946 174 81 93 57 9922 281 260 9641 9608 9555 9525 9447
internal_count=10506 10367 10346 139 10326 119 96 61 41 10304 10275 10247 10224 10187 10166 10146 200 9946 174 81 93 57 9922 281 260 9641 9608 9555 9525 9447
is_linear=0
shrinkage=0.5


Tree=18
num_leaves=31
num_cat=0
split_feature=30 16 30 15 36 1 5 12 5 24 24 32 38 15 36 10 16 24 16 24 12 5 10 24 18 1 16 15 24 30
split_gain=7.02313 64.3503 48.7006 22.0981 15.7159 5.32813 3.93597 3.38873 3.19545 0.783217 0.133294 0.774937 0.0799614 0.0739753 0.770225 0.402028 0.0684787 0.353388 0.0683076 0.0613782 0.0594955 0.044688 0.0155352 0.0105698 0.063983 0.0357454 0.0106374 0.00710953 0.0475683 0.0400644
threshold=64.315000550000022 266.02500000000003 56.440000550000008 663.50000000000011 28.500000000000004 1.0000000180025095e-35 15.815000050000002 342.65000000000003 81.189998650000021 2043.6500250000001 2124.3499750000005 -4.8500001399999997 0.73749998250000004 32996.849600000009 59.934999450000007 0.64949998250000018 263.77500000000003 2888.0000000000005 247.37999955000001 2847.6500250000004 368.05999985 83.139999400000008 0.31750001050000004 2224.3499750000005 631.0499880000001 1.0000000180025095e-35 228.27500000000001 38025.250000000007 2748.0000000000005 95.439998650000021
decision_type=2 2 2 2 2 2 2 2 2 2 2 2 2 2 2 2 2 2 2 2 2 2 2 2 2 2 2 2 2 2
left_child=2 8 3 4 5 6 -1 -7 -2 -10 11 -11 -12 15 16 18 21 -18 19 -14 -20 -15 -22 24 25 -23 -25 29 -29 -28
right_child=1 -3 -4 -5 -6 7 -8 -9 9 10 12 -13 13 14 -16 -17 17 -19 20 -21 22 23 -24 26 -26 -27 27 28 -30 -31
leaf_value=0.3045394467189908 0.19500836267668223 -0.81951585490605794 0.76100574670514709 -0.35394477897456716 0.46872918372568878 -0.21947501161722122 0.014122244768909045 0.024690050655044614 -0.092395915042447013 -0.026218293868998231 -0.028406411707401276 0.088452451468373716 0.0012803018748615471 0.017621900391532108 -0.08972625372310479 0.076907493769249408 -0.068004830647259956 0.024862485388959094 -0.030365133718789919 0.034465889097191393 0.0072764615573349496 -0.010382304271139486 -0.010597372689517215 -0.0098902504444898422 -0.030256593410740606 0.013854254246338016 1.2416639138028897e-05 0.00080825165063325047 0.024695065721805968 -0.019642231520265341
leaf_weight=20 21 24 24 35 23 27 28 30 23 34 25 26 38 36 24 20 20 21 23 22 31 29 20 27 20 32 9359 396 22 26
leaf_count=20 21 24 24 35 23 27 28 30 23 34 25 26 38 36 24 20 20 21 23 22 31 29 20 27 20 32 9359 396 22 26
internal_value=0 -0.00174028 0.0960317 -0.00187858 0.0943895 0.0123913 0.135129 -0.0909671 0.000166144 -0.000232113 -2.53263e-05 0.0234724 -0.00016367 -9.42161e-05 -0.000261494 0.010781 -4.65205e-05 -0.0204386 0.000911387 0.0134484 -0.00925372 3.75327e-05 0.000267115 -2.63395e-05 -0.0057146 0.00233196 2.05322e-05 4.78291e-05 0.00206545 -4.20342e-05
internal_weight=0 10319 187 163 128 105 48 57 10295 10274 10251 60 10191 10166 10012 154 9988 41 134 60 74 9947 51 9911 81 61 9830 9803 418 9385
internal_count=10506 10319 187 163 128 105 48 57 10295 10274 10251 60 10191 10166 10012 154 9988 41 134 60 74 9947 51 9911 81 61 9830 9803 418 9385
is_linear=0
shrinkage=0.5


end of trees

feature_importances:
Column_5=227
Column_16=64
Column_24=46
Column_36=44
Column_15=41
Column_30=31
Column_38=23
Column_32=21
Column_18=19
Column_12=16
Column_10=15
Column_31=6
Column_27=5
Column_0=3
Column_1=2
Column_39=2
Column_41=2
Column_9=1
Column_19=1
Column_20=1

parameters:
[boosting: gbdt]
[objective: regression]
[metric: rmse,l2]
[tree_learner: serial]
[device_type: cpu]
[data: ]
[valid: ]
[num_iterations: 20]
[learning_rate: 0.5]
[num_leaves: 31]
[num_threads: -1]
[deterministic: 0]
[force_col_wise: 0]
[force_row_wise: 0]
[histogram_pool_size: -1]
[max_depth: 20]
[min_data_in_leaf: 20]
[min_sum_hessian_in_leaf: 0.001]
[bagging_fraction: 1]
[pos_bagging_fraction: 1]
[neg_bagging_fraction: 1]
[bagging_freq: 0]
[bagging_seed: 3]
[feature_fraction: 1]
[feature_fraction_bynode: 1]
[feature_fraction_seed: 2]
[extra_trees: 0]
[extra_seed: 6]
[early_stopping_round: 1000]
[first_metric_only: 0]
[max_delta_step: 0]
[lambda_l1: 0]
[lambda_l2: 0]
[linear_lambda: 0]
[min_gain_to_split: 0]
[drop_rate: 0.1]
[max_drop: 50]
[skip_drop: 0.5]
[xgboost_dart_mode: 0]
[uniform_drop: 0]
[drop_seed: 4]
[top_rate: 0.2]
[other_rate: 0.1]
[min_data_per_group: 100]
[max_cat_threshold: 32]
[cat_l2: 10]
[cat_smooth: 10]
[max_cat_to_onehot: 4]
[top_k: 20]
[monotone_constraints: ]
[monotone_constraints_method: basic]
[monotone_penalty: 0]
[feature_contri: ]
[forcedsplits_filename: ]
[refit_decay_rate: 0.9]
[cegb_tradeoff: 1]
[cegb_penalty_split: 0]
[cegb_penalty_feature_lazy: ]
[cegb_penalty_feature_coupled: ]
[path_smooth: 0]
[interaction_constraints: ]
[verbosity: -1]
[saved_feature_importance_type: 0]
[linear_tree: 0]
[max_bin: 255]
[max_bin_by_feature: ]
[min_data_in_bin: 3]
[bin_construct_sample_cnt: 200000]
[data_random_seed: 1]
[is_enable_sparse: 1]
[enable_bundle: 1]
[use_missing: 1]
[zero_as_missing: 0]
[feature_pre_filter: 1]
[pre_partition: 0]
[two_round: 0]
[header: 0]
[label_column: ]
[weight_column: ]
[group_column: ]
[ignore_column: ]
[categorical_feature: ]
[forcedbins_filename: ]
[precise_float_parser: 0]
[objective_seed: 5]
[num_class: 1]
[is_unbalance: 0]
[scale_pos_weight: 1]
[sigmoid: 1]
[boost_from_average: 1]
[reg_sqrt: 0]
[alpha: 0.9]
[fair_c: 1]
[poisson_max_delta_step: 0.7]
[tweedie_variance_power: 1.5]
[lambdarank_truncation_level: 30]
[lambdarank_norm: 1]
[label_gain: ]
[eval_at: ]
[multi_error_top_k: 1]
[auc_mu_weights: ]
[num_machines: 1]
[local_listen_port: 12400]
[time_out: 120]
[machine_list_filename: ]
[machines: ]
[gpu_platform_id: -1]
[gpu_device_id: -1]
[gpu_use_dp: 0]
[num_gpu: 1]

end of parameters

pandas_categorical:null
