tree
version=v3
num_class=1
num_tree_per_iteration=1
label_index=0
max_feature_idx=41
objective=regression
feature_names=Column_0 Column_1 Column_2 Column_3 Column_4 Column_5 Column_6 Column_7 Column_8 Column_9 Column_10 Column_11 Column_12 Column_13 Column_14 Column_15 Column_16 Column_17 Column_18 Column_19 Column_20 Column_21 Column_22 Column_23 Column_24 Column_25 Column_26 Column_27 Column_28 Column_29 Column_30 Column_31 Column_32 Column_33 Column_34 Column_35 Column_36 Column_37 Column_38 Column_39 Column_40 Column_41
feature_infos=[0:1] [0:1] [0:1] [0:1] [0:1] [0:94.629997299999999] [0:1] [0:1] none [0:1] [0:1.8550000200000001] [0:1] [273.14999999999998:1041.1500000000001] none none [-473:41051] [223.64999999999998:372.14999999999998] [0:1] [0:768] [0:1] [0:1] [0:1] none none [0:12288] [0:1] [0:1] [0:1] [0:1] [0:1] [0:127.129997] [0:163800] [-64:96.75] [0:1] none none [0:1016] [0:1] [0:0.99900001299999996] [0:1] [0:1] [0:1]
tree_sizes=2757 2763 2771 2796 2800 2801 2808 2786 2789 2790 2833 2808 2837 2865 2883 2827 2821 2809 2821 2851

Tree=0
num_leaves=31
num_cat=0
split_feature=5 36 30 36 36 36 30 30 36 30 30 36 36 30 36 12 36 30 30 30 36 36 36 36 30 30 12 36 36 36
split_gain=34913.8 34724.5 12616.9 9021.11 8136.46 6844.22 2098.48 2066.68 1594.89 1189.05 1162.29 1154.36 886.524 709.687 684.174 631.672 436.421 388.118 370.247 364.965 325.549 286.773 269.57 251.915 225.304 214.335 204.624 191.842 166.936 159.464
threshold=24.754999200000004 50.699998850000007 91.404998800000016 54.434999450000007 47.824998850000007 47.260000250000012 91.654998800000016 92.935001350000007 45.014999400000008 90.314998650000021 92.935001350000007 45.250000000000007 48.519998550000004 90.255001050000018 48.670000050000006 365.05999985000005 48.48000145000001 89.465000150000023 93.255001050000018 90.404998800000016 48.519998550000004 43.370000850000004 46.309999500000011 49.889999350000004 92.74499895000001 94.284999850000005 375.08999850000004 43.370000850000004 49.530000700000009 51.954999900000011
decision_type=2 2 2 2 2 2 2 2 2 2 2 2 2 2 2 2 2 2 2 2 2 2 2 2 2 2 2 2 2 2
left_child=-1 2 5 6 8 11 19 12 24 20 22 17 -6 -13 -9 -5 -11 -2 29 -3 -7 -19 -10 -14 27 28 -17 -4 -16 -8
right_child=1 3 4 15 7 9 18 14 10 16 -12 13 23 -15 25 26 -18 21 -20 -21 -22 -23 -24 -25 -26 -27 -28 -29 -30 -31
leaf_value=-6.7525601701854576 -13.835559561414323 -10.66100299927292 -16.771417392522448 -7.7466044069193378 -13.997986600007021 -12.4560261558265 -12.628586770784747 -14.838208842027415 -14.991982877516071 -13.262428234489274 -15.538358462345492 -13.16200688571951 -13.514555185450185 -13.990373978854246 -14.217992785442235 -9.0467831920428026 -12.592635805462063 -16.048258024675153 -13.206851472528134 -11.581980531211038 -11.770707310193416 -14.735310063634028 -14.484885994951398 -13.018617964669266 -16.461629817368532 -14.627287522430892 -9.9170119430692445 -15.574703773160264 -13.740754268713626 -11.927711632006794
leaf_weight=188 107 171 39 71 888 283 216 568 420 422 600 398 666 738 459 158 574 49 210 290 447 275 697 416 181 185 118 237 305 130
leaf_count=188 107 171 39 71 888 283 216 568 420 422 600 398 666 738 459 158 574 49 210 290 447 275 697 416 181 185 118 237 305 130
internal_value=-13.5051 -13.6282 -13.9862 -11.278 -14.4388 -13.208 -12.0291 -13.9655 -15.198 -12.5211 -14.9771 -13.9645 -13.6277 -13.7002 -14.4042 -9.07668 -12.8764 -14.6612 -12.6831 -11.2404 -12.0364 -14.9339 -14.6756 -13.3239 -16.0281 -14.1444 -9.41884 -15.7438 -14.0275 -12.3653
internal_weight=0 10318 8954 1364 5661 3293 1017 3487 2174 1726 1717 1567 1970 1136 1517 347 996 431 556 461 730 324 1117 1082 457 949 276 276 764 346
internal_count=10506 10318 8954 1364 5661 3293 1017 3487 2174 1726 1717 1567 1970 1136 1517 347 996 431 556 461 730 324 1117 1082 457 949 276 276 764 346
is_linear=0
shrinkage=1


Tree=1
num_leaves=31
num_cat=0
split_feature=36 30 12 36 30 36 36 30 36 30 36 30 36 36 36 30 30 30 30 30 30 36 30 30 36 36 36 11 30 30
split_gain=9382.69 8795.87 4080.54 2076.19 1211.6 1096.71 836.922 826.226 570.135 568.117 407.9 380.649 345.237 292.41 276.389 273.852 266.538 209.434 205.541 156.41 152.186 149.37 135.988 122.086 115.284 109.411 84.0389 82.3325 82.3323 77.5328
threshold=51.954999900000011 86.000000000000014 366.43499985 46.309999500000011 92.435001350000007 56.750000000000007 46.139999350000004 90.99499895000001 48.670000050000006 92.215000150000023 48.895000450000005 91.24499895000001 49.264999350000004 49.889999350000004 44.500000000000007 94.125000000000014 91.74499895000001 89.154998800000016 91.005001050000018 93.784999850000005 90.715000150000023 52.184999450000007 93.625000000000014 90.875000000000014 44.750000000000007 49.530000700000009 49.389999350000004 1.0000000180025095e-35 92.005001050000018 92.375000000000014
decision_type=2 2 2 2 2 2 2 2 2 2 2 2 2 2 2 2 2 2 2 2 2 2 2 2 2 2 2 2 2 2
left_child=1 -1 6 9 10 11 20 12 15 14 18 -2 17 28 27 -6 -7 -8 -5 26 -3 -13 24 -16 -11 -12 -10 -4 -9 -15
right_child=5 2 3 4 8 16 7 13 19 22 25 21 -14 29 23 -17 -18 -19 -20 -21 -22 -23 -24 -25 -26 -27 -28 -29 -30 -31
leaf_value=3.3793258428573609 1.8231807901055774 -0.16267100968906859 -1.0833210007978133 0.1785578689610513 -0.59003350336217519 3.02888558276238 0.98089776070494406 0.0099992678805050743 -0.26924007715456988 -1.6664711765096158 0.14409967622683773 0.58865228755968413 1.064420585644275 0.52972826981766619 -0.24701296239488038 -1.1299694137067984 2.0288290629784265 0.39459927963071095 -0.24105643660320852 -0.49031087489717678 -0.84048900852991837 1.2646699217613786 -1.6221656761868462 -0.66888246173952137 -1.0009412510285209 0.51989269406512018 0.036701360844727145 -2.0188062457101688 -0.36070429217974154 0.06840416611590254
leaf_weight=175 181 238 147 385 1056 124 190 407 502 79 473 167 399 322 247 302 144 768 1206 460 127 160 191 561 369 328 406 28 237 127
leaf_count=175 181 238 147 385 1056 124 190 407 502 79 473 167 399 322 247 302 144 768 1206 460 127 160 191 561 369 328 406 28 237 127
internal_value=0 -0.133441 -0.197777 -0.408943 -0.252718 1.67317 0.307819 0.413049 -0.480604 -0.901888 0.00698774 1.24143 0.673638 0.0895175 -0.663306 -0.710108 2.49154 0.51088 -0.139516 -0.252778 -0.398515 0.919425 -1.26891 -0.53992 -1.1183 0.297982 -0.132442 -1.233 -0.126424 0.399242
internal_weight=0 9730 9555 6740 5118 776 2815 2450 2726 1622 2392 508 1357 1093 983 1358 268 958 1591 1368 365 327 639 808 448 801 908 175 644 449
internal_count=10506 9730 9555 6740 5118 776 2815 2450 2726 1622 2392 508 1357 1093 983 1358 268 958 1591 1368 365 327 639 808 448 801 908 175 644 449
is_linear=0
shrinkage=0.5


Tree=2
num_leaves=31
num_cat=0
split_feature=36 15 36 30 30 30 36 36 36 30 30 36 30 36 30 36 36 30 30 30 36 30 36 30 15 30 30 30 30 36
split_gain=2395.15 2228.64 1382.58 1006.44 496.572 250.873 236.434 200.371 160.124 159.97 158.483 138.183 130.954 106.382 93.7136 83.1189 56.3412 48.1506 45.8408 39.6379 35.5759 34.8568 36.9347 32.8636 30.6043 30.0198 29.6614 26.687 24.7672 23.5137
threshold=52.184999450000007 2186.0000000000005 47.260000250000012 91.965000150000023 91.904998800000016 89.654998800000016 58.065000550000008 41.309999450000007 49.389999350000004 89.909999850000005 93.625000000000014 49.889999350000004 91.99499895000001 44.500000000000007 94.409999850000005 45.675001150000007 49.625000000000007 94.875000000000014 87.689998650000021 90.715000150000023 44.750000000000007 94.99499895000001 50.170000050000006 90.755001050000018 34978.349600000009 88.909999850000005 90.904998800000016 92.99499895000001 92.845001200000013 46.769998550000004
decision_type=2 2 2 2 2 2 2 2 2 2 2 2 2 2 2 2 2 2 2 2 2 2 2 2 2 2 2 2 2 2
left_child=1 -1 4 5 7 16 12 -3 10 18 -5 23 19 -6 -15 26 -4 -12 -9 -2 -20 22 -10 -7 -8 -18 -11 -14 -24 -17
right_child=6 2 3 8 13 11 24 9 21 15 17 -13 27 14 -16 29 25 -19 20 -21 -22 -23 28 -25 -26 -27 -28 -29 -30 -31
leaf_value=1.74069306008956 1.4114873402930321 -1.4691220460266903 0.49183766622292369 -0.12274814480994643 -0.96188933605497529 0.22558666144977774 2.1656279073042026 0.67435040824218762 -0.028732163627567815 -0.24527372617429744 -0.36586718876662722 0.37799694035158021 0.79723600804805761 -0.45543238768613176 -0.90116671767345691 -0.23464045381415208 1.1625927838412198 -0.76369991597164888 -0.27626828979379658 0.98172465372085571 0.15017148058634633 -0.38531704809592693 0.30905751958053712 0.07388921464172199 1.5621858575127341 0.70430051170143426 -0.53033718274898278 0.43797238365198687 0.058262425763853667 -0.096858766228280463
leaf_weight=170 94 29 285 1533 132 549 34 36 637 150 523 842 100 1373 129 524 55 89 58 125 312 49 171 1021 55 102 233 107 232 757
leaf_count=170 94 29 285 1533 132 549 34 36 637 150 523 842 100 1373 129 524 55 89 58 125 312 49 171 1021 55 102 233 107 232 757
internal_value=0 -0.0542021 -0.0852715 0.0616308 -0.324849 0.278037 1.05152 -0.16395 -0.129347 -0.145665 -0.20862 0.214578 0.896671 -0.531535 -0.493714 -0.214323 0.624333 -0.423722 0.13573 1.16619 0.0833242 0.0267978 0.0462147 0.126935 1.79271 0.864849 -0.418694 0.61153 0.164679 -0.153219
internal_weight=0 9991 9821 6088 3733 2854 515 2099 3234 2070 2145 2412 426 1634 1502 1664 442 612 406 219 370 1089 1040 1570 89 157 383 207 403 1281
internal_count=10506 9991 9821 6088 3733 2854 515 2099 3234 2070 2145 2412 426 1634 1502 1664 442 612 406 219 370 1089 1040 1570 89 157 383 207 403 1281
is_linear=0
shrinkage=0.5


Tree=3
num_leaves=31
num_cat=0
split_feature=30 36 36 30 30 15 36 36 36 15 30 36 30 18 30 9 36 30 30 36 36 30 30 36 36 31 30 30 30 30
split_gain=692.341 604.548 349.627 183.418 147.959 106.121 99.7307 55.7836 45.6237 45.4407 38.2923 37.3946 37.3352 27.5971 27.5594 27.0548 26.2226 26.0056 24.3182 23.1706 18.7887 15.4372 14.9409 13.6479 12.6959 11.8903 10.3796 9.96648 9.96622 9.0645
threshold=88.755001050000018 48.23000145000001 53.110000600000006 92.185001350000007 92.185001350000007 34046.349600000009 44.750000000000007 46.769998550000004 43.370000850000004 35995.849600000009 90.814998650000021 41.309999450000007 90.715000150000023 683.95001200000013 93.465000150000023 1.0000000180025095e-35 47.139999350000004 94.715000150000023 93.465000150000023 51.500000000000007 46.769998550000004 90.625000000000014 95.314998650000021 49.889999350000004 49.264999350000004 144675.89850000004 90.654998800000016 90.255001050000018 89.849998500000012 93.720001200000013
decision_type=2 2 2 2 2 2 2 2 2 2 2 2 2 2 2 2 2 2 2 2 2 2 2 2 2 2 2 2 2 2
left_child=5 4 3 10 6 -1 11 13 -7 21 -3 -2 20 15 -5 -6 -14 29 -11 -12 -8 -4 24 -10 -16 -23 -13 28 -22 -9
right_child=1 2 9 14 7 8 12 17 23 18 19 26 16 -15 22 -17 -18 -19 -20 -21 27 25 -24 -25 -26 -27 -28 -29 -30 -31
leaf_value=0.83597595835259808 -1.0016915028833824 0.26006556294899458 1.1584831428527833 0.010299168288226874 -0.282639986769256 -0.33418264942751691 -0.059711709058534949 -0.14339648139564645 0.36987027765041397 0.49949233431007128 0.096976210313494515 -0.16472405203833029 -0.12192215030183086 -0.59336901569005218 -0.16817504132328473 -0.76258659391333494 -0.0062019928746239548 -0.41877306955997073 -0.0044730555231648466 0.32390078981220721 0.10883080808368201 0.45451144253214198 -0.43070633496556965 0.74917085468769073 -0.039406809431695659 0.82179830806801113 -0.41244816053504785 0.16981845380117497 -0.043565172433238666 -0.23301055069190604
leaf_weight=240 23 795 25 1103 556 22 338 1221 155 211 1124 65 1379 99 345 31 759 107 27 125 240 30 35 28 430 83 121 228 194 367
leaf_count=240 23 795 25 1103 556 22 338 1221 155 211 1124 65 1379 99 345 31 759 107 27 125 240 30 35 28 430 83 121 228 194 367
internal_value=0 -0.0269942 0.113926 0.0701443 -0.133594 0.610312 -0.0658161 -0.228871 0.34612 0.574678 0.174286 -0.40025 -0.0435418 -0.349171 -0.0411291 -0.307986 -0.080841 -0.180183 0.44232 0.119687 0.0362038 0.802947 -0.111161 0.427905 -0.0967294 0.724289 -0.325878 0.0851758 0.0407091 -0.164107
internal_weight=0 10061 4333 3957 5728 445 3347 2381 205 376 2044 209 3138 686 1913 587 2138 1695 238 1249 1000 138 810 183 775 113 186 662 434 1588
internal_count=10506 10061 4333 3957 5728 445 3347 2381 205 376 2044 209 3138 686 1913 587 2138 1695 238 1249 1000 138 810 183 775 113 186 662 434 1588
is_linear=0
shrinkage=0.5


Tree=4
num_leaves=31
num_cat=0
split_feature=36 30 36 30 36 30 36 30 30 15 15 30 36 30 15 30 30 30 36 30 16 36 30 12 36 12 36 30 30 36
split_gain=178.354 166.294 83.4356 45.6754 41.7782 38.6498 31.8047 26.4738 21.4753 19.0995 13.0999 13.0071 15.4146 12.6423 12.4569 11.7335 12.7079 11.7279 11.6653 12.3935 10.4566 9.70746 9.04947 7.99579 7.69728 7.67397 7.38701 6.72843 6.53186 8.99715
threshold=51.059999450000007 88.419998200000023 47.670000050000006 92.064998650000021 57.934999450000007 91.154998800000016 42.500000000000007 92.435001350000007 93.314998650000021 36986.050800000005 39102.599600000009 94.505001050000018 50.170000050000006 95.005001050000018 35977.250000000007 91.404998800000016 91.715000150000023 89.465000150000023 48.670000050000006 91.125000000000014 311.90000000000003 46.769998550000004 91.404998800000016 366.77500000000003 46.985000600000006 375.08999850000004 44.500000000000007 94.49499895000001 92.935001350000007 46.769998550000004
decision_type=2 2 2 2 2 2 2 2 2 2 2 2 2 2 2 2 2 2 2 2 2 2 2 2 2 2 2 2 2 2
left_child=1 9 5 18 7 10 -7 17 15 20 21 12 -5 26 -6 24 -17 -2 -4 23 -1 -3 -21 -20 -8 -19 -10 -9 -18 -30
right_child=4 2 3 11 14 6 8 27 13 -11 -12 -13 -14 -15 -16 16 28 25 19 22 -22 -23 -24 -25 -26 -27 -28 -29 29 -31
leaf_value=0.36744657880331899 0.47287293632204336 -0.048552777188793791 0.011870720841623222 -0.0391086613607299 0.57801304672929377 -0.66577122829578539 -0.28423205018043518 0.05073944156815819 -0.44769445033027577 0.067865942060103962 -0.36198577045083596 -0.14925045531163825 0.087439694630212325 -0.49918591465268819 0.31042930262899676 0.021052706399187271 -0.11355341471260018 0.181600860087201 0.097793933653680221 -0.036987919599608815 0.73556833607809879 0.041929491463658472 0.072413511771262179 0.22517136649425035 -0.10733712469914654 0.39823157691020283 -0.17390940454094969 -0.24245483694936742 -0.12192125222246236 0.087577146098234707
leaf_weight=237 48 693 1079 2437 88 27 124 177 26 53 27 235 267 35 86 264 1148 314 761 292 21 518 536 147 122 47 470 22 102 103
leaf_count=237 48 693 1079 2437 88 27 124 177 26 53 27 235 267 35 86 264 1148 314 761 292 21 518 536 147 122 47 470 22 102 103
internal_value=0 -0.0184745 -0.0303596 0.00717897 0.229727 -0.0893913 -0.126139 0.167902 -0.120053 0.34125 -0.0175293 -0.0364189 -0.0266129 -0.208755 0.445759 -0.0947702 -0.0792931 0.240678 0.0526974 0.0780729 0.39741 -0.00984938 0.0338323 0.118416 -0.196504 0.209805 -0.188261 0.018326 -0.0988728 -0.0166611
internal_weight=0 9724 9413 5754 782 3659 2421 608 2394 311 1238 2939 2704 531 174 1863 1617 409 2815 1736 258 1211 828 908 246 361 496 199 1353 205
internal_count=10506 9724 9413 5754 782 3659 2421 608 2394 311 1238 2939 2704 531 174 1863 1617 409 2815 1736 258 1211 828 908 246 361 496 199 1353 205
is_linear=0
shrinkage=0.5


Tree=5
num_leaves=31
num_cat=0
split_feature=30 36 15 30 36 38 36 36 30 5 36 30 30 30 30 36 40 30 30 30 30 30 12 31 36 30 18 30 36 12
split_gain=57.6475 46.4101 21.1469 17.1584 13.5868 13.7739 13.3386 10.1588 12.2354 8.75745 8.64477 12.2465 24.8968 8.15646 7.83143 7.09573 6.8295 6.65004 14.4481 10.946 7.69555 11.662 6.59396 8.30495 5.52502 5.46231 5.15705 4.63591 4.36283 4.34653
threshold=89.564998650000021 49.125000000000007 39024.650400000006 92.534999850000005 52.184999450000007 0.17100000400000001 55.389999400000008 45.675001150000007 90.465000150000023 91.005001050000018 46.769998550000004 92.935001350000007 93.215000150000023 95.439998650000021 91.314998650000021 26.500000000000004 1.0000000180025095e-35 91.404998800000016 91.24499895000001 91.654998800000016 90.255001050000018 90.564998650000021 365.05999985000005 149981.25000000003 42.500000000000007 92.715000150000023 702.50000000000011 90.064998650000021 47.98000145000001 366.12000120000005
decision_type=2 2 2 2 2 2 2 2 2 2 2 2 2 2 2 2 2 2 2 2 2 2 2 2 2 2 2 2 2 2
left_child=2 3 4 7 5 15 14 8 29 22 26 25 -13 -14 -3 -1 -6 18 20 28 27 -22 23 -8 -10 -12 -5 -9 -19 -2
right_child=1 6 -4 10 16 -7 9 17 24 -11 11 12 13 -15 -16 -17 -18 19 -20 -21 21 -23 -24 -25 -26 -27 -28 -29 -30 -31
leaf_value=0.19561191829031005 -0.066827497600267335 0.082570211483269096 -0.35153757497344329 -0.11108672856950098 0.21387754033009213 0.084721959782890655 -0.19912337034475058 -0.016738644170288284 -0.33021422615274787 -0.1225369230809587 -0.045198927664681851 0.103875625875383 -0.052618408255146576 -0.33569762741143888 0.015602763118549511 0.4572969387518242 0.56772429786622525 0.028512592984305828 -0.10942670209793214 -0.0037932864310287152 0.11250323945871339 -0.0087785042089670324 0.21252388268662403 0.2261817247014154 -0.097212765663146836 -0.15289583888857863 -0.33194083760359455 -0.1134907489377656 0.12835075106635035 0.14546850593186506
leaf_weight=136 36 612 23 472 30 645 24 325 27 27 179 292 1195 26 1523 32 25 194 405 1606 260 834 219 22 441 344 28 200 251 73
leaf_count=136 36 612 23 472 30 645 24 325 27 27 179 292 1195 26 1523 32 25 194 405 1606 260 834 219 22 441 344 28 200 251 73
internal_value=0 -0.0112747 0.121668 -0.0314599 0.134207 0.117937 0.0485073 -0.0134231 -0.0755168 0.148737 -0.0645463 -0.0500797 -0.0272805 -0.0586463 0.0347991 0.245457 0.374717 -0.00463092 -0.0249637 0.0154342 -0.00383486 0.0200453 0.176376 0.00428341 -0.110655 -0.116036 -0.123455 -0.0535966 0.0848258 0.0753524
internal_weight=0 9615 891 7188 868 813 2427 4652 577 292 2536 2036 1513 1221 2135 168 55 4075 2024 2051 1619 1094 265 46 468 523 500 525 445 109
internal_count=10506 9615 891 7188 868 813 2427 4652 577 292 2536 2036 1513 1221 2135 168 55 4075 2024 2051 1619 1094 265 46 468 523 500 525 445 109
is_linear=0
shrinkage=0.5


Tree=6
num_leaves=31
num_cat=0
split_feature=5 36 16 36 36 30 36 30 36 30 12 40 30 36 30 15 30 18 12 36 12 10 24 38 36 36 12 30 30 30
split_gain=16.1069 12.9469 12.5455 11.1554 9.93961 6.19635 5.04184 4.49898 4.4503 4.3676 4.03199 3.26839 2.69126 2.57351 3.20106 2.16473 2.11113 2.10697 2.06845 5.3555 2.04732 1.79472 2.01413 1.6047 1.66095 3.2864 1.58211 3.70444 3.14151 4.20272
threshold=86.255001050000018 42.500000000000007 321.02500000000003 53.985000600000006 48.125000000000007 93.154998800000016 57.934999450000007 88.279998800000016 49.264999350000004 93.784999850000005 367.08500135000003 1.0000000180025095e-35 92.49499895000001 45.889999400000008 90.904998800000016 37998.650400000006 95.005001050000018 721.50000000000011 367.08500135000003 44.750000000000007 365.05999985000005 0.44050000650000004 2273.9000250000004 0.77275002000000015 27.500000000000004 46.985000600000006 366.93499985 90.904998800000016 90.314998650000021 90.064998650000021
decision_type=2 2 2 2 2 2 2 2 2 2 2 2 2 2 2 2 2 2 2 2 2 2 2 2 2 2 2 2 2 2
left_child=2 -2 3 7 9 6 26 15 18 10 12 -5 -3 -12 -15 23 -11 -7 19 -9 -8 -20 -23 24 -1 -26 28 -28 29 -6
right_child=1 4 -4 11 5 17 20 8 -10 16 13 -13 -14 14 -16 -17 -18 -19 21 -21 -22 22 -24 -25 25 -27 27 -29 -30 -31
leaf_value=0.11981888616887423 -0.32135749183185963 -0.038143684021486615 0.43745797360315919 0.097641025754538452 0.037710196738639339 -0.017286309944809862 0.032132671287815488 -0.20297157392903631 0.073361314728765961 -0.053696723743916985 -0.042565685855335281 0.33980492315726896 -0.12514076340834007 0.049243764672428372 -0.0092826113208374778 -0.058343929492614487 -0.1552382714784982 -0.16417122531682252 0.011136430113459581 -0.0018266749806484265 0.17989120004423173 0.20784066587686539 0.050484689642980141 0.1942991760692426 -0.071406091181322545 0.15084967707637056 0.11462456626722063 0.0025680368209671832 0.044372692545541645 -0.11290563131333328
leaf_weight=130 33 692 20 22 110 1042 35 35 310 502 516 38 102 255 2788 22 57 25 327 607 71 25 109 42 39 29 78 1355 1010 80
leaf_count=130 33 692 20 22 110 1042 35 35 310 502 516 38 102 255 2788 22 57 25 327 607 71 25 109 42 39 29 78 1355 1010 80
internal_value=0 -0.00876732 0.0437167 0.0391779 -0.00758408 0.0115956 0.0241874 0.0315898 0.0204315 -0.0224452 -0.0171023 0.251011 -0.0493196 -0.00991477 -0.00437817 0.0917682 -0.0640507 -0.0207278 0.00555545 -0.0127925 0.131103 0.0311073 0.0798421 0.105528 0.0866983 0.0233795 0.0198832 0.00866742 0.0332767 -0.025707
internal_weight=0 8751 1755 1735 8718 3806 2739 1675 1413 4912 4353 60 794 3559 3043 262 559 1067 1103 642 106 461 134 240 198 68 2633 1433 1200 190
internal_count=10506 8751 1755 1735 8718 3806 2739 1675 1413 4912 4353 60 794 3559 3043 262 559 1067 1103 642 106 461 134 240 198 68 2633 1433 1200 190
is_linear=0
shrinkage=0.5


Tree=7
num_leaves=31
num_cat=0
split_feature=12 36 36 30 30 30 30 36 30 36 15 36 15 36 12 36 36 36 31 30 30 36 12 18 32 32 12 12 12 40
split_gain=6.04745 7.32772 3.9542 5.4391 2.89103 6.94914 9.30046 4.1708 4.01752 2.78806 2.71873 4.27829 2.60752 2.2237 2.21686 2.64826 2.63415 7.24779 4.0888 2.78031 3.35367 2.71585 2.45286 2.12045 1.92971 5.59704 1.87245 1.67387 2.83678 1.47895
threshold=357.08999865000004 52.184999450000007 50.014999400000008 94.284999850000005 93.314998650000021 92.935001350000007 92.784999850000005 44.500000000000007 93.034999850000005 45.889999400000008 496.00000000000006 40.500000000000007 39987.69920000001 46.985000600000006 375.08999850000004 55.389999400000008 54.434999450000007 53.985000600000006 133595.60150000002 91.654998800000016 91.904998800000016 59.059999450000007 379.08999850000004 669.95001200000013 9.9199996000000024 17.590000150000005 366.62000120000005 365.05999985000005 370.08999865000004 1.0000000180025095e-35
decision_type=2 2 2 2 2 2 2 2 2 2 2 2 2 2 2 2 2 2 2 2 2 2 2 2 2 2 2 2 2 2
left_child=1 24 4 14 5 6 10 -6 -7 -8 -2 -12 -13 -10 16 29 17 19 -18 -4 -21 27 23 -17 -1 -26 -9 -20 -29 -16
right_child=2 -3 3 -5 7 8 9 26 13 -11 11 12 -14 -15 15 22 18 -19 21 20 -22 -23 -24 -25 25 -27 -28 28 -30 -31
leaf_value=0.026364576067428636 0.17233648100359875 0.29926439660734366 -0.0053830110651245846 -0.10970596667085711 -0.21034475512472758 0.10286394360402948 0.083399253338575369 -0.10885957504312198 -0.067742593904277157 -0.11035824733926523 -0.17805811901177679 -0.0034100443397108108 0.15840321946889163 0.034794958541877453 0.060333196213610878 0.32298174181154798 -0.22197624575346708 0.29422592991389906 -0.11350253489572645 0.16596318685032171 0.035853002410296868 0.15422969694676189 0.017270535836799134 0.13123283803756552 0.33013391547969412 0.013989742933994248 -0.018842228673242076 0.087545766104345349 -0.060763857079636135 -0.069410997695134327
leaf_weight=486 22 28 370 73 30 219 20 60 63 259 35 6018 25 329 82 21 24 26 41 58 339 24 29 46 21 42 1554 56 76 30
leaf_count=486 22 28 370 73 30 219 20 60 63 259 35 6018 25 329 82 21 24 26 41 58 339 24 29 46 21 42 1554 56 76 30
internal_value=0 0.0497625 -0.00289183 0.0228724 -0.00675617 -0.00231903 -0.00719815 -0.0256221 0.0486202 -0.0964688 -0.00311511 -0.00375018 -0.00274062 0.0183157 0.0307924 0.0778133 0.0211471 0.0346005 -0.0271267 0.0257996 0.0548615 -0.00338874 0.138752 0.191333 0.0370375 0.119371 -0.0221886 -0.0252549 0.00215538 0.0255803
internal_weight=0 577 9929 1295 8634 6990 6379 1644 611 279 6100 6078 6043 392 1222 208 1014 793 221 767 397 197 96 67 549 63 1614 173 132 112
internal_count=10506 577 9929 1295 8634 6990 6379 1644 611 279 6100 6078 6043 392 1222 208 1014 793 221 767 397 197 96 67 549 63 1614 173 132 112
is_linear=0
shrinkage=0.5


Tree=8
num_leaves=31
num_cat=0
split_feature=30 36 16 15 18 36 12 36 30 30 30 36 36 36 30 36 36 15 12 36 20 30 38 30 5 10 36 30 30 31
split_gain=3.82303 2.87632 2.94488 3.2939 2.17615 2.4679 2.0948 3.48769 1.72944 4.46973 3.81556 2.66495 2.52194 2.16972 1.66878 1.62986 1.61955 1.52205 5.26634 2.45379 3.28737 2.00245 1.47107 1.39538 2.00738 1.27244 1.21691 1.2392 2.41456 1.18452
threshold=90.715000150000023 53.985000600000006 248.82999935000001 35004.44920000001 594.20001200000013 42.500000000000007 366.37000120000005 46.985000600000006 91.404998800000016 91.564998650000021 91.255001050000018 50.895000450000005 51.500000000000007 51.954999900000011 95.689998650000021 44.500000000000007 47.139999350000004 284.00000000000006 329.65000000000003 44.750000000000007 1.0000000180025095e-35 88.034999850000005 0.76690000300000005 89.465000150000023 83.139999400000008 0.63949999250000011 45.014999400000008 89.625000000000014 90.255001050000018 111827.50000000001
decision_type=2 2 2 2 2 2 2 2 2 2 2 2 2 2 2 2 2 2 2 2 2 2 2 2 2 2 2 2 2 2
left_child=1 6 3 -3 -2 -6 17 26 10 11 15 -10 -13 -12 16 -7 -11 18 -1 20 -19 22 -21 24 -22 -5 29 -28 -29 -8
right_child=4 2 -4 25 5 8 7 -9 9 14 13 12 -14 -15 -16 -17 -18 19 -20 21 23 -23 -24 -25 -26 -27 27 28 -30 -31
leaf_value=-0.04722015094012022 0.15569786581077746 0.32069114274345339 -0.069341673143208021 0.16473409656814678 -0.14627184845026461 -0.09603942246176303 0.062156456154901708 0.079662296426249668 0.069871282067504661 -0.015649823784897626 -0.079898484712590367 -0.17109505894283453 0.044794650810335075 0.065616303190056763 -0.14516152940424426 -0.0040436566806477618 0.0017267599307396421 0.014507524680959272 0.28871156089007854 0.013766296859830617 -0.099050828165584998 0.0055551056102796977 0.19737479781421521 -0.036400296671602592 -0.30222776243463156 0.01626380580109394 0.082299406197853392 -0.12336604158251972 0.020929983841549409 -0.028130776663734154
leaf_weight=28 21 20 20 27 31 50 107 284 315 1995 301 24 31 28 21 1298 4090 79 20 20 31 1373 24 26 20 31 20 59 57 55
leaf_count=28 21 20 20 27 31 50 107 284 315 1995 301 24 31 28 21 1298 4090 79 20 20 31 1373 24 26 20 31 20 59 57 55
internal_value=0 0.0180109 0.101826 0.145716 -0.00505096 -0.00546344 0.0142824 0.0400138 -0.00492805 -0.00122229 -0.0192384 0.05214 -0.0494118 -0.0675142 -0.00445584 -0.00745596 -0.00397025 0.00504386 0.0927514 0.00236747 -0.0571503 0.00891989 0.113916 -0.130669 -0.178728 0.0853793 0.00222802 -0.0326441 -0.052462 0.0315034
internal_weight=0 2301 98 78 8205 8184 2203 582 8153 6476 1677 370 55 329 6106 1348 6085 1621 48 1573 156 1417 44 77 51 58 298 136 116 162
internal_count=10506 2301 98 78 8205 8184 2203 582 8153 6476 1677 370 55 329 6106 1348 6085 1621 48 1573 156 1417 44 77 51 58 298 136 116 162
is_linear=0
shrinkage=0.5


Tree=9
num_leaves=31
num_cat=0
split_feature=16 30 36 30 36 30 30 36 16 15 36 24 24 18 36 36 5 30 30 30 36 12 12 32 10 41 36 36 5 12
split_gain=2.87472 1.54328 1.42793 1.3065 3.44358 2.59852 2.2234 1.08311 2.48075 1.52942 1.04565 1.51074 1.37337 0.895806 0.894657 0.778496 3.0032 1.88607 3.00258 1.0084 0.74756 0.737211 1.40682 1.4608 0.715802 0.661576 0.630178 0.939286 0.625342 0.602444
threshold=321.02500000000003 89.755001050000018 48.48000145000001 90.314998650000021 55.389999400000008 90.505001050000018 90.159999850000005 45.889999400000008 258.02500000000003 39024.650400000006 56.750000000000007 2589.4000250000004 2399.6500250000004 728.50000000000011 45.889999400000008 43.370000850000004 87.715000150000023 92.74499895000001 92.965000150000023 92.49499895000001 44.750000000000007 367.08500135000003 369.02500000000003 4.9849998950000005 0.51049998400000007 1.0000000180025095e-35 45.889999400000008 46.985000600000006 85.735000600000021 367.21000135000003
decision_type=2 2 2 2 2 2 2 2 2 2 2 2 2 2 2 2 2 2 2 2 2 2 2 2 2 2 2 2 2 2
left_child=1 2 21 4 6 14 26 8 9 15 12 -12 -4 -9 -5 16 -7 19 -19 29 -20 -1 -23 24 -24 -25 28 -28 -3 -17
right_child=-2 3 10 5 -6 7 -8 13 -10 -11 11 -13 -14 -15 -16 17 -18 18 20 -21 -22 22 23 25 -26 -27 27 -29 -30 -31
leaf_value=-0.0041763942411223234 0.1893822394311428 -0.032306949858320874 0.17362217982077882 -0.036260359879473555 0.17413288316900088 0.18385479732355831 -0.080750901229724198 -0.00074336528003708419 -0.19557575839571656 -0.12153582826651858 -0.12423633242195303 0.065636404277756813 0.041900139446601099 -0.10669870153069497 0.049008756854366682 0.028407310321114872 -0.051506743537064525 0.17000367083857137 0.062527244320760164 -0.12111070788195057 -0.029278921596158077 0.12665963443842801 -0.089942540973424911 0.14260934274643661 0.026823544342603003 0.020603364929556847 -0.078393379788331941 -0.0090670795807982953 0.079115081798483838 -0.034557567352994679
leaf_weight=571 20 20 21 34 21 23 167 7733 20 33 22 20 343 20 323 43 33 31 30 31 85 33 35 20 21 25 58 310 34 326
leaf_count=571 20 20 21 34 21 23 167 7733 20 33 22 20 343 20 323 43 33 31 30 31 85 33 35 20 21 25 58 310 34 326
internal_value=0 -0.00036121 0.0172592 -0.00244935 -0.0248237 -0.000892203 -0.0319172 -0.00266617 -0.0221904 -0.0167295 0.0408802 -0.0338207 0.0494995 -0.00101669 0.0408879 -0.0109843 0.0451596 -0.0167426 0.0318988 -0.0344967 -0.00532949 0.0036562 0.0370324 0.00774828 -0.0461553 0.0748282 -0.012592 -0.0199935 0.0378477 -0.0272202
internal_weight=0 10486 1111 9375 610 8765 589 8408 655 635 406 42 364 7753 357 602 56 546 146 400 115 705 134 101 56 45 422 368 54 369
internal_count=10506 10486 1111 9375 610 8765 589 8408 655 635 406 42 364 7753 357 602 56 546 146 400 115 705 134 101 56 45 422 368 54 369
is_linear=0
shrinkage=0.5


Tree=10
num_leaves=31
num_cat=0
split_feature=38 24 16 16 36 12 36 1 15 36 36 36 12 16 30 12 30 38 36 36 30 36 30 30 36 36 30 30 30 30
split_gain=0.905913 1.237 3.35956 2.9041 1.22063 1.54541 2.63765 4.13623 1.37817 0.704057 4.41269 2.93783 2.75417 2.44039 1.23118 1.23248 0.945521 1.26454 0.823306 0.669669 2.36539 5.2674 1.90476 1.00657 1.15839 1.63332 0.991228 2.9735 1.39326 0.981366
threshold=0.79465001850000017 728.00000000000011 304.27500000000003 298.02500000000003 59.059999450000007 311.65000000000003 40.500000000000007 1.0000000180025095e-35 39987.69920000001 54.434999450000007 55.389999400000008 53.985000600000006 365.05999985000005 238.42000045 91.125000000000014 375.08999850000004 92.74499895000001 0.77889999750000005 57.934999450000007 49.125000000000007 94.314998650000021 50.895000450000005 94.005001050000018 94.220001200000013 46.00499915000001 48.895000450000005 91.404998800000016 91.784999850000005 91.255001050000018 94.74499895000001
decision_type=2 2 2 2 2 2 2 2 2 2 2 2 2 2 2 2 2 2 2 2 2 2 2 2 2 2 2 2 2 2
left_child=1 2 -1 4 5 -3 7 -7 9 11 -11 19 13 -12 -14 18 -17 -18 -16 23 22 29 -21 26 -25 -26 28 -28 -8 -22
right_child=-2 3 -4 -5 -6 6 8 -9 -10 10 12 -13 14 -15 15 16 17 -19 -20 20 21 -23 -24 24 25 -27 27 -29 -30 -31
leaf_value=-0.0097483936697244644 0.095066127822501581 0.13510073632711456 -0.23886208082549273 0.18177588821642779 0.091829310132501021 -0.0040076329888826282 -0.0048066032325853785 -0.27777789668603375 0.10519620502788213 -0.20606054039672017 -0.021892322993446744 0.14707507499192349 0.1079961244778877 -0.24591329377144575 -0.08208741601482232 0.11418583297706915 -0.058738452920806594 0.08819010605414708 0.0056569228519595437 0.00631126038594719 0.20202628647287688 -0.047467853584936978 -0.070563180907075071 -0.079863783947075717 0.0095045229773968454 -0.061460802700215332 0.031711286946204592 -0.0023031764155572619 -0.044323641341179609 0.095755397497365877
leaf_weight=80 25 21 20 22 36 37 2598 22 31 30 31 34 33 20 47 33 32 27 62 1978 42 58 84 80 250 120 783 3581 244 45
leaf_count=80 25 21 20 22 36 37 2598 22 31 30 31 34 33 20 47 33 32 27 62 1978 42 58 84 80 250 120 783 3581 244 45
internal_value=0 -0.000226758 -0.0555711 0.000306373 -7.90239e-05 -0.000399541 -0.00067575 -0.106091 -6.85525e-05 -0.000388099 -0.0236591 0.000352567 -0.00445895 -0.109744 0.0184877 0.00379232 0.0464091 0.00850004 -0.0321778 -0.000153219 0.00752031 0.069248 0.00317961 -0.00236527 -0.0253073 -0.0135113 -0.000932592 0.00379979 -0.00819934 0.147059
internal_weight=0 10481 100 10381 10359 10323 10302 59 10243 10212 315 9897 285 51 234 201 92 59 109 9863 2207 145 2062 7656 450 370 7206 4364 2842 87
internal_count=10506 10481 100 10381 10359 10323 10302 59 10243 10212 315 9897 285 51 234 201 92 59 109 9863 2207 145 2062 7656 450 370 7206 4364 2842 87
is_linear=0
shrinkage=0.5


Tree=11
num_leaves=31
num_cat=0
split_feature=16 16 15 24 36 32 36 12 12 36 30 18 30 30 38 16 24 10 30 10 18 30 30 30 36 36 36 30 30 32
split_gain=1.44632 0.670308 0.655729 0.638198 0.779425 1.86073 0.618915 1.19484 1.73476 1.10473 1.02953 1.4123 0.738756 0.608576 0.608455 0.592967 0.579716 1.64356 1.03304 0.935091 0.523436 0.725664 1.2329 1.15664 0.606091 1.06932 0.661526 1.15835 1.14216 0.467907
threshold=321.02500000000003 227.27500000000001 284.00000000000006 808.00000000000011 40.500000000000007 4.9849998950000005 57.375000000000007 361.96500240000006 375.08999850000004 56.750000000000007 91.74499895000001 678.95001200000013 91.74499895000001 52.190000550000008 0.7930999995000001 249.12999955000001 2176.3499750000005 0.34950000050000002 89.505001050000018 0.099500000250000012 580.20001200000013 89.625000000000014 89.154998800000016 89.255001050000018 45.889999400000008 46.985000600000006 49.264999350000004 88.755001050000018 89.029998800000016 7.9700000300000005
decision_type=2 2 2 2 2 2 2 2 2 2 2 2 2 2 2 2 2 2 2 2 2 2 2 2 2 2 2 2 2 2
left_child=1 -1 29 13 5 -5 9 -8 10 14 -9 -12 -11 -4 16 -14 17 19 -19 -6 -18 22 24 -24 -22 -26 28 -28 -27 -3
right_child=-2 2 3 4 6 -7 7 8 -10 12 11 -13 15 -15 -16 -17 20 18 -20 -21 21 -23 23 -25 25 26 27 -29 -30 -31
leaf_value=0.065172130931526989 0.13433004841208457 -0.020936147947060436 0.018197632108170252 -0.1574817358229596 0.043075733820192648 0.023894832683576932 0.11219537892778005 -0.09480672738115703 0.10495232679771588 -0.10783059310723239 0.095105996671398838 -0.058658235793700442 0.03612339314825546 0.12082828525453806 -0.06421232422675334 -0.074089593436245035 -0.036542072450045988 0.043565776584477259 0.1912770161870867 -0.086145201074292091 -0.089795564685482526 -0.00099739158538072374 0.098551932513119944 0.022353977223470621 0.094398276052541197 -0.0021745808406465469 -0.030293588376308262 0.10191683291147152 -0.10395455026091674 -0.1154198739270214
leaf_weight=39 20 38 52 26 28 31 35 35 34 39 28 32 26 20 37 23 99 29 20 28 20 9272 69 179 27 94 37 30 39 20
leaf_count=39 20 38 52 26 28 31 35 35 34 39 28 32 26 20 37 23 99 29 20 28 20 9272 69 179 27 94 37 30 39 20
internal_value=0 -0.000256208 -0.000500461 -0.00020448 -0.000531859 -0.0588383 -0.000207934 0.0302615 0.00803138 -0.000702881 -0.0266561 0.0130984 -0.0564801 0.0467061 -0.000212434 -0.0156092 2.50541e-05 0.036981 0.103856 -0.0215347 -0.000368253 -1.58935e-06 0.0186511 0.0435542 -0.00635285 0.000998932 -0.01161 0.0289051 -0.0320198 -0.0535167
internal_weight=0 10486 10447 10389 10317 57 10260 164 129 10096 95 60 88 72 10008 49 9971 105 49 56 9866 9767 495 248 247 227 200 67 133 58
internal_count=10506 10486 10447 10389 10317 57 10260 164 129 10096 95 60 88 72 10008 49 9971 105 49 56 9866 9767 495 248 247 227 200 67 133 58
is_linear=0
shrinkage=0.5


Tree=12
num_leaves=31
num_cat=0
split_feature=30 16 16 36 32 16 36 18 32 12 30 36 30 30 36 36 36 30 18 24 30 36 30 15 36 30 15 18 24 36
split_gain=1.07106 15.293 8.69675 0.871374 0.649319 0.643052 0.492428 0.434035 0.439876 0.425791 2.45189 1.90241 1.75929 1.14908 1.59465 1.61614 1.05774 3.18535 0.957573 0.844564 0.67978 1.97393 0.999741 0.663452 1.02729 0.936047 0.642405 0.605213 1.27218 0.553648
threshold=59.565000550000008 271.02500000000003 311.90000000000003 27.500000000000004 -1.1050000149999997 260.47499980000003 59.059999450000007 704.2999880000001 1.3350000350000002 366.62000120000005 93.99499895000001 48.395000450000005 91.125000000000014 90.99499895000001 49.889999350000004 50.895000450000005 49.389999350000004 91.465000150000023 637.95001200000013 2068.0000000000005 92.005001050000018 46.985000600000006 92.49499895000001 39003.900400000006 44.750000000000007 87.689998650000021 31003.500000000004 585.0499880000001 2176.3499750000005 54.434999450000007
decision_type=2 2 2 2 2 2 2 2 2 2 2 2 2 2 2 2 2 2 2 2 2 2 2 2 2 2 2 2 2 2
left_child=2 5 3 4 -1 6 9 -7 -9 10 11 12 19 14 27 -16 17 -13 -17 -2 21 -14 -22 24 -21 -26 -18 -11 -29 -28
right_child=1 -3 -4 -5 -6 7 -8 8 -10 13 -12 16 20 -15 15 18 26 -19 -20 23 22 -23 -24 -25 25 -27 29 28 -30 -31
leaf_value=0.10300794090726413 -0.10719850706809667 0.43746481791604308 -0.34909197790548208 -0.067861846809036147 0.0046343948477162765 -0.013092691208969751 0.062252737860490015 -0.12209479648365894 -0.030820530500601639 -0.047096148746587879 -0.17500017029011533 0.00026860389006869482 0.029751235163433754 -7.0512640609195673e-05 0.17931032296398591 -0.0057163117182722619 -0.086593283932994716 0.077488212109938337 0.12454099112766839 -0.085099185673663244 0.023016460217862716 -0.08451408107760193 -0.05332387928672902 0.071081638535266889 0.10479750018566847 -0.0047105098748347661 0.0026383586330913106 0.126166638918221 0.011320806364849834 -0.042406230794954793
leaf_weight=20 20 20 20 36 104 112 32 22 33 41 21 444 47 6149 29 43 22 191 21 39 74 193 102 29 20 803 1041 25 680 73
leaf_count=20 20 20 20 36 104 112 32 22 33 41 21 444 47 6149 29 43 22 191 21 39 74 193 102 29 20 803 1041 25 680 73
internal_value=0 0.000666544 -0.0382374 0.000619434 0.0205011 -0.000181115 0.00032577 -0.0309554 -0.0673302 0.000129701 -0.00472794 -0.00357374 -0.0178876 0.00229785 0.0196555 0.0813931 0.00715151 0.0234953 0.0370244 -0.00558514 -0.0448287 -0.0621371 -0.0212262 -0.00330425 -0.0058068 -0.00204932 -0.00198431 0.0119589 0.0153934 -0.000313396
internal_weight=0 10326 180 160 124 10306 10139 167 55 10107 3119 3098 1327 6988 839 93 1771 635 64 911 416 240 176 891 862 823 1136 746 705 1114
internal_count=10506 10326 180 160 124 10306 10139 167 55 10107 3119 3098 1327 6988 839 93 1771 635 64 911 416 240 176 891 862 823 1136 746 705 1114
is_linear=0
shrinkage=0.5


Tree=13
num_leaves=31
num_cat=0
split_feature=16 15 11 16 30 15 36 24 15 18 10 30 30 30 36 36 36 30 30 36 12 30 36 30 30 36 36 36 11 15
split_gain=2.676 0.508163 2.13853 0.515019 1.31383 1.16216 0.493827 0.395049 0.815498 0.677046 0.343204 0.285735 3.06385 1.94003 0.991175 0.746335 0.672119 0.619499 1.19606 2.65258 3.41353 0.886635 0.545819 0.518826 2.04468 0.745635 1.91907 0.633562 1.19985 0.936348
threshold=321.02500000000003 39102.599600000009 1.0000000180025095e-35 265.52500000000003 59.565000550000008 28511.849600000005 1.0000000180025095e-35 2124.3499750000005 37976.900400000006 593.0499880000001 1.0649999950000002 92.935001350000007 92.654998800000016 93.064998650000021 51.954999900000011 45.889999400000008 47.045000100000003 92.435001350000007 92.314998650000021 46.769998550000004 367.08500135000003 92.505001050000018 47.139999350000004 91.904998800000016 91.845001200000013 50.699998850000007 49.889999350000004 44.750000000000007 1.0000000180025095e-35 38000.94920000001
decision_type=2 2 2 2 2 2 2 2 2 2 2 2 2 2 2 2 2 2 2 2 2 2 2 2 2 2 2 2 2 2
left_child=1 3 -3 5 6 -1 -5 8 -7 -10 11 12 17 14 -13 -14 -17 18 23 -20 -21 22 -19 24 27 26 -26 28 29 -9
right_child=-2 2 -4 4 -6 7 -8 10 9 -11 -12 13 15 -15 -16 16 -18 21 19 20 -22 -23 -24 -25 25 -27 -28 -29 -30 -31
leaf_value=0.11267910453582021 0.1827192546799779 0.051549870620815896 -0.1287872439516442 0.023576904591676349 -0.11329332143068313 -0.043149088881909846 -0.032286943193963344 -0.021310749980013654 0.14004899480972777 0.012939631519839168 0.062298945013687691 0.055092141840740537 0.030618585765552826 -0.00028490332953956846 -0.04958496049977839 -0.06914250035709367 -0.030203867923909687 0.0066311980415250833 0.064301439762736362 0.067589403644281745 -0.080401800050971584 -0.0021673830268254517 0.052981530169389494 0.011706288810395319 -0.030003479581225564 0.034021425439277664 -0.14406390072301375 0.0029739687655832335 0.083625467168167239 -0.11642561172549096
leaf_weight=23 20 31 35 74 35 20 85 92 22 20 22 237 39 2321 25 153 402 97 60 48 207 298 184 1002 259 32 43 4564 20 36
leaf_count=23 20 31 35 74 35 20 85 92 22 20 22 237 39 2321 25 153 402 97 60 48 207 298 184 1002 259 32 43 4564 20 36
internal_value=0 -0.000348501 -0.0440834 -7.14854e-05 -0.0255926 0.000412682 -0.00628742 0.000159607 0.0399498 0.0795207 -8.36624e-05 -0.00021929 -0.00177481 0.00431899 0.0451039 -0.0362401 -0.0409383 0.00117426 -0.000250552 -0.0302882 -0.0525446 0.0168324 0.0369816 0.00131391 -0.000749737 -0.0385538 -0.0462439 0.00192992 -0.0302662 -0.0480618
internal_weight=0 10486 66 10420 194 10226 159 10203 62 42 10141 10119 7536 2583 262 594 555 6942 6363 315 255 579 281 6048 5046 334 302 4712 148 128
internal_count=10506 10486 66 10420 194 10226 159 10203 62 42 10141 10119 7536 2583 262 594 555 6942 6363 315 255 579 281 6048 5046 334 302 4712 148 128
is_linear=0
shrinkage=0.5


Tree=14
num_leaves=31
num_cat=0
split_feature=16 15 12 30 36 36 36 38 10 30 15 30 15 36 5 18 12 9 36 30 36 30 30 30 30 16 18 30 30 30
split_gain=0.809514 0.455618 0.511485 0.446065 1.11078 0.77441 0.494393 0.467822 0.570584 0.292958 0.780033 0.444777 0.378069 0.636059 0.623285 0.367355 0.31531 0.930661 0.633141 0.540426 0.532517 0.915576 1.67013 0.763739 1.34121 0.656521 0.543624 0.875205 0.679096 0.453552
threshold=304.27500000000003 496.00000000000006 311.65000000000003 1.0000000180025095e-35 38.500000000000007 41.309999450000007 42.500000000000007 0.73749998250000004 0.27050000450000006 88.659999850000005 34009.500000000007 88.755001050000018 36987.900400000006 46.985000600000006 84.270000450000012 584.0499880000001 367.83999865000004 1.0000000180025095e-35 46.985000600000006 92.685001350000007 46.985000600000006 92.064998650000021 92.404998800000016 91.404998800000016 91.005001050000018 252.62999955000001 683.95001200000013 94.125000000000014 94.875000000000014 93.625000000000014
decision_type=2 2 2 2 2 2 2 2 2 2 2 2 2 2 2 2 2 2 2 2 2 2 2 2 2 2 2 2 2 2
left_child=1 -1 -3 -4 -5 -6 -7 8 -8 10 -9 -11 13 -12 -15 -14 19 20 -19 -13 23 -22 -23 24 -18 -25 27 29 -28 -27
right_child=-2 2 3 4 5 6 7 9 -10 11 12 16 15 14 -16 -17 17 18 -20 -21 21 22 -24 25 -26 26 28 -29 -30 -31
leaf_value=-0.036478467919149021 0.082016374139736101 0.078018978415500553 0.072705231518262914 -0.087915457789778079 0.081657097317631641 -0.061265938463761951 -0.088848596962634474 -0.048574956566361446 0.017219054823120434 -0.054821957154451192 -0.065734312054701149 -0.0016989333504338021 0.029213296527961723 0.086405976597840592 -0.0040625471621751784 0.10366739451419563 -0.0059966291063040167 0.11411171622814671 0.0032029053386808796 -0.022530226285083301 0.013100319706662738 -0.026076463825798708 0.0040541688878056384 0.0094553586114354844 -0.061481531170916627 -0.040638789024080912 0.048129304428870208 -0.11108102777507156 -0.047699622874116075 0.019905057347690065
leaf_weight=86 30 21 21 36 29 33 32 35 21 37 20 2956 37 33 45 30 378 31 22 348 1787 551 2782 705 153 87 51 32 29 48
leaf_count=86 30 21 21 36 29 33 32 35 21 37 20 2956 37 33 45 30 378 31 22 348 1787 551 2782 705 153 87 51 32 29 48
internal_value=0 -0.000234869 6.51259e-05 -9.27515e-05 -0.000240486 6.55941e-05 -0.000164509 3.22075e-05 -0.0468218 0.000275736 0.0192234 -0.000103331 0.0336049 0.0138153 0.0342126 0.062551 9.99405e-05 0.00208203 0.0680741 -0.00389303 0.00155233 0.00396891 -0.000926923 -0.00679082 -0.0219838 0.00168341 -0.0204997 -0.0367349 0.0133913 -0.0191121
internal_weight=0 10476 10390 10369 10348 10312 10283 10250 53 10197 200 9997 165 98 78 67 9960 6656 53 3304 6603 5120 3333 1483 531 952 247 167 80 135
internal_count=10506 10476 10390 10369 10348 10312 10283 10250 53 10197 200 9997 165 98 78 67 9960 6656 53 3304 6603 5120 3333 1483 531 952 247 167 80 135
is_linear=0
shrinkage=0.5


Tree=15
num_leaves=31
num_cat=0
split_feature=30 24 18 5 30 36 12 12 10 24 24 10 15 12 18 41 16 36 12 30 30 18 36 7 30 36 30 36 36 36
split_gain=0.624921 1.03153 1.66707 4.49647 1.61863 0.816476 0.551144 0.338737 0.320507 0.945962 0.534898 0.414397 0.55104 0.287974 0.286395 0.254796 0.2477 0.250731 0.651898 1.07949 3.3353 1.77493 2.25407 0.838632 0.66827 2.20348 1.44393 1.05668 1.07807 1.03977
threshold=95.689998650000021 728.00000000000011 475.00000000000006 17.314999600000004 1.0000000180025095e-35 38.500000000000007 320.65000000000003 369.02500000000003 0.10749999800000001 2068.0000000000005 2257.9000250000004 0.049499999700000005 38001.050800000005 366.93499985 601.20001200000013 1.0000000180025095e-35 227.27500000000001 50.014999400000008 381.08500150000003 93.255001050000018 93.064998650000021 680.95001200000013 51.954999900000011 1.0000000180025095e-35 91.654998800000016 51.954999900000011 91.564998650000021 56.059999450000007 54.434999450000007 58.065000550000008
decision_type=2 2 2 2 2 2 2 2 2 2 2 2 2 2 2 2 2 2 2 2 2 2 2 2 2 2 2 2 2 2
left_child=1 4 3 6 7 -4 -3 15 10 -10 11 -7 -13 14 -12 -1 -11 -18 19 20 24 22 -21 -22 26 -26 29 28 -27 -19
right_child=-2 2 5 -5 -6 8 -8 -9 9 16 13 12 -14 -15 -16 -17 17 18 -20 21 23 -23 -24 -25 25 27 -28 -29 -30 -31
leaf_value=-0.072135337597380084 0.084181352730163125 -0.074324726697523144 -0.08395290595744255 0.27008001665983883 -0.17400588795897506 0.0035354876044121656 0.043057562969624999 0.025113480070609543 0.089540139927218362 0.053604969839480793 0.014642967318650335 -0.1418048012536019 -0.029430419129009049 0.0035212523668393205 -0.022157217090257052 -0.00032597421003239494 -0.00054628973084179197 -0.001256742339871588 -0.069947065130152086 0.039509065943408986 -0.048150867044639126 0.0093376878165762935 0.22164676811259526 -0.1690458208322525 0.063264671961182031 -0.014340354673396883 -0.098174383310047353 0.032092972820564586 -0.12302616302823198 0.097766590304672718
leaf_weight=30 22 20 29 21 21 22 20 29 30 22 64 20 24 409 304 21 8098 498 27 49 26 159 26 32 191 107 37 91 29 28
leaf_count=30 22 20 29 21 21 22 20 29 30 22 64 20 24 409 304 21 8098 498 27 49 26 159 26 32 191 107 37 91 29 28
internal_value=0 -0.000176649 0.000312506 0.0827268 -0.0504628 -0.000174539 -0.0156336 -0.0180327 6.15026e-05 0.00089483 -0.00928007 -0.0524946 -0.0805097 -0.00560933 -0.0157572 -0.0425668 0.00061252 0.000488469 0.00693422 0.00856485 0.00165505 0.0392455 0.10265 -0.114852 0.00854331 0.0236886 -0.00270132 -0.00961108 -0.037516 0.00401446
internal_weight=0 10484 10383 61 101 10322 40 80 10293 9450 843 66 44 777 368 51 9420 9398 1300 1273 1039 234 75 58 981 418 563 227 136 526
internal_count=10506 10484 10383 61 101 10322 40 80 10293 9450 843 66 44 777 368 51 9420 9398 1300 1273 1039 234 75 58 981 418 563 227 136 526
is_linear=0
shrinkage=0.5


Tree=16
num_leaves=31
num_cat=0
split_feature=18 12 18 24 16 16 30 15 32 30 12 18 16 30 36 36 30 30 36 38 38 36 15 30 36 36 15 36 30 30
split_gain=0.516902 1.07768 1.57831 0.751564 2.0917 1.54111 0.407182 0.381185 0.885028 1.0872 0.272774 0.197339 0.210959 0.17904 1.02044 0.380191 0.679942 0.539591 0.712739 0.761122 0.560528 0.510643 1.02755 0.550014 0.342519 0.338843 0.294099 0.289747 0.341671 0.250265
threshold=331.00000000000006 291.65000000000003 1.0000000180025095e-35 856.00000000000011 285.02500000000003 301.77500000000003 95.689998650000021 39102.599600000009 -21.335000049999994 91.125000000000014 320.65000000000003 723.50000000000011 271.02500000000003 89.465000150000023 43.370000850000004 45.889999400000008 89.125000000000014 89.154998800000016 46.00499915000001 0.75890001650000005 0.77390000200000009 49.264999350000004 34975.650400000006 88.909999850000005 50.895000450000005 48.670000050000006 36001.050800000005 50.895000450000005 88.659999850000005 90.314998650000021
decision_type=2 2 2 2 2 2 2 2 2 2 2 2 2 2 2 2 2 2 2 2 2 2 2 2 2 2 2 2 2 2
left_child=1 -1 -3 5 6 10 7 11 -9 -10 -2 12 13 14 -5 16 -16 18 20 -20 -17 22 -21 25 -19 26 -24 -23 -29 -15
right_child=3 2 -4 4 -6 -7 -8 8 9 -11 -12 -13 -14 29 15 17 -18 24 19 21 -22 27 23 -25 -26 -27 -28 28 -30 -31
leaf_value=-0.02495726045559753 0.038658754634005685 -0.0022126145253423602 0.19642736241221428 -0.10232757008634508 0.15771827868939864 -0.16493553391081237 -0.06979558308653179 -0.1198606462302533 0.085216518968255037 -0.072137608395322503 -0.032688152655405367 0.046404580474304763 -0.051262865867465736 -0.0081120556723819019 0.010639452076444001 0.01375821977853775 -0.09452548213514754 0.052559375052805987 0.07845499986209549 -0.11996607191860675 0.12709587188437582 0.056313300737695367 -0.043986085747989519 -0.050450848748109171 -0.0067113050482779119 0.060541751436316051 0.020215492129368198 0.042837455056724136 -0.046519665776387505 0.00046453007902103375
leaf_weight=33 21 20 20 20 21 21 21 22 21 23 37 23 20 943 51 24 22 130 26 25 20 35 30 56 30 26 44 20 23 8678
leaf_count=33 21 20 20 20 21 21 21 22 21 23 37 23 20 943 51 24 22 130 26 25 20 35 30 56 30 26 44 20 23 8678
internal_value=0 0.0419275 0.0971074 -0.000293368 7.73197e-05 -0.0488769 -0.000243058 -0.000101417 -0.0379781 0.00296323 -0.00685565 0.000142567 3.84856e-05 0.000139047 0.00865493 0.0126045 -0.0210541 0.0176292 0.00604648 -0.00309762 0.0652753 -0.0112844 -0.0258586 -0.0107773 0.0414461 0.0114398 -0.00581217 0.0225354 -0.00495821 -0.000376102
internal_weight=0 73 40 10433 10354 79 10333 10312 66 44 58 10246 10223 10203 582 562 73 489 329 285 44 259 181 156 160 100 74 78 43 9621
internal_count=10506 73 40 10433 10354 79 10333 10312 66 44 58 10246 10223 10203 582 562 73 489 329 285 44 259 181 156 160 100 74 78 43 9621
is_linear=0
shrinkage=0.5


Tree=17
num_leaves=31
num_cat=0
split_feature=16 18 15 12 15 36 32 30 12 36 36 30 30 12 31 5 36 36 36 12 30 16 36 10 30 5 31 38 10 12
split_gain=0.993788 0.473749 0.20231 0.810025 0.133687 1.0526 1.7152 1.76671 1.51135 1.05052 0.637192 0.478952 0.779005 0.542806 0.446775 0.440392 0.316559 0.31151 0.288833 0.240485 0.23567 0.539198 0.277412 0.218475 0.197569 0.194198 0.315103 0.230305 0.305779 0.280919
threshold=304.27500000000003 735.50000000000011 284.00000000000006 329.65000000000003 35999.050800000005 54.434999450000007 10.699999800000002 91.154998800000016 368.05999985 51.500000000000007 58.065000550000008 92.125000000000014 93.404998800000016 375.08999850000004 135572.50000000003 87.670002000000025 53.985000600000006 54.434999450000007 56.059999450000007 375.08999850000004 54.625000000000007 271.02500000000003 1.0000000180025095e-35 0.69749999050000011 92.99499895000001 84.889999400000008 147925.89850000004 0.76675000750000011 0.13950000000000004 363.93499985
decision_type=2 2 2 2 2 2 2 2 2 2 2 2 2 2 2 2 2 2 2 2 2 2 2 2 2 2 2 2 2 2
left_child=1 2 3 -1 5 16 7 10 -9 -6 -7 13 14 15 24 -11 20 -17 -16 -20 22 25 -4 -10 -13 26 27 28 -22 -30
right_child=-2 -3 4 -5 9 6 -8 8 23 11 -12 12 -14 -15 18 17 -18 -19 19 -21 21 -23 -24 -25 -26 -27 -28 -29 29 -31
leaf_value=0.03923669295008516 0.090873097527461741 -0.060074102109700274 -0.0038015335251336234 -0.093967715874314309 -9.2259933844094083e-06 -0.051146652756465807 0.081157923119304615 -0.23178301667351098 -0.10286236087827441 0.0092774843765193061 0.059631700401660055 -0.020096559869125487 0.062194218430668115 0.11455799404155606 -0.033683614544570445 0.10564579041757886 0.056598464570318661 0.034889778281961166 0.0038251647638389841 0.074607302341610199 0.018451444376763458 -0.074752963390201335 0.060070102705675012 -0.035963524396166853 -0.090376252075657248 8.2588958627362525e-05 -0.067032200600951913 0.0083422131712536495 -0.007837994911030613 -0.057114871648201324
leaf_weight=21 30 33 34 25 6341 27 23 21 26 73 25 20 50 26 25 28 24 35 30 20 37 25 34 23 20 3172 25 117 55 61
leaf_count=21 30 33 34 25 6341 27 23 21 26 73 25 20 50 26 25 28 24 35 30 20 37 25 34 23 20 3172 25 117 55 61
internal_value=0 -0.000260232 -7.12198e-05 -0.033157 7.51634e-05 -0.00232236 -0.0440866 -0.0676983 -0.119558 0.00141595 0.00211217 0.0290522 0.0100913 0.0483641 -0.0125621 0.0357094 -0.000632678 0.0663369 0.0101975 0.032138 -0.00101851 -0.0015862 0.0281343 -0.0714609 -0.0552364 -0.00105861 -0.0133294 -0.00835687 -0.0211268 -0.0337508
internal_weight=0 10476 10443 46 10397 3729 145 122 70 6668 52 327 165 162 115 136 3584 63 75 50 3560 3492 68 49 40 3467 295 270 153 116
internal_count=10506 10476 10443 46 10397 3729 145 122 70 6668 52 327 165 162 115 136 3584 63 75 50 3560 3492 68 49 40 3467 295 270 153 116
is_linear=0
shrinkage=0.5


Tree=18
num_leaves=31
num_cat=0
split_feature=30 16 16 31 36 31 36 24 16 12 36 36 30 16 31 18 12 36 16 38 36 1 15 30 30 36 30 36 30 36
split_gain=0.650161 6.97771 3.48943 0.794971 0.290361 0.846194 0.56118 0.375047 0.392245 0.51096 0.336902 1.08271 0.482399 0.328266 0.27398 0.302306 0.27185 0.239975 0.179759 0.162402 0.153846 1.73492 0.608051 0.159703 0.832632 0.649335 0.469455 0.622622 5.03079 1.92888
threshold=58.815000550000008 276.40000000000003 305.65000000000003 138203.10150000002 57.375000000000007 146804.05450000003 56.750000000000007 2949.7500000000005 249.12999955000001 365.05999985000005 55.389999400000008 54.434999450000007 91.875000000000014 245.92000045 35271.500000000007 475.00000000000006 302.65000000000003 53.985000600000006 238.94999924999999 0.77790001050000013 42.500000000000007 1.0000000180025095e-35 39102.599600000009 90.064998650000021 90.314998650000021 48.895000450000005 90.505001050000018 50.699998850000007 90.465000150000023 49.889999350000004
decision_type=2 2 2 2 2 2 2 2 2 2 2 2 2 2 2 2 2 2 2 2 2 2 2 2 2 2 2 2 2 2
left_child=2 4 3 14 6 13 10 8 9 -7 11 17 -12 -6 15 16 -1 20 -8 -15 21 -2 -23 -22 25 -25 27 29 -29 -26
right_child=1 -3 -4 -5 5 7 18 -9 -10 -11 12 -13 -14 19 -16 -17 -18 -19 -20 -21 23 22 -24 24 26 -27 -28 28 -30 -31
leaf_value=0.023251595819601789 0.080249764900654552 0.28843101456073955 -0.22680463995784522 -0.070901456980832986 0.11993912612088024 -0.064864620845764873 0.00049433573370888124 0.044588563319009081 -0.081222694959830158 0.036416760980941806 0.075772716497470222 -0.09514247924089432 -0.0098778592843201847 0.0095594973594415929 0.0666845472469937 0.046436956417265127 -0.04098466644063592 0.04131654089516295 -0.052428897131261802 0.072514965143498214 0.0055393618114184806 -0.023014397826045752 -0.14347313387869773 -0.0067277152249537245 0.012290599172563055 -0.053315150780718801 -0.00056501202522647915 -0.22138533741235733 0.1214956866334314 0.14040021146788742
leaf_weight=28 25 21 20 35 20 20 21 26 22 33 35 30 31 20 21 29 40 35 68 21 1151 20 22 178 268 129 8061 20 23 33
leaf_count=28 25 21 20 35 20 20 21 26 22 33 35 30 31 20 21 29 40 35 68 21 1151 20 22 178 268 129 8061 20 23 33
internal_value=0 0.000508946 -0.0303985 -0.00472448 -7.73965e-05 0.0209238 -0.000412588 -0.00715976 -0.0250992 -0.00180263 -6.29142e-05 -0.00029803 0.0355429 0.0674227 0.0149043 0.00369412 -0.0145344 -1.24974e-05 -0.0399414 0.041805 -0.000158169 -0.0240366 -0.0861118 4.03907e-06 -0.000727269 -0.0263035 0.000206927 0.0182959 -0.0379839 0.0263358
internal_weight=0 10333 173 153 10312 162 10150 101 75 53 10061 9995 66 61 118 97 68 9965 89 41 9930 67 42 9863 8712 307 8405 344 43 301
internal_count=10506 10333 173 153 10312 162 10150 101 75 53 10061 9995 66 61 118 97 68 9965 89 41 9930 67 42 9863 8712 307 8405 344 43 301
is_linear=0
shrinkage=0.5


Tree=19
num_leaves=31
num_cat=0
split_feature=16 16 5 36 30 5 12 15 36 10 38 32 12 36 30 36 30 36 36 36 30 9 30 30 30 30 16 30 36 36
split_gain=0.975129 0.324509 0.528326 0.26352 0.533814 0.48487 0.354278 0.231623 0.165319 0.571337 0.21275 0.157523 0.145963 0.578739 1.44065 0.549717 0.407976 0.741455 0.441698 0.399279 0.912688 0.376787 0.394966 0.338354 0.308268 0.484875 0.248106 0.246799 0.396603 0.423572
threshold=305.65000000000003 285.02500000000003 16.689999600000004 27.500000000000004 86.000000000000014 81.689998650000021 320.65000000000003 40983.300800000005 42.500000000000007 0.21049999400000002 0.73085001100000013 17.590000150000005 364.92999880000002 54.434999450000007 91.125000000000014 44.750000000000007 90.125000000000014 44.750000000000007 47.98000145000001 45.889999400000008 89.465000150000023 1.0000000180025095e-35 92.49499895000001 89.849998500000012 89.99499895000001 89.375000000000014 256.12999955000004 91.99499895000001 49.889999350000004 48.895000450000005
decision_type=2 2 2 2 2 2 2 2 2 2 2 2 2 2 2 2 2 2 2 2 2 2 2 2 2 2 2 2 2 2
left_child=1 3 11 6 -5 -6 -1 8 9 -7 -10 -3 13 15 23 -12 17 -14 24 20 -17 -18 -23 -15 25 -19 -24 -21 29 -29
right_child=-2 2 -4 4 5 7 -8 -9 10 -11 12 -13 16 14 -16 19 21 18 -20 27 -22 22 26 -25 -26 -27 -28 28 -30 -31
leaf_value=0.080128930489687875 0.094898742658120608 -0.044406290914048442 -0.099977345228017794 -0.067926012907891756 0.06347925431715945 0.031829815438908081 0.00028963022950020701 0.052278448871913408 -0.046208644127473233 -0.072178562081629233 -0.057455796314488078 0.0097190044428471754 0.11060058086046151 -0.041477106225032076 -0.16164201522478833 -0.018980157880030352 2.1428680073562049e-05 0.033680258900858462 0.041490843015558582 -0.0041483490777712868 0.099642441367670406 -0.011566427871584892 0.10612847753578708 0.041776478239942502 0.031306266637208563 -0.039689125097969451 0.028314783982932568 0.0079202135221283065 -0.0068273565567567498 0.064332339141401462
leaf_weight=24 27 20 21 29 30 23 33 21 25 31 44 41 21 26 20 34 7443 32 85 1955 31 25 21 23 45 76 20 82 142 56
leaf_count=24 27 20 21 29 30 23 33 21 25 31 44 41 21 26 20 34 7443 32 85 1955 31 25 21 23 45 76 20 82 142 56
internal_value=0 -0.000244514 -0.0315753 2.58776e-06 -0.000184308 6.21736e-06 0.0339062 -0.000178997 -0.000286366 -0.0278787 -0.000140375 -0.00802699 -2.72519e-05 -0.00342407 -0.0485563 -0.00209552 0.00102791 0.0205387 0.012592 -0.00103646 0.0375937 0.000354951 0.0379672 -0.00239889 -0.0034629 -0.01795 0.0681706 -0.00215993 0.0117235 0.0308121
internal_weight=0 10479 82 10397 10340 10311 57 10281 10260 54 10206 61 10181 2413 69 2344 7768 259 238 2300 65 7509 66 49 153 108 41 2235 280 138
internal_count=10506 10479 82 10397 10340 10311 57 10281 10260 54 10206 61 10181 2413 69 2344 7768 259 238 2300 65 7509 66 49 153 108 41 2235 280 138
is_linear=0
shrinkage=0.5


end of trees

feature_importances:
Column_30=196
Column_36=187
Column_12=46
Column_15=33
Column_16=32
Column_18=22
Column_24=14
Column_5=12
Column_10=12
Column_38=12
Column_32=10
Column_31=9
Column_9=3
Column_11=3
Column_40=3
Column_1=2
Column_41=2
Column_7=1
Column_20=1

parameters:
[boosting: gbdt]
[objective: regression]
[metric: rmse,l2]
[tree_learner: serial]
[device_type: cpu]
[data: ]
[valid: ]
[num_iterations: 20]
[learning_rate: 0.5]
[num_leaves: 31]
[num_threads: -1]
[deterministic: 0]
[force_col_wise: 0]
[force_row_wise: 0]
[histogram_pool_size: -1]
[max_depth: 20]
[min_data_in_leaf: 20]
[min_sum_hessian_in_leaf: 0.001]
[bagging_fraction: 1]
[pos_bagging_fraction: 1]
[neg_bagging_fraction: 1]
[bagging_freq: 0]
[bagging_seed: 3]
[feature_fraction: 1]
[feature_fraction_bynode: 1]
[feature_fraction_seed: 2]
[extra_trees: 0]
[extra_seed: 6]
[early_stopping_round: 1000]
[first_metric_only: 0]
[max_delta_step: 0]
[lambda_l1: 0]
[lambda_l2: 0]
[linear_lambda: 0]
[min_gain_to_split: 0]
[drop_rate: 0.1]
[max_drop: 50]
[skip_drop: 0.5]
[xgboost_dart_mode: 0]
[uniform_drop: 0]
[drop_seed: 4]
[top_rate: 0.2]
[other_rate: 0.1]
[min_data_per_group: 100]
[max_cat_threshold: 32]
[cat_l2: 10]
[cat_smooth: 10]
[max_cat_to_onehot: 4]
[top_k: 20]
[monotone_constraints: ]
[monotone_constraints_method: basic]
[monotone_penalty: 0]
[feature_contri: ]
[forcedsplits_filename: ]
[refit_decay_rate: 0.9]
[cegb_tradeoff: 1]
[cegb_penalty_split: 0]
[cegb_penalty_feature_lazy: ]
[cegb_penalty_feature_coupled: ]
[path_smooth: 0]
[interaction_constraints: ]
[verbosity: -1]
[saved_feature_importance_type: 0]
[linear_tree: 0]
[max_bin: 255]
[max_bin_by_feature: ]
[min_data_in_bin: 3]
[bin_construct_sample_cnt: 200000]
[data_random_seed: 1]
[is_enable_sparse: 1]
[enable_bundle: 1]
[use_missing: 1]
[zero_as_missing: 0]
[feature_pre_filter: 1]
[pre_partition: 0]
[two_round: 0]
[header: 0]
[label_column: ]
[weight_column: ]
[group_column: ]
[ignore_column: ]
[categorical_feature: ]
[forcedbins_filename: ]
[precise_float_parser: 0]
[objective_seed: 5]
[num_class: 1]
[is_unbalance: 0]
[scale_pos_weight: 1]
[sigmoid: 1]
[boost_from_average: 1]
[reg_sqrt: 0]
[alpha: 0.9]
[fair_c: 1]
[poisson_max_delta_step: 0.7]
[tweedie_variance_power: 1.5]
[lambdarank_truncation_level: 30]
[lambdarank_norm: 1]
[label_gain: ]
[eval_at: ]
[multi_error_top_k: 1]
[auc_mu_weights: ]
[num_machines: 1]
[local_listen_port: 12400]
[time_out: 120]
[machine_list_filename: ]
[machines: ]
[gpu_platform_id: -1]
[gpu_device_id: -1]
[gpu_use_dp: 0]
[num_gpu: 1]

end of parameters

pandas_categorical:null
