tree
version=v3
num_class=1
num_tree_per_iteration=1
label_index=0
max_feature_idx=41
objective=regression
feature_names=Column_0 Column_1 Column_2 Column_3 Column_4 Column_5 Column_6 Column_7 Column_8 Column_9 Column_10 Column_11 Column_12 Column_13 Column_14 Column_15 Column_16 Column_17 Column_18 Column_19 Column_20 Column_21 Column_22 Column_23 Column_24 Column_25 Column_26 Column_27 Column_28 Column_29 Column_30 Column_31 Column_32 Column_33 Column_34 Column_35 Column_36 Column_37 Column_38 Column_39 Column_40 Column_41
feature_infos=[0:1] [0:1] [0:1] [0:1] [0:1] [0:94.629997299999999] [0:1] [0:1] none [0:1] [0:1.8550000200000001] [0:1] [273.14999999999998:1041.1500000000001] none none [-473:41051] [223.64999999999998:372.14999999999998] [0:1] [0:768] [0:1] [0:1] [0:1] none none [0:12288] [0:1] [0:1] [0:1] [0:1] [0:1] [0:127.129997] [0:163800] [-64:96.75] [0:1] none none [0:1016] [0:1] [0:0.99900001299999996] [0:1] [0:1] [0:1]
tree_sizes=2724 2802 2854 2831 2811 2830 2869 2848 2901 2881 2880 2861 2877 2849 2867 2880 2858 2841 2815 2898

Tree=0
num_leaves=31
num_cat=0
split_feature=5 2 33 28 1 33 11 36 5 36 31 15 36 41 10 1 18 5 5 18 16 30 18 30 16 18 18 30 10 36
split_gain=1157.14 97.1904 16.7527 14.3964 14.6284 12.7879 8.15226 5.92528 5.03059 3.9 3.38507 3.32119 3.31639 3.81866 3.12456 3.54678 2.83008 4.22455 2.71309 3.04759 2.53036 3.63554 4.02515 3.19943 2.91629 2.36747 2.28513 3.09568 2.28388 2.21863
threshold=24.754999200000004 1.0000000180025095e-35 1.0000000180025095e-35 1.0000000180025095e-35 1.0000000180025095e-35 1.0000000180025095e-35 1.0000000180025095e-35 50.014999400000008 86.344997400000011 54.434999450000007 145103.75000000003 34001.050800000005 49.125000000000007 1.0000000180025095e-35 0.64049997950000004 1.0000000180025095e-35 621.0499880000001 87.889999400000008 86.965000150000023 618.95001200000013 243.92000045 91.74499895000001 634.0499880000001 90.625000000000014 238.35000075000002 609.0499880000001 625.0499880000001 91.154998800000016 0.17950000600000002 45.889999400000008
decision_type=2 2 2 2 2 2 2 2 2 2 2 2 2 2 2 2 2 2 2 2 2 2 2 2 2 2 2 2 2 2
left_child=-1 3 10 4 6 8 11 18 25 16 14 -2 20 -14 15 -3 -10 -18 19 29 23 22 -22 24 -13 -6 -20 -28 -7 -5
right_child=1 2 -4 7 5 28 -8 -9 9 -11 -12 12 13 -15 -16 -17 17 -19 26 -21 21 -23 -24 -25 -26 -27 27 -29 -30 -31
leaf_value=1.2293142940166133 2.535946879267462 2.4500740715940657 2.2480506950785029 2.447151675455066 2.5445856337937998 2.4973333315288637 2.4031074779552051 2.6006933202665805 2.4632399144490891 2.566466104194026 2.3584675164470692 2.4642130081590152 2.4042009076204764 2.4908992679581123 2.4936960602943938 2.3511247903714105 2.5576153995155653 2.5014680580648658 2.4597492317360699 2.6450058332440829 2.4973923928113981 2.4821658910638189 2.6437788810041316 2.4331191587101118 2.5590999761626807 2.6193094945625193 2.605781986154466 2.5142222758671786 2.4003982966079653 2.5572260911868336
leaf_weight=188 210 161 288 55 318 78 449 305 324 308 571 263 348 200 101 207 428 1542 168 85 118 1192 78 522 117 159 101 1074 275 273
leaf_count=188 210 161 288 55 318 78 449 305 324 308 571 263 348 200 101 207 428 1542 168 85 118 1192 78 522 117 159 101 1074 275 273
internal_value=2.45863 2.48103 2.35477 2.49968 2.48877 2.51196 2.46601 2.53637 2.52229 2.51364 2.38432 2.47527 2.47078 2.43584 2.4158 2.39442 2.50654 2.51367 2.52519 2.56063 2.47914 2.49254 2.55565 2.45853 2.49343 2.56949 2.51429 2.52209 2.42182 2.53877
internal_weight=0 10318 1328 8990 6929 3432 3497 2061 3079 2602 1040 3048 2838 548 469 368 2294 1970 1756 413 2290 1388 196 902 380 477 1343 1175 353 328
internal_count=10506 10318 1328 8990 6929 3432 3497 2061 3079 2602 1040 3048 2838 548 469 368 2294 1970 1756 413 2290 1388 196 902 380 477 1343 1175 353 328
is_linear=0
shrinkage=1


Tree=1
num_leaves=31
num_cat=0
split_feature=15 2 30 16 30 16 30 18 18 30 18 30 18 16 33 30 16 18 18 18 16 18 16 30 12 16 16 30 16 16
split_gain=292.281 24.6427 9.58661 9.6496 14.5468 9.48674 7.35376 7.17952 7.06232 4.75793 5.49715 4.71213 5.09447 4.47163 4.12111 4.06239 3.50101 3.25005 3.20891 2.86334 2.72699 2.61398 2.54641 2.56639 2.41414 2.26431 2.13644 1.97831 1.92726 1.85647
threshold=2186.0000000000005 1.0000000180025095e-35 89.314998650000021 239.17000045 91.154998800000016 246.17000045 92.125000000000014 633.0499880000001 641.0499880000001 91.784999850000005 651.95001200000013 90.465000150000023 613.95001200000013 234.97500075000002 1.0000000180025095e-35 90.465000150000023 248.82999935000001 596.0499880000001 604.0499880000001 616.0499880000001 241.32999935000001 573.50000000000011 235.87999955000001 89.849998500000012 360.17999880000002 242.87999955000001 241.92000045 92.435001350000007 243.12999955000001 242.87999955000001
decision_type=2 2 2 2 2 2 2 2 2 2 2 2 2 2 2 2 2 2 2 2 2 2 2 2 2 2 2 2 2 2
left_child=-1 2 13 11 7 9 8 15 -7 10 26 12 -4 17 24 18 27 -2 -5 -17 -9 -15 23 -14 -3 -12 -6 -8 -21 -20
right_child=1 14 3 4 5 6 16 20 -10 -11 25 -13 22 21 -16 19 -18 -19 29 28 -22 -23 -24 -25 -26 -27 -28 -29 -30 -31
leaf_value=-0.62120467616665753 0.018746601492540919 -0.10062232146107879 -0.039754224467673627 0.042026110113859941 -0.048358962983484494 0.036907669518877501 0.021992906156293072 0.077667415515019531 0.15282858392317958 -0.042413090350091068 0.023928764583662342 -0.065005637155975113 0.070137996511157541 0.0068187087308615446 -0.10528896288168552 -0.0086223921022977081 0.02700391638662349 0.11496621894888924 0.11210122913342073 0.027930980493111501 0.17765544399719785 0.20450945414018398 0.08695402054443202 -0.042834989359137633 -0.028493685225190659 0.13783822685357822 0.0061990826344422816 -0.030811349820753942 0.10121054591696807 0.22840856659509565
leaf_weight=186 199 133 403 146 247 351 281 108 210 883 78 450 86 20 288 286 2722 157 135 219 185 102 168 121 908 99 656 481 152 46
leaf_count=186 199 133 403 146 247 351 281 108 210 883 78 450 86 20 288 286 2722 157 135 219 185 102 168 121 908 99 656 481 152 46
internal_value=0 0.0111961 0.0205897 0.016721 0.0236324 0.0133317 0.0271726 0.0720951 0.0803005 -0.0151892 0.00706885 -0.0242804 -0.000724734 0.0894908 -0.0523538 0.0516374 0.0186178 0.0611805 0.0971751 0.0289724 0.1408 0.172101 0.041219 0.00410065 -0.037709 0.0876408 -0.00872433 -0.0113389 0.0579539 0.14166
internal_weight=0 10320 8991 8513 7285 6008 4045 1277 561 1963 1080 1228 778 478 1329 984 3484 356 327 657 293 122 375 207 1041 177 903 762 371 181
internal_count=10506 10320 8991 8513 7285 6008 4045 1277 561 1963 1080 1228 778 478 1329 984 3484 356 327 657 293 122 375 207 1041 177 903 762 371 181
is_linear=0
shrinkage=0.5


Tree=2
num_leaves=31
num_cat=0
split_feature=38 25 33 28 1 10 11 10 36 36 7 17 31 15 18 9 10 18 7 30 5 10 31 5 18 30 30 12 30 18
split_gain=76.1432 6.37187 5.95164 4.19846 3.92694 3.12937 2.22325 2.04458 1.90099 1.87566 1.81357 3.51489 1.70573 1.65591 1.6283 1.4838 1.41966 1.70954 1.37068 1.34451 1.33334 1.03771 1.13871 0.963704 1.0079 0.894874 0.874844 1.24948 0.875768 0.99196
threshold=0.17100000400000001 1.0000000180025095e-35 1.0000000180025095e-35 1.0000000180025095e-35 1.0000000180025095e-35 0.54450002350000004 1.0000000180025095e-35 0.55950000850000003 47.139999350000004 45.48000145000001 1.0000000180025095e-35 1.0000000180025095e-35 148653.75000000003 34978.349600000009 648.95001200000013 1.0000000180025095e-35 0.22050000000000003 638.75000000000011 1.0000000180025095e-35 88.909999850000005 84.270000450000012 0.40950000250000002 129055.6015 89.255001050000018 670.0499880000001 90.064998650000021 89.220001200000013 368.58999865000004 91.875000000000014 635.95001200000013
decision_type=2 2 2 2 2 2 2 2 2 2 2 2 2 2 2 2 2 2 2 2 2 2 2 2 2 2 2 2 2 2
left_child=-1 2 3 4 6 -3 9 -4 -5 18 21 20 -7 15 -14 -6 -15 -18 -2 -8 -12 -11 25 -19 -25 -23 -10 -28 29 -29
right_child=1 5 7 8 13 12 19 -9 26 10 11 -13 14 16 -16 -17 17 23 -20 -21 -22 22 -24 24 -26 -27 27 28 -30 -31
leaf_value=-0.31706642976371191 -0.008126604427257246 -0.059482953127226484 -0.033532835590192087 0.017323771354810131 0.070662392932835272 0.03410961364027372 0.070498062522217103 0.05396245104364223 0.11390237079467624 -0.0013174208407490701 0.07878652639919892 0.05326544355723805 -0.094830786384751689 0.037192558251622286 0.0079325534902994384 -0.054888774354297384 -0.0088596627577515741 0.036784700208646444 0.06556044469725554 -0.042652016988473741 -0.041250987025086776 0.090351195284916502 -0.015072468593761977 -0.015129999086984961 0.023752710497157731 0.026096715697975354 0.023596970481204165 0.066378034442384673 0.049384856473747289 0.15168609987944365
leaf_weight=186 95 526 919 763 248 187 28 72 52 1589 24 129 68 709 89 26 696 590 188 421 641 62 154 263 455 430 345 107 394 50
leaf_count=186 95 526 919 763 248 187 28 72 52 1589 24 129 68 709 89 26 696 590 188 421 641 62 154 263 455 430 345 107 394 50
internal_value=0 0.00571457 0.00948427 0.0137791 0.00817005 -0.0352322 -0.00257914 -0.027176 0.0359008 0.00189686 -0.00174016 -0.0222667 0.00184884 0.0217046 -0.0365764 0.0587488 0.0179633 0.0111602 0.0408245 -0.0355959 -0.0369188 0.00555204 0.0224492 0.0218129 0.00951016 0.0341938 0.0508526 0.0471935 0.061968 0.0935462
internal_weight=0 10320 9450 8459 6748 870 3761 991 1711 3312 3029 794 344 2987 157 274 2713 2004 283 449 665 2235 646 1308 718 492 948 896 551 157
internal_count=10506 10320 9450 8459 6748 870 3761 991 1711 3312 3029 794 344 2987 157 274 2713 2004 283 449 665 2235 646 1308 718 492 948 896 551 157
is_linear=0
shrinkage=0.5


Tree=3
num_leaves=31
num_cat=0
split_feature=30 30 16 30 18 16 16 18 30 30 18 30 18 16 30 30 2 30 30 30 16 5 18 18 16 18 16 5 30 5
split_gain=19.4079 3.78833 4.85453 6.58389 6.18117 4.58797 4.45213 2.77228 2.23568 2.10252 2.01867 1.98842 4.01262 2.57099 2.06381 1.96557 1.89148 1.78143 1.76765 1.68317 2.33213 2.78353 1.65314 1.61502 1.59178 1.49679 1.41858 1.41547 1.66113 1.41382
threshold=86.000000000000014 89.909999850000005 240.60000075000002 91.465000150000023 630.95001200000013 247.17000045 233.94999924999999 591.0499880000001 88.419998200000023 90.755001050000018 655.95001200000013 92.564998650000021 649.95001200000013 252.92000045 93.255001050000018 88.909999850000005 1.0000000180025095e-35 94.005001050000018 90.904998800000016 90.755001050000018 236.75499955000001 87.255001050000018 612.95001200000013 580.20001200000013 244.82999935000001 609.0499880000001 245.12999955000001 86.215000150000023 90.159999850000005 87.625000000000014
decision_type=2 2 2 2 2 2 2 2 2 2 2 2 2 2 2 2 2 2 2 2 2 2 2 2 2 2 2 2 2 2
left_child=-1 6 19 4 18 16 15 8 -8 -6 26 12 -7 14 -13 23 -5 -15 22 20 -3 27 24 -2 -4 -17 29 -22 -29 -11
right_child=1 2 3 5 9 11 7 -9 -10 10 -12 13 -14 17 -16 25 -18 -19 -20 -21 21 -23 -24 -25 -26 -27 -28 28 -30 -31
leaf_value=-0.15667922218022964 -0.029323590746415513 -0.050165468479211911 -0.031956496737267581 -0.014390547192504797 0.14604653431913525 0.0029726902374495505 0.14503955592711767 0.082925435343533485 -0.020859742770743182 -0.006904965577950139 0.16273545264783834 -0.00021472797501094951 0.072146405440346312 0.029877079775434513 -0.039170619064529483 -0.062255294313104767 -0.053695357134959092 -0.0027511292449837071 -0.011486006793053682 -0.051680325447591949 -0.0644249031561831 0.071093659933629955 0.060705505029367716 0.0632603471296736 0.056926519677773874 0.010667812797488295 0.098220602886673683 0.08598224725574255 -0.013785387397677238 0.060458271960063335
leaf_weight=194 70 297 139 1924 87 581 24 412 132 126 45 993 328 909 517 161 364 775 501 489 106 123 235 144 79 125 120 50 252 204
leaf_count=194 70 297 139 1924 87 581 24 412 132 126 45 993 328 909 517 161 364 775 501 489 106 123 235 144 79 125 120 50 252 204
internal_value=0 0.00294761 -0.000309843 0.00436053 0.0337537 -0.00270375 0.0311423 0.0614309 0.00466323 0.0743627 0.0617637 0.00730023 0.0279331 0.00142821 -0.0135526 -0.00326557 -0.0206436 0.0148611 0.00897961 -0.0284208 -0.0146841 0.00516135 0.0316138 0.0329759 0.000253404 -0.0303833 0.0516665 -0.0147153 0.00273243 0.0347378
internal_weight=0 10312 9244 7927 1536 6391 1068 568 156 582 495 4103 909 3194 1510 500 2288 1684 954 1317 828 531 453 214 218 286 450 408 302 330
internal_count=10506 10312 9244 7927 1536 6391 1068 568 156 582 495 4103 909 3194 1510 500 2288 1684 954 1317 828 531 453 214 218 286 450 408 302 330
is_linear=0
shrinkage=0.5


Tree=4
num_leaves=31
num_cat=0
split_feature=38 30 16 30 5 30 18 16 16 16 18 30 16 30 5 30 18 30 18 30 30 5 16 5 24 30 16 18 16 5
split_gain=5.04018 1.58224 2.34848 3.71282 3.24487 2.73165 3.11734 2.18643 2.1485 2.11295 1.78586 1.7576 1.51318 1.41195 1.91776 1.36263 1.99667 1.22051 1.12835 1.27136 1.06427 1.42196 1.03956 1.17117 1.00769 0.985548 1.69193 1.41528 0.971354 0.922821
threshold=0.70149999850000011 89.564998650000021 243.67000045 91.904998800000016 88.255001050000018 91.564998650000021 642.0499880000001 253.87999955000001 236.52500000000001 249.95000020000001 623.0499880000001 91.255001050000018 237.67000045 90.715000150000023 85.005001050000018 92.814998650000021 658.0499880000001 90.625000000000014 603.20001200000013 87.934997600000017 89.909999850000005 86.479999550000016 249.12999955000001 87.534999850000005 2429.7500000000005 93.564998650000021 254.92000045 679.0499880000001 229.92000045 87.24499895000001
decision_type=2 2 2 2 2 2 2 2 2 2 2 2 2 2 2 2 2 2 2 2 2 2 2 2 2 2 2 2 2 2
left_child=-1 8 5 4 7 6 12 10 18 15 17 24 -3 14 -14 16 -5 -4 19 -2 -16 -22 23 -13 -12 27 -27 -11 -21 -24
right_child=1 2 3 9 -6 -7 -8 -9 -10 25 11 22 13 -15 20 -17 -18 -19 -20 28 21 -23 29 -25 -26 26 -28 -29 -30 -31
leaf_value=-0.078614841019734746 0.0650182270570131 -0.031509605847423655 0.046580808646887399 -0.01815741190662596 0.093860208756077673 -0.042532196624360183 0.036358015269176196 0.15725467749871314 0.083297889335007647 0.011793885259695358 0.011320779268003877 -0.016332122993751211 -0.052888011989786966 -0.015358366482283153 0.085220541281159967 -0.035037275411245614 0.01961244479716627 -0.022425325030122407 0.039065671262408917 -0.080401436320312741 -0.0071863313622965641 0.048573001173125317 0.025473948773544502 0.028401095613784233 0.086232384597208098 -0.024412379870699254 0.011497627616455747 0.063637360170006915 -0.005721478030222972 0.1520190219581127
leaf_weight=200 53 672 78 1074 162 572 398 28 127 1191 61 253 88 935 68 534 519 359 225 53 251 210 34 347 170 511 916 148 244 25
leaf_count=200 53 672 78 1074 162 572 398 28 127 1191 61 253 88 935 68 534 519 359 225 53 251 210 34 347 170 511 916 148 244 25
internal_value=0 0.00152561 -0.000149343 0.00536985 0.0269815 -0.0112257 -0.00439612 0.0189857 0.0244405 -0.0013305 0.0160681 0.0289211 -0.0116894 -0.00310738 0.0154577 -0.0131792 -0.00585198 -0.0101084 0.0114407 -0.00631814 0.0268271 0.0182138 0.0157659 0.00953859 0.0664505 0.00778089 -0.00136153 0.0175242 -0.0190482 0.0790947
internal_weight=0 10306 9604 6410 1517 3194 2622 1355 702 4893 1327 890 2224 1552 617 2127 1593 437 575 350 529 461 659 600 231 2766 1427 1339 297 59
internal_count=10506 10306 9604 6410 1517 3194 2622 1355 702 4893 1327 890 2224 1552 617 2127 1593 437 575 350 529 461 659 600 231 2766 1427 1339 297 59
is_linear=0
shrinkage=0.5


Tree=5
num_leaves=31
num_cat=0
split_feature=24 30 16 16 30 18 18 18 24 30 30 30 16 16 5 5 16 5 30 5 16 16 16 5 12 16 16 5 18 30
split_gain=1.80498 1.05764 1.90266 1.62277 1.35469 1.66141 1.53877 1.27111 1.26402 1.17115 1.12695 1.05268 1.77053 1.00014 1.56031 0.911654 0.886964 0.851369 0.895827 0.9338 1.10745 0.849018 0.747785 0.724829 0.692439 0.678043 0.675986 0.648372 0.6284 1.59455
threshold=2220.0000000000005 90.314998650000021 232.97500075000002 241.67000045 91.654998800000016 635.95001200000013 628.50000000000011 604.95001200000013 2685.4000250000004 89.220001200000013 89.154998800000016 92.314998650000021 247.67000045 244.67000045 88.420002000000025 89.360000600000021 248.67000045 86.610000600000021 91.064998650000021 87.844997400000011 237.44999924999999 321.02500000000003 231.27500000000001 87.594997400000011 365.05999985000005 250.87999955000001 240.35000075000002 85.889999400000008 659.95001200000013 93.034999850000005
decision_type=2 2 2 2 2 2 2 2 2 2 2 2 2 2 2 2 2 2 2 2 2 2 2 2 2 2 2 2 2 2
left_child=21 2 10 17 6 -6 25 9 -8 -4 -2 13 -13 15 16 -7 -15 -3 19 26 -21 -1 -12 -9 -10 -5 -19 -24 -14 -30
right_child=1 3 7 4 5 11 8 23 24 -11 22 12 28 14 -16 -17 -18 18 -20 20 -22 -23 27 -25 -26 -27 -28 -29 29 -31
leaf_value=-0.029344235699259268 0.0085141303690241844 -0.055466109890432103 0.048105434839740599 -0.0040300664139690757 -0.029328059533382862 -0.018817233476731452 0.015513619215267871 0.035150282266693068 0.011686905533937154 -0.010781279304788921 -0.09707039306522347 -0.025162217712513237 -0.010083210158473724 -0.010329672549110047 0.051290379666214976 0.034076821229907427 0.038884685296606998 -0.022600319429265683 -0.027918931317424935 -0.011965298780468198 0.060665502401472657 -0.13546595610678197 -0.094820834051531092 0.11358502738538288 0.069563514533951321 0.069194279300669834 0.019434509241580685 -0.005399203380479973 0.033349346433916127 0.00025242162205485594
leaf_weight=327 196 127 113 753 490 314 538 591 67 334 52 721 795 289 326 110 134 397 544 98 113 20 26 31 226 33 126 92 441 2082
leaf_count=327 196 127 113 753 490 314 538 591 67 334 52 721 795 289 326 110 134 397 544 98 113 20 26 31 226 33 126 92 441 2082
internal_value=0 0.00121123 0.0137902 -0.000857872 0.00212993 -0.00149254 0.0149038 0.0244433 0.0299046 0.00410507 -0.017325 0.00112438 -0.002705 0.0143101 0.025295 -0.00509472 0.00526069 -0.0164221 -0.0125422 -0.00114574 0.0269318 -0.0354608 -0.0471161 0.0390594 0.0563289 -0.000955762 -0.0124734 -0.0251023 0.00217494 0.0060375
internal_weight=0 10159 1435 8724 7319 5702 1617 1069 831 447 366 5212 4039 1173 749 424 423 1405 1278 734 211 347 170 622 293 786 523 118 3318 2523
internal_count=10506 10159 1435 8724 7319 5702 1617 1069 831 447 366 5212 4039 1173 749 424 423 1405 1278 734 211 347 170 622 293 786 523 118 3318 2523
is_linear=0
shrinkage=0.5


Tree=6
num_leaves=31
num_cat=0
split_feature=40 18 30 25 18 30 18 41 30 18 16 18 12 30 16 18 30 18 10 16 5 30 30 30 18 30 10 24 15 32
split_gain=1.00865 1.53204 0.920014 0.919845 0.835962 0.906623 0.807272 0.57786 0.563301 1.23599 0.878123 0.750551 0.685985 0.586237 0.765287 0.556605 0.749884 1.02587 0.696908 0.548428 0.583072 0.594782 0.487975 0.447093 0.612173 0.446106 0.582679 0.444022 0.43904 0.397607
threshold=1.0000000180025095e-35 664.0499880000001 91.875000000000014 1.0000000180025095e-35 583.0499880000001 89.755001050000018 612.95001200000013 1.0000000180025095e-35 92.154998800000016 646.95001200000013 252.62999955000001 651.95001200000013 371.67999880000002 91.314998650000021 242.37999955000001 679.0499880000001 92.154998800000016 648.0499880000001 0.43699999200000006 245.37999955000001 87.125000000000014 91.505001050000018 90.564998650000021 88.505001050000018 559.0499880000001 89.029998800000016 0.089500002550000013 2522.2500000000005 37008.050800000005 10.090000150000002
decision_type=2 2 2 2 2 2 2 2 2 2 2 2 2 2 2 2 2 2 2 2 2 2 2 2 2 2 2 2 2 2
left_child=3 29 -3 4 23 -6 -7 -4 9 10 13 -10 -11 14 -8 16 17 25 -17 -15 -21 -22 -16 24 -1 26 -5 -24 -14 -2
right_child=1 2 7 15 5 6 8 -9 11 12 -12 -13 28 19 22 18 -18 -19 -20 20 21 -23 27 -25 -26 -27 -28 -29 -30 -31
leaf_value=-0.026138365077137758 -0.031662806643331647 0.069546401052950665 -0.015049489434976008 -0.031815448513953015 0.023315057847924835 -0.013866410715449497 0.0029503244199393696 0.016285873556854992 -0.013517487318940388 0.015599429318240626 0.094771107900197854 0.0042350728249032086 0.066654073497386584 -0.012610616598996932 0.072359411380338398 -0.026958494157952373 -0.041584166788755192 0.037620115830007982 0.040541595985230647 -0.023119283611595164 0.062430130678694698 0.009104676153409267 0.0039204278657632464 -0.049503124092422822 0.030600212623967844 -0.026367150592044569 0.076222725243916586 0.037444067291087575 0.020807978162804667 0.00074827714164381505
leaf_weight=158 677 52 303 24 599 641 886 286 768 305 27 2649 158 722 55 64 248 99 95 120 60 407 182 98 68 325 26 216 78 110
leaf_count=158 677 52 303 24 599 641 886 286 768 305 27 2649 158 722 55 64 248 99 95 120 60 407 182 98 68 325 26 216 78 110
internal_value=0 -0.0123524 0.00579435 0.00194307 0.00359311 0.00461743 0.00307772 0.000165984 0.00471517 0.00946469 0.00505654 0.000245033 0.031261 0.00414178 0.0114975 -0.0134092 -0.0193069 -0.00765129 0.0133717 -0.00338256 0.0079678 0.0159559 0.0282146 -0.0212974 -0.00906658 -0.0196029 0.0243644 0.0221142 0.0515016 -0.0271327
internal_weight=0 1428 641 9078 8197 7873 7274 589 6633 3216 2675 3417 541 2648 1339 881 722 474 159 1309 587 467 453 324 226 375 50 398 236 787
internal_count=10506 1428 641 9078 8197 7873 7274 589 6633 3216 2675 3417 541 2648 1339 881 722 474 159 1309 587 467 453 324 226 375 50 398 236 787
is_linear=0
shrinkage=0.5


Tree=7
num_leaves=31
num_cat=0
split_feature=38 15 12 30 30 18 5 30 16 16 30 18 30 30 5 16 30 5 30 16 5 16 16 5 16 36 32 16 30 16
split_gain=0.6197 0.577416 0.475837 0.905192 0.717949 0.628173 0.562227 0.87137 0.449816 0.391918 0.721093 0.518586 0.858318 0.391445 0.567953 0.418222 0.422321 0.469461 0.387673 0.523327 0.483795 0.387143 0.376154 0.440632 0.367843 0.354312 0.386014 0.318769 0.318157 0.307828
threshold=0.76809999350000013 38001.750000000007 368.05999985 90.814998650000021 90.064998650000021 600.0499880000001 87.93999860000001 91.875000000000014 237.44999924999999 258.22499980000003 94.220001200000013 675.0499880000001 92.935001350000007 88.755001050000018 85.764999400000008 231.67000045 89.74499895000001 86.860000600000021 91.505001050000018 242.87999955000001 86.860000600000021 251.45000020000001 245.52500000000001 88.729999550000016 234.44999924999999 60.184999450000007 10.090000150000002 245.52500000000001 88.419998200000023 244.82999935000001
decision_type=2 2 2 2 2 2 2 2 2 2 2 2 2 2 2 2 2 2 2 2 2 2 2 2 2 2 2 2 2 2
left_child=25 2 4 -4 5 28 18 22 13 10 11 29 -13 -7 -15 -16 -17 -18 19 -5 -20 -14 23 -8 -6 26 -1 -22 -2 -9
right_child=1 -3 3 6 24 8 7 9 -10 -11 -12 12 21 14 15 16 17 -19 20 -21 27 -23 -24 -25 -26 -27 -28 -29 -30 -31
leaf_value=-0.0098488845974640891 0.025437034488098361 -0.0096313668800385652 0.031316529108013684 -0.01987316924237853 -0.051611145916912293 0.059846150258596499 0.011186455632322373 -0.015640346031134077 0.061406495355403247 0.021580614101953631 -0.024795301370638546 0.064881720766530329 -0.012147996345498848 -0.03240532114080364 -0.019382659441736692 0.054547969857759941 -0.020757943251298677 0.048183759192524607 -0.068200215480701862 0.012896904332080945 -0.044337308281914345 0.018222223721813546 0.06961383834597655 0.048064917555677295 -0.0058705205955462943 -0.073837191999336943 0.008880413944000163 -0.0051452465794725524 -0.015313439659291155 0.0033788244826780315
leaf_weight=1792 61 955 339 180 45 46 245 244 67 304 220 83 142 62 51 99 58 43 43 377 63 402 50 121 1891 20 325 294 223 1661
leaf_count=1792 61 955 339 180 45 46 245 244 67 304 220 83 142 62 51 99 58 43 43 377 63 402 50 121 1891 20 325 294 223 1661
internal_value=0 0.00194047 0.00343104 0.00641505 -0.00194603 0.0116542 0.00450907 0.00746666 0.0237974 0.00454418 0.00266225 0.00504798 0.0175207 0.0167785 0.010449 0.0210346 0.0313409 0.00859347 -0.00622111 0.00230693 -0.0180964 0.0102947 0.0289356 0.0233785 -0.00693371 -0.00759935 -0.00697358 -0.0120615 -0.0065607 0.000942773
internal_weight=0 8369 7414 4768 2646 710 4429 3472 426 3056 2752 2532 627 359 313 251 200 101 957 557 400 544 416 366 1936 2137 2117 357 284 1905
internal_count=10506 8369 7414 4768 2646 710 4429 3472 426 3056 2752 2532 627 359 313 251 200 101 957 557 400 544 416 366 1936 2137 2117 357 284 1905
is_linear=0
shrinkage=0.5


Tree=8
num_leaves=31
num_cat=0
split_feature=28 16 30 1 33 38 24 15 10 9 30 5 30 16 30 16 5 2 15 16 30 16 30 18 12 37 16 30 30 18
split_gain=0.351564 0.440699 0.580646 0.351874 0.48312 0.336826 0.292534 0.310664 0.267419 0.36569 0.283103 0.344423 0.397014 0.521483 0.310681 0.461486 0.277845 0.375389 0.336609 0.326109 0.262403 0.446127 0.305649 0.476416 0.257657 0.257472 0.254449 0.547326 0.433531 0.381359
threshold=1.0000000180025095e-35 229.27500000000001 87.404998800000016 1.0000000180025095e-35 1.0000000180025095e-35 0.7763500215000001 2382.0999750000005 32996.849600000009 0.13950000000000004 1.0000000180025095e-35 88.659999850000005 86.389999400000008 91.314998650000021 246.17000045 90.814998650000021 245.84999980000001 85.764999400000008 1.0000000180025095e-35 36017.550800000005 238.35000075000002 89.255001050000018 233.94999924999999 90.564998650000021 623.95001200000013 369.21000135000003 1.0000000180025095e-35 251.45000020000001 93.255001050000018 93.215000150000023 677.0499880000001
decision_type=2 2 2 2 2 2 2 2 2 2 2 2 2 2 2 2 2 2 2 2 2 2 2 2 2 2 2 2 2 2
left_child=1 2 -1 4 -2 8 -7 -8 9 -3 -10 14 13 -13 15 16 17 -12 -19 -18 -9 -22 23 -23 -5 -14 28 -28 29 -24
right_child=3 5 -4 24 -6 6 7 20 10 -11 11 12 25 -15 -16 -17 19 18 -20 -21 21 22 26 -25 -26 -27 27 -29 -30 -31
leaf_value=0.02654702560571225 0.019898611266362266 0.0084066226771943604 -0.068862266932578325 -0.0097718991042966656 -0.0026370428387756739 -0.020926585922345774 0.055486492874998863 0.028437559774223093 0.028725014632198446 -0.027193968399876246 -0.035275672962931798 0.0041766243676855143 -0.0083658680241610241 0.077957038972526788 -0.038304241773516046 0.034165829548146578 -0.024043523478654346 -0.027456374435972136 0.053800689298659561 0.022965984630923815 -0.028559084470355722 0.0032122402511819159 -0.00073345448369849741 0.043094546901712362 0.006082375777007913 0.015994827051671517 0.036200604448172059 0.0030754822041216315 -0.025182232155160838 0.029854775995024802
leaf_weight=23 697 659 52 449 361 132 28 96 58 81 218 570 2234 25 137 50 70 26 25 78 116 208 2137 117 597 114 151 716 174 107
leaf_count=23 697 659 52 449 361 132 28 96 58 81 218 570 2234 25 137 50 70 26 25 78 116 208 2137 117 597 114 151 716 174 107
internal_value=0 -0.00144739 -0.0396034 0.00577992 0.0122092 -0.00110372 0.00221807 0.0030116 -0.004148 0.0045098 -0.00592519 -0.00649179 -0.00425971 0.00727664 -0.0173676 -0.0112256 -0.0166682 -0.0262414 0.0123755 0.000731758 0.00262717 0.00196217 0.00294291 0.0175699 -0.00072314 -0.00718311 0.0014958 0.00884468 -0.00113922 0.000725075
internal_weight=0 8402 75 2104 1058 8327 3982 3850 4345 740 3605 3547 2943 595 604 467 417 269 51 148 3822 3726 3610 325 1046 2348 3285 867 2418 2244
internal_count=10506 8402 75 2104 1058 8327 3982 3850 4345 740 3605 3547 2943 595 604 467 417 269 51 148 3822 3726 3610 325 1046 2348 3285 867 2418 2244
is_linear=0
shrinkage=0.5


Tree=9
num_leaves=31
num_cat=0
split_feature=40 18 30 30 16 18 30 12 5 30 16 24 18 30 16 5 5 30 30 18 16 16 30 5 10 5 30 16 5 30
split_gain=0.319381 0.373238 0.369979 0.332 0.619005 0.517149 0.448266 0.551966 0.392876 0.375724 0.531209 0.725902 0.445855 0.594432 0.416462 0.415727 0.386486 0.381242 0.370552 0.365093 0.362418 0.344739 0.316404 0.462639 0.377484 0.314496 0.412802 0.464266 0.470563 0.507139
threshold=1.0000000180025095e-35 617.95001200000013 88.659999850000005 93.875000000000014 256.42000045000003 663.0499880000001 92.595001200000013 367.08500135000003 89.534999850000005 92.685001350000007 246.87999955000001 3039.6500250000004 617.95001200000013 91.814998650000021 252.09999980000001 87.139999400000008 87.844997400000011 92.064998650000021 94.654998800000016 688.0499880000001 255.20000020000001 254.37999955000001 90.255001050000018 87.889999400000008 0.099500000250000012 88.420002000000025 90.904998800000016 238.67000045 87.139999400000008 90.255001050000018
decision_type=2 2 2 2 2 2 2 2 2 2 2 2 2 2 2 2 2 2 2 2 2 2 2 2 2 2 2 2 2 2
left_child=3 2 -2 5 -5 9 7 -7 -9 10 17 12 -12 -14 16 -16 -15 25 19 -6 -11 -8 24 -24 -3 26 27 -1 29 -29
right_child=1 22 -4 4 18 6 21 8 -10 20 11 -13 13 14 15 -17 -18 -19 -20 -21 -22 -23 23 -25 -26 -27 -28 28 -30 -31
leaf_value=-0.0025901647166276247 -0.00038389268419927074 0.056400527459283527 -0.061783882449933533 -0.021569897878259105 0.0020164036468888289 -0.0026795371074039278 0.003153414607286542 0.031164313672239326 0.087500313895621476 -0.014184339373353758 -0.009137751490701361 0.094783078469336035 0.034375360847092036 -0.018007180870592814 -0.010659598002756208 0.061867443090792923 0.0091786935141248589 -0.014217482810457018 -0.010656289422085069 0.038540741604678755 0.017669771064425483 0.027030861944461474 -0.023529767500167508 -0.0013223776444986994 -0.0006524634397732477 0.011398617917674547 -0.0074894936271587163 0.023064039384052357 0.040363083567399372 -0.0036437143272480955
leaf_weight=1297 42 44 59 438 181 71 869 84 49 671 276 25 257 170 29 62 566 475 242 110 103 183 320 878 85 593 1468 305 128 426
leaf_count=1297 42 44 59 438 181 71 869 84 49 671 276 25 257 170 29 62 566 475 242 110 103 183 320 878 85 593 1468 305 128 426
internal_value=0 -0.00695083 -0.0362512 0.00109339 -0.00764365 0.00213985 0.0114666 0.032917 0.0519197 0.000429971 0.00175143 0.0103557 0.00880369 0.0133718 0.00684471 0.0387544 0.00289935 -0.000788397 0.00380043 0.0158229 -0.00994536 0.007307 -0.00472073 -0.00725423 0.0188075 0.000724246 -0.00102242 0.00338096 0.0123967 0.00749974
internal_weight=0 1428 101 9078 971 8107 1256 204 133 6851 6077 1385 1360 1084 827 91 736 4692 533 291 774 1052 1327 1198 129 4217 3624 2156 859 731
internal_count=10506 1428 101 9078 971 8107 1256 204 133 6851 6077 1385 1360 1084 827 91 736 4692 533 291 774 1052 1327 1198 129 4217 3624 2156 859 731
is_linear=0
shrinkage=0.5


Tree=10
num_leaves=31
num_cat=0
split_feature=12 32 30 30 16 5 16 30 18 16 30 16 30 16 18 7 17 36 5 30 30 5 16 5 30 16 5 24 30 30
split_gain=0.216832 0.280344 0.25934 0.23356 0.605352 0.528899 0.436177 0.39338 0.392374 0.317413 0.313457 0.438699 0.392939 0.51174 0.394349 0.414019 0.450585 0.374971 0.365829 0.554185 0.542487 0.343377 0.413986 0.33822 0.339137 0.38689 0.360627 0.280768 0.279377 0.259962
threshold=360.03000105000007 -19.185000399999996 89.654998800000016 91.064998650000021 238.42000045 87.045002000000011 241.42000045 88.419998200000023 634.0499880000001 244.62999955000001 91.505001050000018 245.52500000000001 93.064998650000021 250.37999955000001 688.0499880000001 1.0000000180025095e-35 1.0000000180025095e-35 51.954999900000011 89.139999400000008 92.595001200000013 92.375000000000014 88.875000000000014 243.37999955000001 89.43999860000001 92.314998650000021 251.70000020000001 88.560001400000019 2901.7500000000005 94.314998650000021 92.465000150000023
decision_type=2 2 2 2 2 2 2 2 2 2 2 2 2 2 2 2 2 2 2 2 2 2 2 2 2 2 2 2 2 2
left_child=1 2 -1 6 -5 9 7 -2 -9 -6 17 29 13 18 -14 28 -17 21 20 -20 -13 22 -7 24 -15 -26 -27 -11 -16 -12
right_child=3 -3 -4 4 5 10 -8 8 -10 27 11 12 14 23 15 16 -18 -19 19 -21 -22 -23 -24 -25 25 26 -28 -29 -30 -31
leaf_value=0.016847194248199669 0.053626637227888053 -0.012524468315436093 -0.0077305418145372411 -0.052345011042364477 -0.048394171048456162 0.00072239692070724421 0.015788823717801041 -0.0043764917208558868 0.018557078706332886 -0.015348438878360222 -0.0064826708889558389 0.0047093641621079414 -0.0072516481671049257 0.046438207262230878 0.01251167976195627 -0.0029796279238742162 0.053757472265630872 -0.024729262537688815 0.037047573839735393 0.0034465286621040291 -0.01792765265037034 0.059224188375549436 0.025507061764882464 0.058242904853221832 -0.0089003673975116045 0.0081016814273721909 0.045506778500926923 0.031584040893773944 -0.0091249988123444439 -0.031153111202063179
leaf_weight=199 34 719 233 56 67 406 685 1195 221 356 1040 771 1586 76 278 59 86 70 162 506 403 39 288 51 165 178 101 35 322 119
leaf_count=199 34 719 233 56 67 406 685 1195 221 356 1040 771 1586 76 278 59 86 70 162 506 403 39 288 51 165 178 101 35 322 119
internal_value=0 -0.00647586 0.00359115 0.000796763 -0.000561792 -0.00015701 0.00539103 0.000478974 -0.00079717 -0.0165961 0.000965731 -0.000295075 0.00183545 0.00630797 -0.00279441 0.00669442 0.0306713 0.0102341 0.00225392 0.0115953 -0.00306126 0.0135731 0.0110077 0.019386 0.0155751 0.0102922 0.0216426 -0.0111473 0.000899996 -0.0090157
internal_weight=0 1151 432 9355 7220 7164 2135 1450 1416 458 6706 5903 4744 2413 2331 745 145 803 1842 668 1174 733 694 571 520 444 279 391 600 1159
internal_count=10506 1151 432 9355 7220 7164 2135 1450 1416 458 6706 5903 4744 2413 2331 745 145 803 1842 668 1174 733 694 571 520 444 279 391 600 1159
is_linear=0
shrinkage=0.5


Tree=11
num_leaves=31
num_cat=0
split_feature=15 24 30 16 16 10 36 24 30 16 16 5 11 5 30 16 16 12 30 41 30 5 2 16 30 16 30 5 30 24
split_gain=0.222414 0.233818 0.345716 0.476506 0.384219 0.291379 0.274717 0.250008 0.242763 0.389964 0.28089 0.250503 0.238149 0.232341 0.221127 0.20496 0.204902 0.204032 0.199608 0.198641 0.186853 0.478875 0.184634 0.181585 0.246954 0.653154 0.355017 0.413531 0.339903 0.269545
threshold=34001.050800000005 2508.0000000000005 90.715000150000023 240.12999955000001 236.52500000000001 0.3404999975000001 47.824998850000007 2764.0000000000005 89.74499895000001 229.92000045 233.27500000000001 87.715000150000023 1.0000000180025095e-35 87.094997400000011 92.625000000000014 261.77500000000003 236.25499955000001 378.40499700000004 88.659999850000005 1.0000000180025095e-35 88.909999850000005 85.485000600000021 1.0000000180025095e-35 246.07999935000001 89.125000000000014 254.92000045 90.375000000000014 84.609996800000019 91.465000150000023 904.00000000000011
decision_type=2 2 2 2 2 2 2 2 2 2 2 2 2 2 2 2 2 2 2 2 2 2 2 2 2 2 2 2 2 2
left_child=14 6 3 7 -4 12 22 8 9 18 -10 -12 -6 -7 23 -15 20 -14 -3 -9 -11 -22 -2 -1 29 26 -26 -28 -29 -25
right_child=1 2 4 -5 5 13 -8 19 10 16 11 -13 17 15 -16 -17 -18 -19 -20 -21 21 -23 -24 24 25 -27 27 28 -30 -31
leaf_value=-0.014976203572464021 -0.0013928766635085232 0.0042631321453622407 -0.047584282945580328 0.040946318467309617 0.0062741593019402632 -0.024995458568877506 -0.01188256515945939 0.036877221197452549 -0.040865624653726666 0.043735234491274845 -0.005821159305665069 0.032325729519361628 -0.0027056912827315674 -0.0019195713850380903 -0.028043176342556573 0.03002113349023549 0.059220736846327782 -0.038036048565434452 -0.056577030160741955 0.0013695936180621146 -0.037781821157079232 0.024119267968239537 0.02178948226577157 -0.0053528104295820058 0.060067057561051719 0.079281539667487869 -0.065933783810275301 0.02698984715402469 -0.014668846234729114 -0.062063980663272865
leaf_weight=266 1293 28 41 115 2642 108 722 108 49 48 309 50 366 3305 116 51 32 46 26 62 42 122 92 165 24 31 24 87 112 24
leaf_count=266 1293 28 41 115 2642 108 722 108 49 48 309 50 366 3305 116 51 32 46 26 62 42 122 92 165 24 31 24 87 112 24
internal_value=0 0.000682126 0.00198184 0.0106862 0.00066669 0.000970201 -0.00397512 0.00671372 0.00256879 0.0134176 -0.00535507 -0.000508222 0.00453058 -0.00216877 -0.00775889 -0.00143418 0.0219265 -0.00665034 -0.0250303 0.0239274 0.0162972 0.00826655 0.000147035 -0.00454882 0.00139054 0.010871 0.00228504 -0.00393365 0.00354375 -0.0125542
internal_weight=0 9657 7550 991 6559 6518 2107 876 706 298 408 359 3054 3464 849 3356 244 412 54 170 212 164 1385 733 467 278 247 223 199 189
internal_count=10506 9657 7550 991 6559 6518 2107 876 706 298 408 359 3054 3464 849 3356 244 412 54 170 212 164 1385 733 467 278 247 223 199 189
is_linear=0
shrinkage=0.5


Tree=12
num_leaves=31
num_cat=0
split_feature=36 12 16 1 37 30 18 16 16 30 5 5 30 16 30 5 30 18 30 5 16 5 25 16 5 12 5 30 16 30
split_gain=0.180401 0.226072 0.238308 0.212703 0.178489 0.197078 0.391091 0.280837 0.211541 0.350319 0.374012 0.336265 0.314775 0.268784 0.458137 0.28106 0.341868 0.242602 0.226463 0.497157 0.221478 0.231603 0.219012 0.209199 0.217229 0.197648 0.196459 0.228594 0.190561 0.212973
threshold=50.895000450000005 351.52500000000003 255.20000020000001 1.0000000180025095e-35 1.0000000180025095e-35 93.465000150000023 676.0499880000001 251.45000020000001 247.92000045 92.215000150000023 88.045002000000011 88.704998000000018 91.314998650000021 242.62999955000001 91.314998650000021 89.110000600000021 91.625000000000014 654.75000000000011 92.49499895000001 88.229999550000016 253.37999955000001 87.875000000000014 1.0000000180025095e-35 238.35000075000002 88.49499895000001 369.02500000000003 88.704998000000018 92.904998800000016 243.17000045 92.99499895000001
decision_type=2 2 2 2 2 2 2 2 2 2 2 2 2 2 2 2 2 2 2 2 2 2 2 2 2 2 2 2 2 2
left_child=4 -2 -3 -4 5 6 8 -7 9 10 12 -11 17 14 23 16 -15 -1 19 -10 26 -22 -16 -12 -25 -8 -20 -28 -13 -30
right_child=1 2 3 -5 -6 7 25 -9 18 11 13 28 -14 15 22 -17 -18 -19 20 -21 21 -23 -24 24 -26 -27 27 -29 29 -31
leaf_value=0.0001706795483519922 -0.048259862022435603 -0.0069413920116384092 -0.010405094194639888 0.025910767384890017 0.012697110570715282 -0.025707885199784758 -0.0038771143689783375 -0.0026167009539202106 0.0061328893955182118 -0.04112252654410025 0.0035346318758153455 -0.039344662279608054 -0.011152566360459425 0.046902295870401352 -0.0075214835389000815 0.03843116331470945 0.0063498539789361534 0.051746638734703476 -0.017464802930286776 0.041055810968192955 -0.014483246549074961 0.022275437746392311 -0.055233655792947575 0.015681601063988637 0.061958771675736421 0.027527119331562763 0.011326030526481155 -0.0073807205475282436 -0.002272264934221173 -0.0347739238651808
leaf_weight=2625 30 1174 63 112 305 147 66 1263 533 81 120 43 723 58 321 108 500 23 180 126 55 194 26 64 42 208 301 357 603 55
leaf_count=2625 30 1174 63 112 305 147 66 1263 533 81 120 43 723 58 321 108 500 23 180 126 55 194 26 64 42 208 301 357 603 55
internal_value=0 -0.00533032 -0.00437562 0.0128371 0.000805358 0.000394229 0.00142496 -0.00502408 0.000713377 -0.000835531 0.000824361 -0.0106208 -0.00190599 0.00825295 0.000313395 0.0150838 0.010565 0.000618658 0.00549672 0.0128101 0.00106293 0.014156 -0.0110965 0.0178321 0.0340178 0.0199626 -0.0028275 0.00117662 -0.00709638 -0.00498897
internal_weight=0 1379 1349 175 9127 8822 7412 1410 7138 5392 4610 782 3371 1239 573 666 558 2648 1746 659 1087 249 347 226 106 274 838 658 701 658
internal_count=10506 1379 1349 175 9127 8822 7412 1410 7138 5392 4610 782 3371 1239 573 666 558 2648 1746 659 1087 249 347 226 106 274 838 658 701 658
is_linear=0
shrinkage=0.5


Tree=13
num_leaves=31
num_cat=0
split_feature=24 36 16 30 5 16 16 18 10 30 5 16 16 18 16 30 5 5 10 15 41 5 30 18 40 30 36 24 16 30
split_gain=0.196911 0.189522 0.12944 0.169724 0.166628 0.152995 0.146128 0.162112 0.125437 0.151671 0.403407 0.340653 0.202157 0.194041 0.300238 0.203567 0.291923 0.188999 0.135974 0.144631 0.128478 0.166142 0.161298 0.292359 0.213112 0.205714 0.187258 0.17576 0.136998 0.128962
threshold=2736.3499750000005 58.065000550000008 274.77500000000003 90.159999850000005 86.729999550000016 233.52500000000001 265.52500000000003 619.95001200000013 0.22050000000000003 90.064998650000021 85.735000600000021 232.77500000000001 233.94999924999999 588.0499880000001 241.62999955000001 89.154998800000016 85.625000000000014 84.889999400000008 0.39949999750000004 35974.099600000009 1.0000000180025095e-35 86.43999860000001 88.659999850000005 642.75000000000011 1.0000000180025095e-35 91.465000150000023 48.895000450000005 2246.4499500000006 242.62999955000001 91.404998800000016
decision_type=2 2 2 2 2 2 2 2 2 2 2 2 2 2 2 2 2 2 2 2 2 2 2 2 2 2 2 2 2 2
left_child=1 8 3 4 -2 -6 7 -5 20 11 -11 -10 -12 18 15 17 -17 -15 19 -13 22 -22 26 24 27 28 -1 -24 -25 -23
right_child=2 -3 -4 6 5 -7 -8 -9 9 10 12 13 -14 14 -16 16 -18 -19 -20 -21 21 29 23 25 -26 -27 -28 -29 -30 -31
leaf_value=0.0065757765966709212 0.0075754176772710293 -0.046858738156278494 -0.037080857576802372 -0.0127142713001187 0.010799995668304082 0.061751585022327214 0.045055155400768855 0.0030057468992210731 -0.01337473631284263 -0.032405516703243653 -0.050895527576689019 -0.057472131828862155 -0.002832714473131747 0.012307525873466424 0.058798631432613262 -0.017277143790852278 0.017631490681775969 0.068158178319988244 0.013165813365152905 -0.0013462557690218091 -0.003710533963321461 0.020584792499728513 -0.033942511411234069 0.016740218319076423 -0.035283446945603703 0.0012275591966321798 0.05849282669078093 -0.0043258577200590244 0.065994786843657491 0.0057299656468887423
leaf_weight=132 124 23 20 173 26 34 20 3153 191 121 22 22 3950 33 38 90 179 28 35 24 313 208 56 48 79 358 20 475 20 491
leaf_count=132 124 23 20 173 26 34 20 3153 191 121 22 22 3950 33 38 90 179 28 35 24 313 208 56 48 79 358 20 475 20 491
internal_value=0 -0.0015464 0.00303007 0.00325733 0.0180419 0.0396726 0.00244431 0.00218808 -0.00139608 -0.00284607 -0.0039653 0.0043118 -0.00309892 0.0118355 0.016712 0.0118657 0.00595202 0.0379439 -0.0103197 -0.0281891 0.00172339 0.00586329 -0.0018032 -0.00403481 -0.011054 0.00601618 0.013407 -0.00744927 0.0312269 0.0101503
internal_weight=0 6956 3550 3530 184 60 3346 3326 6933 4733 4093 640 3972 449 368 330 269 61 81 46 2200 1012 1188 1036 610 426 152 531 68 699
internal_count=10506 6956 3550 3530 184 60 3346 3326 6933 4733 4093 640 3972 449 368 330 269 61 81 46 2200 1012 1188 1036 610 426 152 531 68 699
is_linear=0
shrinkage=0.5


Tree=14
num_leaves=31
num_cat=0
split_feature=16 36 5 30 30 16 16 18 30 30 16 10 5 30 16 15 31 12 5 30 5 16 30 5 30 5 16 30 5 16
split_gain=0.165785 0.118148 0.189571 0.227794 0.184513 0.273317 0.251145 0.229666 0.292181 0.235904 0.223686 0.192464 0.187213 0.367863 0.256415 0.173844 0.15729 0.154945 0.147201 0.146862 0.223693 0.146804 0.268619 0.190667 0.190144 0.231463 0.159194 0.193366 0.239824 0.204358
threshold=321.02500000000003 47.139999350000004 89.639999400000008 92.685001350000007 92.034999850000005 244.62999955000001 248.20000020000001 582.50000000000011 88.755001050000018 88.279998800000016 230.77500000000001 0.49050000350000006 87.965000150000023 90.625000000000014 235.17000045 36000.44920000001 149271.54700000005 378.40499700000004 86.389999400000008 89.654998800000016 85.889999400000008 248.92000045 92.74499895000001 88.99499895000001 92.784999850000005 87.139999400000008 252.42000045 93.314998650000021 89.229999550000016 257.42000000000002
decision_type=2 2 2 2 2 2 2 2 2 2 2 2 2 2 2 2 2 2 2 2 2 2 2 2 2 2 2 2 2 2
left_child=1 -1 4 15 6 -6 7 9 10 -3 -9 12 13 14 -10 -4 -13 21 -8 -16 -21 22 23 -7 25 -23 -26 28 -28 -29
right_child=-2 2 3 -5 5 17 18 8 11 -11 -12 16 -14 -15 19 -17 -18 -19 -20 20 -22 24 -24 -25 26 -27 27 29 -30 -31
leaf_value=0.0022766810629027251 -0.045479342248290776 0.0039803969738041534 0.051478871068841706 0.0015149924086251339 -0.031318769196540738 -0.015759571033470143 0.0029604908125844811 -0.0046366295511169097 -0.0063805452067489648 -0.05524849722860381 0.046317798459702839 -0.013730504629403674 0.0076830826632002256 -0.0097124440629893644 0.030230151638496648 0.01227689932808668 0.0026806912188261363 -0.025163720579815075 0.027893248509170243 -0.0088409146086515615 0.017525727394205725 -0.038278016106535993 -0.040108113469722775 0.0039680305299820886 -0.018388945773249257 0.012627186911903043 0.00076047376697876165 -0.024469830681548708 0.042524619246883645 0.014630231798946625
leaf_weight=3880 20 29 37 1527 109 257 122 35 275 40 56 520 615 843 97 120 203 93 115 124 229 24 67 234 174 321 136 110 46 48
leaf_count=3880 20 29 37 1527 109 257 122 35 275 40 56 520 615 843 97 120 203 93 115 124 229 24 67 234 174 321 136 110 46 48
internal_value=0 8.6743e-05 -0.00119951 0.00337966 -0.00276621 -0.00713885 -0.000622911 -0.00183509 -0.00117847 -0.0303552 0.0267199 -0.00205209 0.000289647 -0.0026102 0.00564799 0.0215156 -0.00912266 -0.00539341 0.0150587 0.0129988 0.00826379 -0.00409586 -0.0104103 -0.00635782 5.94263e-06 0.00908596 -0.00608862 0.000206255 0.0113162 -0.0125913
internal_weight=0 10486 6606 1684 4922 1619 3303 3066 2997 69 91 2906 2183 1568 725 157 723 1510 237 450 353 1417 558 491 859 345 514 340 182 158
internal_count=10506 10486 6606 1684 4922 1619 3303 3066 2997 69 91 2906 2183 1568 725 157 723 1510 237 450 353 1417 558 491 859 345 514 340 182 158
is_linear=0
shrinkage=0.5


Tree=15
num_leaves=31
num_cat=0
split_feature=30 16 16 30 18 16 36 30 30 5 18 15 10 5 30 5 5 30 16 5 16 16 16 5 5 30 30 16 30 30
split_gain=0.135178 0.227157 0.203676 0.225461 0.248407 0.219797 0.218341 0.206538 0.185412 0.183529 0.182526 0.182184 0.182343 0.178469 0.384962 0.203171 0.193002 0.227465 0.20721 0.273773 0.204317 0.17986 0.178236 0.185667 0.170345 0.168145 0.163574 0.167932 0.225081 0.159154
threshold=93.99499895000001 256.42000045000003 251.12999955000001 92.465000150000023 677.95001200000013 242.67000045 51.954999900000011 90.215000150000023 91.314998650000021 88.49499895000001 678.95001200000013 34973.349600000009 0.18050000050000001 88.729999550000016 91.965000150000023 87.795002000000011 86.255001050000018 91.404998800000016 245.42000045 87.360000600000021 248.12999955000001 249.95000020000001 239.44999924999999 88.229999550000016 89.579998000000003 91.715000150000023 93.404998800000016 246.37999955000001 92.74499895000001 90.814998650000021
decision_type=2 2 2 2 2 2 2 2 2 2 2 2 2 2 2 2 2 2 2 2 2 2 2 2 2 2 2 2 2 2
left_child=2 -2 3 4 5 8 7 -7 9 -1 -4 -12 -13 14 16 -16 29 20 -19 -20 -18 -17 -10 -24 -5 -25 27 -26 -29 -9
right_child=1 -3 10 24 -6 6 -8 13 22 -11 11 12 -14 -15 15 21 17 18 19 -21 -22 -23 23 25 26 -27 -28 28 -30 -31
leaf_value=-0.0014830208916699248 -0.015034158384526285 0.00070224350857699342 0.0029531468866838373 -0.012754184481565338 0.046931621899571396 0.033563699749809855 -0.011815794381097686 0.0059412081850395123 -0.035619611188488463 0.017981080887292642 -0.028057098050009121 0.053587259762399995 0.014811452052133843 0.011819857368427925 -0.028629166967663412 -0.0074408677534813271 0.014467947508514654 -0.0047363296714302778 -0.0067500345273777008 0.020189004219451287 0.064809803562682303 0.032717170643930635 -0.02397233267529084 0.0093864477728723712 -0.011852067694102564 -0.011924934554869098 -0.01785635634866382 0.036532680299748085 0.0022687209740485819 -0.018205226760060676
leaf_weight=2611 386 565 1402 583 29 61 213 135 63 127 22 34 280 595 111 395 501 415 143 277 21 30 126 177 185 194 133 53 501 138
leaf_count=2611 386 565 1402 583 29 61 213 135 63 127 22 34 280 595 111 395 501 415 143 277 21 30 126 177 185 194 133 53 501 138
internal_value=0 -0.00568498 0.000565821 -0.000522683 0.000761481 0.00055006 0.00362065 0.00478577 -0.00227567 -0.000580194 0.00546158 0.0159283 0.0190101 0.00414997 0.00204305 -0.00958109 0.00586547 0.0083058 0.00318745 0.0110169 0.0164932 -0.00460618 -0.0105653 -0.00738944 -0.0061377 -0.00175751 -0.00171407 0.00119111 0.00554668 -0.00626468
internal_weight=0 951 9555 7817 6362 6333 3035 2822 3298 2738 1738 336 314 2761 2166 536 1630 1357 835 420 522 425 560 497 1455 371 872 739 554 273
internal_count=10506 951 9555 7817 6362 6333 3035 2822 3298 2738 1738 336 314 2761 2166 536 1630 1357 835 420 522 425 560 497 1455 371 872 739 554 273
is_linear=0
shrinkage=0.5


Tree=16
num_leaves=31
num_cat=0
split_feature=2 10 18 30 10 15 30 36 12 30 18 30 18 18 5 30 18 16 30 5 5 30 16 30 5 30 36 32 10 5
split_gain=0.131706 0.242042 0.261723 0.253747 0.224322 0.157773 0.155695 0.129761 0.128345 0.198432 0.156444 0.161512 0.126523 0.0927728 0.112032 0.0872397 0.162754 0.128636 0.191796 0.193155 0.189569 0.254234 0.208357 0.183656 0.173196 0.17943 0.162375 0.176254 0.328306 0.158085
threshold=1.0000000180025095e-35 0.32449999450000006 625.95001200000013 91.24499895000001 0.64049997950000004 37001.650400000006 89.74499895000001 50.895000450000005 376.11500000000007 94.125000000000014 669.95001200000013 94.74499895000001 683.95001200000013 596.0499880000001 85.979999550000016 94.564998650000021 684.0499880000001 254.67000045 93.875000000000014 92.154998800000016 90.24499895000001 92.935001350000007 248.20000020000001 92.154998800000016 88.255001050000018 91.125000000000014 46.985000600000006 7.4399998200000006 0.07950000090000002 88.844997400000011
decision_type=2 2 2 2 2 2 2 2 2 2 2 2 2 2 2 2 2 2 2 2 2 2 2 2 2 2 2 2 2 2
left_child=15 7 6 -4 8 -6 -3 13 9 -5 -10 12 -12 -2 -15 17 -17 18 20 -20 21 22 23 -1 25 -24 27 -19 -29 -23
right_child=1 2 3 4 5 -7 -8 -9 10 -11 11 -13 -14 14 -16 16 -18 26 19 -21 -22 29 24 -25 -26 -27 -28 28 -30 -31
leaf_value=-0.00055222252823661439 -0.0049334808667797761 0.014544521549554624 0.031536189071886558 0.0040979056724657617 -0.006443814703299508 -0.043902634066485223 -0.031351204572739003 -0.01281968739377113 -0.0038550690417954079 -0.029735419418121099 0.025486216862742422 -0.0022636722587049008 0.072642687564366495 0.047153029299806803 0.0162601521691315 -0.042244889163129934 -0.0049691638236534063 0.006756491234571311 -0.021381579251355438 0.02382869824456672 0.0081024645566003528 -0.040661072106707059 0.029831440611319107 -0.0090960905803817854 0.012417880034660295 -0.0036326110533527693 0.0095333004775649006 -0.0043674854603650178 -0.065886622134210732 -0.0091158397531216906
leaf_weight=4882 46 23 71 375 85 42 94 42 51 49 33 25 25 32 354 33 260 135 189 27 576 43 44 722 527 447 639 86 29 520
leaf_count=4882 46 23 71 375 85 42 94 42 51 49 33 25 25 32 354 33 260 135 189 27 576 43 44 722 527 447 639 86 29 520
internal_value=0 0.0046163 -0.00032241 0.00308337 0.000134243 -0.0188318 -0.022329 0.0137123 0.00445088 0.000187922 0.0179396 0.0313316 0.0458123 0.0162918 0.0188212 -0.000678913 -0.00916745 -0.000398387 -0.00103418 -0.0157303 -0.00062517 -0.00132484 -0.000457611 -0.00165298 0.00612282 -0.000633796 0.00530662 -0.00549676 -0.019881 -0.0115252
internal_weight=0 1347 873 756 685 127 117 474 558 424 134 83 58 432 386 9159 293 8866 7977 216 7761 7185 6622 5604 1018 491 889 250 115 563
internal_count=10506 1347 873 756 685 127 117 474 558 424 134 83 58 432 386 9159 293 8866 7977 216 7761 7185 6622 5604 1018 491 889 250 115 563
is_linear=0
shrinkage=0.5


Tree=17
num_leaves=31
num_cat=0
split_feature=16 30 5 5 30 5 5 12 30 16 16 30 16 38 30 18 5 18 30 16 16 16 30 16 24 31 24 15 36 12
split_gain=0.084251 0.194146 0.205278 0.196514 0.159925 0.405492 0.149398 0.175365 0.156565 0.352877 0.18237 0.160022 0.113519 0.107562 0.104423 0.1735 0.168258 0.13411 0.152138 0.155231 0.129415 0.121921 0.103617 0.0974727 0.0965995 0.0990577 0.093984 0.0888408 0.0976766 0.0844764
threshold=238.35000075000002 90.215000150000023 86.610000600000021 86.479999550000016 88.034999850000005 82.889999400000008 85.005001050000018 368.05999985 89.465000150000023 232.22500075000002 236.87999955000001 89.125000000000014 235.52500000000001 0.76725000150000011 92.534999850000005 635.95001200000013 89.755001050000018 691.0499880000001 94.284999850000005 258.02500000000003 256.42000045000003 244.92000045 94.755001050000018 244.32999935000001 2602.2500000000005 145335.89850000004 2124.3499750000005 36002.050800000005 46.985000600000006 361.96500240000006
decision_type=2 2 2 2 2 2 2 2 2 2 2 2 2 2 2 2 2 2 2 2 2 2 2 2 2 2 2 2 2 2
left_child=1 2 4 -3 5 26 7 13 9 27 -10 -11 29 -6 16 -16 -2 21 20 -20 -19 -17 -21 -18 -14 -26 -1 -8 -29 -5
right_child=14 3 -4 12 6 -7 8 -9 10 11 -12 -13 24 -15 15 17 23 18 19 22 -22 -23 -24 -25 25 -27 -28 28 -30 -31
leaf_value=0.011944643210154027 0.0015378932836756661 -0.059027509586442081 0.014088917362947909 -0.01112829505662233 -0.038569493524608062 0.066160727940898917 0.0073465337330336743 0.023344054707558827 -0.016876717193081276 0.068733698222786188 0.011369835565710673 0.019740490539115852 -0.017080395901861951 -0.013356627828730068 -0.041475215926766396 -0.029458871258178816 0.011257974246953741 0.010945600791644581 -0.014472018672310807 0.022882812595934662 0.04943223027900482 -0.0023177913448774136 -9.1142193345791271e-05 0.042834476863000806 0.0096731594788062192 -0.010462843592716221 -0.036528040352277455 0.0092414423734659239 -0.030466241199696847 -0.041029464266929688
leaf_weight=20 5365 21 217 51 61 28 47 25 200 20 80 100 122 138 27 42 81 243 139 69 24 2792 170 35 129 116 20 21 59 44
leaf_count=20 5365 21 217 51 61 28 47 25 200 20 80 100 122 138 27 42 81 243 139 69 24 2792 170 35 129 116 20 21 59 44
internal_value=0 -0.00344403 0.000415628 -0.0117227 -0.00320721 0.0200122 -0.00530964 -0.0161266 -0.000711925 0.00846385 -0.00880627 0.027906 -0.00957251 -0.0210852 0.000582117 -0.00154889 0.00194525 -0.00123903 0.00526816 -0.00118569 0.0144051 -0.00272002 0.00654151 0.0207854 -0.00558491 0.000139378 -0.0122917 -0.0099067 -0.020043 -0.0249773
internal_weight=0 1519 1036 483 819 68 751 224 527 247 280 120 462 199 8987 3506 5481 3479 645 378 267 2834 239 116 367 245 40 127 80 95
internal_count=10506 1519 1036 483 819 68 751 224 527 247 280 120 462 199 8987 3506 5481 3479 645 378 267 2834 239 116 367 245 40 127 80 95
is_linear=0
shrinkage=0.5


Tree=18
num_leaves=31
num_cat=0
split_feature=5 30 16 16 5 30 32 30 38 32 1 5 16 31 32 18 30 5 5 5 30 16 5 38 15 16 30 12 18 39
split_gain=0.0683771 0.199827 0.219014 0.191558 0.210643 0.15854 0.142016 0.203673 0.15392 0.1296 0.125198 0.122635 0.123782 0.194305 0.177885 0.112331 0.130556 0.112749 0.109467 0.104346 0.145835 0.167266 0.123778 0.148656 0.103163 0.161083 0.101651 0.101563 0.0871548 0.0844917
threshold=85.764999400000008 90.625000000000014 237.92000045 240.92000045 86.965000150000023 90.904998800000016 -14.885000249999999 91.125000000000014 0.74524998650000007 -9.9749999049999989 1.0000000180025095e-35 86.755001050000018 242.09999980000001 117695.6015 -4.0050001149999988 622.0499880000001 90.159999850000005 86.215000150000023 89.329998000000003 87.875000000000014 89.654998800000016 233.27500000000001 87.005001050000018 0.7651000025000001 37998.650400000006 230.42000045 89.99499895000001 375.08999850000004 619.95001200000013 1.0000000180025095e-35
decision_type=2 2 2 2 2 2 2 2 2 2 2 2 2 2 2 2 2 2 2 2 2 2 2 2 2 2 2 2 2 2
left_child=6 2 19 4 -3 -6 8 9 -1 26 -7 12 13 15 -15 16 -4 -18 -12 20 29 -22 23 -23 25 -11 -8 -10 -14 -2
right_child=1 3 11 -5 5 10 7 -9 27 24 18 -13 28 14 -16 -17 17 -19 -20 -21 21 22 -24 -25 -26 -27 -28 -29 -30 -31
leaf_value=0.040015942220829208 0.0043478084513771153 -0.030399920045066423 0.028094923687412551 0.00047774539658086419 0.0039503789717508925 -0.0026623135550447631 -0.013175969244912267 -0.041991154305287638 0.0036933275567675341 -0.036750918425815668 -0.023934894132676715 0.036718284101773274 0.05981489066921529 0.0026943061306762199 0.055891984008309067 -0.031179783001009907 -0.027057449250653582 0.011459239725043421 0.0051599137413387113 0.024151810642797499 -0.03022858257029663 0.031814107416375054 0.010527606126323924 -0.012316755123115334 0.018866282383290429 -0.0032604011854225879 -0.055457172973547131 -0.030606734404421371 0.016866714840202971 0.025221664860589004
leaf_weight=28 163 89 38 7356 315 244 44 40 350 38 189 68 21 30 33 28 38 38 39 50 57 21 141 209 48 651 21 23 27 69
leaf_count=28 163 89 38 7356 315 244 44 40 350 38 189 68 21 30 33 28 38 38 39 50 57 21 141 209 48 651 21 23 27 69
internal_value=0 0.000467268 0.00702939 -0.000354591 -0.00734393 -0.00473659 -0.00348215 -0.00717038 0.00426223 -0.00543369 -0.010534 0.0178675 0.0128009 0.0074493 0.0305598 -0.00280394 0.00416557 -0.0077991 -0.0189582 0.00212935 0.000460978 -0.00501108 -0.00113669 -0.00828742 -0.0035461 -0.00510748 -0.0268361 0.00157831 0.0356565 0.010556
internal_weight=0 9263 1031 8232 876 787 1243 842 401 802 472 321 253 205 63 142 114 76 228 710 660 428 371 230 737 689 65 373 48 232
internal_count=10506 9263 1031 8232 876 787 1243 842 401 802 472 321 253 205 63 142 114 76 228 710 660 428 371 230 737 689 65 373 48 232
is_linear=0
shrinkage=0.5


Tree=19
num_leaves=31
num_cat=0
split_feature=24 36 12 40 38 30 18 16 30 2 16 18 30 16 30 32 32 16 38 32 30 16 16 31 38 5 16 12 16 30
split_gain=0.0635796 0.082733 0.0973629 0.0822027 0.103227 0.072079 0.120454 0.128937 0.138771 0.0861812 0.141826 0.0831423 0.136908 0.103136 0.0946696 0.0821463 0.0810258 0.0804469 0.0719788 0.0827216 0.0890952 0.0897963 0.0777103 0.0726159 0.0709642 0.0709528 0.0708629 0.070148 0.0688879 0.155083
threshold=2736.3499750000005 48.48000145000001 382.90000000000003 1.0000000180025095e-35 0.76289999450000012 91.904998800000016 642.0499880000001 243.17000045 92.755001050000018 1.0000000180025095e-35 243.62999955000001 711.45001200000013 94.909999850000005 253.37999955000001 93.465000150000023 -53.204999899999997 -1.4650000349999999 248.67000045 0.78490000950000016 11.650000100000002 88.505001050000018 232.97500075000002 245.12999955000001 138355.00000000003 0.78889998800000016 90.255001050000018 253.45000020000001 366.12000120000005 250.67000045 91.814998650000021
decision_type=2 2 2 2 2 2 2 2 2 2 2 2 2 2 2 2 2 2 2 2 2 2 2 2 2 2 2 2 2 2
left_child=1 2 28 5 -5 9 26 -8 17 15 16 12 13 24 -15 -2 -11 25 19 20 -3 -22 27 -24 -10 -9 -7 -20 29 -1
right_child=3 18 -4 4 -6 6 7 8 11 10 -12 -13 -14 14 -16 -17 -18 -19 22 -21 21 -23 23 -25 -26 -27 -28 -29 -30 -31
leaf_value=0.0018220288311212862 -0.011045344859090487 0.014438264862154469 -0.013774533214503511 -0.035241347458213571 -0.0023703313744956058 -0.012772729699382481 -0.024973921261594763 0.0055978975195468926 -0.0045454203364747427 0.01542545417252548 0.036651394066754155 0.018901317050190772 -0.019587315942813783 0.027731382060269621 0.0040015105376040635 0.0056418671544198468 -0.010708275790627587 0.024296697028807226 0.0023505406947711329 -0.016795454161240734 -0.021320582911406795 -0.0035205666066789138 0.0068030692987535576 0.035652573894837808 0.025751548826519866 0.035550464986867848 0.0184280370362103 -0.025458623614997185 0.0044234804293485771 -0.0052074204920641836
leaf_weight=2562 82 66 120 25 535 202 42 338 575 91 57 58 87 46 487 733 44 87 104 127 74 1666 88 29 20 21 20 29 960 1131
leaf_count=2562 82 66 120 25 535 202 42 338 575 91 57 58 87 46 487 733 44 87 104 127 74 1666 88 29 20 21 20 29 960 1131
internal_value=0 -0.000878708 0.000287459 0.00172177 -0.00383779 0.00276303 0.00101362 0.00239723 0.00306599 0.006208 0.0157379 0.000406892 -0.00047597 0.000998044 0.00604949 0.00396291 0.00690779 0.0106557 -0.00342846 -0.00446099 -0.00359361 -0.00427758 0.004555 0.0139538 -0.00352703 0.00735 -0.00996185 -0.00371311 0.000650115 -0.000330776
internal_weight=0 6956 4773 3550 560 2990 1983 1761 1719 1007 192 1273 1215 1128 533 815 135 446 2183 1933 1806 1740 250 117 595 359 222 133 4653 3693
internal_count=10506 6956 4773 3550 560 2990 1983 1761 1719 1007 192 1273 1215 1128 533 815 135 446 2183 1933 1806 1740 250 117 595 359 222 133 4653 3693
is_linear=0
shrinkage=0.5


end of trees

feature_importances:
Column_30=159
Column_16=129
Column_5=87
Column_18=70
Column_10=18
Column_12=18
Column_36=18
Column_24=15
Column_15=14
Column_32=10
Column_38=10
Column_2=7
Column_31=7
Column_1=6
Column_33=5
Column_40=4
Column_41=4
Column_7=3
Column_11=3
Column_25=3
Column_28=3
Column_9=2
Column_17=2
Column_37=2
Column_39=1

parameters:
[boosting: gbdt]
[objective: regression]
[metric: rmse,l2]
[tree_learner: serial]
[device_type: cpu]
[data: ]
[valid: ]
[num_iterations: 20]
[learning_rate: 0.5]
[num_leaves: 31]
[num_threads: -1]
[deterministic: 0]
[force_col_wise: 0]
[force_row_wise: 0]
[histogram_pool_size: -1]
[max_depth: 20]
[min_data_in_leaf: 20]
[min_sum_hessian_in_leaf: 0.001]
[bagging_fraction: 1]
[pos_bagging_fraction: 1]
[neg_bagging_fraction: 1]
[bagging_freq: 0]
[bagging_seed: 3]
[feature_fraction: 1]
[feature_fraction_bynode: 1]
[feature_fraction_seed: 2]
[extra_trees: 0]
[extra_seed: 6]
[early_stopping_round: 1000]
[first_metric_only: 0]
[max_delta_step: 0]
[lambda_l1: 0]
[lambda_l2: 0]
[linear_lambda: 0]
[min_gain_to_split: 0]
[drop_rate: 0.1]
[max_drop: 50]
[skip_drop: 0.5]
[xgboost_dart_mode: 0]
[uniform_drop: 0]
[drop_seed: 4]
[top_rate: 0.2]
[other_rate: 0.1]
[min_data_per_group: 100]
[max_cat_threshold: 32]
[cat_l2: 10]
[cat_smooth: 10]
[max_cat_to_onehot: 4]
[top_k: 20]
[monotone_constraints: ]
[monotone_constraints_method: basic]
[monotone_penalty: 0]
[feature_contri: ]
[forcedsplits_filename: ]
[refit_decay_rate: 0.9]
[cegb_tradeoff: 1]
[cegb_penalty_split: 0]
[cegb_penalty_feature_lazy: ]
[cegb_penalty_feature_coupled: ]
[path_smooth: 0]
[interaction_constraints: ]
[verbosity: -1]
[saved_feature_importance_type: 0]
[linear_tree: 0]
[max_bin: 255]
[max_bin_by_feature: ]
[min_data_in_bin: 3]
[bin_construct_sample_cnt: 200000]
[data_random_seed: 1]
[is_enable_sparse: 1]
[enable_bundle: 1]
[use_missing: 1]
[zero_as_missing: 0]
[feature_pre_filter: 1]
[pre_partition: 0]
[two_round: 0]
[header: 0]
[label_column: ]
[weight_column: ]
[group_column: ]
[ignore_column: ]
[categorical_feature: ]
[forcedbins_filename: ]
[precise_float_parser: 0]
[objective_seed: 5]
[num_class: 1]
[is_unbalance: 0]
[scale_pos_weight: 1]
[sigmoid: 1]
[boost_from_average: 1]
[reg_sqrt: 0]
[alpha: 0.9]
[fair_c: 1]
[poisson_max_delta_step: 0.7]
[tweedie_variance_power: 1.5]
[lambdarank_truncation_level: 30]
[lambdarank_norm: 1]
[label_gain: ]
[eval_at: ]
[multi_error_top_k: 1]
[auc_mu_weights: ]
[num_machines: 1]
[local_listen_port: 12400]
[time_out: 120]
[machine_list_filename: ]
[machines: ]
[gpu_platform_id: -1]
[gpu_device_id: -1]
[gpu_use_dp: 0]
[num_gpu: 1]

end of parameters

pandas_categorical:null
