tree
version=v3
num_class=1
num_tree_per_iteration=1
label_index=0
max_feature_idx=38
objective=regression
feature_names=Column_0 Column_1 Column_2 Column_3 Column_4 Column_5 Column_6 Column_7 Column_8 Column_9 Column_10 Column_11 Column_12 Column_13 Column_14 Column_15 Column_16 Column_17 Column_18 Column_19 Column_20 Column_21 Column_22 Column_23 Column_24 Column_25 Column_26 Column_27 Column_28 Column_29 Column_30 Column_31 Column_32 Column_33 Column_34 Column_35 Column_36 Column_37 Column_38
feature_infos=[0:154] [0:1] none [0:62.953098300000001] none [0:1] none [64.781196600000001:94.6875] [0:1] [0:58.828098300000001] [0:4.0039000500000004] [332.71769939999996:375.18399699999998] none none [17997:39005] none [224.35000079999998:274.75000001999996] [497.625:918.875] [0:1] [-39.611112833333337:223.24444222222223] [0.0410160013:3.4316399099999999] [0:102.875] [1035.75:2512.5] [0:306.39999399999999] [43.3125:72.406196600000001] [0:1] [-4:6.6875] none [75.781196600000001:89.5] [0:1] none [0:475.875] [223.16570129999997:273.93124999999998] none [64.158698999999999:87.460296600000007] none [0.555999994:0.79299998299999996] none none
tree_sizes=2729 2699 2695 2715 2716 2718 2737 2722 2721 2708 2735 2730 2724 2718 2731 2704 2734 2748 2753 2741

Tree=0
num_leaves=31
num_cat=0
split_feature=22 22 22 22 22 22 22 23 7 0 22 22 22 22 0 22 22 0 22 7 28 0 31 22 23 7 22 22 0 7
split_gain=1.80458e+08 4.15293e+07 3.86561e+07 6.98331e+06 6.39994e+06 6.23362e+06 5.98821e+06 3.73021e+06 3.62643e+06 1.40876e+06 1.35115e+06 1.24119e+06 1.15884e+06 1.12774e+06 1.11388e+06 787807 643938 503315 486053 478067 460050 358625 354253 338209 248937 246409 236997 222019 220844 203144
threshold=1826.6850000000002 2012.9350000000002 1653.8750000000002 1741.8100000000002 1905.8100000000002 1538.6250000000002 2130.5000000000005 240.65000150000003 91.788997650000013 113.59349800000001 1954.1200000000001 2212.1250000000005 1603.2450000000001 1454.8700000000001 116.71849800000001 1701.0600000000002 2072.0600600000002 120.84349800000001 1776.8100000000002 86.851497650000013 83.61714935000002 119.96849800000001 415.15600600000005 1874.1850000000002 251.15000150000003 87.038997650000013 1401.6200000000001 2304.3100600000002 122.46849800000001 89.476497650000013
decision_type=2 2 2 2 2 2 2 2 2 2 2 2 2 2 2 2 2 2 2 2 2 2 2 2 2 2 2 2 2 2
left_child=2 4 5 15 14 13 7 -3 10 20 17 22 -7 26 19 -4 28 25 -11 -2 -5 29 -8 -16 -17 -6 -1 -13 -9 -12
right_child=1 6 3 9 8 12 11 16 -10 18 21 27 -14 -15 23 24 -18 -19 -20 -21 -22 -23 -24 -25 -26 -27 -28 -29 -30 -31
leaf_value=1535.5739007659597 1755.3117012345949 1662.961027879302 1700.6281827433133 1713.9327580345439 1782.585687947729 1648.7875681789199 1868.2935302825613 1853.94085989275 1617.2419647380696 1743.6519802963121 1806.9122236594326 1967.8066770059518 1676.9964733359711 1615.3805434326896 1785.3820897174139 1711.0641784203096 1896.4039953365434 1824.4475996044271 1760.9098211173714 1780.2179950985824 1738.3876013493923 1846.4951409005107 1930.3336249018371 1800.6504986970699 1725.3161111194659 1808.4825542547242 1577.6644306024821 2009.2132667029487 1876.1633547546976 1839.3562878424434
leaf_weight=50 370 20 1126 268 129 660 25 150 21 610 104 131 812 352 882 557 405 470 1232 402 681 642 289 616 681 319 101 43 439 90
leaf_count=50 370 20 1126 268 129 660 25 150 21 610 104 131 812 352 882 557 405 470 1232 402 681 642 289 616 681 319 101 43 439 90
internal_value=1760.03 1827.66 1707.41 1730.19 1801.3 1647.93 1898.66 1876.76 1823.79 1747.13 1826.26 1944.17 1664.35 1599.87 1783.71 1710.2 1881.06 1813.02 1755.19 1768.28 1731.48 1840.8 1925.39 1791.66 1718.9 1801.03 1563.73 1978.04 1870.5 1821.96
internal_weight=0 5547 7130 5155 4045 1975 1502 1014 1775 2791 1754 488 1472 503 2270 2364 994 918 1842 772 949 836 314 1498 1238 448 151 174 589 194
internal_count=12677 5547 7130 5155 4045 1975 1502 1014 1775 2791 1754 488 1472 503 2270 2364 994 918 1842 772 949 836 314 1498 1238 448 151 174 589 194
is_linear=0
shrinkage=1


Tree=1
num_leaves=31
num_cat=0
split_feature=22 22 21 22 22 22 22 0 7 0 0 22 0 7 7 7 0 22 31 22 0 7 0 7 7 0 7 0 0 31
split_gain=4.57171e+07 1.16822e+07 1.10805e+07 9.24734e+06 2.16561e+06 2.11503e+06 1.8403e+06 762334 560028 514039 490997 475538 443817 374577 351754 346309 436757 284642 263316 207594 189727 188774 186356 203498 183655 171723 160114 152787 149483 146967
threshold=1850.8100000000002 1669.6250000000002 101.71049850000001 1987.8100000000002 1764.6850000000002 1561.4350000000002 2113.6850600000002 119.15599800000001 88.08589935000002 109.84349800000001 115.84349800000001 1488.4350000000002 126.90599800000001 85.163997650000013 91.288997650000013 89.99214935000002 127.28099800000001 1630.8100000000002 392.46850600000005 2261.4350600000002 114.65599800000001 91.788997650000013 123.65599800000001 88.17964935000002 84.038997650000013 111.59349800000001 91.64839935000002 123.65599800000001 120.65599800000001 353.34350600000005
decision_type=2 2 2 2 2 2 2 2 2 2 2 2 2 2 2 2 2 2 2 2 2 2 2 2 2 2 2 2 2 2
left_child=1 5 3 7 9 11 15 8 20 24 13 -1 -8 -6 -10 16 -5 -7 27 26 -2 28 23 -20 -3 -15 -14 -9 -17 -12
right_child=2 4 -4 6 10 17 12 18 14 -11 29 -13 19 25 -16 21 -18 -19 22 -21 -22 -23 -24 -25 -26 -27 -28 -29 -30 -31
leaf_value=-93.417769749959305 -13.591505080461502 -55.113517054011311 -315.4406720941717 40.240397160728868 -22.85328676480858 -49.405552369576917 67.095546888268515 7.6869990617209085 24.903487720398925 -17.410469566562821 -19.499722464042797 -66.300133030589038 86.920086500023586 -16.087431335490997 91.259216717311318 46.347036454988562 65.207440752373003 -36.143921527536719 24.802109827876464 121.80358267391429 8.827790629749277 97.329646388689682 41.810261634659007 43.355154107014336 -30.404163838907614 -0.28457677427432082 109.84571736199516 26.790117449917883 68.862233853404419 6.4164819994636852
leaf_weight=252 109 89 22 427 320 864 138 173 408 2171 57 451 238 214 21 92 297 761 642 85 703 48 438 192 485 874 112 265 371 1358
leaf_count=252 109 89 22 427 320 864 138 173 408 2171 57 451 238 214 21 92 297 761 642 85 703 48 438 192 485 874 112 265 371 1358
internal_value=0 -23.3645 38.5874 40.224 -10.9288 -53.1076 68.3822 22.9721 13.5387 -20.9287 -1.20524 -76.0208 91.8014 -7.81568 28.1517 57.5165 50.4824 -43.195 29.8183 99.6391 5.8183 67.4827 33.4591 29.0733 -34.2354 -3.39286 94.2563 19.2448 64.3884 5.37251
internal_weight=0 7896 4781 4759 5568 2328 1808 2951 1241 2745 2823 703 573 1408 429 1235 724 1625 1710 435 812 511 1272 834 574 1088 350 438 463 1415
internal_count=12677 7896 4781 4759 5568 2328 1808 2951 1241 2745 2823 703 573 1408 429 1235 724 1625 1710 435 812 511 1272 834 574 1088 350 438 463 1415
is_linear=0
shrinkage=0.5


Tree=2
num_leaves=31
num_cat=0
split_feature=22 22 22 21 22 0 32 0 22 7 0 7 7 31 7 9 0 0 7 23 23 0 0 21 7 28 7 17 7 0
split_gain=1.17648e+07 3.20751e+06 2.09472e+06 1.42129e+06 821396 551734 839207 536024 356442 354692 269331 263371 260746 227076 184549 165742 156420 150979 150572 148441 147436 129604 126024 150971 110890 98249.5 93587.2 91525.7 90931.7 85193.1
threshold=1808.4350000000002 2034.4350000000002 1630.8100000000002 99.601497650000013 1937.9350000000002 129.40599800000004 236.56410065000003 111.65599800000001 1502.0600000000002 92.61714935000002 117.96849800000001 85.820301050000012 80.288997650000013 380.71850600000005 82.382801050000012 31.394499800000002 122.65599800000001 107.28099800000001 88.74214935000002 242.05000300000003 258.44999700000005 120.65599800000001 141.37500000000003 99.24214935000002 84.36714935000002 78.468700400000003 81.27339935000002 731.31250000000011 86.257801050000012 107.28099800000001
decision_type=2 2 2 2 2 2 2 2 2 2 2 2 2 2 2 2 2 2 2 2 2 2 2 2 2 2 2 2 2 2
left_child=2 3 8 4 10 6 -3 13 25 18 11 27 21 26 16 -6 -12 -15 -8 -10 24 -9 23 -7 -14 -1 -4 -2 -19 -28
right_child=1 5 7 -5 15 22 9 12 19 -11 14 -13 20 17 -16 -17 -18 28 -20 -21 -22 -23 -24 -25 -26 -27 29 -29 -30 -31
leaf_value=-71.015551267351427 -29.027067380292074 -70.55151281356811 -56.352932702927362 -123.1013190805912 26.490153003886746 44.515711869064127 9.8453884073483042 -27.317002915865498 -34.562662178667907 56.949533291445434 -29.398331186988138 5.0029980528246289 -10.97783101239518 -23.258542871255365 12.436335084113788 15.479217998683453 3.6217098437038433 -11.997045018086373 31.496779461790407 -23.115255190497944 1.2390714379376861 -8.0028190504061065 77.672804514567062 68.352365987441118 -3.1318040379157455 -42.841519487931038 -36.787304804060192 -6.9599415916081977 -0.45744923658685777 -20.268553016453879
leaf_weight=35 56 20 21 20 666 304 93 190 428 131 44 1279 802 244 1606 702 194 739 588 837 902 160 45 85 1027 267 90 292 222 588
leaf_count=35 56 20 21 20 666 304 93 190 428 131 44 1279 802 244 1606 702 194 739 588 837 902 160 45 85 1027 267 90 292 222 588
internal_value=0 15.7539 -14.7272 9.9135 10.4633 38.1699 30.6311 -9.7148 -30.673 33.1233 6.37363 1.68471 -5.63896 -16.3102 10.5108 20.8398 -2.48284 -12.1514 28.54 -26.9884 -3.99229 -18.4877 52.6221 49.7242 -6.57222 -46.1067 -23.4795 -10.511 -9.33129 -22.4613
internal_weight=0 6125 6552 4859 4839 1266 832 4985 1567 812 3471 1627 3081 1904 1844 1368 238 1205 681 1265 2731 350 434 389 1829 302 699 348 961 678
internal_count=12677 6125 6552 4859 4839 1266 832 4985 1567 812 3471 1627 3081 1904 1844 1368 238 1205 681 1265 2731 350 434 389 1829 302 699 348 961 678
is_linear=0
shrinkage=0.5


Tree=3
num_leaves=31
num_cat=0
split_feature=22 21 24 22 0 23 3 31 36 9 7 22 17 23 3 0 0 9 24 0 0 3 32 32 0 3 1 24 0 22
split_gain=2.96648e+06 1.69744e+06 1.11974e+06 598774 456796 228961 185211 166278 155172 149363 154304 399847 118956 113671 101394 95767 91122.4 90593.3 89039.4 97513.6 88967.4 67578 59713.5 52398.6 52207.6 52055.4 52006.2 48000.9 53611.4 47382.6
threshold=1800.1850000000002 101.71049850000001 65.328098300000008 1576.9350000000002 124.84349800000001 250.84999850000003 42.179649350000012 401.46850600000005 0.74050000350000011 31.035100000000003 91.71089935000002 2038.6850000000002 653.31250000000011 256.84999100000005 31.371049900000003 133.65599800000004 104.90599800000001 30.746049900000003 52.078100200000009 100.78099800000001 114.21849800000001 48.328100200000009 232.82970085000002 232.04850045000001 124.78099800000001 38.707000750000013 1.0000000180025095e-35 57.234350200000009 117.09349800000001 1667.9350000000002
decision_type=2 2 2 2 2 2 2 2 2 2 2 2 2 2 2 2 2 2 2 2 2 2 2 2 2 2 2 2 2 2
left_child=3 2 4 18 6 12 7 14 26 10 13 -12 29 -4 -2 25 -14 -7 19 -1 -9 23 -16 -18 -11 -10 -6 28 -19 -5
right_child=1 -3 9 5 8 17 -8 20 15 24 11 -13 16 -15 22 -17 21 27 -20 -21 -22 -23 -24 -25 -26 -27 -28 -29 -30 -31
leaf_value=-59.231176417806871 1.6412582567157565 -131.05404108220881 16.536233781056911 -19.149856598453319 11.465080602143548 -0.073490289035113995 14.854824066993029 -4.5542496978081903 14.209109562331971 10.652787045129736 101.95108427784659 29.707552288281352 -18.135391048886582 31.597582676250081 -20.305953758995276 31.207097724080086 -13.70130066819755 -13.346119633075476 -16.871074450236559 -24.938061824299041 5.1041057987745111 2.8310787085773184 -5.3767945825124936 -7.0658242119249799 19.983381962123939 32.834155559539795 -1.1606488449668342 -3.1364113397186282 -3.9819743007499375 -42.582239491598948
leaf_weight=23 656 22 357 94 152 1505 269 271 604 307 22 148 223 193 74 112 364 327 625 210 1984 147 706 1629 293 40 176 829 287 28
leaf_count=23 656 22 357 94 152 1505 269 271 604 307 22 148 223 193 74 112 364 327 625 210 1984 147 706 1629 293 40 176 829 287 28
internal_value=0 7.5915 8.07079 -7.70614 4.67795 -5.76764 2.18846 1.26534 13.7724 21.0356 25.8908 39.0567 -9.30298 21.8214 -2.94011 17.7128 -8.51694 -2.78755 -19.981 -28.3232 3.94339 -7.51464 -6.79315 -8.27772 15.2092 15.3659 4.6903 -5.61822 -8.96907 -24.5278
internal_weight=0 6386 6364 6291 5044 5433 3960 3691 1084 1320 720 170 2485 550 1436 756 2363 2948 858 233 2255 2140 780 1993 600 644 328 1443 614 122
internal_count=12677 6386 6364 6291 5044 5433 3960 3691 1084 1320 720 170 2485 550 1436 756 2363 2948 858 233 2255 2140 780 1993 600 644 328 1443 614 122
is_linear=0
shrinkage=0.5


Tree=4
num_leaves=31
num_cat=0
split_feature=0 14 23 7 21 24 21 0 16 24 0 24 7 3 26 22 7 14 22 0 22 7 9 20 3 34 1 14 20 31
split_gain=1.00724e+06 651588 430933 357544 277059 170168 432432 155088 122725 122764 107780 96579.3 69655 55519.1 54093.3 53257.2 58399 51270.5 58299.7 48898.1 57732.3 49468.8 47956.7 43466.9 56590.6 56770.4 63780 38648 31114.7 33905.4
threshold=121.09349800000001 36995.500000000007 242.05000300000003 83.64839935000002 99.601497650000013 69.859348300000008 101.42899700000001 112.65599800000001 232.29999964999999 56.953100200000009 135.46849800000004 53.703100200000009 86.445301050000012 46.210899350000012 -1.7812499999999998 1826.6850000000002 86.820301050000012 35008.500000000007 1793.0600000000002 115.59349800000001 1701.0600000000002 82.507801050000012 32.566400550000004 1.8447200050000003 32.050699250000001 71.492050150000026 1.0000000180025095e-35 36006.500000000007 0.9033200145000001 343.65600600000005
decision_type=2 2 2 2 2 2 2 2 2 2 2 2 2 2 2 2 2 2 2 2 2 2 2 2 2 2 2 2 2 2
left_child=3 2 -2 11 7 8 -7 15 -4 -10 13 22 14 23 -9 16 27 18 19 20 -13 -22 -1 24 -11 26 -26 -5 29 -24
right_child=1 -3 5 4 -6 6 -8 12 9 10 -12 17 -14 -15 -16 -17 -18 -19 -20 -21 21 -23 28 -25 25 -27 -28 -29 -30 -31
leaf_value=-9.0912031197001699 -66.431922602653501 89.421520398308829 -31.397767253897406 -2.9553533283991222 -52.12104033048336 12.753447981043296 84.674428920854226 -2.6118154973702992 -1.6302322787509116 7.4752221493821667 21.940867319947383 -4.2481705427528142 3.6779858708905055 15.784210113511913 2.418059449727016 -14.107614449456207 4.6036502978670484 -10.711099836195816 -15.192216234074699 -0.22486524251635209 -23.964794586102169 -7.9133162448803587 -31.171728427418405 11.044198591216688 2.7690038080016772 3.6100025729247349 -20.917029275213956 -8.694201658606282 -13.1405849675574 -13.55437097800049
leaf_weight=296 20 24 22 1566 26 418 22 1257 438 1047 122 998 1879 157 930 117 218 454 126 566 72 144 72 364 60 677 54 361 126 44
leaf_count=296 20 24 22 1566 26 418 22 1257 438 1047 122 998 1879 157 930 117 218 454 126 566 72 144 72 364 60 677 54 361 126 44
internal_value=0 7.32514 6.74581 -2.7117 -0.612552 7.17868 16.3495 -0.400918 5.80665 6.08705 7.44947 -7.31417 1.44532 6.70003 -0.472911 -3.71958 -3.15296 -5.93601 -4.79861 -4.06288 -5.85227 -13.2638 -13.3596 6.05233 5.06374 1.8718 -8.4507 -4.03046 -18.5805 -24.4893
internal_weight=0 3425 3401 9252 6354 3381 440 6328 2941 2919 2481 2898 4066 2359 2187 2262 2145 2360 1906 1780 1214 216 538 2202 1838 791 114 1927 242 116
internal_count=12677 3425 3401 9252 6354 3381 440 6328 2941 2919 2481 2898 4066 2359 2187 2262 2145 2360 1906 1780 1214 216 538 2202 1838 791 114 1927 242 116
is_linear=0
shrinkage=0.5


Tree=5
num_leaves=31
num_cat=0
split_feature=21 24 23 9 0 0 7 3 20 23 22 21 0 21 34 34 1 22 1 0 31 34 34 23 7 22 3 1 20 22
split_gain=427215 302493 189362 66848 65212.6 59528.9 56538.4 53076.4 49145.7 40467.4 36631.2 353522 81978.3 37300.1 34398 31952.6 32170.9 31629.1 31269.4 29859.2 27377.2 26679.4 25933 25608.4 25361.3 25419 23133.2 44669 31770.3 22611.2
threshold=101.71049850000001 62.453100200000009 256.34999100000005 31.394499800000002 132.90599800000004 104.21849800000001 81.80464935000002 36.644498850000012 1.6660100250000003 270.44999700000005 2072.0600600000002 99.24214935000002 123.59349800000001 101.27299850000001 67.555553450000005 69.333248150000017 1.0000000180025095e-35 1954.1200000000001 1.0000000180025095e-35 116.28099800000001 408.78100600000005 76.825351700000013 79.555553450000005 271.05000300000006 86.507801050000012 1874.1850000000002 46.210899350000012 1.0000000180025095e-35 1.7187450500000001 1905.8100000000002
decision_type=2 2 2 2 2 2 2 2 2 2 2 2 2 2 2 2 2 2 2 2 2 2 2 2 2 2 2 2 2 2
left_child=1 2 3 26 7 21 14 10 22 17 11 19 -12 -14 -4 16 -11 24 -9 29 -19 -5 -7 -16 25 -8 28 -28 -1 -3
right_child=-2 4 6 5 -6 8 9 18 -10 15 12 -13 13 -15 23 -17 -18 20 -20 -21 -22 -23 -24 -25 -26 -27 27 -29 -30 -31
leaf_value=-2.711695948321692 -69.615321766246453 1.7425833413643497 -22.350552882644394 -17.300317239850315 15.275023136494887 -6.36139358661611 2.1142376160237544 5.5977840830882393 -0.20904444777530379 5.8244304950978307 -15.345367135206859 62.543632392699905 3.4324527553823194 -14.74175108273824 -3.0357611059630698 7.2080526131847904 -15.825203824788332 -10.183899168552148 15.93134875164426 5.0163876484304355 0.091274646218886687 -4.3855953038784499 -0.83053857723047375 4.8536189914919623 5.3609144881911464 -2.1634123962991265 -3.2056691021432537 8.4508156468742524 1.7636734794105302 -8.1921937957406037
leaf_weight=2376 22 315 21 134 144 1493 1771 150 565 37 75 26 479 30 686 542 32 101 143 1163 181 57 247 121 459 432 169 160 476 70
leaf_count=2376 22 315 21 134 144 1493 1771 150 565 37 75 26 479 30 686 542 32 101 143 1163 181 57 247 121 459 432 169 160 476 70
internal_value=0 0.121022 -1.12053 -3.02662 4.93414 -4.96356 1.3483 4.3266 -4.26066 2.21496 3.46925 4.72405 0.0873113 2.36128 -2.37271 5.91794 -4.21598 1.44644 10.6411 3.75292 -3.58884 -13.4462 -5.57627 -1.85284 1.97986 1.27541 -1.50679 2.46314 -1.96475 -0.0637398
internal_weight=0 12655 10060 5677 2595 2496 4383 2451 2305 3555 2158 1574 584 509 828 611 69 2944 293 1548 282 191 1740 807 2662 2203 3181 329 2852 385
internal_count=12677 12655 10060 5677 2595 2496 4383 2451 2305 3555 2158 1574 584 509 828 611 69 2944 293 1548 282 191 1740 807 2662 2203 3181 329 2852 385
is_linear=0
shrinkage=0.5


Tree=6
num_leaves=31
num_cat=0
split_feature=23 0 21 0 7 21 3 20 3 34 20 34 1 23 9 34 0 34 10 22 0 0 17 1 7 19 22 7 1 24
split_gain=224472 1.8458e+06 667364 89641.9 64332.5 48152.9 33486.4 35339.9 39183.1 38478.1 40876.1 37920.2 33171.8 29524.7 26377.6 29582.9 27324.7 20993.6 23020.6 20549.8 36831.2 28955 19851 19581.8 23820.5 17548.1 27641.9 22116.2 17542.5 17537.8
threshold=238.05000300000003 116.65599800000001 101.42899700000001 122.34349800000001 90.288997650000013 89.695301050000012 46.210899350000012 1.6874950500000001 31.074199650000004 78.793602000000007 0.71777302050000003 72.317447650000005 1.0000000180025095e-35 243.55000300000003 32.855400100000004 68.634853350000014 125.84349800000001 74.03170015000002 0.45312450850000002 1665.9350000000002 113.03099800000001 116.28099800000001 619.68750000000011 1.0000000180025095e-35 88.74214935000002 -26.583333527777778 1947.6850000000002 89.02339935000002 1.0000000180025095e-35 58.828100200000009
decision_type=2 2 2 2 2 2 2 2 2 2 2 2 2 2 2 2 2 2 2 2 2 2 2 2 2 2 2 2 2 2
left_child=1 4 3 5 22 19 7 8 25 10 -10 28 -8 -5 16 -16 -15 -9 -19 20 -2 -21 -1 24 -20 26 27 -7 -12 -17
right_child=2 -3 -4 13 -6 6 12 17 9 -11 11 -13 -14 14 15 29 -18 18 23 21 -22 -23 -24 -25 -26 -27 -28 -29 -30 -31
leaf_value=-14.428538275261721 -4.6072050528779549 -158.4694056034088 67.549516252569248 21.006152272224426 21.112491425126791 -0.03567317237352137 -0.20138814937703872 -0.60621298759655395 0.25273478128676841 1.6222474983720374 -5.362021203767112 -3.2943424490878486 7.4418576874586542 1.8184077508417213 -14.31146278232336 -1.8898530488997969 5.7939534915873887 -1.1468154191035522 1.7094112623742659 -13.44255877031873 2.269305412813142 -3.8280617481021193 -4.4099804308971091 7.9351426565682868 15.617401196198029 2.7662861429088026 -8.6831479900947173 16.664057338237761 -12.935991342463893 2.5311919574163433
leaf_weight=54 495 20 37 22 24 2277 279 573 637 525 141 1291 289 857 32 329 872 234 459 104 321 317 586 271 33 613 93 20 167 705
leaf_count=54 495 20 37 22 24 2277 279 573 637 525 141 1291 289 857 32 329 872 234 459 104 321 317 586 271 33 613 93 20 167 705
internal_value=0 -8.81006 0.502466 0.294977 -4.30224 -0.465133 -0.0110369 -0.297481 -0.870303 -2.22987 -3.13433 -4.48365 3.68752 2.76095 2.61734 0.661127 3.82343 1.80554 3.19164 -3.36592 -1.90211 -6.20314 -5.2553 4.52217 2.64226 0.379705 -0.232418 0.109732 -9.46869 1.1245
internal_weight=0 684 11993 11956 664 9139 7902 7334 5764 2761 2236 1599 568 2817 2795 1066 1729 1570 997 1237 816 421 640 763 492 3003 2390 2297 308 1034
internal_count=12677 684 11993 11956 664 9139 7902 7334 5764 2761 2236 1599 568 2817 2795 1066 1729 1570 997 1237 816 421 640 763 492 3003 2390 2297 308 1034
is_linear=0
shrinkage=0.5


Tree=7
num_leaves=31
num_cat=0
split_feature=21 3 21 23 23 34 14 0 21 0 9 3 1 28 1 34 1 10 22 7 22 31 0 23 17 22 7 0 32 0
split_gain=166045 3.10239e+06 62896.7 297785 50976.5 34355.3 32033.1 25855.7 29040.1 23002.2 19339.6 18976.1 18298.7 17019.4 16059.5 23074.4 15332.1 23078.7 15087.6 27535 22416 25944.1 21581.7 19646 16996.4 14703.4 14674.2 21242.5 14240.8 12948
threshold=101.42899700000001 29.871049900000003 99.070301050000012 240.15000150000003 252.65000150000003 79.238048550000016 36996.500000000007 139.71849800000004 87.42964935000002 97.468750000000014 29.300700200000005 42.179649350000012 1.0000000180025095e-35 81.351497650000013 1.0000000180025095e-35 71.238048550000016 1.0000000180025095e-35 0.76660099650000013 2130.5000000000005 88.67964935000002 1954.1200000000001 393.03100600000005 122.96849800000001 264.44999700000005 808.18750000000011 1826.6850000000002 83.820301050000012 126.65599800000001 243.18909970000001 126.90599800000001
decision_type=2 2 2 2 2 2 2 2 2 2 2 2 2 2 2 2 2 2 2 2 2 2 2 2 2 2 2 2 2 2
left_child=2 -2 4 -4 9 7 29 8 16 13 -11 18 -13 -1 -12 -16 -6 -18 19 20 23 -22 -23 -10 -21 -25 27 -27 -26 -5
right_child=1 -3 3 6 5 -7 -8 -9 11 10 14 12 -14 -15 15 -17 17 -19 -20 24 21 22 -24 25 28 26 -28 -29 -30 -31
leaf_value=-23.051196476817132 113.27361576897758 -145.11329433092703 55.699924288124876 11.990410867490267 -0.66297498850223147 4.3200989206992553 -14.989297995200523 10.821549897144239 -0.00036737664059108017 0.10554323917593134 -0.73952459913966373 0.53445433951590371 6.7883433456368305 -4.6695559208883957 -8.3433648533700548 -2.3112709034458283 -4.7645535948155802 -20.339417994022369 -4.1963755605026352 10.146144512452578 -12.593072393844867 -6.1947281119008526 0.34323326321318748 5.0834913001706203 -7.7805306152751053 -6.0700650732882702 2.743278237967155 3.8513008249777085 3.5616748782692311 1.4703040519567925
leaf_weight=20 21 26 29 38 183 644 26 60 3179 2026 1598 230 238 34 178 1450 158 28 173 95 58 177 440 360 30 137 468 89 357 127
leaf_count=20 21 26 29 38 183 644 26 60 3179 2026 1598 230 238 34 178 1450 158 28 173 95 58 177 440 360 30 137 468 89 357 127
internal_value=0 -29.6638 0.110388 8.49064 -0.0381741 0.837618 1.32274 0.490448 0.393594 -1.21074 -1.10518 0.657044 3.71485 -11.4776 -1.86554 -2.9708 -3.91227 -7.10916 0.399799 0.54732 0.193168 -2.48273 -1.53232 0.61987 4.1535 2.49059 1.14556 -2.16298 2.68243 3.89312
internal_weight=0 47 12630 220 12410 7104 191 6460 6400 5306 5252 6031 468 54 3226 1628 369 186 5563 5390 4908 675 617 4233 482 1054 694 226 387 165
internal_count=12677 47 12630 220 12410 7104 191 6460 6400 5306 5252 6031 468 54 3226 1628 369 186 5563 5390 4908 675 617 4233 482 1054 694 226 387 165
is_linear=0
shrinkage=0.5


Tree=8
num_leaves=31
num_cat=0
split_feature=32 31 17 32 7 21 21 31 9 20 0 22 22 9 23 7 36 24 23 22 0 7 0 22 7 7 22 19 7 34
split_gain=65660.3 158074 53397 438382 102435 627299 230985 26440.8 23210.8 20071 19639.6 27118.7 24961.5 20930.4 18582.7 21366.5 18462.6 29107.6 20628.8 16933.8 19533 16726.4 20775.6 20221.7 32277.6 16247.4 18695.2 15516.8 15226.8 13175
threshold=228.45470085000002 365.84350600000005 875.00000000000011 249.59534970000001 91.99214935000002 101.42899700000001 99.24214935000002 423.90600600000005 29.378899550000003 1.7998000400000003 108.90599800000001 1828.1850000000002 1653.8750000000002 36.398399350000012 276.84999100000005 80.413997650000013 0.73950001600000015 66.171848300000008 260.65000900000007 2016.8100000000002 119.46849800000001 86.08589935000002 118.65599800000001 1653.8750000000002 79.74214935000002 84.663997650000013 1748.4350000000002 -33.583333749999994 77.58589935000002 75.682453150000015
decision_type=2 2 2 2 2 2 2 2 2 2 2 2 2 2 2 2 2 2 2 2 2 2 2 2 2 2 2 2 2 2
left_child=1 -1 4 -4 6 8 7 9 -6 10 12 21 13 -2 15 -13 17 -9 19 -18 -21 22 23 -12 -25 -14 -27 -26 -24 -11
right_child=2 -3 3 -5 5 -7 -8 16 -10 29 11 14 25 -15 -16 -17 18 -19 -20 20 -22 -23 28 24 27 26 -28 -29 -30 -31
leaf_value=-4.3143974303296115 -0.44725407640678139 -50.650100448727606 78.444569683074945 -1.1543685859069228 10.822029666147298 -83.338102304018463 41.970380147298179 2.550283180583607 -4.3739766396106559 -0.024675639633967624 2.4113364446727283 -14.75406999165012 -9.8909875549359381 -15.40827722630153 2.5979511260250718 -1.5552983667827325 2.0420671442006797 22.354224013430731 4.7063987078407159 -15.491128559112548 -1.1041868502287493 3.2536120381969713 -2.8682901732838499 -14.02941702703095 -3.1452757928059407 -1.2225435240221842 -11.688037118821773 -0.037928790715966332 3.6900178835310218 2.7453992773243443
leaf_weight=231 901 20 20 128 54 26 33 55 47 861 561 31 140 24 276 2816 692 28 391 25 419 527 104 46 503 219 53 1996 594 856
leaf_count=231 901 20 20 128 54 26 33 55 47 861 561 31 140 24 276 2816 692 28 391 25 419 527 104 46 503 219 53 1996 594 856
internal_value=0 -8.00649 0.161728 9.60224 0.0479309 -14.0786 0.195578 0.0818164 3.75062 -0.207281 -0.512675 -0.196165 -2.27727 -0.835432 -1.31926 -1.69902 1.96867 9.23113 1.57392 0.495755 -1.91426 0.61368 0.247948 -0.30598 -0.904964 -5.51442 -3.26178 -0.663377 2.71285 1.35633
internal_weight=0 251 12426 148 12278 127 12151 12118 101 10508 8791 7454 1337 925 3123 2847 1610 83 1527 1136 444 4331 3804 3106 2545 412 272 2499 698 1717
internal_count=12677 251 12426 148 12278 127 12151 12118 101 10508 8791 7454 1337 925 3123 2847 1610 83 1527 1136 444 4331 3804 3106 2545 412 272 2499 698 1717
is_linear=0
shrinkage=0.5


Tree=9
num_leaves=31
num_cat=0
split_feature=34 26 23 21 3 14 21 22 22 7 16 21 7 31 22 14 0 34 9 1 19 17 20 11 31 17 9 21 22 0
split_gain=39405.5 47262.9 309134 89513 26613.4 15192.3 27019.1 28614.1 21957.7 51499.3 22295.9 17029.8 16583.6 25093.2 20240.2 16327.1 15612 13304.7 16179.9 19305.8 16762.6 16487 15216.2 20065.8 12673.9 12541.8 11936.2 11744.5 18655.6 12282.3
threshold=85.015850050000012 -3.7812499999999996 246.05000300000003 101.42899700000001 33.40229990000001 35020.000000000007 97.445301050000012 2130.5000000000005 2072.0600600000002 91.788997650000013 249.99999940000001 89.351497650000013 89.195301050000012 406.53100600000005 1912.7450000000001 37996.500000000007 116.59349800000001 77.396747600000012 33.449199700000008 1.0000000180025095e-35 -21.472222027777775 697.81250000000011 1.1542950300000003 350.74334945000004 434.78100600000005 597.87500000000011 39.863199250000001 93.49214935000002 1603.2450000000001 114.21849800000001
decision_type=2 2 2 2 2 2 2 2 2 2 2 2 2 2 2 2 2 2 2 2 2 2 2 2 2 2 2 2 2 2
left_child=1 2 -1 5 -4 6 11 -8 9 12 -10 17 14 -14 27 -15 -16 18 20 25 21 -3 23 -21 -9 -20 -25 28 -7 -30
right_child=-2 3 4 -5 -6 8 7 24 10 -11 -12 -13 13 15 16 -17 -18 -19 19 22 -22 -23 -24 26 -26 -27 -28 -29 29 -31
leaf_value=55.343792787619996 -19.831241850852965 -0.22653176683965032 -16.079387679293347 -27.325038965543111 3.6116459295153618 1.5395960101564781 15.01156455723028 -2.3650084588925044 -11.873712693562819 22.64764504134655 -2.0171358026255395 0.65797638704378958 16.43785797079493 1.6849228185834364 -13.549259966992317 -11.132270418680632 -3.4364518921287832 2.540612498462131 -11.809144951403141 -20.936175538433922 4.9121995209239602 -6.0600648228408529 -3.3474702358137081 -11.524483339966467 6.7098710983991623 0.17195058256816961 0.58868385264367773 0.2587016465571349 -2.2359596780439364 -10.018130336659697
leaf_weight=28 25 688 37 30 32 356 62 75 84 24 181 6211 28 560 47 26 203 216 24 36 127 147 137 53 79 243 33 1663 1169 53
leaf_count=28 25 688 37 30 32 356 62 75 84 24 181 6211 28 560 47 26 203 216 24 36 127 147 137 53 79 243 33 1663 1169 53
internal_value=0 0.039186 11.0336 -0.0457571 -6.94731 0.0195825 0.424393 5.94176 -0.72951 -0.446349 -5.14148 0.273824 -0.581369 1.81495 -1.00283 1.11624 -5.33766 -1.12639 -1.6587 -3.88843 -0.439536 -1.25351 -6.964 -11.0252 2.29029 -0.905002 -6.87641 -0.668461 -1.64557 -2.57348
internal_weight=0 12652 97 12555 69 12525 8131 216 4394 4129 265 7915 4105 614 3491 586 250 1704 1488 526 962 835 259 122 154 267 86 3241 1578 1222
internal_count=12677 12652 97 12555 69 12525 8131 216 4394 4129 265 7915 4105 614 3491 586 250 1704 1488 526 962 835 259 122 154 267 86 3241 1578 1222
is_linear=0
shrinkage=0.5


Tree=10
num_leaves=31
num_cat=0
split_feature=23 0 21 22 22 26 5 9 22 0 14 7 34 22 17 7 14 22 7 0 22 21 21 21 16 0 14 17 22 23
split_gain=34033.2 561824 515330 37707.3 24291 21217 13490.9 26939.2 12258.5 31469.6 30664.7 24659.8 17698.3 16641.5 15186.4 15124 16829.8 13144.3 20931.2 23654.2 16288.9 14953.3 13074 11716.9 10754.7 10742 10219.1 9803.65 9769.8 9184.61
threshold=239.44999700000002 117.53099800000001 101.42899700000001 1924.6850000000002 1814.4350000000002 -3.8437499999999996 1.0000000180025095e-35 45.64839940000001 2012.9350000000002 130.28099800000004 36996.500000000007 87.413997650000013 70.222148900000022 1826.6850000000002 674.06250000000011 89.851497650000013 35022.000000000007 1764.6850000000002 85.195301050000012 114.90599800000001 1653.8750000000002 92.11714935000002 91.24214935000002 97.71089935000002 244.99999940000001 110.46849800000001 35008.500000000007 751.93750000000011 1954.1200000000001 252.15000150000003
decision_type=2 2 2 2 2 2 2 2 2 2 2 2 2 2 2 2 2 2 2 2 2 2 2 2 2 2 2 2 2 2
left_child=1 3 5 4 -1 -2 7 -7 9 11 12 17 -10 -13 -11 16 -15 18 19 20 22 -22 -8 -17 -25 -19 -23 -20 -27 -14
right_child=2 -3 -4 -5 -6 6 8 -9 10 14 -12 13 29 15 -16 23 -18 25 27 -21 21 26 -24 24 -26 28 -28 -29 -30 -31
leaf_value=-0.59969389264880435 -9.9384646798079874 -80.120127429132879 60.80383091654096 20.52669916599989 -10.089958099295965 -22.341363575309515 -0.32642359639396307 -0.62876932248473172 -7.6423012152233198 -0.66435678054889047 -18.614953660964964 8.2322785461778345 -3.1529843742981201 3.4935754536520784 9.7532516619724827 2.8348208894236731 -0.71586083035125148 -6.6806921959930179 6.8347935551891519 2.2763007905571078 -3.2908669535080977 1.9708451202374702 3.2048149209105126 6.0011039352552453 18.677304497471564 -0.42398427698787561 -1.6902577689478313 2.1144801152494974 -3.7061032976528319 0.20625689195128538
leaf_weight=759 53 23 35 20 74 20 911 50 92 48 25 106 254 386 129 130 617 74 147 928 767 323 368 44 27 4102 465 437 240 1023
leaf_count=759 53 23 35 20 74 20 911 50 92 48 25 106 254 386 129 130 617 74 147 928 767 323 368 44 27 4102 465 437 240 1023
internal_value=0 -3.00691 0.223206 -0.927656 -1.44277 0.0429984 0.0881634 -6.83237 0.129771 0.318982 -1.26135 0.202836 -0.944448 2.2262 6.92814 1.69742 0.904122 -0.0996749 0.517641 0.0853071 -0.632139 -1.71928 0.689601 5.65603 10.8216 -0.707206 -0.189577 3.30264 -0.6054 -0.461909
internal_weight=0 876 11801 853 833 11766 11713 70 11643 10249 1394 10072 1369 1310 177 1204 1003 8762 4346 3762 2834 1555 1279 201 71 4416 788 584 4342 1277
internal_count=12677 876 11801 853 833 11766 11713 70 11643 10249 1394 10072 1369 1310 177 1204 1003 8762 4346 3762 2834 1555 1279 201 71 4416 788 584 4342 1277
is_linear=0
shrinkage=0.5


Tree=11
num_leaves=31
num_cat=0
split_feature=7 21 34 19 22 21 11 26 22 10 11 0 22 0 7 23 23 14 20 34 1 32 0 17 21 0 17 22 7 19
split_gain=24281.5 24388.1 1.48954e+06 11740.3 14958.4 24811.3 11715.3 10099.6 12410.5 9357.39 9252.76 12009 12512.8 16639.3 16197.8 47255.3 18627.8 10964.1 11434.8 10283 31798 11636.3 10423.5 9306.54 8890.86 17008.8 12307.5 12035.8 11322.3 9499.44
threshold=94.265598300000008 101.42899700000001 78.285648350000017 -32.972222416666661 2025.4350000000002 98.83589935000002 340.98510205000002 3.1562500000000004 1488.4350000000002 0.87792950900000011 365.38070145 143.15599800000004 2212.1250000000005 131.96849800000004 91.070301050000012 242.94999700000002 247.94999700000002 36993.500000000007 1.9580050100000002 69.587249750000012 1.0000000180025095e-35 261.18909970000004 100.78099800000001 841.06250000000011 88.226497650000013 106.84349800000001 691.31250000000011 1538.6250000000002 82.445301050000012 -25.138888888888889
decision_type=2 2 2 2 2 2 2 2 2 2 2 2 2 2 2 2 2 2 2 2 2 2 2 2 2 2 2 2 2 2
left_child=1 3 -3 4 5 6 -1 8 -5 -8 11 12 14 -14 19 -16 -17 18 -12 20 -10 22 -21 -15 25 -24 28 -27 -26 -28
right_child=-2 2 -4 7 -6 -7 9 -9 10 -11 17 -13 13 23 15 16 -18 -19 -20 21 -22 -23 24 -25 26 27 29 -29 -30 -31
leaf_value=3.0368330097712932 16.231168886889581 82.453482671217486 -97.664931694666549 4.9581601922001157 12.595573695003987 -18.245130360126495 -0.69840775321668047 -5.2549528148339455 2.8862225192909441 -3.1777093980187874 -1.3749777520432189 11.820073013720306 -14.539242506027222 -5.8579556423993342 25.571643749872845 -9.1653251840222261 4.1157533613483555 -7.3661818904802203 2.3456313604452448 -6.8443531266280582 -5.6047527620813389 9.8341046029871162 -15.68502534981817 5.3625683730298821 2.5513421624734902 5.454419601319441 0.29401182867321202 -1.6528167454699259 11.906990443666777 2.3538966300586859
leaf_weight=168 23 22 24 140 20 21 1554 83 192 504 1086 23 32 42 24 31 178 64 255 49 259 33 20 33 318 67 6224 537 36 615
leaf_count=168 23 22 24 140 20 21 1554 83 192 504 1086 23 32 42 24 31 178 64 255 49 259 33 20 33 318 67 6224 537 36 615
internal_value=0 -0.0295019 -11.5213 0.0124258 -1.01806 -1.13923 -0.977854 0.238333 0.282781 -1.30558 0.218089 0.410094 0.379895 -4.99369 0.446885 4.55879 2.14583 -0.972616 -0.667479 0.332145 -1.98997 0.464728 0.425421 -0.920925 0.470991 -1.33945 0.628049 -0.864431 3.50276 0.479248
internal_weight=0 12654 46 12608 2267 2247 2226 10341 10258 2058 10118 8713 8690 107 8583 233 209 1405 1341 8350 451 7899 7866 75 7817 624 7193 604 354 6839
internal_count=12677 12654 46 12608 2267 2247 2226 10341 10258 2058 10118 8713 8690 107 8583 233 209 1405 1341 8350 451 7899 7866 75 7817 624 7193 604 354 6839
is_linear=0
shrinkage=0.5


Tree=12
num_leaves=31
num_cat=0
split_feature=21 21 34 28 22 0 0 28 22 10 11 34 0 11 14 16 14 21 21 22 20 14 20 22 0 7 23 7 0 21
split_gain=29148.2 34859.3 9273.73 7543.08 10123.5 21396.4 13086.4 12269.8 8835.33 8482.15 8933.56 9873.78 8174.69 8119.63 7926.24 7397.26 7508.71 22619.2 15622.7 8925.78 7376.01 7349.19 9717.05 9503.82 13950.3 9042.61 8900.77 9788.97 10146.5 8643.74
threshold=101.71049850000001 101.42899700000001 82.476146700000015 81.96089935000002 1538.6250000000002 103.84349800000001 99.656250000000014 79.788997650000013 1603.2450000000001 1.0615200400000002 344.59929885000003 73.142848950000015 112.90599800000001 363.66399995 37998.500000000007 228.79999964999999 36013.500000000007 99.601497650000013 99.070301050000012 1993.9350000000002 1.6337800050000002 36004.500000000007 0.78808552050000003 2012.9350000000002 128.09349800000004 84.39839935000002 244.75000000000003 90.86714935000002 124.15599800000001 94.58589935000002
decision_type=2 2 2 2 2 2 2 2 2 2 2 2 2 2 2 2 2 2 2 2 2 2 2 2 2 2 2 2 2 2
left_child=1 2 3 4 6 -6 -1 12 13 10 11 -9 -7 14 -5 -10 21 18 19 -18 -11 23 -23 24 29 -25 -27 28 -28 -17
right_child=-2 -3 -4 8 5 7 -8 9 15 20 -12 -13 -14 -15 -16 16 17 -19 -20 -21 -22 22 -24 25 -26 26 27 -29 -30 -31
leaf_value=-6.2599420453987866 18.183917825872246 -18.68379623413086 3.1169164932788687 4.0958356459772114 -13.718286332062313 -12.124079190767729 2.2793896402189904 -5.7732253525067456 8.3009640728985818 -6.404462209408698 -1.3710158123266263 2.1029901641181472 -3.1359661901628391 -5.5043425538710187 -5.7542282099073585 -0.054756123528680027 -1.3996700393711394 11.929680881829098 -16.111332109570505 -10.13125276805893 1.2076304343169217 12.266133586210865 1.3701076812453961 -8.2063864632086325 3.8170727065315955 -8.781893123899188 -4.795463843252322 1.3287474092097242 -0.70941820983442649 1.4732978041608062
leaf_weight=51 22 25 235 285 35 39 373 44 27 115 877 416 72 28 22 6578 524 29 20 31 44 28 76 44 270 35 198 404 653 1077
leaf_count=51 22 25 235 285 35 39 373 44 27 115 877 416 72 28 22 6578 524 29 20 31 44 28 76 44 270 35 198 404 653 1077
internal_value=0 -0.0316117 0.00530869 -0.0536851 -0.925823 -1.48825 1.25225 -1.22188 0.120759 -0.845546 -0.434973 1.34961 -6.29395 2.64656 3.38997 0.0360941 0.0137051 -1.69497 -2.38213 -1.88738 -4.29797 0.12393 4.30365 0.0769824 0.284816 -1.15771 -0.91729 -0.697959 -1.66011 0.160229
internal_weight=0 12655 12630 12395 2066 1642 424 1607 10329 1496 1337 460 111 335 307 9994 9967 604 575 555 159 9363 104 9259 7925 1334 1290 1255 851 7655
internal_count=12677 12655 12630 12395 2066 1642 424 1607 10329 1496 1337 460 111 335 307 9994 9967 604 575 555 159 9363 104 9259 7925 1334 1290 1255 851 7655
is_linear=0
shrinkage=0.5


Tree=13
num_leaves=31
num_cat=0
split_feature=22 21 21 21 14 22 0 21 22 22 31 7 22 7 0 22 31 14 0 17 22 21 14 17 0 23 21 7 23 36
split_gain=23619.1 198950 103339 15484.8 11368.8 10155 6198.21 9941.89 12441.9 11313.6 11083 10998.3 9761.76 10500.2 18118.6 12549.4 11158 8554.15 8466.22 8547.73 7661.41 8962.27 11106.6 11865 12748.3 95510.1 22279.1 9454.2 8839.85 7510.05
threshold=2181.1850600000002 101.27299850000001 101.71049850000001 101.27299850000001 35998.500000000007 2212.1250000000005 108.46849800000001 90.74214935000002 1603.2450000000001 1488.4350000000002 367.65600600000005 78.46089935000002 1764.6850000000002 82.99214935000002 119.84349800000001 1852.5600000000002 353.34350600000005 29996.500000000004 123.59349800000001 661.81250000000011 2130.5000000000005 96.30464935000002 35020.000000000007 776.93750000000011 116.40599800000001 240.15000150000003 98.83589935000002 91.99214935000002 265.25000000000006 0.60449999550000011
decision_type=2 2 2 2 2 2 2 2 2 2 2 2 2 2 2 2 2 2 2 2 2 2 2 2 2 2 2 2 2 2
left_child=2 4 3 6 -2 -6 7 9 -9 29 -10 -11 -8 14 -14 16 -16 -15 -18 -20 21 28 -23 -24 26 -26 -25 -27 -19 -1
right_child=1 -3 -4 -5 5 -7 12 8 10 11 -12 -13 13 17 15 -17 18 20 19 -21 -22 22 23 24 25 27 -28 -29 -30 -31
leaf_value=-7.3745403797538192 0.82847099437781457 -52.62224767059088 35.14438647315616 11.385970805088679 0.11083773970603943 -15.294261846205462 0.83005558801332624 2.5316832867939389 -5.9053913167906256 -14.110610327234975 -0.36766615341869457 -3.5875790971459391 -8.0035134863073587 9.6405613331691082 8.8818245140405807 -3.7679870979174597 -2.7830592049103156 -0.49493287772960204 -6.9169218784028832 3.6191846027474415 -3.0737272427328417 5.491621678322554 7.0044216717992507 -1.2093562730588019 32.72187674239926 0.3918712345656814 -18.535121015880417 -8.0549235548291893 1.1500987561363247 1.6132365143495406
leaf_weight=27 201 20 21 30 20 23 3529 328 106 27 612 309 107 23 39 239 153 4302 22 154 199 145 70 96 23 619 23 35 1008 167
leaf_count=27 201 20 21 30 20 23 3529 328 106 27 612 309 107 23 39 239 153 4302 22 154 199 145 70 96 23 619 23 35 1008 167
internal_value=0 -4.67982 0.0995306 0.0401421 -0.750117 -8.1291 0.0126082 -0.913605 -0.0196855 -2.67783 -1.18521 -4.43318 0.147942 -0.183762 -2.00443 -0.946925 0.885232 0.0149163 -0.0626927 2.30217 -0.0190392 0.0771296 1.44158 0.763456 0.214627 1.05354 -4.55803 -0.0601744 -0.182656 0.36236
internal_weight=0 264 12413 12392 244 43 12362 1576 1046 530 718 336 10786 7257 714 607 368 6543 329 176 6520 6321 1011 866 796 677 119 654 5310 194
internal_count=12677 264 12413 12392 244 43 12362 1576 1046 530 718 336 10786 7257 714 607 368 6543 329 176 6520 6321 1011 866 796 677 119 654 5310 194
is_linear=0
shrinkage=0.5


Tree=14
num_leaves=31
num_cat=0
split_feature=7 21 10 36 21 17 20 1 7 17 7 36 7 22 3 7 22 23 14 3 5 22 0 17 22 0 0 22 14 7
split_gain=13829.8 34857.9 679018 29088.3 13090.9 11470 5649.99 7921.12 6183.73 15382.2 13340.5 11257.5 7352.53 7262.13 7254.57 7679.41 6876.23 6873.84 9100.75 6630.57 6593.07 6373.13 6327.5 6157.77 6106.52 8046.25 7655.64 7119.81 5998.76 5735.19
threshold=93.913997650000013 101.42899700000001 1.0761650200000001 0.75450000150000018 101.27299850000001 889.62500000000011 0.21777299800000002 1.0000000180025095e-35 84.663997650000013 754.18750000000011 86.382801050000012 0.74649998550000018 81.42964935000002 1701.0600000000002 31.175700200000005 85.52339935000002 1725.1850000000002 245.75000000000003 33996.500000000007 55.597600950000007 1.0000000180025095e-35 1630.8100000000002 105.53099800000001 742.93750000000011 1874.1850000000002 126.46849800000001 119.96849800000001 1971.9950000000001 34994.500000000007 86.195301050000012
decision_type=2 2 2 2 2 2 2 2 2 2 2 2 2 2 2 2 2 2 2 2 2 2 2 2 2 2 2 2 2 2
left_child=1 4 -3 -2 6 -5 7 -1 11 10 14 12 19 -13 15 -10 -15 18 -14 28 -19 -20 -23 -17 26 -26 -18 -27 -8 -11
right_child=3 2 -4 5 -6 -7 8 -9 9 29 -12 13 17 16 -16 23 24 20 21 -21 -22 22 -24 -25 25 27 -28 -29 -30 -31
leaf_value=2.9958923214038178 22.563983394986106 -70.790069321791336 53.952986043691638 7.2668392062187195 12.195222594521262 -7.5101101100444794 -0.64969828322454792 -5.8454273641109467 1.382393655690908 -0.9952019116878088 8.2638422520579518 -0.14545722499343694 8.9515331250925865 -4.9180400539379647 0.020297291682085446 8.2949386877737137 -2.0391391323335939 -6.7909508049488068 0.66865202527961987 8.0895341975348334 1.5776397365284778 -10.724086937579242 -1.9319152422138066 2.7739660439565199 -7.4835087162383056 1.3149751435185588 1.4294652525644636 -6.0525994140584514 -5.5567009602601711 0.17073119830263664
leaf_weight=266 21 24 20 29 22 24 1490 28 538 1416 74 663 24 196 570 83 521 24 302 21 1216 22 293 129 94 86 229 53 65 4134
leaf_count=266 21 24 20 29 22 24 1490 28 538 1416 74 663 24 196 570 83 521 24 302 21 1216 22 293 129 94 86 229 53 65 4134
internal_value=0 -0.0400174 -14.0887 6.8154 0.00920157 0.57539 -0.0121825 2.15386 -0.0641973 0.246218 1.73109 -0.470977 0.0609951 -1.46936 1.36486 2.38673 -2.21385 0.728451 -0.600954 -0.735632 1.41567 -0.972525 -2.54597 4.93548 -1.67466 -3.91051 -0.980059 -1.49424 -0.854814 -0.126739
internal_weight=0 12603 44 74 12559 53 12537 294 12243 6944 1394 5299 3457 1842 1320 750 1179 1881 641 1576 1240 617 315 212 983 233 750 139 1555 5550
internal_count=12677 12603 44 74 12559 53 12537 294 12243 6944 1394 5299 3457 1842 1320 750 1179 1881 641 1576 1240 617 315 212 983 233 750 139 1555 5550
is_linear=0
shrinkage=0.5


Tree=15
num_leaves=31
num_cat=0
split_feature=22 23 21 34 21 26 31 7 7 7 17 23 0 9 22 7 17 31 23 21 11 23 24 31 7 0 22 7 0 0
split_gain=11936.6 114034 82844.6 16957.4 8752.2 8609.8 23174.3 7997.24 14580 9416.7 8911.53 6476.46 6736.41 5650.85 5179.17 9544.04 7744.44 7197.28 11655 8369.08 18300.9 10268.7 8250.48 8466.43 6871.42 6746.58 8928.52 6220.19 6218.2 6069.5
threshold=2181.1850600000002 250.15000150000003 101.71049850000001 85.142848950000015 101.13249950000001 -3.7812499999999996 425.90600600000005 93.58589935000002 92.61714935000002 91.788997650000013 889.62500000000011 254.44999700000002 129.28099800000004 35.257799150000004 1826.6850000000002 86.601497650000013 763.93750000000011 383.84350600000005 245.34999850000003 98.67964935000002 352.64080275000003 249.55000300000003 69.859348300000008 415.84350600000005 91.288997650000013 102.46849800000001 1454.8700000000001 88.445301050000012 121.09349800000001 122.53099800000001
decision_type=2 2 2 2 2 2 2 2 2 2 2 2 2 2 2 2 2 2 2 2 2 2 2 2 2 2 2 2 2 2
left_child=2 -2 3 5 11 6 -1 8 9 14 -9 12 -3 -13 15 25 -17 18 -16 21 -21 24 23 -22 27 -7 -27 -19 -29 -28
right_child=1 4 -4 -5 -6 7 -8 10 -10 -11 -12 13 -14 -15 17 16 -18 19 -20 20 22 -23 -24 -25 -26 26 29 28 -30 -31
leaf_value=-19.271325383601443 -32.908391134492284 0.044124671004035255 31.448718661353702 14.564933109283448 8.9748801451462974 -2.1845635321817749 2.1047016959637403 14.547277568280697 -10.66118948161602 8.7288187992188231 0.1161101957499657 1.9501643096693129 -12.329244796525348 -6.0809297234966202 -14.004792594909668 9.0161561643386765 1.8256110203887888 -3.6521373268832842 -1.6873023193512753 13.966657557722295 1.4622852674552373 -0.023834347869656623 8.9345485329627987 -10.645762990821492 -9.8898715541280549 6.304726759965221 0.068797970723502591 1.397722936906787 -4.9370270153880123 2.4225359299976237
leaf_weight=21 29 22 21 20 26 302 32 20 32 31 23 139 22 26 20 41 432 254 483 33 42 3970 20 22 29 60 5996 172 50 287
leaf_count=21 29 22 21 20 26 302 32 20 32 31 23 139 22 26 20 41 432 254 483 33 42 3970 20 22 29 60 5996 172 50 287
internal_value=0 -3.3269 0.0707565 0.0175821 0.323587 -0.00593447 -6.36504 0.0214243 -0.00241854 0.0254384 6.82828 -0.752651 -6.14256 0.684659 0.00334682 0.278822 2.44889 -0.381507 -2.17706 -0.184825 3.98974 -0.29397 0.0702401 -2.69986 -2.41761 0.124353 0.234284 -1.96237 -0.0290225 0.176314
internal_weight=0 264 12413 12392 235 12372 53 12319 12276 12244 43 209 44 165 12213 7118 473 5095 503 4592 117 4475 84 64 505 6645 6343 476 222 6283
internal_count=12677 264 12413 12392 235 12372 53 12319 12276 12244 43 209 44 165 12213 7118 473 5095 503 4592 117 4475 84 64 505 6645 6343 476 222 6283
is_linear=0
shrinkage=0.5


Tree=16
num_leaves=31
num_cat=0
split_feature=17 23 21 3 19 7 22 0 24 0 21 14 22 22 7 23 14 22 0 7 3 22 24 7 23 22 0 7 14 0
split_gain=14303.8 75537.7 50790.5 250883 24296.1 6466.37 8035.59 7153.24 7083.17 6892.91 8812.47 13171.4 13051.7 10102.1 10085.2 7667.15 7413.07 6798.08 9793.28 6415.01 6504.24 8805.63 19823.6 10566.5 8366.57 6093.54 11356.4 9883.98 5734.17 10659.8
threshold=875.00000000000011 242.94999700000002 101.42899700000001 31.214799900000003 -26.527777777777775 76.226497650000013 1653.8750000000002 111.34349800000001 57.828100200000009 131.28099800000004 90.413997650000013 33989.000000000007 1950.8100000000002 2012.9350000000002 83.05464935000002 230.94999700000002 33993.500000000007 2130.5000000000005 127.46849800000001 90.86714935000002 34.175699250000001 2016.8100000000002 69.921848300000008 91.71089935000002 252.75000000000003 1538.6250000000002 101.53099800000001 79.070301050000012 35020.000000000007 116.71849800000001
decision_type=2 2 2 2 2 2 2 2 2 2 2 2 2 2 2 2 2 2 2 2 2 2 2 2 2 2 2 2 2 2
left_child=2 -2 5 -4 -3 -1 7 8 25 10 12 13 16 -12 -13 -16 -8 19 -19 28 21 22 -21 -23 -22 -7 -27 -28 29 -17
right_child=1 4 3 -5 -6 6 9 -9 -10 -11 11 14 -14 -15 15 17 -18 18 -20 20 24 23 -24 -25 -26 26 27 -29 -30 -31
leaf_value=-2.5108430469408631 33.463305622339249 -15.586151278018951 21.878338950020925 -54.526133076880463 3.3859806711337082 1.5759369097702669 -0.81521820126690547 3.1536540039843577 2.3778746116220417 1.8932590827282401 2.4666232471068428 -3.1727034209786984 -9.5794710615213887 -3.779680655455925 -7.3812226164672108 1.234990203977141 -6.2563946996674389 -7.5613430501663519 -0.25082598102650022 1.2428398840129375 -9.9771744852716271 3.5693374687072001 20.74003311178901 -7.6412262058258058 2.6892570868367329 -11.223700812229744 -7.6483550110588903 -0.05505213079056101 -0.56865574858844947 -0.42751919410079187
leaf_weight=251 20 20 21 22 108 354 1214 326 391 411 733 277 47 71 36 1772 66 73 123 32 22 132 22 25 32 26 46 627 3262 2115
leaf_count=251 20 20 21 22 108 354 1214 326 391 411 733 277 47 71 36 1772 66 73 123 32 22 132 22 25 32 26 46 627 3262 2115
internal_value=0 4.88668 -0.0577244 -17.2123 0.421585 0.00135358 0.0528911 1.03817 0.560576 -0.113755 -0.1958 -0.0132621 -1.39626 1.91502 -0.208938 -0.101566 -1.09578 -0.0671292 -2.97362 0.00970817 2.4254 3.67855 9.18614 1.78422 -2.47114 -0.114223 -0.970183 -0.574059 -0.0798371 0.330383
internal_weight=0 148 12529 43 128 12486 12235 1770 1444 10465 10054 8727 1327 804 7923 7646 1280 7610 196 7414 265 211 54 157 54 1053 699 673 7149 3887
internal_count=12677 148 12529 43 128 12486 12235 1770 1444 10465 10054 8727 1327 804 7923 7646 1280 7610 196 7414 265 211 54 157 54 1053 699 673 7149 3887
is_linear=0
shrinkage=0.5


Tree=17
num_leaves=31
num_cat=0
split_feature=34 26 7 21 21 0 21 9 34 11 23 14 17 5 0 22 7 7 9 36 20 26 20 20 1 28 11 11 19 31
split_gain=9681.67 25121.9 80598.2 26958.6 5186.28 11568.8 7028.98 4860.14 4090.34 3975.07 3656.06 3618.36 7223.98 3506.33 3942.29 4885.89 11789.6 11467.4 9924.38 7809.23 8507.31 8560.86 6261.37 6369.14 5772.67 5453.89 5244.38 4999.94 7672 6189.24
threshold=85.015850050000012 -3.8437499999999996 92.61714935000002 101.42899700000001 99.601497650000013 122.84349800000001 99.24214935000002 27.253899550000003 78.412647250000006 368.81419985000008 263.34999100000005 37015.000000000007 808.18750000000011 1.0000000180025095e-35 134.65599800000004 1940.4350000000002 82.882801050000012 88.445301050000012 31.355400100000004 0.73550000750000011 2.0107400450000004 -2.6562499999999996 1.5419849750000003 0.36425750000000007 1.0000000180025095e-35 86.601497650000013 368.81419985000008 360.41124955000004 -19.694444861111108 364.53100600000005
decision_type=2 2 2 2 2 2 2 2 2 2 2 2 2 2 2 2 2 2 2 2 2 2 2 2 2 2 2 2 2 2
left_child=1 2 -1 4 6 -6 8 -7 11 10 -10 13 -13 -3 15 17 -17 27 22 -20 25 -22 23 24 -18 -21 -19 28 29 -15
right_child=-2 3 -4 -5 5 7 -8 -9 9 -11 -12 12 -14 14 -16 16 18 26 19 20 21 -23 -24 -25 -26 -27 -28 -29 -30 -31
leaf_value=27.475678509835042 -9.8298384724557408 -3.66215803636157 -6.3007049929154544 -14.093696713447571 14.181472384929657 -5.9300105139613155 -8.9583990722894669 2.6378603600120791 0.4586745900846908 -6.0364642746069217 2.4995109580812001 -5.8371040442160194 3.9230830852801981 -0.62414359319628632 2.4585674679030975 -11.673702869415283 -1.9446256244984956 5.1304604053097282 7.7007889207452536 -1.565509110780837 -1.2761407628444568 6.8026963111966152 -5.0293447487872012 -0.7134417643579869 -9.4655106053465889 1.5491905388672178 -3.4924157641828062 -0.58519283279949419 8.3440293176420806 0.54547032754953417
leaf_weight=33 25 69 38 34 20 20 22 96 1699 22 252 70 26 1626 150 25 65 149 36 447 53 86 137 608 42 205 20 2857 29 3716
leaf_count=33 25 69 38 34 20 20 22 96 1699 22 252 70 26 1626 150 25 65 149 36 447 53 86 137 608 42 205 20 2857 29 3716
internal_value=0 0.0194235 9.39818 -0.0335049 0.00459561 3.07547 -0.0290551 1.16064 -0.0131986 0.646915 0.722278 -0.138237 -3.19372 -0.109814 -0.0859033 -0.123689 -0.895635 0.0329619 -0.735151 0.498702 0.17092 3.72228 -1.9328 -1.33948 -4.89675 -0.586194 4.11 -0.0507789 0.233492 0.189463
internal_weight=0 12652 71 12581 12547 136 12411 116 12389 1973 1951 10416 96 10320 10251 10101 1704 8397 1679 827 791 139 852 715 107 652 169 8228 5371 5342
internal_count=12677 12652 71 12581 12547 136 12411 116 12389 1973 1951 10416 96 10320 10251 10101 1704 8397 1679 827 791 139 852 715 107 652 169 8228 5371 5342
is_linear=0
shrinkage=0.5


Tree=18
num_leaves=31
num_cat=0
split_feature=26 34 19 31 21 26 31 34 20 1 3 20 1 20 9 9 20 10 20 9 10 7 11 7 26 10 0 31 22 10
split_gain=9158.76 30353.4 9065.89 91443.4 66447.1 13990.3 4532.58 3444.11 7259.11 13963.5 12074.6 6183.23 10105.8 14586.7 10247.2 8412.76 13313.4 9120.18 6390.13 6063.09 5664.6 5634.92 5447.39 7074.48 5570.41 5728.73 7017.22 5371.32 5351.5 5055.84
threshold=-3.9062499999999996 84.507846850000007 -36.305556833333327 375.53100600000005 101.42899700000001 -3.8437499999999996 366.21850600000005 74.666652700000014 0.47558550550000006 1.0000000180025095e-35 47.367099800000005 0.65527299050000021 1.0000000180025095e-35 1.1210899950000004 30.386699650000004 30.574199650000004 1.0986250050000002 0.76269447800000012 2.3173799500000007 30.480400100000004 0.41992150250000004 83.11714935000002 364.83860245000005 86.195301050000012 -2.5937499999999996 1.5361300100000002 120.09349800000001 332.65600600000005 1603.2450000000001 1.0761650200000001
decision_type=2 2 2 2 2 2 2 2 2 2 2 2 2 2 2 2 2 2 2 2 2 2 2 2 2 2 2 2 2 2
left_child=-1 2 3 6 5 -4 -2 11 9 19 -11 27 15 20 29 16 -13 -17 -16 -9 21 -14 23 28 25 -25 -27 -7 -10 -15
right_child=1 -3 4 -5 -6 7 -8 8 22 10 -12 12 13 14 18 17 -18 -19 -20 -21 -22 -23 -24 24 -26 26 -28 -29 -30 -31
leaf_value=-8.0770712000983096 -1.1601741693492205 13.949774016172459 -10.292973512952978 -35.38420720696449 22.802073694765568 -3.8582339815690485 4.9720185223747704 -0.58882306026581954 1.91012819028168 -4.323293167354799 3.0956626626734551 -0.073387541352127938 -1.6345314240927318 2.9539497510231882 -0.43109681931347837 0.67388509432708299 -5.395550800674914 -2.0973901024699666 3.1054717454924643 3.3362170304432048 -2.1944091324347847 2.9727567054375301 -1.0006981913046014 0.17871356224651871 2.2641846152729688 10.988456992166382 1.1021122709661721 0.56664255313325684 -0.057749637158435667 8.5029111583622132
leaf_weight=35 265 39 33 20 32 71 34 253 393 351 65 194 139 253 554 543 298 655 166 161 618 127 571 873 935 28 50 2015 2857 49
leaf_count=35 265 39 33 20 32 71 34 253 393 351 65 194 139 253 554 543 298 655 166 161 618 127 571 873 935 28 50 2015 2857 49
internal_value=0 0.0223618 -0.0207366 -2.65229 0.0476016 -0.011829 -0.462868 0.0159375 0.263424 -1.11819 -3.16408 -0.26879 -0.66605 0.123226 1.40966 -1.5562 -3.29697 -0.841295 0.384279 0.937581 -1.36403 0.565189 0.46436 0.627239 1.39757 0.54553 4.65106 0.416036 0.180212 3.85428
internal_weight=0 12642 12603 319 12284 12252 299 12219 6537 830 416 5682 3596 1906 1022 1690 492 1198 720 414 884 266 5707 5136 1886 951 78 2086 3250 302
internal_count=12677 12642 12603 319 12284 12252 299 12219 6537 830 416 5682 3596 1906 1022 1690 492 1198 720 414 884 266 5707 5136 1886 951 78 2086 3250 302
is_linear=0
shrinkage=0.5


Tree=19
num_leaves=31
num_cat=0
split_feature=34 21 24 23 21 21 7 0 26 21 32 22 32 34 36 24 23 22 26 28 22 0 24 22 21 22 22 7 26 21
split_gain=13608.7 28955 8718.51 33371.8 36944.8 27950.9 12374 7153.02 6613.2 5003.4 7761.89 6793.15 5942.4 6452.85 8884.99 15167.1 4928.94 7594.2 7747.53 5838.48 5707.71 5417.31 5212.35 5057.7 4493.83 5518.04 7295.05 6218.74 4889.33 4924.91
threshold=84.888851150000008 101.71049850000001 70.546848300000008 250.15000150000003 100.94499950000001 101.13249950000001 93.58589935000002 123.65599800000001 -3.8437499999999996 97.445301050000012 231.48600045000001 2072.0600600000002 254.48599950000002 80.126949300000021 0.73649999500000007 66.859348300000008 247.44999700000002 1743.9350000000002 3.2187500000000004 83.58589935000002 1726.6850000000002 113.59349800000001 59.734350200000009 1454.8700000000001 94.99214935000002 1701.0600000000002 1714.5600000000002 84.30464935000002 -2.4687499999999996 93.351497650000013
decision_type=2 2 2 2 2 2 2 2 2 2 2 2 2 2 2 2 2 2 2 2 2 2 2 2 2 2 2 2 2 2
left_child=1 2 5 4 6 8 -4 -5 -1 11 -11 16 13 14 15 -12 17 18 20 21 23 -19 -21 -10 25 27 -27 -18 -28 -30
right_child=-2 -3 3 7 -6 -7 -8 -9 9 10 12 -13 -14 -15 -16 -17 24 19 -20 22 -22 -23 -24 -25 -26 26 28 -29 29 -31
leaf_value=-7.5315357040742352 -11.010805117631596 18.575123083023797 -10.277497991367623 -7.0657431855797768 -26.051069673150778 14.365832224488258 5.9053317677407033 2.6997599341800274 2.8266023403221321 8.9296266250312328 -1.0373493246734142 -2.1764683512213465 7.837903463840485 -2.8290778724728405 0.71859222319177241 16.738526239991188 0.55952384585289061 2.2190295023222766 -9.5861725523358299 -5.2455523751335207 2.9886542496017436 -2.7025261006139694 -1.8141352894250304 -0.426434027173062 1.4106039584859007 -2.6261158051455151 -1.5603544102715594 3.572874428058157 -0.13037820163440664 0.9742383734496125
leaf_weight=29 28 21 27 22 28 34 21 127 129 32 24 364 30 111 484 24 1354 138 21 153 154 94 400 1620 708 276 462 196 4242 1324
leaf_count=29 28 21 27 22 28 34 21 127 129 32 24 364 30 111 484 24 1354 138 21 153 154 94 400 1620 708 276 462 196 4242 1324
internal_value=0 0.0243737 -0.00647569 -3.09105 -11.6172 0.049481 -3.19751 1.25787 0.0101281 0.0278516 1.32125 -0.0505196 0.959489 0.638568 1.36208 7.85059 0.0181385 -0.569687 -0.0349523 -1.8803 0.0704474 0.224951 -2.76351 -0.186502 0.204125 0.0953672 -0.112447 0.940567 0.00264491 0.13238
internal_weight=0 12649 12628 225 76 12403 48 149 12369 12340 705 11635 673 643 532 48 11271 2709 1924 785 1903 232 553 1749 8562 7854 6304 1550 6028 5566
internal_count=12677 12649 12628 225 76 12403 48 149 12369 12340 705 11635 673 643 532 48 11271 2709 1924 785 1903 232 553 1749 8562 7854 6304 1550 6028 5566
is_linear=0
shrinkage=0.5


end of trees

feature_importances:
Column_22=100
Column_0=87
Column_7=75
Column_21=55
Column_23=36
Column_34=26
Column_14=22
Column_31=21
Column_17=20
Column_20=20
Column_3=18
Column_9=18
Column_1=17
Column_24=15
Column_26=13
Column_11=10
Column_10=9
Column_32=9
Column_19=8
Column_28=7
Column_36=7
Column_16=4
Column_5=3

parameters:
[boosting: gbdt]
[objective: regression]
[metric: rmse,l2]
[tree_learner: serial]
[device_type: cpu]
[data: ]
[valid: ]
[num_iterations: 20]
[learning_rate: 0.5]
[num_leaves: 31]
[num_threads: -1]
[deterministic: 0]
[force_col_wise: 0]
[force_row_wise: 0]
[histogram_pool_size: -1]
[max_depth: 20]
[min_data_in_leaf: 20]
[min_sum_hessian_in_leaf: 0.001]
[bagging_fraction: 1]
[pos_bagging_fraction: 1]
[neg_bagging_fraction: 1]
[bagging_freq: 0]
[bagging_seed: 3]
[feature_fraction: 1]
[feature_fraction_bynode: 1]
[feature_fraction_seed: 2]
[extra_trees: 0]
[extra_seed: 6]
[early_stopping_round: 1000]
[first_metric_only: 0]
[max_delta_step: 0]
[lambda_l1: 0]
[lambda_l2: 0]
[linear_lambda: 0]
[min_gain_to_split: 0]
[drop_rate: 0.1]
[max_drop: 50]
[skip_drop: 0.5]
[xgboost_dart_mode: 0]
[uniform_drop: 0]
[drop_seed: 4]
[top_rate: 0.2]
[other_rate: 0.1]
[min_data_per_group: 100]
[max_cat_threshold: 32]
[cat_l2: 10]
[cat_smooth: 10]
[max_cat_to_onehot: 4]
[top_k: 20]
[monotone_constraints: ]
[monotone_constraints_method: basic]
[monotone_penalty: 0]
[feature_contri: ]
[forcedsplits_filename: ]
[refit_decay_rate: 0.9]
[cegb_tradeoff: 1]
[cegb_penalty_split: 0]
[cegb_penalty_feature_lazy: ]
[cegb_penalty_feature_coupled: ]
[path_smooth: 0]
[interaction_constraints: ]
[verbosity: -1]
[saved_feature_importance_type: 0]
[linear_tree: 0]
[max_bin: 255]
[max_bin_by_feature: ]
[min_data_in_bin: 3]
[bin_construct_sample_cnt: 200000]
[data_random_seed: 1]
[is_enable_sparse: 1]
[enable_bundle: 1]
[use_missing: 1]
[zero_as_missing: 0]
[feature_pre_filter: 1]
[pre_partition: 0]
[two_round: 0]
[header: 0]
[label_column: ]
[weight_column: ]
[group_column: ]
[ignore_column: ]
[categorical_feature: ]
[forcedbins_filename: ]
[precise_float_parser: 0]
[objective_seed: 5]
[num_class: 1]
[is_unbalance: 0]
[scale_pos_weight: 1]
[sigmoid: 1]
[boost_from_average: 1]
[reg_sqrt: 0]
[alpha: 0.9]
[fair_c: 1]
[poisson_max_delta_step: 0.7]
[tweedie_variance_power: 1.5]
[lambdarank_truncation_level: 30]
[lambdarank_norm: 1]
[label_gain: ]
[eval_at: ]
[multi_error_top_k: 1]
[auc_mu_weights: ]
[num_machines: 1]
[local_listen_port: 12400]
[time_out: 120]
[machine_list_filename: ]
[machines: ]
[gpu_platform_id: -1]
[gpu_device_id: -1]
[gpu_use_dp: 0]
[num_gpu: 1]

end of parameters

pandas_categorical:null
