tree
version=v3
num_class=1
num_tree_per_iteration=1
label_index=0
max_feature_idx=41
objective=regression
feature_names=Column_0 Column_1 Column_2 Column_3 Column_4 Column_5 Column_6 Column_7 Column_8 Column_9 Column_10 Column_11 Column_12 Column_13 Column_14 Column_15 Column_16 Column_17 Column_18 Column_19 Column_20 Column_21 Column_22 Column_23 Column_24 Column_25 Column_26 Column_27 Column_28 Column_29 Column_30 Column_31 Column_32 Column_33 Column_34 Column_35 Column_36 Column_37 Column_38 Column_39 Column_40 Column_41
feature_infos=[0:1] [0:1] [0:1] [0:1] [0:1] [0:94.629997299999999] [0:1] [0:1] none [0:1] [0:1.8550000200000001] [0:1] [273.14999999999998:1041.1500000000001] none none [-473:41051] [223.64999999999998:372.14999999999998] [0:1] [0:768] [0:1] [0:1] [0:1] none none [0:12288] [0:1] [0:1] [0:1] [0:1] [0:1] [0:127.129997] [0:163800] [-64:96.75] [0:1] none none [0:1016] [0:1] [0:0.99900001299999996] [0:1] [0:1] [0:1]
tree_sizes=2640 2717 2726 2728 2756 2763 2759 2754 2825 2787 2804 2810 2798 2817 2828 2815 2824 2824 2829 2841

Tree=0
num_leaves=31
num_cat=0
split_feature=5 5 16 5 5 16 16 16 16 5 5 5 16 5 5 5 16 16 16 16 16 16 5 5 16 5 16 16 5 16
split_gain=1.66961e+06 9328.25 5462.11 2161.16 1828.06 1449.99 1315.45 627.06 462.294 485.872 389.099 387.985 318.523 312.034 299.048 280.757 208.975 204.091 172.385 171.406 151.691 144.693 136.929 127.36 114.235 111.218 77.976 74.073 71.3663 71.3496
threshold=24.754999200000004 87.420002000000025 264.52500000000003 85.005001050000018 89.505001050000018 247.17000045 241.92000045 240.87999955000001 250.12999955000001 90.954998000000018 86.344997400000011 88.344997400000011 241.42000045 82.889999400000008 88.505001050000018 86.110000600000021 252.17000045 247.42000045 241.67000045 236.75499955000001 235.92000045 255.20000020000001 84.020000450000012 90.384998350000004 253.45000020000001 92.255001050000018 247.42000045 245.52500000000001 88.99499895000001 254.37999955000001
decision_type=2 2 2 2 2 2 2 2 2 2 2 2 2 2 2 2 2 2 2 2 2 2 2 2 2 2 2 2 2 2
left_child=-1 2 3 7 5 11 15 22 23 21 26 12 -3 -9 24 20 -16 -12 -13 -17 -5 -10 -2 27 -7 29 -8 -6 -20 -11
right_child=1 4 -4 6 8 14 10 13 9 25 17 18 -14 -15 16 19 -18 -19 28 -21 -22 -23 -24 -25 -26 -27 -28 -29 -30 -31
leaf_value=46.695811872411497 92.709800145473494 94.70575974087987 85.50837729560493 94.075738502804725 95.284393870854259 93.839834388376204 93.098943880981338 90.362328914608213 94.665754889742942 95.236345996428895 93.714620141658173 95.088758774631302 94.212238919827684 92.225192360879007 94.359621433216361 94.508263272105353 93.892567836080772 93.176355820068409 94.561342729459696 94.083762791540295 93.518635659109776 94.275492833394807 93.33212748181063 95.456371230679451 93.301044859851842 95.530678255657506 92.573919549696981 94.927281560105257 94.828390049162664 94.857404962449536
leaf_weight=188 146 539 21 239 227 546 221 26 687 187 654 345 831 166 606 397 396 241 565 593 250 363 224 290 120 112 104 403 449 370
leaf_count=188 146 539 21 239 227 546 221 26 687 187 654 345 831 166 606 397 396 241 565 593 250 363 224 290 120 112 104 403 449 370
internal_value=93.3916 94.2424 93.5464 93.5981 94.5671 94.3697 93.7839 92.7061 94.8961 94.743 93.3995 94.5942 94.4064 91.9729 94.0024 94.1009 94.175 93.5697 94.7835 94.254 93.7909 94.5308 93.0866 95.1822 93.7428 95.076 92.9309 95.056 94.6796 94.9846
internal_weight=0 10318 3282 3261 7036 4397 2699 562 2639 1719 1220 2729 1370 192 1668 1479 1002 895 1359 990 489 1050 370 920 666 669 325 630 1014 557
internal_count=10506 10318 3282 3261 7036 4397 2699 562 2639 1719 1220 2729 1370 192 1668 1479 1002 895 1359 990 489 1050 370 920 666 669 325 630 1014 557
is_linear=0
shrinkage=1


Tree=1
num_leaves=31
num_cat=0
split_feature=15 5 5 5 16 5 16 10 16 5 16 5 16 16 16 16 5 16 5 5 5 16 5 5 16 16 5 16 16 16
split_gain=420296 3059.43 2162.24 662.231 507.192 385.861 449.613 268.887 221.383 155.497 140.971 106.477 106.078 100.703 97.709 97.1915 92.5134 90.1245 84.5764 80.3711 76.7307 55.2397 58.0136 53.7665 52.9222 49.551 40.0495 35.7834 35.573 29.6337
threshold=2186.0000000000005 81.189998650000021 87.99499895000001 85.505001050000018 243.92000045 90.229999550000016 249.37999955000001 1.0000000180025095e-35 238.17000045 86.860000600000021 244.17000045 84.270000450000012 233.27500000000001 251.92000045 238.42000045 256.42000045000003 89.170002000000025 250.37999955000001 86.99499895000001 89.110000600000021 91.505001050000018 236.52500000000001 89.110000600000021 83.514999400000008 232.02500000000001 257.17000000000002 91.479999550000016 239.67000045 243.62999955000001 261.25500000000005
decision_type=2 2 2 2 2 2 2 2 2 2 2 2 2 2 2 2 2 2 2 2 2 2 2 2 2 2 2 2 2 2
left_child=7 -2 3 8 9 6 10 -1 23 12 21 28 -5 26 -11 19 -12 18 -6 -8 25 -4 -23 -3 -25 -15 -7 -14 -10 -17
right_child=1 2 5 4 17 13 15 -9 11 14 16 -13 27 20 -16 29 -18 -19 -20 -21 -22 22 -24 24 -26 -27 -28 -29 -30 -31
leaf_value=-23.347906112670898 -4.8908735822748257 -0.3332770906480742 1.1969637370403903 0.63180570595363184 -0.10581480172525547 0.95898552238941193 0.23111452811394001 -25.288534355163574 -0.59686996461006636 0.73491262032325011 0.48115594385875321 -0.32584885794012824 0.28726680641163399 0.74373834112555415 0.43129134027726979 0.10942382755277941 0.72671905728991359 -0.22320400663868409 0.19530280307193629 0.48633226464749002 0.96260096582315735 0.69899437463427161 0.94524387146035826 0.42744707760184703 -0.008376591841373196 0.45749495794095901 1.3644007478935132 0.076876452362025421 -1.1441005372232007 -0.36157695490068625
leaf_weight=166 27 81 81 169 356 520 516 20 57 415 1011 311 471 521 733 163 618 292 676 767 295 830 336 99 235 213 69 354 62 42
leaf_count=166 27 81 81 169 356 520 516 20 57 415 1011 311 471 521 733 163 618 292 676 767 295 830 336 99 235 213 69 354 62 42
internal_value=0 0.424566 0.438509 0.168558 0.265319 0.633053 0.55573 -23.5566 -0.228333 0.415694 0.671169 -0.479755 0.270918 0.841605 0.54105 0.332609 0.574316 0.0220386 0.0914289 0.383688 0.747232 0.797692 0.769955 0.0321767 0.120805 0.660673 1.00648 0.19699 -0.881982 0.0129261
internal_weight=0 10320 10293 4311 3466 5982 4364 186 845 2142 2876 430 994 1618 1148 1488 1629 1324 1032 1283 1029 1247 1166 415 334 734 589 825 119 205
internal_count=10506 10320 10293 4311 3466 5982 4364 186 845 2142 2876 430 994 1618 1148 1488 1629 1324 1032 1283 1029 1247 1166 415 334 734 589 825 119 205
is_linear=0
shrinkage=0.5


Tree=2
num_leaves=31
num_cat=0
split_feature=38 5 36 16 18 5 16 16 5 16 36 16 16 5 5 16 18 16 5 5 16 5 16 5 5 16 16 16 5 16
split_gain=108834 629.232 272.011 261.74 383.79 173.631 164.088 96.8839 74.2926 66.8382 63.9892 59.4306 58.605 61.5542 45.7122 51.1818 42.3238 30.1947 36.7957 27.6068 23.4505 20.9569 18.4241 18.3139 17.2057 16.5207 14.9254 13.3702 12.1161 11.7352
threshold=0.17100000400000001 87.094997400000011 38.500000000000007 252.67000045 594.20001200000013 89.99499895000001 245.12999955000001 245.17000045 88.229999550000016 254.17000045 26.500000000000004 247.62999955000001 234.17000045 84.770000450000012 88.639999400000008 234.37999955000001 636.75000000000011 260.20000020000003 91.255001050000018 85.864997900000006 252.34999980000001 88.875000000000014 239.44999924999999 84.404998800000016 86.43999860000001 240.60000075000002 229.92000045 242.37999955000001 92.810001350000007 227.27500000000001
decision_type=2 2 2 2 2 2 2 2 2 2 2 2 2 2 2 2 2 2 2 2 2 2 2 2 2 2 2 2 2 2
left_child=2 3 10 7 -5 6 14 12 20 21 -1 27 23 -14 15 -3 -6 18 -13 -9 -8 -10 -17 29 -15 -16 -25 -7 -20 -2
right_child=1 5 -4 4 16 11 8 19 9 -11 -12 17 13 24 25 22 -18 -19 28 -21 -22 -23 -24 26 -26 -27 -28 -29 -30 -31
leaf_value=-11.624010422650505 0.37195120735660842 0.63240273296833038 -13.638070193204014 -2.7096382521447682 -0.53781150579452519 0.89119734269816697 0.082282851507282068 -0.34301765050880517 0.18090181260452098 0.02078633108426995 -12.454045976911273 0.35412724901025538 -0.21013669615954211 0.02383673455892437 0.60842215342629224 0.35753587885635107 0.30840615521777759 0.13923670233743005 0.50192049012130713 -0.085796667942727986 -0.13905378607836302 0.28992058101253443 0.24414291495740903 0.48985532894730566 0.1393989587249734 0.41190672237357812 0.23453506251654713 0.58252174017851244 0.79889894629779612 -0.027794217921097528
leaf_weight=136 23 108 22 21 45 41 761 158 667 368 28 1177 225 760 133 508 22 121 357 307 142 1300 1215 70 559 546 314 243 38 91
leaf_count=136 23 108 22 21 45 41 761 158 667 368 28 1177 225 760 133 508 22 121 357 307 142 1300 1215 70 559 546 314 243 38 91
internal_value=0 0.216048 -11.9872 0.00303018 -0.844534 0.287606 0.243643 0.0327811 0.169265 0.216363 -11.7657 0.415423 0.0796859 0.0315798 0.339595 0.298504 -0.259949 0.379917 0.398442 -0.173196 0.0474769 0.252953 0.277575 0.228834 0.0728127 0.450399 0.281078 0.627084 0.530491 0.0528562
internal_weight=0 10320 186 2595 88 7725 5748 2507 3238 2335 164 1977 2042 1544 2510 1831 67 1693 1572 465 903 1967 1723 498 1319 679 384 284 395 114
internal_count=10506 10320 186 2595 88 7725 5748 2507 3238 2335 164 1977 2042 1544 2510 1831 67 1693 1572 465 903 1967 1723 498 1319 679 384 284 395 114
is_linear=0
shrinkage=0.5


Tree=3
num_leaves=31
num_cat=0
split_feature=30 16 30 5 15 16 16 5 16 36 5 16 16 16 16 16 5 5 5 5 5 16 16 5 16 5 15 5 16 5
split_gain=27314.5 351.568 413.266 160.251 122.257 50.4893 58.9584 38.7436 69.0133 33.6695 30.5546 25.6532 24.4834 22.6991 20.5943 20.5057 17.533 17.2379 15.7526 13.0993 10.9959 10.195 9.44184 9.15735 8.3586 8.10325 11.3462 7.23248 7.22893 7.14984
threshold=86.000000000000014 311.90000000000003 56.440000550000008 87.74499895000001 663.50000000000011 264.52500000000003 245.92000045 90.579998000000003 250.95000020000001 26.500000000000004 85.764999400000008 237.67000045 256.95000020000003 256.67000045000003 238.12999955000001 259.27500000000003 86.639999400000008 88.810001400000019 91.755001050000018 93.164997100000008 89.170002000000025 231.27500000000001 263.77500000000003 82.564998650000021 245.67000045 84.505001050000018 32993.400400000006 89.110000600000021 230.97500075000002 86.68999860000001
decision_type=2 2 2 2 2 2 2 2 2 2 2 2 2 2 2 2 2 2 2 2 2 2 2 2 2 2 2 2 2 2
left_child=1 2 4 5 9 6 10 8 14 -1 21 28 16 18 -5 20 -8 24 -9 22 -10 23 -15 -2 -16 26 -23 -17 -12 -13
right_child=3 -3 -4 7 -6 -7 12 13 15 -11 11 29 -14 19 17 27 -18 -19 -20 -21 -22 25 -24 -25 -26 -27 -28 -29 -30 -31
leaf_value=-5.8408537532972256 -0.20413143989363952 -7.7598798491738057 -3.6133827201344748 0.32040465926438305 -6.8007554262876511 0.82131987065076828 -0.17384458203011866 0.26392131440908934 2.4216051015979317e-05 -5.1964633464813232 0.3419380806255759 0.0020702625768806568 -0.64103341866284613 0.13642113480241522 0.15807073859614834 -0.42485434464786365 -0.021269434716536074 0.19907826749988072 0.49051990689233294 0.52288103103637695 0.095647144587818131 0.207308960430648 -0.21725986935198308 0.15333339492561388 0.089666681789063035 -0.010404169479615099 -0.16370958590061602 -0.10223939176320924 0.15565086669467348 0.077247181815722196
leaf_weight=92 21 22 22 226 32 20 309 709 474 26 57 470 20 334 1131 23 482 1857 86 21 822 23 20 122 738 508 198 71 603 967
leaf_count=92 21 22 22 226 32 20 309 709 474 26 57 470 20 334 1131 23 482 1857 86 21 822 23 20 122 738 508 198 71 603 967
internal_value=0 -5.87785 -5.63712 0.11058 -5.93394 0.028985 0.0247928 0.158194 0.140145 -5.69887 0.0574292 0.0901378 -0.0946862 0.240602 0.173849 0.0443186 -0.0808721 0.16496 0.288434 0.1392 0.0606739 -0.0212291 0.116439 0.100839 0.13106 -0.0451738 -0.125097 -0.181177 0.171739 0.052659
internal_weight=0 194 172 10312 150 3800 3780 6512 5342 118 2969 2097 811 1170 3952 1390 791 3726 795 375 1296 872 354 143 1869 729 221 94 660 1437
internal_count=10506 194 172 10312 150 3800 3780 6512 5342 118 2969 2097 811 1170 3952 1390 791 3726 795 375 1296 872 354 143 1869 729 221 94 660 1437
is_linear=0
shrinkage=0.5


Tree=4
num_leaves=31
num_cat=0
split_feature=38 36 32 36 5 5 16 15 16 5 16 5 5 16 5 16 5 38 16 16 5 16 32 5 5 16 5 16 16 5
split_gain=6996.95 161.121 104.625 103.029 89.6272 45.0107 34.7187 18.4129 17.0253 16.0944 19.0386 13.8673 12.7028 8.6897 7.09759 6.97564 12.3926 6.54987 10.2894 6.18779 5.43508 7.66763 5.24599 5.37587 4.45019 4.42444 3.64522 4.6024 3.62463 3.26483
threshold=0.17100000400000001 26.500000000000004 7.9700000300000005 40.500000000000007 81.189998650000021 88.094997400000011 304.27500000000003 663.50000000000011 246.17000045 85.344997400000011 240.17000045 89.844997400000011 90.310001400000019 253.17000045 93.255001050000018 236.52500000000001 82.564998650000021 0.74524998650000007 251.20000020000001 257.42000000000002 86.545002000000011 232.97500075000002 14.140000350000003 86.139999400000008 85.889999400000008 239.87999955000001 90.49499895000001 258.67000000000002 228.27500000000001 89.229999550000016
decision_type=2 2 2 2 2 2 2 2 2 2 2 2 2 2 2 2 2 2 2 2 2 2 2 2 2 2 2 2 2 2
left_child=1 6 -3 -2 -5 9 7 -1 12 15 20 19 25 -13 26 16 -6 -12 24 -10 -11 -22 23 -20 -19 29 -15 -28 -18 -7
right_child=3 2 -4 4 5 8 -8 -9 11 10 17 13 -14 14 -16 -17 28 18 22 -21 21 -23 -24 -25 -26 -27 27 -29 -30 -31
leaf_value=-2.9612071770493702 -1.0260931302433496 -3.2163492957750957 -4.6927286267280577 1.0222009918652475 -0.34677193427215453 0.15009301882953599 -2.1488326787948608 -2.4615700244903564 0.042475229560186054 0.041482581928052147 0.24830888870551629 0.13142675553568003 0.29562544322335255 0.010335088503779843 0.35949142577592286 -0.095658076877925713 0.22096725265146233 -0.072420815615693024 -0.29223403573036194 -0.085204294378054324 0.23550349258884942 0.085449839242348141 -0.330256927896037 -0.045815079349908652 0.01769293033596326 0.10302500300997375 0.1024086575745118 0.016005904014583319 0.017507872664852136 0.30635073360724324
leaf_weight=93 22 30 20 24 23 234 20 23 1858 626 27 904 102 282 20 398 24 147 25 100 97 696 22 193 2015 1449 526 218 249 39
leaf_count=93 22 30 20 24 23 234 20 23 1858 626 27 904 102 282 20 398 24 147 25 100 97 696 22 193 2015 1449 526 218 249 39
internal_value=0 -3.03941 -3.8069 0.05478 0.0570892 0.0548347 -2.75724 -2.86214 0.0842944 0.0176565 0.0302965 0.0656778 0.124181 0.0955233 0.0644938 -0.0524279 0.00569905 0.00341536 0.000662607 0.0359543 0.0763108 0.103804 -0.0975576 -0.0740741 0.0115659 0.114026 0.0587434 0.0770917 0.0353944 0.172416
internal_weight=0 186 50 10320 10298 10274 136 116 5732 4542 3848 3908 1824 1950 1046 694 296 2429 2402 1958 1419 793 240 218 2162 1722 1026 744 273 273
internal_count=10506 186 50 10320 10298 10274 136 116 5732 4542 3848 3908 1824 1950 1046 694 296 2429 2402 1958 1419 793 240 218 2162 1722 1026 744 273 273
is_linear=0
shrinkage=0.5


Tree=5
num_leaves=31
num_cat=0
split_feature=18 20 36 32 36 5 5 16 15 36 16 5 16 5 16 5 16 5 38 15 16 5 5 5 5 16 5 5 30 16
split_gain=1893.62 291.212 226.224 67.1461 49.1729 46.3128 11.8237 17.4318 11.2583 9.50521 8.48827 8.37422 7.42894 5.48257 4.74412 4.26544 5.39077 3.92988 3.79553 3.6582 3.27283 3.08148 9.0401 3.06458 3.00227 2.51139 2.441 2.40497 3.0589 2.39437
threshold=519.00000000000011 1.0000000180025095e-35 36.500000000000007 -6.1449999849999992 28.500000000000004 81.189998650000021 89.329998000000003 264.52500000000003 32993.400400000006 41.309999450000007 242.92000045 83.639999400000008 250.12999955000001 91.74499895000001 253.07999935000001 87.755001050000018 234.97500075000002 86.860000600000021 0.75674998750000011 663.50000000000011 254.17000045 87.420002000000025 87.24499895000001 87.560001400000019 86.479999550000016 262.67000000000002 85.005001050000018 89.505001050000018 93.564998650000021 243.17000045
decision_type=2 2 2 2 2 2 2 2 2 2 2 2 2 2 2 2 2 2 2 2 2 2 2 2 2 2 2 2 2 2
left_child=1 3 -2 -1 19 -4 7 8 -7 -10 -8 18 15 14 -12 16 24 -14 -11 -5 -15 22 -18 -23 26 27 -13 -16 -29 -17
right_child=2 -3 5 4 -6 6 10 -9 9 11 13 12 17 20 25 29 21 -19 -20 -21 -22 23 -24 -25 -26 -27 -28 28 -30 -31
leaf_value=-2.2190753429789436 -1.6126831486111595 -3.3353688901533252 0.67223911759044441 -1.4707949579536141 -0.59334845095872879 -0.12992470330522898 0.17094788179304954 0.48332177102565765 0.29045526515255915 -0.30948523698108538 0.058465936395174986 0.094329112025791667 -0.14473170687955234 0.20147432056786138 0.09560738773385917 0.061373970676531844 8.9818513964156119e-05 -0.014166120554866726 -0.073903214206676116 -1.2307848930358887 0.080838452699856886 -0.07493980346088655 0.086611946051019822 -0.00040119017963414664 0.10446775721191147 -0.10901345921537051 0.0076669472589462719 -0.074589860863512852 0.021902205600388889 0.029552929885706125
leaf_weight=22 21 23 28 77 22 130 148 20 32 21 1616 112 62 79 96 946 1898 818 92 20 195 211 359 398 215 39 296 91 843 1576
leaf_count=22 21 23 28 77 22 130 148 20 32 21 1616 112 62 79 96 946 1898 818 92 20 195 211 359 398 215 39 296 91 843 1576
internal_value=0 -1.68569 0.0267312 -1.4166 -1.26824 0.0300669 0.02832 0.0171769 0.0158759 0.0185698 0.054092 0.0173276 0.0195416 0.0482472 0.0413719 0.025823 0.014499 -0.0233651 -0.117684 -1.42131 0.11562 0.00533573 0.0138521 -0.0262266 0.056653 0.015531 0.0314566 0.0202468 0.0125009 0.041489
internal_weight=0 164 10342 141 119 10321 10293 7186 7166 7036 3107 7004 6891 2959 2685 6011 3489 880 113 97 274 2866 2257 609 623 1069 408 1030 934 2522
internal_count=10506 164 10342 141 119 10321 10293 7186 7166 7036 3107 7004 6891 2959 2685 6011 3489 880 113 97 274 2866 2257 609 623 1069 408 1030 934 2522
is_linear=0
shrinkage=0.5


Tree=6
num_leaves=31
num_cat=0
split_feature=24 16 10 15 16 5 36 15 16 5 24 16 16 5 16 16 16 5 16 16 5 5 30 5 5 16 5 16 5 5
split_gain=482.788 136.168 56.3221 73.8357 13.9285 16.8672 12.6908 6.27169 4.98808 4.65879 3.76282 3.42212 3.3534 3.49938 3.21999 2.89854 2.8933 2.80674 2.45427 3.30399 2.48509 2.65887 2.2421 2.12565 2.10143 1.98457 2.54433 1.68215 1.59024 3.03707
threshold=1968.3499750000003 321.02500000000003 1.0000000180025095e-35 663.50000000000011 227.27500000000001 80.125000000000014 28.500000000000004 28511.849600000005 262.50500000000005 86.639999400000008 808.00000000000011 242.92000045 232.02500000000001 90.670002000000025 248.47499980000001 245.52500000000001 241.92000045 89.43999860000001 247.17000045 246.45000020000001 88.610000600000021 88.344997400000011 89.99499895000001 90.384998350000004 89.43999860000001 238.67000045 83.139999400000008 238.67000045 86.344997400000011 86.139999400000008
decision_type=2 2 2 2 2 2 2 2 2 2 2 2 2 2 2 2 2 2 2 2 2 2 2 2 2 2 2 2 2 2
left_child=1 2 3 6 -2 -6 10 -7 9 11 -1 16 -11 14 18 -15 25 -10 19 20 21 -14 -13 -20 -21 26 -9 -22 29 -24
right_child=4 -3 -4 -5 5 7 -8 8 17 12 -12 22 13 15 -16 -17 -18 -19 23 24 27 -23 28 -25 -26 -27 -28 -29 -30 -31
leaf_value=-0.59119874995852273 0.32477561286133194 -2.0344910643994809 0.11203676036426 -1.462161014477412 -0.42411244728348474 0.23517007210466545 -0.22903032671837581 -0.12109231096359768 -0.26000842476344627 0.1394410529254197 -0.80884516752999402 -0.19093804496030012 0.019456964000094858 0.21826610729719201 0.00017548892713520315 0.042363429883897137 0.081005764177775594 -0.050849528647443049 0.058791759268147462 -0.044415912479763071 0.10889041351483149 -0.032607200539475169 -0.033404776419422799 -0.090161890834569935 0.043523284095478641 -0.031964086985526809 0.016363576804730058 0.036037380121317804 -0.076283187393608939 0.10697100062283095
leaf_weight=63 36 20 21 30 22 32 21 35 23 58 29 24 2199 24 2438 968 116 53 571 310 85 276 310 25 87 377 883 1168 158 44
leaf_count=63 36 20 21 30 22 32 21 35 23 58 29 24 2199 24 2438 968 116 53 571 310 85 276 310 25 87 377 883 1168 158 44
internal_value=0 -0.802791 -0.652584 -0.764871 0.0143106 0.013224 -0.579749 0.0141614 0.0134702 0.0144252 -0.659805 -0.00756394 0.0196405 0.018788 0.0149316 0.0466191 0.00535579 -0.114148 0.0225518 0.0182185 0.0228363 0.013651 -0.0415747 0.0525437 -0.0251446 -0.00142058 0.0111229 0.0409795 -0.0345732 -0.0159569
internal_weight=0 184 164 143 10322 10286 113 10264 10232 10156 92 1947 8209 8151 7159 992 1411 76 4721 4125 3728 2475 536 596 397 1295 918 1253 512 354
internal_count=10506 184 164 143 10322 10286 113 10264 10232 10156 92 1947 8209 8151 7159 992 1411 76 4721 4125 3728 2475 536 596 397 1295 918 1253 512 354
is_linear=0
shrinkage=0.5


Tree=7
num_leaves=31
num_cat=0
split_feature=18 36 12 30 36 36 16 16 18 38 15 5 16 16 16 16 5 5 16 5 16 5 5 16 15 5 16 5 5 16
split_gain=138.845 95.8562 48.0799 21.5148 17.5504 14.1384 13.1816 11.7009 6.02919 5.29772 2.40801 1.8908 2.06101 1.92896 1.49296 1.45808 3.44849 2.46068 2.116 1.23987 2.13357 1.46842 1.24476 1.23409 2.88591 1.74269 1.06377 1.20687 1.18277 1.28143
threshold=475.00000000000006 26.500000000000004 308.65000000000003 52.690000550000008 19.500000000000004 40.500000000000007 226.02500000000001 300.77500000000003 566.2999880000001 0.71999999900000011 496.00000000000006 88.170002000000025 243.17000045 241.92000045 264.38000002000007 240.42000045 84.889999400000008 84.639999400000008 235.17000045 87.045002000000011 241.42000045 87.49499895000001 87.420002000000025 255.20000020000001 32999.44920000001 84.145000500000023 243.37999955000001 91.99499895000001 90.110000600000021 241.67000045
decision_type=2 2 2 2 2 2 2 2 2 2 2 2 2 2 2 2 2 2 2 2 2 2 2 2 2 2 2 2 2 2
left_child=1 3 -3 7 -2 -6 -7 10 -8 -10 -1 12 13 15 26 17 -17 18 -11 -18 22 -22 -21 25 -25 -14 28 -28 29 -13
right_child=4 2 -4 -5 5 6 8 -9 9 11 -12 14 23 -15 -16 16 19 -19 -20 20 21 -23 -24 24 -26 -27 27 -29 -30 -31
leaf_value=-0.29866032347534643 -0.4294579573299574 -0.57837392791936348 -1.6237083436413244 -0.64369012609772058 0.32968998590812965 0.39334663723341445 -0.19288939874815314 0.2255951315164566 0.23205359709950593 0.0022861337097960393 -0.092935712337493898 0.0095121787512279059 -0.12036703252750966 0.038884619395994989 -0.11472444139097047 0.14441352813238545 -0.069901047103353833 0.013945459497056964 -0.099750036258570929 0.023264437624149852 -0.050138011574745178 0.10838398678849141 -0.076272317651623428 0.066981691704131666 -0.1687580006373291 -0.0093150036728984944 0.0084104322612993197 0.048691594379690908 0.11728617685179957 0.052378816947540534
leaf_weight=33 23 22 22 23 34 22 38 21 26 112 25 462 36 418 23 28 166 1722 93 45 21 48 104 20 37 1890 4481 194 37 280
leaf_count=33 23 22 22 23 34 22 38 21 26 112 25 462 36 418 23 28 166 1722 93 45 21 48 104 20 37 1890 4481 194 37 280
internal_value=0 -0.484194 -1.10104 -0.218104 0.00682359 0.00779432 0.00673206 -0.0941986 0.00590476 0.00664225 -0.209986 0.00606863 -0.00124298 0.0075993 0.0123964 0.00200833 -0.02499 0.00778068 -0.0440034 -0.0373423 -0.0125499 0.0601382 -0.0462109 -0.0135366 -0.0860423 -0.0113907 0.0129325 0.010082 0.0300389 0.0256883
internal_weight=0 146 44 102 10360 10337 10303 79 10281 10243 58 10217 4740 2757 5477 2339 412 1927 205 384 218 69 149 1983 57 1926 5454 4675 779 742
internal_count=10506 146 44 102 10360 10337 10303 79 10281 10243 58 10217 4740 2757 5477 2339 412 1927 205 384 218 69 149 1983 57 1926 5454 4675 779 742
is_linear=0
shrinkage=0.5


Tree=8
num_leaves=31
num_cat=0
split_feature=16 12 36 30 30 12 16 5 15 27 38 16 16 5 16 5 16 30 5 32 36 16 15 15 5 5 5 5 16 16
split_gain=59.6285 35.1394 9.37117 24.2089 13.8883 5.32368 2.63598 2.53155 2.01201 1.58124 1.10867 1.01286 0.850673 1.47846 1.65446 1.08394 0.76614 1.65949 0.740111 0.575785 0.548773 0.495977 0.486383 0.576192 0.459264 2.3207 3.87336 1.24694 1.19316 1.14744
threshold=321.02500000000003 273.65000000000003 28.500000000000004 86.000000000000014 53.815000550000008 333.15000000000003 264.52500000000003 82.24499895000001 32971.750000000007 1.0000000180025095e-35 0.74524998650000007 251.62999955000001 258.22499980000003 91.229999550000016 248.47499980000001 92.664997100000008 227.27500000000001 87.810001350000007 83.139999400000008 -11.785000349999999 41.309999450000007 229.27500000000001 38006.150400000006 35999.650400000006 89.784999850000005 89.505001050000018 89.43999860000001 89.74499895000001 240.60000075000002 255.42000045
decision_type=2 2 2 2 2 2 2 2 2 2 2 2 2 2 2 2 2 2 2 2 2 2 2 2 2 2 2 2 2 2
left_child=1 -1 4 -4 5 -3 7 -5 11 -7 -10 19 13 16 -15 -16 -12 -18 -19 -9 -20 -22 23 -14 25 26 29 -27 -26 -23
right_child=-2 2 3 6 -6 9 -8 8 10 -11 12 -13 22 14 15 -17 17 18 20 -21 21 24 -24 -25 28 27 -28 -29 -30 -31
leaf_value=-0.49149388738442212 -0.86251788139343266 0.16779072303879297 0.40854918712599053 -0.12946860595709747 -0.48940445475391636 -0.043461416783774721 0.13312540098260611 0.030995813029056244 -0.077082724609811387 -0.2085759366264342 -0.085252339097981647 -0.14236593122283617 0.0013714030451540437 0.14830730458100636 0.019310016139657125 0.13912538943113759 0.14459416075121789 -0.075871929197154686 0.074021907789366584 -0.077973694372404784 0.059473684825934472 0.0031033056183667296 0.054808746136370157 -0.039961212205937797 0.11583971594356829 -0.055936012991393606 0.072299199510856615 -0.00015252148785459046 0.009772264903189741 -0.045229655956383792
leaf_weight=36 20 21 37 36 23 29 39 22 42 29 24 33 140 30 336 20 21 29 28 27 40 6963 21 212 27 255 203 165 1473 125
leaf_count=36 20 21 37 36 23 29 39 22 42 29 24 33 140 30 336 20 21 29 28 27 40 6963 21 212 27 255 203 165 1473 125
internal_value=0 0.00164508 0.00334394 0.00483049 -0.147468 -0.0479174 0.00338179 0.00288918 0.00335469 -0.126019 0.00398464 -0.0746519 0.00432135 0.00521884 0.0355438 0.0260412 0.00396733 0.00419686 0.0038801 -0.0290486 0.00412935 0.00391781 -0.0191121 -0.0235221 0.00367655 0.00211937 0.00420125 -0.0340211 0.0116815 0.00225093
internal_weight=0 10486 10450 10348 102 79 10311 10272 10236 58 10154 82 10112 9739 386 356 9353 9329 9308 49 9279 9251 373 352 9211 7711 7291 420 1500 7088
internal_count=10506 10486 10450 10348 102 79 10311 10272 10236 58 10154 82 10112 9739 386 356 9353 9329 9308 49 9279 9251 373 352 9211 7711 7291 420 1500 7088
is_linear=0
shrinkage=0.5


Tree=9
num_leaves=31
num_cat=0
split_feature=36 15 36 16 18 18 16 5 5 18 16 32 30 38 16 5 5 5 5 5 5 16 16 16 30 39 16 16 16 16
split_gain=39.5304 32.3074 94.4437 29.0115 7.69757 15.6265 4.29064 24.8864 1.53093 0.7214 0.869002 1.40461 2.52238 1.31928 1.27318 0.577614 1.04088 1.81404 1.22577 2.24317 1.98029 1.67539 1.1533 1.06684 1.62368 1.19129 1.04768 0.990809 1.03204 0.872593
threshold=60.184999450000007 284.00000000000006 21.500000000000004 303.15000000000003 331.00000000000006 475.00000000000006 274.77500000000003 81.189998650000021 82.24499895000001 728.50000000000011 258.97499980000003 -35.505001049999997 93.875000000000014 0.77590000650000013 264.38000002000007 86.505001050000018 86.110000600000021 85.864997900000006 85.005001050000018 84.770000450000012 85.139999400000008 240.87999955000001 235.92000045 246.87999955000001 89.99499895000001 1.0000000180025095e-35 240.67000045 235.92000045 237.22500075000002 242.09999980000001
decision_type=2 2 2 2 2 2 2 2 2 2 2 2 2 2 2 2 2 2 2 2 2 2 2 2 2 2 2 2 2 2
left_child=1 2 -1 4 -3 -6 7 -7 -9 10 15 13 -13 -12 -14 16 17 18 19 23 -20 22 -21 24 -10 -25 27 -22 -29 -18
right_child=-2 3 -4 -5 5 6 -8 8 9 -11 11 12 14 -15 -16 -17 29 -19 20 21 26 -23 -24 25 -26 -27 -28 28 -30 -31
leaf_value=0.085531645693267003 -0.64096399951570981 -0.2387858389058348 -1.2508646225323901 0.5644892194996709 0.32312810458365437 0.54617627466186169 -0.19715285632345411 -0.12481807979444663 -0.0091938419921056731 0.096479640761390331 -0.1980884305778004 0.15971900462172925 -0.013570417527278717 -0.024751625471728166 -0.13972391869703477 0.0040182126160150872 -0.039235583321417494 0.043582569233167473 -0.105207207563305 0.098183642105949626 -0.020672552246282606 0.16551319044083357 -0.023774789511835911 -0.15255895359441637 0.1014197626453195 0.006972801151939414 -0.044843697508857132 0.12074987602730593 0.013812263061261766 0.0015990937566606417
leaf_weight=39 24 33 20 23 38 21 27 24 321 20 21 20 220 23 22 8149 347 218 66 36 148 34 42 25 37 22 155 30 91 210
leaf_count=39 24 33 20 23 38 21 27 24 321 20 21 20 220 23 22 8149 347 218 66 36 148 34 42 25 37 22 155 30 91 210
internal_value=0 0.00146758 -0.367484 0.00355605 0.00231552 0.00308299 0.00190556 0.00242726 0.0013166 0.00161174 0.00142639 -0.0248176 -0.0109353 -0.107481 -0.0250389 0.00223504 -0.00591934 0.00222913 -0.00672326 0.0102597 -0.024642 0.0728886 0.0325137 -0.00705991 0.00223829 -0.0778845 -0.0121012 0.00676533 0.0403257 -0.0238401
internal_weight=0 10482 59 10423 10400 10367 10329 10302 10281 10257 10237 306 262 44 242 9931 1782 1225 1007 517 490 112 78 405 358 47 424 269 121 557
internal_count=10506 10482 59 10423 10400 10367 10329 10302 10281 10257 10237 306 262 44 242 9931 1782 1225 1007 517 490 112 78 405 358 47 424 269 121 557
is_linear=0
shrinkage=0.5


Tree=10
num_leaves=31
num_cat=0
split_feature=16 27 32 12 36 36 16 30 5 38 16 5 5 5 16 16 5 16 16 5 5 5 30 5 16 5 30 5 16 16
split_gain=19.9837 12.8831 55.68 22.0828 12.7609 5.8869 5.43724 9.8141 1.69694 0.85646 0.676402 0.706854 1.30636 0.863718 0.900048 0.893787 0.789861 0.845022 0.762433 0.616017 0.585454 0.4616 0.450478 0.430054 0.456817 0.423112 1.25769 0.562638 1.60927 1.03243
threshold=321.02500000000003 1.0000000180025095e-35 0.92499998200000011 333.15000000000003 25.500000000000004 24.500000000000004 292.02500000000003 86.000000000000014 81.689998650000021 0.73085001100000013 238.94999924999999 86.344997400000011 86.110000600000021 86.860000600000021 231.67000045 236.75499955000001 88.005001050000018 238.42000045 235.87999955000001 87.255001050000018 86.215000150000023 87.420002000000025 89.99499895000001 89.375000000000014 236.52500000000001 88.704998000000018 93.375000000000014 88.505001050000018 247.77500000000001 247.42000045
decision_type=2 2 2 2 2 2 2 2 2 2 2 2 2 2 2 2 2 2 2 2 2 2 2 2 2 2 2 2 2 2
left_child=1 3 -3 4 -1 -4 7 -5 -9 -10 11 12 22 15 -15 -13 17 18 19 -16 -14 -19 -11 24 -18 26 27 29 -29 -12
right_child=-2 2 5 6 -6 -7 -8 8 9 10 25 13 20 14 16 -17 23 21 -20 -21 -22 -23 -24 -25 -26 -27 -28 28 -30 -31
leaf_value=0.11905470785909686 -0.49931995272636415 -0.85669808381277579 -0.056627537673100449 0.34293215127573129 0.63083954439276746 0.27173006898235708 -0.23679440468549728 -0.12214970688468643 0.090042954931656524 0.0052995454342567505 -0.0070583328145654147 0.022448404945439697 -0.073582413340253491 0.086635804005168585 -0.015217058383467283 0.088267644407388601 -0.013871774534761374 0.10830129974562189 -0.030497820579007059 0.045444318111042811 -0.010863585908535041 0.011909093759540055 0.060717066893210776 0.099541244984027888 0.039671929749707437 0.0025052745320449021 -0.11417173843186063 0.0052145879537269426 -0.072277615295706296 0.01167555593900358
leaf_weight=29 20 23 39 21 21 21 24 28 27 614 2894 142 77 37 89 81 56 23 243 79 72 27 39 21 138 4329 26 169 111 986
leaf_count=29 20 23 39 21 21 21 24 28 27 614 2894 142 77 37 89 81 56 23 243 79 72 27 39 21 138 4329 26 169 111 986
internal_value=0 0.000952355 -0.195255 0.00251779 0.334004 0.0582976 0.000916872 0.00146921 0.000773561 0.00110837 0.000874174 0.00986323 -0.0010301 0.019197 0.0107028 0.0463558 0.00654669 -0.00512519 -0.0125917 0.0133082 -0.0432753 0.0562495 0.00860932 0.0315734 0.024216 -0.000960587 -0.00454485 -0.00385968 -0.0255055 -0.00229761
internal_weight=0 10486 83 10403 50 60 10353 10329 10308 10280 10253 1738 802 936 713 223 676 461 411 168 149 50 653 215 194 8515 4186 4160 280 3880
internal_count=10506 10486 83 10403 50 60 10353 10329 10308 10280 10253 1738 802 936 713 223 676 461 411 168 149 50 653 215 194 8515 4186 4160 280 3880
is_linear=0
shrinkage=0.5


Tree=11
num_leaves=31
num_cat=0
split_feature=38 36 16 18 32 32 15 19 5 16 16 16 39 5 32 5 5 32 16 5 16 5 16 5 5 16 5 5 5 5
split_gain=14.9548 19.0256 70.4667 52.0299 75.5254 11.9135 8.57014 2.53961 2.386 1.10864 0.83937 0.722677 0.640526 0.491681 1.41386 0.847034 1.07134 0.577779 0.468072 4.89927 2.00382 0.775477 0.937944 0.699838 1.03917 0.742278 1.81142 1.13039 1.09841 1.58908
threshold=0.79465001850000017 25.500000000000004 304.27500000000003 519.00000000000011 4.9849998950000005 0.92499998200000011 663.50000000000011 1.0000000180025095e-35 81.189998650000021 264.95000019000003 227.27500000000001 228.77500000000001 1.0000000180025095e-35 83.775001550000013 -1.5950000249999998 84.020000450000012 84.145000500000023 -17.935000399999996 253.67000045 87.24499895000001 254.62999955000001 91.079998000000003 249.17000045 88.505001050000018 88.965000150000023 255.20000020000001 90.954998000000018 91.079998000000003 89.534999850000005 90.670002000000025
decision_type=2 2 2 2 2 2 2 2 2 2 2 2 2 2 2 2 2 2 2 2 2 2 2 2 2 2 2 2 2 2
left_child=1 2 5 4 -3 -1 7 -7 -5 10 -10 -12 -9 14 17 -15 -17 -13 21 20 -20 -18 -23 -21 -25 28 -27 -28 -26 -30
right_child=-2 3 -4 8 -6 6 -8 12 9 -11 11 13 -14 15 -16 16 18 -19 19 23 -22 22 -24 24 25 26 27 -29 29 -31
leaf_value=0.35686375249339186 -0.38625382089987398 7.6555036779107725e-06 1.053915163129568 0.14416854366146284 -1.2629841925576328 -0.27430649181561811 0.24229581393301486 -0.12726319625811733 -0.080571687889460009 0.10173120694579901 0.07125098477020704 -0.014889746832732972 -0.012715644919528412 0.075192189434586137 -0.089445024083384825 -0.097265833664485921 0.0012914517507563476 0.078898918330196466 -0.061309400908648969 0.033573705736547707 -0.26150050744414327 0.08378898058936847 0.011681827672789509 -0.063135834454835671 0.03370888979490181 0.026405072656676305 -0.1079017087026979 -0.011280297755900372 -0.073121013630062653 0.0041476720200282419
leaf_weight=23 25 29 20 29 20 21 20 23 32 27 36 52 26 38 57 28 8281 24 25 125 25 61 173 74 70 476 33 366 141 126
leaf_count=23 25 29 20 29 20 21 20 23 32 27 36 52 26 38 57 28 8281 24 25 125 25 61 173 74 70 476 33 366 141 126
internal_value=0 0.000921319 0.188827 -0.00149378 -0.515499 0.035714 -0.0463576 -0.12883 0.000951725 0.000547315 0.0002806 0.000533981 -0.0664829 0.000283778 -0.0299177 0.000683779 0.00040076 0.0147277 0.000674884 -0.0075934 -0.161405 0.00209355 0.030479 -0.00214295 -0.00561463 -0.00210261 0.00557654 -0.0192715 -0.0220411 -0.0366571
internal_weight=0 10481 133 10348 49 113 90 70 10299 10270 10243 10211 49 10175 133 10042 10004 76 9976 1461 50 8515 234 1411 1286 1212 875 399 337 267
internal_count=10506 10481 133 10348 49 113 90 70 10299 10270 10243 10211 49 10175 133 10042 10004 76 9976 1461 50 8515 234 1411 1286 1212 875 399 337 267
is_linear=0
shrinkage=0.5


Tree=12
num_leaves=31
num_cat=0
split_feature=16 15 30 36 16 5 38 12 41 16 10 38 18 36 5 16 5 16 15 16 16 16 16 16 16 16 16 5 5 16
split_gain=16.3609 12.1211 66.9698 49.7558 7.74326 3.71104 2.92978 2.03804 0.916675 0.76421 5.14109 1.80217 1.12279 0.388828 0.309071 2.1605 1.23201 1.36492 1.37677 0.73503 0.648259 0.458968 0.426492 1.44915 1.13868 0.995515 0.920395 1.33728 0.957577 1.20187
threshold=321.02500000000003 2186.0000000000005 87.159999850000005 29.500000000000004 300.77500000000003 16.689999600000004 0.79465001850000017 287.15000000000003 1.0000000180025095e-35 263.77500000000003 0.32449999450000006 0.73749998250000004 566.2999880000001 59.934999450000007 85.344997400000011 249.37999955000001 85.005001050000018 240.87999955000001 33001.099600000009 242.17000045 238.94999924999999 232.02500000000001 242.87999955000001 241.92000045 244.17000045 241.12999955000001 241.42000045 87.360000600000021 88.344997400000011 241.67000045
decision_type=2 2 2 2 2 2 2 2 2 2 2 2 2 2 2 2 2 2 2 2 2 2 2 2 2 2 2 2 2 2
left_child=1 3 -3 4 5 7 9 -1 -9 11 -11 -4 -13 14 15 16 17 20 -19 -20 -14 -18 23 25 -24 -16 -27 -28 -29 -30
right_child=-2 2 6 -5 -6 -7 -8 8 -10 10 -12 12 13 -15 22 -17 21 18 19 -21 -22 -23 24 -25 -26 26 27 28 29 -31
leaf_value=0.12352804745969478 -0.45179857015609742 -0.81865326163358987 -0.10873690926420845 0.70614450088431757 -0.26052455928014673 0.21196217881515622 0.17894408795172753 -0.1059129411174405 0.020103988030718431 0.16914879857825163 -0.11788653825911191 0.11318671034479683 -0.00019271651550230605 0.060031060905506216 0.0060646723180641272 -0.16118690712660874 -0.11140202358365059 -0.01395666397194255 0.16285132562431195 0.059560579270674069 -0.060674664532581239 -0.033132029427511117 -0.019145746525051681 0.035953991260446079 0.00090945891309796468 -0.046835620142083693 -0.059551568985170888 0.071908161199341222 -0.071546247287187725 0.046959325893903558
leaf_weight=25 20 25 38 31 23 29 23 31 27 39 26 22 270 27 2018 23 22 53 24 61 53 126 804 350 5913 187 64 66 40 46
leaf_count=25 20 25 38 31 23 29 23 31 27 39 26 22 270 27 2018 23 22 53 24 61 53 126 804 350 5913 187 64 66 40 46
internal_value=0 0.000861718 -0.00129429 0.134898 0.00372256 0.0579876 0.000690556 0.00418925 -0.0472499 0.000291429 0.0543347 -5.27275e-05 0.000353409 0.000108772 -5.11001e-05 -0.0107574 -0.0050761 0.00766623 0.0492893 0.088725 -0.010117 -0.0447668 0.000662048 0.00588129 -0.00149107 0.00153373 -0.0211547 0.00107832 0.0266067 -0.00815955
internal_weight=0 10486 10320 166 135 112 10295 83 58 10272 65 10207 10169 10147 10120 632 609 461 138 85 323 148 9488 2771 6717 2421 403 216 152 86
internal_count=10506 10486 10320 166 135 112 10295 83 58 10272 65 10207 10169 10147 10120 632 609 461 138 85 323 148 9488 2771 6717 2421 403 216 152 86
is_linear=0
shrinkage=0.5


Tree=13
num_leaves=31
num_cat=0
split_feature=36 30 16 16 30 18 18 41 16 15 38 38 5 5 16 16 5 16 5 5 5 5 5 16 16 5 5 5 5 5
split_gain=14.2737 16.8256 168.647 120.083 20.9754 5.03248 5.14085 4.60344 1.42301 1.40924 0.750018 0.522286 0.317354 0.718204 0.253825 1.69566 0.872365 0.648523 2.24371 1.32568 1.88247 0.790734 0.603589 0.532383 0.900463 1.74809 0.672013 0.506156 1.79239 1.39145
threshold=60.184999450000007 64.315000550000022 266.02500000000003 305.65000000000003 87.159999850000005 331.00000000000006 1.0000000180025095e-35 1.0000000180025095e-35 264.38000002000007 496.00000000000006 0.79415002500000009 0.73749998250000004 82.889999400000008 83.139999400000008 248.20000020000001 247.42000045 87.49499895000001 250.12999955000001 89.505001050000018 90.99499895000001 90.384998350000004 85.645000500000023 89.920002000000025 246.67000045 247.17000045 87.49499895000001 89.560001400000019 88.310001400000019 88.560001400000019 87.420002000000025
decision_type=2 2 2 2 2 2 2 2 2 2 2 2 2 2 2 2 2 2 2 2 2 2 2 2 2 2 2 2 2 2
left_child=1 3 4 5 -3 6 -1 9 10 -7 11 -6 -13 -14 15 23 -17 18 27 20 22 -19 -20 -15 -25 -26 -27 29 -29 -16
right_child=-2 2 -4 -5 8 7 -8 -9 -10 -11 -12 12 13 14 17 16 -18 21 19 -21 -22 -23 -24 24 25 26 -28 28 -30 -31
leaf_value=0.008792089058026191 -0.38515490879459929 0.50059476033562711 -1.3255678407294909 1.219286323889442 -0.05941852061329661 0.061979010658846659 -0.29594882225850599 0.19310683138573018 0.11952190019190312 -0.10462746981065721 0.088372065142417952 0.047623585164546969 -0.092440311575219744 0.0012294439843612566 0.023395243922754286 0.080217908148335501 0.021808434360479908 -0.096254109538027224 -0.069156600487038075 0.01098247683082249 -0.13656673753914766 0.0011354995256096863 -0.0027364319495532209 -0.031932605941889756 -0.087353950959037655 0.068759874411985097 -0.009800616912998078 0.09195307742864374 -0.002620887498918143 -0.05438814066017808
leaf_weight=31 24 21 24 23 37 22 25 39 25 30 24 35 21 5624 116 79 335 21 71 63 73 2775 66 310 33 81 41 62 261 114
leaf_count=31 24 21 24 23 37 22 25 39 25 30 24 35 21 5624 116 79 335 21 71 63 73 2775 66 310 33 81 41 62 261 114
internal_value=0 0.000881866 -0.00169022 0.156902 0.00139814 -0.00932167 -0.127253 0.0632514 0.000377087 -0.0341401 8.62632e-05 -0.000121102 9.43978e-05 -6.95606e-05 0.000122023 0.00199037 0.0329542 -0.00323244 -0.0155418 -0.0526308 -0.0717147 0.000404033 -0.0371586 -0.000114907 -0.0163743 0.0147422 0.0423584 0.00276788 0.0155326 -0.0151583
internal_weight=0 10482 10312 170 10288 147 56 91 10267 52 10242 10218 10181 10146 10125 6503 414 3622 826 273 210 2796 137 6089 465 155 122 553 323 230
internal_count=10506 10482 10312 170 10288 147 56 91 10267 52 10242 10218 10181 10146 10125 6503 414 3622 826 273 210 2796 137 6089 465 155 122 553 323 230
is_linear=0
shrinkage=0.5


Tree=14
num_leaves=31
num_cat=0
split_feature=16 12 27 16 5 18 5 39 15 16 30 38 5 5 32 30 18 38 5 5 5 5 5 5 16 16 16 16 16 16
split_gain=36.0171 7.85462 32.4468 9.56546 22.176 11.2574 5.1895 2.73767 0.574887 1.50754 0.736485 0.560511 0.643899 0.563621 0.518375 0.458102 0.410947 0.31042 0.2505 0.482858 1.00149 0.656516 1.06297 0.804296 0.549731 0.506266 0.889536 0.504448 0.491191 1.11235
threshold=304.27500000000003 311.65000000000003 1.0000000180025095e-35 266.02500000000003 20.189999600000004 364.50000000000006 81.189998650000021 1.0000000180025095e-35 32999.44920000001 264.38000002000007 92.49499895000001 0.74524998650000007 84.770000450000012 86.344997400000011 0.75499999500000003 87.404998800000016 592.0499880000001 0.79390001300000013 89.360000600000021 89.505001050000018 89.639999400000008 90.229999550000016 90.284999850000005 90.079998000000003 248.82999935000001 251.87999955000001 255.20000020000001 251.87999955000001 245.52500000000001 247.12999955000001
decision_type=2 2 2 2 2 2 2 2 2 2 2 2 2 2 2 2 2 2 2 2 2 2 2 2 2 2 2 2 2 2
left_child=1 2 -1 6 5 -5 -3 -7 10 15 11 -8 16 14 -14 -10 -13 18 -17 -20 27 23 24 25 -23 28 -27 -21 -22 -30
right_child=-2 3 -4 4 -6 7 8 -9 9 -11 -12 12 13 -15 -16 17 -18 -19 19 20 21 22 -24 -25 -26 26 -28 -29 29 -31
leaf_value=0.13227801646708565 -0.54706996853152912 0.24352005081759256 -0.62704253951475641 0.23782676018965551 0.55139055733497322 -0.21475047025208671 0.085926663577556614 0.0047095349851857737 0.075753254443407053 -0.13394937096607118 0.11279291276481342 -0.091835628906708391 0.020388799672004739 -0.013474015309673798 0.11417559459089087 -0.0018126794924779024 -0.0054606091056484726 0.049172834424098255 0.018785470700419995 -0.018478838178890022 -0.0094880523075434302 0.0039799761906680131 0.0023682847281127494 0.046932290808939743 -0.062264733987372117 -0.038725792967852612 0.023529196160849936 -0.076133740435276806 0.09223449403183176 0.013784722434655857
leaf_weight=34 30 22 24 39 26 30 25 27 20 21 22 21 34 44 26 6937 40 32 448 181 110 45 1445 165 103 128 104 48 57 218
leaf_count=34 30 22 24 39 26 30 25 27 20 21 22 21 34 44 26 6937 40 32 448 181 110 45 1445 165 103 128 104 48 57 218
internal_value=0 0.00156664 -0.181924 0.00258818 0.141771 0.0308322 0.000938969 -0.110796 0.000419524 -0.000123373 0.0261866 0.0161585 0.00558761 0.0295089 0.0610297 0.000156514 -0.0351963 5.63718e-06 -0.000151871 0.00362304 0.00101445 0.00405925 -0.00176522 0.0159242 -0.0421228 0.0076319 -0.0108184 -0.0305637 0.01875 0.0300452
internal_weight=0 10476 58 10418 122 96 10296 57 10274 10062 212 190 165 104 60 10041 61 10021 9989 3052 2604 2375 1593 782 148 617 232 229 385 275
internal_count=10506 10476 58 10418 122 96 10296 57 10274 10062 212 190 165 104 60 10041 61 10021 9989 3052 2604 2375 1593 782 148 617 232 229 385 275
is_linear=0
shrinkage=0.5


Tree=15
num_leaves=31
num_cat=0
split_feature=16 15 5 36 16 0 32 12 31 12 36 16 5 5 5 5 16 38 5 5 5 16 16 15 24 16 16 16 5 5
split_gain=10.4139 7.51788 44.0584 14.5227 8.35755 4.24394 4.3352 1.66608 1.1352 0.687456 0.344856 0.244979 0.996135 0.494747 0.340863 0.936041 0.462381 0.293388 0.262319 2.76624 2.04827 0.766756 0.660226 0.58405 0.586536 0.413792 0.631077 0.529904 0.338661 0.852137
threshold=303.15000000000003 2186.0000000000005 81.189998650000021 34.500000000000007 264.95000019000003 1.0000000180025095e-35 16.784999850000002 342.65000000000003 124846.8515 302.65000000000003 59.934999450000007 254.67000045 86.729999550000016 92.360000600000021 92.255001050000018 92.109996800000019 260.20000020000003 0.77824997900000015 87.420002000000025 87.284999850000005 87.594997400000011 232.97500075000002 236.87999955000001 39987.69920000001 2096.3499750000005 247.42000045 243.42000045 247.67000045 87.670002000000025 87.99499895000001
decision_type=2 2 2 2 2 2 2 2 2 2 2 2 2 2 2 2 2 2 2 2 2 2 2 2 2 2 2 2 2 2
left_child=1 3 -3 5 10 6 8 9 -1 -7 11 13 -13 18 15 17 -16 -14 19 23 22 -22 -20 24 -4 26 -26 -27 -23 -30
right_child=-2 2 4 -5 -6 7 -8 -9 -10 -11 -12 12 14 -15 16 -17 -18 -19 20 -21 21 28 -24 -25 25 27 -28 -29 29 -31
leaf_value=0.31974710373296622 -0.27228095304620054 -0.63858291203225104 -0.056901015077407163 0.49747201835825328 0.27877877280116081 -0.049311816896079108 -0.032657868066883602 -0.1482369199840595 0.15330118038691581 0.077438153609957386 0.055645732545859312 -0.11741519285133109 0.0025913613293764137 0.072643165476620197 -0.058261865423849139 0.083207875392549938 0.024930003301604935 -0.014548326192847785 0.018626079475507141 0.058377912387091717 0.0818545116946615 -0.018795186815770797 -0.055330533961676164 0.076491388417780401 0.002692557706998317 0.090823877521831062 -0.016179055766180783 0.011988141583966865 0.020009939379224476 -0.00096642933761867714
leaf_weight=21 35 27 45 21 27 20 23 23 20 23 28 20 564 24 61 31 23 448 35 221 29 222 219 25 2013 23 568 291 538 4838
leaf_count=21 35 27 45 21 27 20 23 23 20 23 28 20 564 24 61 31 23 448 35 221 29 222 219 25 2013 23 568 291 538 4838
internal_value=0 0.000910117 -0.00071047 0.111668 0.00096276 0.049346 0.141087 -0.0396153 0.238554 0.0184847 0.000232092 8.0541e-05 -0.0068052 0.000949306 -0.00484229 -0.00237457 -0.0354831 -0.00499617 0.000759536 0.00441342 -0.00121994 0.000762575 -0.0451397 0.000391114 -0.000255997 0.000624495 -0.00146051 0.0177627 0.000342485 0.00113277
internal_weight=0 10471 10320 151 10293 130 64 66 41 43 10266 10238 1147 9091 1127 1043 84 1012 9067 3186 5881 5627 254 2965 2940 2895 2581 314 5598 5376
internal_count=10506 10471 10320 151 10293 130 64 66 41 43 10266 10238 1147 9091 1127 1043 84 1012 9067 3186 5881 5627 254 2965 2940 2895 2581 314 5598 5376
is_linear=0
shrinkage=0.5


Tree=16
num_leaves=31
num_cat=0
split_feature=38 24 16 16 15 5 16 36 15 12 18 16 16 5 16 18 15 10 30 16 30 5 16 16 16 5 5 5 16 5
split_gain=8.15425 7.32503 115.748 103.519 29.0018 8.37185 7.56076 6.88435 4.3064 2.62275 1.0327 0.991689 0.290346 0.290062 0.339833 0.409584 0.39128 0.541925 0.347982 0.341454 0.188297 0.193596 0.412586 0.380676 1.07265 0.846036 1.96104 1.00133 0.724896 0.579236
threshold=0.79465001850000017 856.00000000000011 305.65000000000003 285.77500000000003 663.50000000000011 81.189998650000021 270.77500000000003 28.500000000000004 28511.849600000005 315.65000000000003 442.50000000000006 264.52500000000003 263.77500000000003 93.020000450000012 259.47499980000003 712.7999880000001 32971.750000000007 0.27050000450000006 94.220001200000013 260.20000020000003 87.404998800000016 89.389999400000008 241.62999955000001 250.12999955000001 250.42000045 90.954998000000018 90.755001050000018 91.139999400000008 248.67000045 90.889999400000008
decision_type=2 2 2 2 2 2 2 2 2 2 2 2 2 2 2 2 2 2 2 2 2 2 2 2 2 2 2 2 2 2
left_child=1 2 4 5 7 6 -3 9 -7 -1 -11 12 13 14 16 18 17 -10 -16 -20 -18 -22 -23 28 -25 26 -26 -27 29 -24
right_child=-2 3 -4 -5 -6 8 -8 -9 11 10 -12 -13 -14 -15 15 -17 20 -19 19 -21 21 22 23 24 25 27 -28 -29 -30 -31
leaf_value=0.12039247488602996 -0.28521656485274433 0.40820727745691937 1.1980579979717731 -1.1098847630478086 -0.54054027652511227 0.19985706564383926 -0.0080468633910641078 0.31488850670866669 -0.0074841627922271276 -0.13504825965050729 0.0047843076425361569 -0.10863397461140439 0.05290226321309232 0.049090035151069362 -0.074157297192141411 -0.08208296298107598 0.048449062881991266 0.078123469159962905 -0.034671973596102489 0.014847847466033114 -0.0014456995342401792 0.039386325418047652 -0.002765712741698287 0.062229582163993089 0.0061497057414189923 -0.049350569787956947 0.088750901987226918 0.00095724737312175912 -0.031903843766449967 0.044069652789677428
leaf_weight=25 25 24 21 21 26 27 20 20 36 31 23 21 26 30 20 24 20 38 56 92 7257 78 690 84 912 135 78 370 203 73
leaf_count=25 25 24 21 21 26 27 20 20 36 31 23 21 26 30 20 24 20 38 56 92 7257 78 690 84 912 135 78 370 203 73
internal_value=0 0.000680318 0.111892 -0.000890748 -0.0705834 0.00136724 0.219001 0.0528396 0.000434826 -0.0135018 -0.0754899 -9.08406e-05 0.00013215 -2.4152e-06 -0.000147288 -0.0209832 0.000253804 0.0364765 -0.0122546 -0.00388938 -1.69518e-05 -0.000115061 0.00356639 0.00246857 0.00725158 0.00416251 0.0126577 -0.0124914 -0.00534962 0.00171526
internal_weight=0 10481 146 10335 125 10314 44 99 10270 79 54 10243 10222 10196 10166 192 9974 74 168 148 9900 9880 2623 2545 1579 1495 990 505 966 763
internal_count=10506 10481 146 10335 125 10314 44 99 10270 79 54 10243 10222 10196 10166 192 9974 74 168 148 9900 9880 2623 2545 1579 1495 990 505 966 763
is_linear=0
shrinkage=0.5


Tree=17
num_leaves=31
num_cat=0
split_feature=16 16 12 12 12 38 16 16 18 16 38 5 5 15 36 32 16 5 38 5 5 32 36 16 16 16 5 5 5 5
split_gain=28.8748 13.852 23.6637 3.79091 4.23386 2.44242 2.27154 1.74359 4.25173 7.46571 0.484613 0.80745 0.289301 0.165096 0.148789 0.133271 0.151105 1.19191 1.11231 0.225052 0.572929 0.205514 0.191098 0.181985 0.18733 0.230854 0.545783 0.358635 0.249981 0.25143
threshold=305.65000000000003 285.02500000000003 311.65000000000003 338.15000000000003 356.11500015000007 0.79465001850000017 226.02500000000001 264.38000002000007 673.95001200000013 274.27500000000003 0.73749998250000004 82.564998650000021 83.139999400000008 36976.750000000007 41.309999450000007 -54.504999149999996 253.67000045 87.284999850000005 0.76784998150000006 88.045002000000011 87.625000000000014 17.244999900000003 59.934999450000007 254.17000045 254.67000045 255.20000020000001 91.079998000000003 89.99499895000001 89.005001050000018 92.255001050000018
decision_type=2 2 2 2 2 2 2 2 2 2 2 2 2 2 2 2 2 2 2 2 2 2 2 2 2 2 2 2 2 2
left_child=1 2 -1 -3 -5 6 -4 10 9 -9 -8 -12 13 -13 -14 -16 22 18 -18 20 -19 23 -17 -21 -25 26 27 -26 -27 -30
right_child=-2 3 5 4 -6 -7 7 8 -10 -11 11 12 14 -15 15 16 17 19 -20 21 -22 -23 -24 24 25 28 -28 -29 29 -31
leaf_value=-0.40495936801825239 -0.51640264303595929 0.32458915628769713 0.16125318357212978 -0.048268443904817104 0.25854142716802331 0.1638770801541598 -0.05655494226927036 0.34806465543806553 -0.084789685408274335 -0.0056473110935517717 0.093592674107007362 -0.074757744558155537 0.035130829984943074 -0.010512857185676693 -0.0073735273855957449 0.0010161224360373676 -0.17164406590163708 -0.034612860680291693 -0.019416830525733529 -0.019050442544593989 0.071032539306377818 -0.033192224921313698 0.047679413692094386 0.019111056057348228 0.00088472653116131649 -0.023653757192635086 0.045414356768808582 -0.068755063967888844 0.0069278331866477662 -0.022369235521182418
leaf_weight=36 27 37 22 22 23 23 38 26 30 35 23 20 30 20 598 8100 20 21 30 134 33 54 22 120 29 93 22 51 685 82
leaf_count=36 27 37 22 22 23 23 38 26 30 35 23 20 30 20 598 8100 20 21 30 134 33 54 22 120 29 93 22 51 685 82
internal_value=0 0.00133055 -0.000283878 0.206029 0.108545 0.00112219 0.000760098 0.000417829 0.0693224 0.145115 -0.000195405 1.48299e-05 -0.000196926 -0.0426353 -2.9252e-05 -0.00013375 0.000322167 -0.0045271 -0.0803077 -0.0016653 0.0299482 -0.0030095 0.00114252 -0.00166914 0.000483438 -0.00184017 -0.0243307 -0.0435106 0.000827313 0.00379568
internal_weight=0 10479 10397 82 45 10361 10338 10316 91 61 10225 10187 10164 40 10124 10094 9496 1374 50 1324 54 1270 8122 1216 1082 962 102 80 860 767
internal_count=10506 10479 10397 82 45 10361 10338 10316 91 61 10225 10187 10164 40 10124 10094 9496 1374 50 1324 54 1270 8122 1216 1082 962 102 80 860 767
is_linear=0
shrinkage=0.5


Tree=18
num_leaves=31
num_cat=0
split_feature=16 15 30 15 31 36 19 12 16 5 38 5 38 31 16 5 24 5 5 5 16 5 16 5 16 12 30 5 31 5
split_gain=7.21869 6.44932 26.6162 9.62329 5.9363 2.36338 2.11412 1.67517 1.60142 2.72291 0.619688 0.475086 0.348745 0.731428 0.206206 0.185269 0.204569 0.178871 0.277029 0.464942 0.53266 0.396538 0.449517 0.259881 0.241066 0.158829 0.154238 0.282553 0.461836 0.236135
threshold=305.65000000000003 2186.0000000000005 87.159999850000005 663.50000000000011 138435.95300000001 21.500000000000004 1.0000000180025095e-35 356.11500015000007 264.38000002000007 87.875000000000014 0.79465001850000017 82.564998650000021 0.7438500225000001 105144.3515 227.27500000000001 92.895000500000023 2882.2500000000005 92.255001050000018 91.99499895000001 91.505001050000018 257.42000000000002 91.395000500000023 254.37999955000001 92.404998800000016 254.62999955000001 353.40000000000003 88.154998800000016 83.775001550000013 105144.3515 84.020000450000012
decision_type=2 2 2 2 2 2 2 2 2 2 2 2 2 2 2 2 2 2 2 2 2 2 2 2 2 2 2 2 2 2
left_child=1 3 -3 4 5 6 -1 -8 10 -10 11 -4 13 -13 -14 17 -17 18 19 21 24 25 -23 -19 -21 -16 -27 28 -28 -29
right_child=-2 2 8 -5 -6 -7 7 -9 9 -11 -12 12 14 -15 15 16 -18 23 -20 20 -22 22 -24 -25 -26 26 27 29 -30 -31
leaf_value=-0.20418735682254746 -0.25820129364728928 -0.5161580027639866 -0.057562792233915791 0.34565116697922349 0.25191162612575752 0.084598076202579447 0.081384541061909302 -0.11647384706884623 0.23216103273443878 -0.013233076279553084 0.081938540077079902 0.11516640783520415 -0.049712495457026218 -0.013118967320770026 -0.017361221348189494 -0.005087442431249656 0.063381735933944583 -0.062755747199324627 0.02941159397670174 -0.026530533330515027 -0.072022403838073318 -0.017097536829255876 0.074492162678743132 -0.00056826176920107428 0.023193412570832059 0.037157046966188191 -0.066018050737329761 0.042438180524517193 0.021715989821435262 6.9065072389312593e-05
leaf_weight=21 27 25 36 32 26 37 23 20 20 26 23 20 21 25 132 20 24 28 79 65 47 21 37 42 39 28 40 33 24 9465
leaf_count=21 27 25 36 32 26 37 23 20 20 26 23 20 21 25 132 20 24 28 79 65 47 21 37 42 39 28 40 33 24 9465
internal_value=0 0.000665277 -0.000874386 0.100598 0.0388525 -0.0159944 -0.0741495 -0.0106426 0.00037691 0.09346 -4.08699e-05 -0.000225255 -2.26891e-05 0.0438968 -0.000217502 -0.000114835 0.0322594 -0.000256151 -8.00178e-05 -0.00031462 -0.0278476 0.000110481 0.0413304 -0.0254433 -0.00788405 -0.000135431 0.00010167 -6.83721e-06 -0.0331178 0.000216273
internal_weight=0 10479 10320 159 127 101 64 43 10295 46 10249 10226 10190 45 10145 10124 44 10080 10010 9931 151 9780 58 70 104 9722 9590 9562 64 9498
internal_count=10506 10479 10320 159 127 101 64 43 10295 46 10249 10226 10190 45 10145 10124 44 10080 10010 9931 151 9780 58 70 104 9722 9590 9562 64 9498
is_linear=0
shrinkage=0.5


Tree=19
num_leaves=31
num_cat=0
split_feature=18 12 12 16 15 30 32 38 30 38 18 16 16 38 5 5 5 5 5 16 16 16 16 16 16 16 16 16 5 16
split_gain=6.50478 40.9603 90.5501 49.4131 19.7294 10.8967 10.629 0.455434 1.58413 0.226593 0.25001 0.204205 0.159839 0.154808 0.102372 0.664272 0.49639 1.12135 1.11351 0.612383 0.676375 0.463457 0.946484 0.416962 0.409531 0.409435 0.290434 0.270313 0.481589 0.3833
threshold=475.00000000000006 335.65000000000003 359.08999865000004 293.52500000000003 496.00000000000006 87.159999850000005 0.92499998200000011 0.73085001100000013 90.715000150000023 0.74015000500000017 566.2999880000001 264.52500000000003 263.77500000000003 0.79465001850000017 87.420002000000025 87.360000600000021 87.795002000000011 87.99499895000001 88.005001050000018 236.87999955000001 238.42000045 253.45000020000001 248.82999935000001 241.62999955000001 250.37999955000001 254.37999955000001 234.72500075000002 236.75499955000001 87.094997400000011 241.12999955000001
decision_type=2 2 2 2 2 2 2 2 2 2 2 2 2 2 2 2 2 2 2 2 2 2 2 2 2 2 2 2 2 2
left_child=1 3 -3 4 -1 6 -2 8 -7 -9 -11 12 13 14 15 25 19 23 -19 -16 -21 22 -22 -18 -24 27 -20 28 -12 -29
right_child=5 2 -4 -5 -6 7 -8 9 -10 10 11 -13 -14 -15 16 -17 17 18 26 20 21 -23 24 -25 -26 -27 -28 29 -30 -31
leaf_value=0.075046624912804852 0.44542067849801648 -1.231355003673922 0.086370533099398017 0.62487949300557377 -0.49993222746998073 -0.046065767668187617 0.035122327629084647 -0.044937211429766775 0.15293962974101305 0.053347616710446098 -0.0026787353444231803 -0.047070802229902016 0.039248602914785109 0.04096927064592424 0.029040445866934085 0.029572130456262339 -0.0010751607693045547 -0.03684637274800566 0.046912329440767113 -0.069646875771436967 -0.0081944390479142971 0.045409503567498177 -0.10668094009160996 0.0420638752244238 -0.036162314452230927 -0.049278982818444693 -0.00013071152436754772 0.013151221987374204 -0.043894110238537766 -0.0010212691945820716
leaf_weight=37 27 22 32 30 25 20 38 28 20 22 776 23 26 23 77 208 76 211 33 58 508 32 35 213 50 41 5676 750 78 1311
leaf_count=37 27 22 32 30 25 20 38 28 20 22 776 23 26 23 77 208 76 211 33 58 508 32 35 213 50 41 5676 750 78 1311
internal_value=0 -0.104802 -0.450481 0.0980957 -0.1568 0.00147694 0.205554 0.000188455 0.0534369 -1.92428e-05 0.000103736 -1.10476e-05 9.52551e-05 -4.97989e-06 -9.79837e-05 0.00226064 -0.00116882 0.000307537 -0.00117709 -0.0132303 -0.0179958 -0.0132026 -0.0163655 0.0307194 -0.0651994 0.000338855 0.000141214 0.00103674 -0.00644314 0.00413611
internal_weight=0 146 54 92 62 10360 65 10295 40 10255 10227 10205 10182 10156 10133 3164 6969 6209 5920 760 683 625 593 289 85 2956 5709 2915 854 2061
internal_count=10506 146 54 92 62 10360 65 10295 40 10255 10227 10205 10182 10156 10133 3164 6969 6209 5920 760 683 625 593 289 85 2956 5709 2915 854 2061
is_linear=0
shrinkage=0.5


end of trees

feature_importances:
Column_16=217
Column_5=203
Column_15=28
Column_36=28
Column_38=25
Column_30=24
Column_18=19
Column_12=16
Column_32=15
Column_24=5
Column_10=4
Column_31=4
Column_27=3
Column_39=3
Column_19=2
Column_41=2
Column_0=1
Column_20=1

parameters:
[boosting: gbdt]
[objective: regression]
[metric: rmse,l2]
[tree_learner: serial]
[device_type: cpu]
[data: ]
[valid: ]
[num_iterations: 20]
[learning_rate: 0.5]
[num_leaves: 31]
[num_threads: -1]
[deterministic: 0]
[force_col_wise: 0]
[force_row_wise: 0]
[histogram_pool_size: -1]
[max_depth: 20]
[min_data_in_leaf: 20]
[min_sum_hessian_in_leaf: 0.001]
[bagging_fraction: 1]
[pos_bagging_fraction: 1]
[neg_bagging_fraction: 1]
[bagging_freq: 0]
[bagging_seed: 3]
[feature_fraction: 1]
[feature_fraction_bynode: 1]
[feature_fraction_seed: 2]
[extra_trees: 0]
[extra_seed: 6]
[early_stopping_round: 1000]
[first_metric_only: 0]
[max_delta_step: 0]
[lambda_l1: 0]
[lambda_l2: 0]
[linear_lambda: 0]
[min_gain_to_split: 0]
[drop_rate: 0.1]
[max_drop: 50]
[skip_drop: 0.5]
[xgboost_dart_mode: 0]
[uniform_drop: 0]
[drop_seed: 4]
[top_rate: 0.2]
[other_rate: 0.1]
[min_data_per_group: 100]
[max_cat_threshold: 32]
[cat_l2: 10]
[cat_smooth: 10]
[max_cat_to_onehot: 4]
[top_k: 20]
[monotone_constraints: ]
[monotone_constraints_method: basic]
[monotone_penalty: 0]
[feature_contri: ]
[forcedsplits_filename: ]
[refit_decay_rate: 0.9]
[cegb_tradeoff: 1]
[cegb_penalty_split: 0]
[cegb_penalty_feature_lazy: ]
[cegb_penalty_feature_coupled: ]
[path_smooth: 0]
[interaction_constraints: ]
[verbosity: -1]
[saved_feature_importance_type: 0]
[linear_tree: 0]
[max_bin: 255]
[max_bin_by_feature: ]
[min_data_in_bin: 3]
[bin_construct_sample_cnt: 200000]
[data_random_seed: 1]
[is_enable_sparse: 1]
[enable_bundle: 1]
[use_missing: 1]
[zero_as_missing: 0]
[feature_pre_filter: 1]
[pre_partition: 0]
[two_round: 0]
[header: 0]
[label_column: ]
[weight_column: ]
[group_column: ]
[ignore_column: ]
[categorical_feature: ]
[forcedbins_filename: ]
[precise_float_parser: 0]
[objective_seed: 5]
[num_class: 1]
[is_unbalance: 0]
[scale_pos_weight: 1]
[sigmoid: 1]
[boost_from_average: 1]
[reg_sqrt: 0]
[alpha: 0.9]
[fair_c: 1]
[poisson_max_delta_step: 0.7]
[tweedie_variance_power: 1.5]
[lambdarank_truncation_level: 30]
[lambdarank_norm: 1]
[label_gain: ]
[eval_at: ]
[multi_error_top_k: 1]
[auc_mu_weights: ]
[num_machines: 1]
[local_listen_port: 12400]
[time_out: 120]
[machine_list_filename: ]
[machines: ]
[gpu_platform_id: -1]
[gpu_device_id: -1]
[gpu_use_dp: 0]
[num_gpu: 1]

end of parameters

pandas_categorical:null
