tree
version=v3
num_class=1
num_tree_per_iteration=1
label_index=0
max_feature_idx=38
objective=regression
feature_names=Column_0 Column_1 Column_2 Column_3 Column_4 Column_5 Column_6 Column_7 Column_8 Column_9 Column_10 Column_11 Column_12 Column_13 Column_14 Column_15 Column_16 Column_17 Column_18 Column_19 Column_20 Column_21 Column_22 Column_23 Column_24 Column_25 Column_26 Column_27 Column_28 Column_29 Column_30 Column_31 Column_32 Column_33 Column_34 Column_35 Column_36 Column_37 Column_38
feature_infos=[0:154] [0:1] none [0:62.953098300000001] none [0:1] none [64.781196600000001:94.6875] [0:1] [0:58.828098300000001] [0:4.0039000500000004] [332.71769939999996:375.18399699999998] none none [17997:39005] none [224.35000079999998:274.75000001999996] [497.625:918.875] [0:1] [-39.611112833333337:223.24444222222223] [0.0410160013:3.4316399099999999] [0:102.875] [1035.75:2512.5] [0:306.39999399999999] [43.3125:72.406196600000001] [0:1] [-4:6.6875] none [75.781196600000001:89.5] [0:1] none [0:475.875] [223.16570129999997:273.93124999999998] none [64.158698999999999:87.460296600000007] none [0.555999994:0.79299998299999996] none none
tree_sizes=2659 2718 2741 2748 2773 2790 2824 2820 2820 2860 2860 2874 2878 2847 2922 2908 2883 2863 2901 2880

Tree=0
num_leaves=31
num_cat=0
split_feature=7 7 7 7 7 7 7 7 7 7 7 7 7 7 7 7 7 7 7 7 7 7 7 7 7 7 7 7 7 7
split_gain=101389 28764.6 27400.1 5321.57 4099.07 3907.42 3300.03 805.139 790.894 726.249 652.279 652.143 592.625 538.383 480.592 114.998 109.333 106.688 85.0468 82.743 82.6051 80.0372 79.0882 74.1919 72.0279 61.7711 59.8741 59.8264 58.3755 46.1817
threshold=84.58589935000002 88.27339935000002 80.538997650000013 76.788997650000013 86.226497650000013 82.882801050000012 90.86714935000002 92.61714935000002 78.86714935000002 89.570301050000012 87.163997650000013 73.820247650000013 81.80464935000002 85.42964935000002 83.788997650000013 75.632801050000012 77.89839935000002 79.74214935000002 87.726497650000013 86.695301050000012 90.226497650000013 88.89839935000002 81.163997650000013 85.007801050000012 82.445301050000012 83.351497650000013 85.820301050000012 72.812450400000003 84.163997650000013 91.46089935000002
decision_type=2 2 2 2 2 2 2 2 2 2 2 2 2 2 2 2 2 2 2 2 2 2 2 2 2 2 2 2 2 2
left_child=2 4 3 11 13 12 9 29 16 21 19 27 22 23 25 -13 -5 -10 -12 -6 -11 -3 -4 -2 -14 -7 -15 -1 -16 -8
right_child=1 6 5 8 10 14 7 -9 17 20 18 15 24 26 28 -17 -18 -19 -20 -21 -22 -23 -24 -25 -26 -27 -28 -29 -30 -31
leaf_value=82.927263295578555 89.76857363977139 91.754861393918645 87.674138869738741 85.853096340066998 90.644736441402657 88.882492878424614 93.122926152228828 94.462828439711799 86.884562500152811 92.459772248183455 91.157809102152171 84.483338009865207 88.372969748284362 90.20598849141652 89.331030380234168 85.237891522737641 86.410495994428331 87.31524201887072 91.454317652590916 90.885559174242289 92.806564254914207 92.103515403668183 88.027024196889954 89.989617500779204 88.647224417362921 89.120358436252488 90.412097705108536 83.696937405617163 89.541738128542434 93.461506509833981
leaf_weight=51 716 374 262 153 801 528 243 211 266 330 607 100 509 671 573 102 207 313 402 643 358 294 403 808 452 565 742 50 771 172
leaf_count=51 716 374 262 153 801 528 243 211 266 330 607 100 509 671 573 102 207 313 402 643 358 294 403 808 452 565 742 50 771 172
internal_value=89.8898 91.0893 88.2229 86.1676 90.4904 88.8511 92.718 93.6676 86.7555 92.2797 90.9675 84.3457 88.2509 90.0919 89.2517 84.8644 86.1736 87.1174 91.2759 90.752 92.6402 91.9083 87.888 89.8858 88.502 89.0055 90.3142 83.3083 89.4519 93.2633
internal_weight=0 7372 5305 1242 5390 4063 1982 626 939 1356 2453 303 1626 2937 2437 202 360 579 1009 1444 688 668 665 1524 961 1093 1413 101 1344 415
internal_count=12677 7372 5305 1242 5390 4063 1982 626 939 1356 2453 303 1626 2937 2437 202 360 579 1009 1444 688 668 665 1524 961 1093 1413 101 1344 415
is_linear=0
shrinkage=1


Tree=1
num_leaves=31
num_cat=0
split_feature=7 7 7 7 7 7 7 7 7 7 7 7 7 7 7 7 7 7 7 7 7 7 7 7 7 7 7 7 7 7
split_gain=25445 7677.26 6451.86 1145.48 1068.29 1018.81 984.792 276.526 198.119 178.504 161.875 161.146 134.476 129.447 118.177 38.4845 28.751 26.7308 26.2989 25.0314 23.2227 20.9589 20.9086 18.8933 17.131 16.7627 16.6055 16.5821 15.3429 15.0591
threshold=84.39839935000002 88.08589935000002 80.17964935000002 76.226497650000013 86.02339935000002 82.632801050000012 90.538997650000013 91.99214935000002 78.46089935000002 86.92964935000002 81.55464935000002 89.195301050000012 83.55464935000002 85.226497650000013 74.851497650000013 93.58589935000002 72.812450400000003 79.27339935000002 87.46089935000002 77.24214935000002 86.445301050000012 89.92964935000002 82.132801050000012 80.882801050000012 83.11714935000002 85.61714935000002 91.132801050000012 84.788997650000013 83.96089935000002 88.61714935000002
decision_type=2 2 2 2 2 2 2 2 2 2 2 2 2 2 2 2 2 2 2 2 2 2 2 2 2 2 2 2 2 2
left_child=2 4 3 14 13 10 11 26 19 20 23 29 24 27 16 -9 -1 -10 -11 -5 -6 -13 -12 -4 -7 -15 -8 -2 -14 -3
right_child=1 6 5 8 9 12 7 15 17 18 22 21 28 25 -16 -17 -18 -19 -20 -21 -22 -23 -24 -25 -26 -27 -28 -29 -30 -31
leaf_value=-3.4812579248465743 -0.11496160545687394 0.87284500701889323 -1.1807486671435683 -2.200035089371251 0.31283967552969122 -0.57453155212203288 1.5407779766963079 2.0492791991148676 -1.6284422437909623 0.56861405650962071 -0.84530664503574371 1.1990540278771511 -0.33464566667168855 0.10176507341289519 -2.4749655532836914 2.4513484887250767 -3.0199406862258913 -1.3988235545234557 0.72037092737249431 -1.8966753956149607 0.4365466068972283 1.3772959982278545 -0.68892262587100594 -1.0091793606617698 -0.44787044352171823 0.20895685458537783 1.7119994899154152 -0.0070741633420825121 -0.22586340067118249 1.0248703566235555
leaf_weight=51 659 382 316 102 745 527 299 112 213 636 400 337 563 736 100 127 100 313 518 204 773 323 459 326 541 723 269 775 764 284
leaf_count=51 659 382 316 102 745 527 299 112 213 636 400 337 563 736 100 127 100 313 518 204 773 323 459 326 541 723 269 775 764 284
internal_value=0 0.569698 -0.880807 -1.96034 0.260564 -0.580721 1.37623 1.81172 -1.6779 0.488513 -0.903696 1.11119 -0.378305 0.0500286 -2.89655 2.26293 -3.17575 -1.49181 0.636734 -1.9978 0.375834 1.28628 -0.761744 -1.09363 -0.510371 0.154883 1.62187 -0.0566542 -0.272016 0.937673
internal_weight=0 7698 4979 1083 5565 3896 2133 807 832 2672 1501 1326 2395 2893 251 239 151 526 1154 306 1518 660 859 642 1068 1459 568 1434 1327 666
internal_count=12677 7698 4979 1083 5565 3896 2133 807 832 2672 1501 1326 2395 2893 251 239 151 526 1154 306 1518 660 859 642 1068 1459 568 1434 1327 666
is_linear=0
shrinkage=0.5


Tree=2
num_leaves=31
num_cat=0
split_feature=7 7 7 7 7 7 7 7 7 7 7 7 7 7 7 7 7 26 7 7 7 7 7 7 7 7 7 7 7 7
split_gain=6373.94 1972.03 1574.78 268.786 266.806 262.985 259.499 71.3626 48.252 46.0911 45.9401 42.1714 32.9027 31.5485 25.8678 9.05889 8.11526 7.63505 7.24672 7.04868 6.55044 6.04923 5.44379 5.38557 5.12252 4.84752 3.96509 3.94356 3.50201 3.26493
threshold=84.33589935000002 87.945301050000012 80.038997650000013 76.226497650000013 85.96089935000002 90.601497650000013 82.27339935000002 93.070301050000012 89.288997650000013 78.195301050000012 83.21089935000002 86.851497650000013 85.163997650000013 73.820247650000013 81.33589935000002 94.078098300000008 83.64839935000002 3.8437500000000004 79.46089935000002 91.71089935000002 87.36714935000002 86.382801050000012 89.788997650000013 88.507801050000012 74.851497650000013 77.58589935000002 84.851497650000013 85.67964935000002 80.757801050000012 82.74214935000002
decision_type=2 2 2 2 2 2 2 2 2 2 2 2 2 2 2 2 2 2 2 2 2 2 2 2 2 2 2 2 2 2
left_child=2 4 3 13 12 8 14 19 23 25 29 21 26 17 28 -9 -12 -1 -11 -7 -13 -6 -10 -3 -15 -5 -2 -14 -4 -8
right_child=1 5 6 9 11 7 10 15 22 18 16 20 27 24 -16 -17 -18 -19 -20 -21 -22 -23 -24 -25 -26 -27 -28 -29 -30 -31
leaf_value=-1.5896526666787953 -0.057022482533225144 0.42587399155057537 -0.60540355289284187 -1.0837853144515643 0.14822004007504858 0.8037282067040602 -0.3299054701904674 1.1200594759699125 0.59089874722415281 -0.81696393262772338 -0.21188484537689126 0.27158118258787978 0.050671558627641271 -1.4334900903701782 -0.42344159466825471 1.3712958511041136 -0.13706776571441201 -1.9174650855686353 -0.69722450316234785 0.94302947553140781 0.34670548443384536 0.21097674468529867 0.68599452635821179 0.50934881253925435 -1.2374827671051025 -0.94283083169767168 -0.0033906943453111257 0.10492691804583255 -0.52738513255661179 -0.27213963069063957
leaf_weight=78 891 382 316 154 741 480 455 134 233 315 544 618 941 50 628 49 1086 23 211 112 547 797 425 391 100 101 562 520 264 529
leaf_count=78 891 382 316 154 741 480 455 134 233 315 544 618 941 50 628 49 1086 23 211 112 547 797 425 391 100 101 562 520 264 529
internal_value=0 0.279273 -0.450093 -0.998163 0.12195 0.679853 -0.302106 0.914439 0.552807 -0.853504 -0.213539 0.235096 0.0169977 -1.44828 -0.493757 1.18733 -0.162037 -1.6643 -0.768932 0.830083 0.306854 0.180741 0.652321 0.468097 -1.30282 -1.02796 -0.0362785 0.0699822 -0.569892 -0.29885
internal_weight=0 7823 4854 1032 5617 2206 3822 775 1431 781 2614 2703 2914 251 1208 183 1630 101 526 592 1165 1538 658 773 150 255 1453 1461 580 984
internal_count=12677 7823 4854 1032 5617 2206 3822 775 1431 781 2614 2703 2914 251 1208 183 1630 101 526 592 1165 1538 658 773 150 255 1453 1461 580 984
is_linear=0
shrinkage=0.5


Tree=3
num_leaves=31
num_cat=0
split_feature=7 7 7 7 7 7 7 7 17 7 26 7 7 7 7 7 7 7 7 7 7 7 19 7 7 7 7 7 7 7
split_gain=1599.88 539.153 347.984 81.05 75.4928 70.0953 41.9552 21.6873 19.4675 15.763 14.3249 10.6225 8.13033 7.81036 7.69549 3.94405 3.36403 2.85145 2.72474 2.0682 1.90409 1.85645 1.62033 1.11341 1.08949 1.44731 0.862303 1.17626 0.822124 0.742149
threshold=84.038997650000013 87.86714935000002 80.288997650000013 86.08589935000002 77.24214935000002 91.21089935000002 82.070301050000012 89.36714935000002 582.50000000000011 85.30464935000002 3.0312500000000004 93.39839935000002 86.99214935000002 83.05464935000002 78.71089935000002 74.851497650000013 84.71089935000002 81.42964935000002 90.413997650000013 93.913997650000013 86.538997650000013 88.67964935000002 -30.916666472222218 79.46089935000002 78.86714935000002 79.070301050000012 87.320301050000012 87.163997650000013 83.507801050000012 76.226497650000013
decision_type=2 2 2 2 2 2 2 2 2 2 2 2 2 2 2 2 2 2 2 2 2 2 2 2 2 2 2 2 2 2
left_child=2 3 4 9 8 7 17 21 10 16 -1 22 20 -8 -6 -10 -2 -4 -9 -13 -5 -3 -7 24 -16 -26 27 -14 -15 -17
right_child=1 5 6 12 14 11 13 18 15 -11 -12 19 26 28 23 29 -18 -19 -20 -21 -22 -23 -24 -25 25 -27 -28 -29 -30 -31
leaf_value=-0.74670267899831133 -0.040629914676124104 0.21628822757398591 -0.27507679240321214 0.081534304353228948 -0.46882853227503157 0.56464271680001288 -0.15886565901201927 0.32134850489086475 -0.70914445684687921 0.045399148496116988 -1.2929943472146987 0.55980695933103564 0.1660116623657254 -0.11446669670856661 -0.33026509718461472 -0.61874137759208681 -0.0019718175131311503 -0.2195073779317161 0.37645165107879541 0.67578245256398173 0.11751784316906799 0.26430912269711865 0.44441594331435963 -0.34401156136783928 -0.47838375910564707 -0.3774898252808131 0.17061077613403741 0.11151693311948625 -0.088866175326050567 -0.55812482681928899
leaf_weight=30 1168 534 530 778 255 31 978 521 101 1410 20 80 208 540 55 100 1086 409 394 74 697 323 292 313 54 104 553 189 748 102
leaf_count=30 1168 534 530 778 255 31 978 521 101 1410 20 80 208 540 55 100 1086 409 394 74 697 323 292 313 54 104 553 189 748 102
internal_value=0 0.128136 -0.246231 0.0508645 -0.484277 0.337341 -0.162004 0.291543 -0.676168 0.00393441 -0.965219 0.507476 0.121773 -0.125179 -0.397546 -0.62847 -0.0220041 -0.250872 0.345076 0.615535 0.0985381 0.234387 0.455955 -0.362988 -0.390874 -0.411973 0.157847 0.140068 -0.0995993 -0.588133
internal_weight=0 8338 4339 6089 1134 2249 3205 1772 353 3664 50 477 2425 2266 781 303 2254 939 915 154 1475 857 323 526 213 158 950 397 1288 202
internal_count=12677 8338 4339 6089 1134 2249 3205 1772 353 3664 50 477 2425 2266 781 303 2254 939 915 154 1475 857 323 526 213 158 950 397 1288 202
is_linear=0
shrinkage=0.5


Tree=4
num_leaves=31
num_cat=0
split_feature=7 7 7 7 7 7 7 24 26 7 7 7 7 7 7 24 3 7 7 26 7 7 7 7 7 7 7 19 7 7
split_gain=402.997 126.221 95.7571 22.3211 20.6101 13.4521 12.3715 6.16329 5.59408 4.65861 3.41423 2.42968 2.11806 2.05266 1.31213 1.22762 1.12537 1.00651 0.781194 0.69767 0.680864 0.665181 0.766088 0.662278 0.616777 0.780505 0.688226 0.583036 0.58243 0.53087
threshold=84.27339935000002 88.445301050000012 80.413997650000013 85.92964935000002 77.58589935000002 91.288997650000013 82.67964935000002 48.828100200000009 3.1562500000000004 87.038997650000013 89.99214935000002 93.757801050000012 81.64839935000002 85.52339935000002 79.070301050000012 50.265600200000009 38.285100950000007 83.445301050000012 87.58589935000002 2.5312500000000004 94.265598300000008 86.570301050000012 86.695301050000012 84.913997650000013 87.726497650000013 87.83589935000002 88.27339935000002 -20.916666472222218 86.757801050000012 85.007801050000012
decision_type=2 2 2 2 2 2 2 2 2 2 2 2 2 2 2 2 2 2 2 2 2 2 2 2 2 2 2 2 2 2
left_child=2 3 4 13 7 10 12 8 -1 21 -3 -7 -4 23 -6 16 19 -8 -11 -9 -13 -5 -23 -2 -20 -26 -27 -21 -24 -25
right_child=1 5 6 9 14 11 17 15 -10 18 -12 20 -14 -15 -16 -17 -18 -19 24 27 -22 22 28 29 25 26 -28 -29 -30 -31
leaf_value=-0.35602352948024357 -0.013058482513662808 0.1362747101749136 -0.13276845767262749 0.039683157699602213 -0.21615734237890977 0.23892115366955599 -0.06274157668635294 -0.33035863133577198 -0.69975430853664877 0.07393877400705301 0.18552730952433752 0.30497084048233536 -0.093938488287208549 0.026469586944838037 -0.17429678973097068 -0.28832072541413328 -0.24948535540274211 -0.040537644128032804 0.1284676011213485 -0.47976391762495041 0.40315629865812219 0.084165340952228662 0.014072084501021155 0.029746703901317936 0.049671030694030616 0.11238355218684634 0.067990479349601465 -0.36465170268308034 0.057177048803188225 -0.00045670835574408274
leaf_weight=29 1117 763 596 1125 312 345 878 39 20 639 653 76 855 707 468 252 21 1219 136 22 23 215 99 171 95 307 122 22 376 975
leaf_count=29 1117 763 596 1125 312 345 878 39 20 639 653 76 855 707 468 252 21 1219 136 22 23 215 99 171 95 307 122 22 376 975
internal_value=0 0.0688115 -0.115495 0.0339635 -0.238556 0.182798 -0.074394 -0.330066 -0.496322 0.0635403 0.158988 0.258735 -0.109888 0.00295255 -0.191041 -0.307183 -0.352888 -0.0498343 0.0864002 -0.37905 0.327782 0.0471795 0.0594018 -0.00439458 0.098465 0.0906781 0.0997589 -0.422208 0.0481931 0.00405008
internal_weight=0 7944 4733 6084 1185 1860 3548 405 49 3114 1416 444 1451 2970 780 356 104 2097 1299 83 99 1815 690 2263 660 524 429 44 475 1146
internal_count=12677 7944 4733 6084 1185 1860 3548 405 49 3114 1416 444 1451 2970 780 356 104 2097 1299 83 99 1815 690 2263 660 524 429 44 475 1146
is_linear=0
shrinkage=0.5


Tree=5
num_leaves=31
num_cat=0
split_feature=7 7 7 7 7 7 7 26 7 7 7 7 7 7 7 7 7 7 16 14 7 26 11 7 7 7 32 7 7 19
split_gain=101.676 29.832 26.4597 6.22092 6.12847 2.95123 2.78875 2.25043 1.36617 1.17784 0.948126 0.692868 0.691675 1.05319 0.724532 0.638361 0.633844 0.78807 0.562142 0.740484 0.710958 0.65063 0.541644 0.51369 0.468787 0.787129 0.465076 1.3514 0.398681 0.375879
threshold=84.476497650000013 89.02339935000002 80.757801050000012 76.226497650000013 86.601497650000013 82.99214935000002 91.788997650000013 4.0312500000000009 78.195301050000012 85.55464935000002 77.89839935000002 87.538997650000013 81.99214935000002 81.80464935000002 81.726497650000013 77.58589935000002 88.89839935000002 88.820301050000012 252.70000020000001 23000.500000000004 72.812450400000003 1.9687500000000002 346.49669875000001 90.695301050000012 84.58589935000002 84.663997650000013 245.51719990000001 92.61714935000002 83.913997650000013 -29.694444861111112
decision_type=2 2 2 2 2 2 2 2 2 2 2 2 2 2 2 2 2 2 2 2 2 2 2 2 2 2 2 2 2 2
left_child=2 4 3 7 9 12 23 18 10 24 15 -6 13 14 -4 -5 17 -13 19 -1 -21 -22 -23 -3 -2 -26 27 -8 -7 -29
right_child=1 6 5 8 11 28 26 -9 -10 -11 -12 16 -14 -15 -16 -17 -18 -19 -20 20 21 22 -24 -25 25 -27 -28 29 -30 -31
leaf_value=-0.26623823431630927 0.022959514259855495 0.081532115511975936 -0.058713802061759503 -0.13144576319874349 0.03353203767500542 -0.026765960278215525 0.20150731446651313 -0.33470351747034682 -0.088673025224989141 0.01769448424694223 -0.19218041151762008 0.051567982922714965 -0.040347231249786564 -0.10547743870743684 -0.0013905627570385414 -0.066904894770143039 0.005879410281825888 0.12413758841844705 -0.12709295018326625 -0.096490929834544659 -0.15163685333532012 -0.28285742830485106 -0.18588553353523216 0.1023917139936099 -0.038692761185786705 0.0005314020555453043 0.15798735702220273 0.0072310963645577427 -0.012950822338036155 0.099194578677415851
leaf_weight=24 200 802 497 154 1228 1175 26 23 842 1838 50 918 971 112 62 51 72 39 56 26 62 24 36 467 139 1602 196 20 940 25
leaf_count=24 200 802 497 154 1228 1175 26 23 842 1838 50 918 971 112 62 51 72 39 56 26 62 24 36 467 139 1602 196 20 940 25
internal_value=0 0.0367675 -0.0545355 -0.114631 0.0209359 -0.0329735 0.098981 -0.185641 -0.0983833 0.00862328 -0.130446 0.0415514 -0.048878 -0.0612227 -0.0523559 -0.115389 0.0511216 0.0545254 -0.170604 -0.18477 -0.171559 -0.187557 -0.224674 0.0892086 3.34442e-05 -0.00260022 0.145428 0.110756 -0.0206259 0.0583219
internal_weight=0 7572 5105 1348 6036 3757 1536 251 1097 3779 255 2257 1642 671 559 205 1029 957 228 172 148 122 60 1269 1941 1741 267 71 2115 45
internal_count=12677 7572 5105 1348 6036 3757 1536 251 1097 3779 255 2257 1642 671 559 205 1029 957 228 172 148 122 60 1269 1941 1741 267 71 2115 45
is_linear=0
shrinkage=0.5


Tree=6
num_leaves=31
num_cat=0
split_feature=7 7 7 17 36 7 7 26 17 7 7 7 7 7 7 7 7 7 7 7 7 21 7 7 7 7 7 7 7 7
split_gain=25.9561 8.53481 6.17586 2.64977 3.6086 1.57157 0.96654 0.805201 0.586011 0.58065 0.496176 0.868812 0.464875 0.391977 0.571073 0.464816 0.327203 1.25614 0.581359 0.290123 0.315291 0.28394 0.278174 0.42897 0.285797 0.398192 0.451647 0.297227 0.445823 0.353718
threshold=85.101497650000013 80.038997650000013 88.39839935000002 582.50000000000011 0.58049997650000018 82.788997650000013 93.070301050000012 3.8437500000000004 628.68750000000011 86.11714935000002 86.226497650000013 86.320301050000012 89.851497650000013 89.570301050000012 89.476497650000013 89.71089935000002 79.74214935000002 79.61714935000002 79.89839935000002 92.61714935000002 91.99214935000002 79.46089935000002 85.007801050000012 84.945301050000012 83.99214935000002 82.882801050000012 82.99214935000002 84.163997650000013 84.24214935000002 84.08589935000002
decision_type=2 2 2 2 2 2 2 2 2 2 2 2 2 2 2 2 2 2 2 2 2 2 2 2 2 2 2 2 2 2
left_child=1 3 9 4 -1 -3 12 8 21 -2 -11 -12 13 14 -4 -15 17 -10 -18 20 -14 -5 23 24 25 -7 -27 29 -29 -26
right_child=2 5 6 7 -6 22 -8 -9 16 10 11 -13 19 15 -16 -17 18 -19 -20 -21 -22 -23 -24 -25 27 26 -28 28 -30 -31
leaf_value=-0.33481046486468541 0.0053820715576496595 -0.027191133312907276 0.034500357834083208 -0.12157442759618992 -0.062655831928011677 0.014738323139394388 0.080603887924677667 0.035614965822209015 -0.05606021286487442 0.041752746288028733 -0.019311626937218704 0.017494975610075632 0.049363578127248994 -0.016325984045268548 0.097884783374243667 0.040289578425920389 -0.11689618887270198 0.023427538958441636 -0.041400484275072813 -0.00069581312969343599 0.10321468973000135 -0.074091627118404974 -0.028710887171186958 0.023317493219144159 -0.0051178941130707416 -0.045058413259837712 -0.013219450688293933 -0.034281619194456762 -0.0041287732691922376 0.03172459895324567
leaf_weight=21 1870 1722 548 36 29 114 183 22 516 186 172 2363 929 79 38 67 51 55 51 28 28 251 165 108 147 122 1280 136 1243 117
leaf_count=21 1870 1722 548 36 29 114 183 22 516 186 172 2363 929 79 38 67 51 55 51 28 28 251 165 108 147 122 1280 136 1243 117
internal_value=0 -0.0231757 0.0220867 -0.0646801 -0.176961 -0.0148651 0.0460607 -0.0589632 -0.0611306 0.012165 0.0168265 0.0149976 0.042379 0.0328353 0.0386106 0.00965513 -0.0530634 -0.0484038 -0.0791483 0.0494714 0.0509392 -0.0800477 -0.00868059 -0.00766896 -0.00872832 -0.0136793 -0.01599 -0.00416002 -0.00710251 0.01121
internal_weight=0 6186 6491 1032 50 5154 1900 982 960 4591 2721 2535 1717 732 586 146 673 571 102 985 957 287 3432 3267 3159 1516 1402 1643 1379 264
internal_count=12677 6186 6491 1032 50 5154 1900 982 960 4591 2721 2535 1717 732 586 146 673 571 102 985 957 287 3432 3267 3159 1516 1402 1643 1379 264
is_linear=0
shrinkage=0.5


Tree=7
num_leaves=31
num_cat=0
split_feature=7 21 7 0 7 7 22 7 7 7 24 17 34 7 7 7 22 34 34 7 7 7 7 7 7 7 24 7 7 7
split_gain=6.52989 2.04487 2.04095 1.3563 0.644617 0.52585 0.513984 0.362944 0.378501 0.561892 0.362103 0.355385 0.337838 0.370429 0.287892 0.481952 0.269743 0.271379 0.285472 0.266652 0.228864 0.222999 0.209186 0.531951 0.613756 0.285042 0.202801 0.202305 0.1985 0.187345
threshold=84.507801050000012 86.86714935000002 87.945301050000012 100.78099800000001 72.812450400000003 82.21089935000002 1502.0600000000002 91.070301050000012 90.86714935000002 90.80464935000002 51.359350200000009 624.56250000000011 70.158649450000013 75.632801050000012 82.445301050000012 82.507801050000012 1586.0600000000002 74.603153250000005 71.365047450000006 82.33589935000002 94.265598300000008 76.788997650000013 85.726497650000013 85.820301050000012 85.89839935000002 84.58589935000002 51.734350200000009 77.24214935000002 84.61714935000002 85.42964935000002
decision_type=2 2 2 2 2 2 2 2 2 2 2 2 2 2 2 2 2 2 2 2 2 2 2 2 2 2 2 2 2 2
left_child=1 3 22 -1 6 -3 -5 8 9 -4 11 16 -13 -14 19 -16 17 18 -6 -7 -9 26 25 -24 -25 -2 -12 -23 -27 -30
right_child=2 5 7 4 10 14 -8 20 -10 -11 21 12 13 -15 15 -17 -18 -19 -20 -21 -22 27 23 24 -26 28 -28 -29 29 -31
leaf_value=-0.1669304517970886 0.022120762961068456 -0.017451199580399875 0.018826523595371854 -0.036502983908922898 -0.078998879864229821 -0.006449640575099916 0.068668351992248342 0.031304604248744351 -0.013365845688233756 0.079596836024369955 0.023823941903819722 -0.086369180960381139 0.042723791056778281 -0.041343972258465853 -0.054100837965961546 -0.0063937375416686483 -0.1270185662876992 -0.10785788187757134 -0.011107944012231504 0.027250442925690527 0.082282532411425011 -0.072923968625920155 0.033323775503342437 -0.025840259081992133 0.0067771770091259462 -0.030562292156381381 -0.026582890147048083 -0.032979487496699482 0.002462240104477422 -0.008794532181665175
leaf_weight=20 140 1469 1541 21 32 114 26 515 88 39 31 21 20 38 54 2695 21 25 30 121 23 35 177 152 2819 56 56 336 1468 494
leaf_count=20 140 1469 1541 21 32 114 26 515 88 39 31 21 20 38 54 2695 21 25 30 121 23 35 177 152 2819 56 56 336 1468 494
internal_value=0 -0.0136854 0.00940962 -0.0385656 -0.0348557 -0.00970724 0.0216769 0.0221914 0.018549 0.0203266 -0.0389751 -0.0575154 -0.0320297 -0.0123551 -0.00589495 -0.00733087 -0.0761578 -0.063881 -0.0461484 0.0109023 0.033484 -0.0314051 0.00409554 0.00669487 0.00510843 0.000303748 -0.00862184 -0.0367478 -0.00120982 -0.000372034
internal_weight=0 5165 7512 712 692 4453 47 2206 1668 1580 645 187 79 58 2984 2749 108 87 62 235 538 458 5306 3148 2971 2158 87 371 2018 1962
internal_count=12677 5165 7512 712 692 4453 47 2206 1668 1580 645 187 79 58 2984 2749 108 87 62 235 538 458 5306 3148 2971 2158 87 371 2018 1962
is_linear=0
shrinkage=0.5


Tree=8
num_leaves=31
num_cat=0
split_feature=7 26 21 7 0 11 7 7 7 7 21 0 26 36 34 7 26 36 7 7 7 7 7 7 7 7 7 7 7 7
split_gain=1.84924 1.49817 0.48829 0.462207 0.317157 0.185538 0.184865 0.218182 0.166863 0.144103 0.171611 0.419255 0.183282 0.138005 0.143069 0.130953 0.129852 0.11733 0.112285 0.327672 0.43687 0.194167 0.383884 0.281165 0.209023 0.28284 0.148765 0.140786 0.413093 0.39404
threshold=85.132801050000012 4.0312500000000009 88.58589935000002 89.11714935000002 100.78099800000001 337.91309964999999 88.89839935000002 88.74214935000002 89.195301050000012 72.812450400000003 81.17964935000002 115.15599800000001 3.2187500000000004 0.62400001300000019 74.349147800000011 88.96089935000002 2.9687500000000004 0.63850000500000015 87.27339935000002 87.163997650000013 87.101497650000013 88.27339935000002 88.17964935000002 88.320301050000012 87.726497650000013 87.67964935000002 87.24214935000002 85.42964935000002 85.36714935000002 85.49214935000002
decision_type=2 2 2 2 2 2 2 2 2 2 2 2 2 2 2 2 2 2 2 2 2 2 2 2 2 2 2 2 2 2
left_child=1 2 4 6 -1 -6 7 18 -5 -7 11 -11 16 14 -12 -8 -13 -15 19 20 27 22 24 -23 25 -20 -21 28 -2 -29
right_child=3 -3 -4 8 5 9 15 -9 -10 10 13 12 -14 17 -16 -17 -18 -19 21 26 -22 23 -24 -25 -26 -27 -28 29 -30 -31
leaf_value=0.031200214452739503 0.0029282480035470399 -0.13349550346965375 -0.0034136366235826645 0.04826825068277471 -0.062377701252920643 0.017613156896197434 -0.043132664494667995 0.031200393275293992 0.012837045128964254 -0.070787668458503136 0.025439674722377296 -0.010199494854769791 0.028461218146341189 -0.038087780455584232 -0.023416227964765352 -0.0052581131033523866 -0.057650254618021701 -0.013895661029880088 0.011447573962454213 -0.03324631989412212 0.039047687642668749 -0.04100174267798485 0.046125628850171088 0.0031003611719294883 -0.0012086620570299579 0.054911072982089006 0.0021020370913902298 -0.02742220793152228 0.03700083048439741 0.0021060882322497475
leaf_weight=37 465 23 4964 34 21 33 33 73 1467 47 43 46 21 53 23 74 21 922 430 92 83 42 74 259 328 41 44 118 110 2656
leaf_count=37 465 23 4964 34 21 33 33 73 1467 47 43 46 21 53 23 74 21 922 430 92 83 42 74 259 328 41 44 118 110 2656
internal_value=0 -0.00611997 -0.00564979 0.00595894 -0.0144109 -0.0157829 0.00361666 0.00407345 0.0136396 -0.0149736 -0.015888 -0.0326605 -0.0122971 -0.0137129 0.00841413 -0.016939 -0.0250721 -0.0152107 0.00365585 0.00226022 0.00321405 0.00789743 0.0116732 -0.00305342 0.00848231 0.015231 -0.0218101 0.00232597 0.00944648 0.000850018
internal_weight=0 6254 6231 6423 1267 1230 4922 4815 1501 1209 1176 135 88 1041 66 107 67 975 4742 3568 3432 1174 873 301 799 471 136 3349 575 2774
internal_count=12677 6254 6231 6423 1267 1230 4922 4815 1501 1209 1176 135 88 1041 66 107 67 975 4742 3568 3432 1174 873 301 799 471 136 3349 575 2774
is_linear=0
shrinkage=0.5


Tree=9
num_leaves=31
num_cat=0
split_feature=17 20 26 7 7 7 24 21 7 7 7 7 7 7 7 7 7 7 7 7 7 7 7 7 7 7 28 21 7 7
split_gain=0.756925 1.6317 0.639454 0.478492 0.394622 0.470851 0.207274 0.173403 0.0844993 0.34268 0.937217 0.253752 0.554952 0.42462 0.21084 0.142726 0.516824 0.376733 0.127194 0.551115 0.0856695 0.0944974 0.0835731 0.0832474 0.422364 0.27069 0.0799877 0.12071 0.0759551 0.151771
threshold=582.50000000000011 0.52148401750000006 3.8437500000000004 83.86714935000002 83.788997650000013 83.695301050000012 66.640598300000008 78.562450400000003 81.42964935000002 81.163997650000013 81.05464935000002 80.538997650000013 80.413997650000013 80.64839935000002 81.27339935000002 83.351497650000013 83.257801050000012 83.445301050000012 81.80464935000002 81.89839935000002 81.64839935000002 81.55464935000002 83.74214935000002 90.226497650000013 90.08589935000002 90.36714935000002 85.945301050000012 101.42899700000001 82.445301050000012 82.570301050000012
decision_type=2 2 2 2 2 2 2 2 2 2 2 2 2 2 2 2 2 2 2 2 2 2 2 2 2 2 2 2 2 2
left_child=1 -1 3 4 5 7 -5 -2 9 10 11 12 -9 -13 -11 16 18 -17 20 -20 21 -10 -7 24 -8 -25 -27 -28 -21 -30
right_child=2 -3 -4 6 -6 22 23 8 15 14 -12 13 -14 -15 -16 17 -18 -19 19 28 -22 -23 -24 25 -26 26 27 -29 29 -31
leaf_value=-0.14817870265016189 -0.049775468318590095 0.032614725021024547 0.08541273681277578 0.0013007000958679448 -0.031082853501134398 0.015004360659077065 0.0066427330897994826 -0.0066287274052631269 0.012127161701591532 -0.053671166608442684 0.061357069026248962 -0.06171902921050787 0.043975798233428544 -0.0099592890375765387 -0.0156175550392408 -0.034398738172505113 0.033186687660668422 -0.0014414201635639878 -0.051512159351890872 0.0031541897045422552 0.017374219440464533 -0.016318363544996828 0.041453396257046346 -0.031617095312950289 0.061320787126367744 -0.012475221561284602 0.0087117976355772838 0.043420036072627857 -0.021768341524274665 -0.0022715028191293914
leaf_weight=26 21 24 22 7561 134 64 179 1094 61 56 52 53 57 157 104 118 109 327 59 450 124 56 56 44 44 42 686 26 115 756
leaf_count=26 21 24 22 7561 134 64 179 1094 61 56 52 53 57 157 104 118 109 327 59 450 124 56 56 44 44 42 686 26 115 756
internal_value=0 -0.0613979 0.000243121 9.44714e-05 -0.00440493 -0.00348571 0.00220367 -0.0044674 -0.00421354 -0.00700519 -0.00452184 -0.00703889 -0.00412268 -0.0230225 -0.0289363 -0.00219456 -0.000140328 -0.0101807 -0.00238132 -0.00423221 0.00821714 -0.00148779 0.0273472 0.00889056 0.0174312 0.00650389 0.00872845 0.00997923 -0.00212054 -0.00484571
internal_weight=0 50 12627 12605 4023 3889 8582 3769 3748 1573 1413 1361 1151 210 160 2175 1730 445 1621 1380 241 117 120 1021 223 798 754 712 1321 871
internal_count=12677 50 12627 12605 4023 3889 8582 3769 3748 1573 1413 1361 1151 210 160 2175 1730 445 1621 1380 241 117 120 1021 223 798 754 712 1321 871
is_linear=0
shrinkage=0.5


Tree=10
num_leaves=31
num_cat=0
split_feature=21 19 7 17 28 14 19 16 19 14 7 26 7 7 7 7 7 26 9 10 7 7 7 7 7 7 7 7 17 10
split_gain=0.758393 2.1148 0.533733 0.173884 0.0754623 0.135809 0.107287 0.0937181 0.155482 0.170563 0.14418 0.104585 0.129778 0.1861 0.0978329 0.246814 0.211743 0.0862655 0.117713 0.0787914 0.0865969 0.0622957 0.0630919 0.396737 0.235475 0.0739778 0.369099 0.349629 0.135418 0.14774
threshold=78.562450400000003 -20.083333138888886 72.812450400000003 794.31250000000011 81.820301050000012 24000.500000000004 -20.416666666666661 249.70000020000001 -24.138889305555555 26996.500000000004 74.851497650000013 1.4062500000000002 77.89839935000002 78.195301050000012 78.86714935000002 79.070301050000012 78.71089935000002 0.21875000000000003 29.253899550000003 0.38574150200000007 76.788997650000013 94.265598300000008 93.58589935000002 93.39839935000002 93.757801050000012 91.46089935000002 91.55464935000002 91.382801050000012 841.06250000000011 0.83007749900000005
decision_type=2 2 2 2 2 2 2 2 2 2 2 2 2 2 2 2 2 2 2 2 2 2 2 2 2 2 2 2 2 2
left_child=1 -1 -2 4 5 -4 7 8 9 -7 -11 12 17 -14 16 -16 -15 -12 -19 -20 -21 22 23 25 -24 27 -27 -5 29 -28
right_child=2 -3 3 21 -6 6 -8 -9 -10 10 11 -13 13 14 15 -17 -18 18 19 20 -22 -23 24 -25 -26 26 28 -29 -30 -31
leaf_value=-0.18780411896295846 0.069203988967014338 0.019456452107988298 -0.036613828727915403 0.0034906951944165166 -0.00021842249376254684 -0.037310138281837511 0.029972407229555149 -0.032380732420798655 0.040608744643395769 0.034698878508061172 0.041579178615938871 -0.035653312164358797 -0.038574988255277276 -0.0068949299391533716 -0.041277468621006445 -0.0035755077393976593 0.033854075961192755 -0.024507951810956 -0.005961255868896842 0.048496879070349365 0.010921540411958553 0.029612318521527493 -0.047788383281191012 0.064258911681395983 0.0058497068660615598 -0.057960998282992636 -0.050872366579080168 0.059712750695845376 0.0097714560372378703 0.0048003262446190305
leaf_weight=20 28 32 31 2228 8176 37 24 28 20 25 20 25 39 80 45 1228 53 25 34 23 46 23 28 27 76 29 22 28 151 26
leaf_count=20 28 32 31 2228 8176 37 24 28 20 25 20 25 39 80 45 1228 53 25 34 23 46 23 28 27 76 29 22 28 151 26
internal_value=0 -0.0602592 0.000248196 9.49245e-05 -0.000861158 -0.00380844 -0.00322798 -0.0036891 -0.00321653 -0.00373826 -0.00298223 -0.00356445 -0.00306085 -0.00450516 -0.00356013 -0.00490826 0.0093434 0.0110407 0.00626904 0.0137392 0.0234467 0.00370434 0.00347647 0.00397629 -0.00859132 0.00332104 -0.00526212 0.00418849 0.00241762 -0.0207163
internal_weight=0 52 12625 12597 9959 1783 1752 1728 1700 1680 1643 1618 1593 1445 1406 1273 133 148 128 103 69 2638 2615 2511 104 2484 228 2256 199 48
internal_count=12677 52 12625 12597 9959 1783 1752 1728 1700 1680 1643 1618 1593 1445 1406 1273 133 148 128 103 69 2638 2615 2511 104 2484 228 2256 199 48
is_linear=0
shrinkage=0.5


Tree=11
num_leaves=31
num_cat=0
split_feature=0 3 7 11 36 36 20 9 21 9 21 26 11 20 17 17 36 24 21 7 21 9 7 23 7 7 7 11 11 21
split_gain=0.548431 1.26765 0.661061 0.418722 0.117235 0.257056 0.206351 0.219332 0.202159 0.109235 0.0739136 0.185775 0.115394 0.107428 0.0551992 0.0585739 0.0418352 0.0756146 0.0888485 0.0771757 0.0590644 0.0455767 0.0378147 0.0369858 0.0398698 0.133726 0.0713624 0.037014 0.034478 0.038339
threshold=97.468750000000014 31.816399550000003 72.812450400000003 342.61149825000001 0.61000001400000003 0.61899998800000011 0.81933552050000003 31.706999800000002 79.46089935000002 34.363199250000001 82.945301050000012 2.1562500000000004 351.73724975000005 0.9033200145000001 747.81250000000011 606.87500000000011 0.75149998050000011 70.359348300000008 99.601497650000013 93.39839935000002 101.27299850000001 36.52729990000001 86.226497650000013 253.65000150000003 85.820301050000012 85.788997650000013 85.86714935000002 366.19390335000003 370.16949695000005 98.070301050000012
decision_type=2 2 2 2 2 2 2 2 2 2 2 2 2 2 2 2 2 2 2 2 2 2 2 2 2 2 2 2 2 2
left_child=1 -1 3 -2 6 -6 7 -4 -8 -9 11 12 -7 -13 15 -12 17 18 21 -19 23 -16 -17 27 25 -25 -26 -18 29 -29
right_child=2 -3 4 -5 5 10 8 9 -10 -11 14 13 -14 -15 16 22 20 19 -20 -21 -22 -23 -24 24 26 -27 -28 28 -30 -31
leaf_value=0.008474221523262231 0.0015535057871602475 -0.15016586172860116 -0.029752306236118516 0.094952485027412575 0.041212607542739102 -0.065596694631676652 -0.074876688420772552 0.048653573898429218 -0.014352246160883255 0.0022682935193491477 0.023161342684179544 0.035457928682444614 -0.013666852326739741 -0.014647320439310177 -0.00030418008115523534 -0.00097257953140330721 0.0029480321326410108 -0.035000595301426074 0.0277885182128687 -0.00027495680114952847 0.022763785673305392 -0.021788740269839763 -0.014647742765887147 0.0028403361997151734 -0.018979966855113162 0.035596808686739569 0.00047912289425941729 0.0095571701977822977 -0.0056509645219193771 0.028917821912815975
leaf_weight=34 20 20 34 30 38 20 22 22 37 30 25 20 23 23 1958 5750 967 32 28 32 34 25 51 558 48 33 2557 146 29 31
leaf_count=34 20 20 34 30 38 20 22 22 37 30 25 20 23 23 1958 5750 967 32 28 32 34 25 51 558 48 33 2557 146 29 31
internal_value=0 -0.0502814 0.000215099 0.0575929 -1.30797e-05 0.000151836 -0.0141481 0.00147499 -0.0369207 0.0218928 2.59032e-05 -0.0145814 -0.0378203 0.00865745 0.000128002 -0.000988729 0.00113234 -0.000718575 -0.000180122 -0.0176378 0.00200461 -0.000575039 -0.00109281 0.00184306 0.000961728 0.00466938 0.000120568 0.00424439 0.0103297 0.012948
internal_weight=0 54 12623 50 12573 12428 145 86 59 52 12390 86 43 43 12304 5826 6478 2075 2011 64 4403 1983 5801 4369 3196 591 2605 1173 206 177
internal_count=12677 54 12623 50 12573 12428 145 86 59 52 12390 86 43 43 12304 5826 6478 2075 2011 64 4403 1983 5801 4369 3196 591 2605 1173 206 177
is_linear=0
shrinkage=0.5


Tree=12
num_leaves=31
num_cat=0
split_feature=26 0 3 22 7 23 14 17 24 7 36 19 9 11 9 26 36 24 20 14 7 9 7 7 26 28 7 7 7 14
split_gain=0.547446 0.151148 0.152108 0.069244 0.153535 0.336928 0.113043 0.162475 0.0625583 0.0481678 0.113043 0.105415 0.045542 0.0453054 0.0468633 0.0429211 0.100315 0.0578994 0.0577877 0.0608943 0.0563191 0.166729 0.14089 0.0617255 0.0665988 0.0563344 0.0859612 0.147075 0.081706 0.0754747
threshold=4.0312500000000009 97.468750000000014 31.691399550000003 1474.9950000000001 73.820247650000013 249.75000000000003 29995.500000000004 582.50000000000011 49.515600200000009 75.632801050000012 0.60349997850000003 -24.638889083333332 27.511699650000004 347.40025175000005 30.949199650000004 2.7187500000000004 0.62649998050000011 52.984350200000009 0.40331999950000003 29998.500000000004 77.89839935000002 32.105400100000004 78.195301050000012 78.86714935000002 -0.093749999999999986 80.64839935000002 79.74214935000002 79.89839935000002 79.61714935000002 31997.500000000004
decision_type=2 2 2 2 2 2 2 2 2 2 2 2 2 2 2 2 2 2 2 2 2 2 2 2 2 2 2 2 2 2
left_child=1 2 -1 6 5 -5 7 -3 -6 11 -11 -10 -8 14 -14 16 -12 18 -18 -20 21 -19 -22 24 -24 29 28 -28 -27 -25
right_child=-2 3 -4 4 8 -7 12 -9 9 10 15 -13 13 -15 -16 -17 17 20 19 -21 22 -23 23 25 -26 26 27 -29 -30 -31
leaf_value=0.0059325312913367243 -0.077069444581866264 0.0043542187660932539 0.06119272590149194 0.060782832025940862 -0.027896747132763265 -0.019088402967495116 0.020139526738785208 -0.054225501469898456 -0.0087275644597996551 -0.037540163216181102 0.027239881666473058 0.032700808121316025 -0.032281466423834594 0.0060258051011393343 -0.0013494052225723862 -0.023063061968423428 0.013128403341397643 0.036413183169267872 -0.023553377597815763 -0.0021978032743809597 -0.035990792102421877 -0.013927892653335786 0.034938413198105991 -0.020122226373339661 0.0050374688126134035 0.0051037131087275957 -0.038998361761817556 0.0001836060113252453 0.036223031606735484 -0.0015360271781952632
leaf_weight=33 23 20 20 31 20 23 20 29 28 20 34 34 24 41 25 20 24 38 71 63 27 29 25 79 73 66 24 11505 31 177
leaf_count=33 23 20 20 31 20 23 20 29 28 20 34 34 24 41 25 20 24 38 71 63 27 29 25 79 73 66 24 11505 31 177
internal_value=0 0.000140082 0.0267854 2.80112e-05 0.00016051 0.0267636 -0.0103402 -0.0303154 4.45457e-05 8.97289e-05 1.96905e-05 0.0139912 -0.0014422 -0.00623814 -0.0164998 8.0833e-05 0.00011857 4.31834e-05 -0.00946626 -0.0135131 0.000167624 0.0146238 8.69574e-05 0.000168268 0.0126653 6.51955e-05 0.000226749 0.000102041 0.0150491 -0.00727161
internal_weight=0 12654 53 12601 12442 54 159 49 12388 12368 12306 62 110 90 49 12286 12266 12232 158 134 12074 67 12007 11980 98 11882 11626 11529 97 256
internal_count=12677 12654 53 12601 12442 54 159 49 12388 12368 12306 62 110 90 49 12286 12266 12232 158 134 12074 67 12007 11980 98 11882 11626 11529 97 256
is_linear=0
shrinkage=0.5


Tree=13
num_leaves=31
num_cat=0
split_feature=31 9 7 28 11 14 28 14 16 16 10 3 19 19 22 17 3 31 31 23 3 36 7 7 0 9 9 34 10 23
split_gain=0.45315 1.98251 0.369555 0.569097 0.136636 0.0712259 0.161936 0.160659 0.134736 0.151596 0.0615026 0.081199 0.0484353 0.0407894 0.0354858 0.0362131 0.0400197 0.0314962 0.0316993 0.0861492 0.0743568 0.0438544 0.0318853 0.028994 0.0315267 0.033009 0.0606008 0.0269863 0.0237822 0.0223273
threshold=317.31201200000004 34.191400550000004 73.820247650000013 79.92964935000002 346.31599655000002 25998.500000000004 81.820301050000012 26998.500000000004 257.40000000000003 249.09999980000001 0.34277300550000006 38.285100950000007 -24.027777777777775 -15.861111222222222 1401.6200000000001 614.25000000000011 29.175700200000005 327.71850600000005 338.31250000000006 253.84999850000003 31.581999800000002 0.67950001350000011 77.58589935000002 78.86714935000002 110.78099800000001 30.480400100000004 35.003900550000004 85.142848950000015 0.31835900250000004 246.25000000000003
decision_type=2 2 2 2 2 2 2 2 2 2 2 2 2 2 2 2 2 2 2 2 2 2 2 2 2 2 2 2 2 2
left_child=1 -1 3 4 -2 6 8 12 9 -4 -8 13 -7 -12 -9 16 -16 -17 19 20 28 -22 -20 24 -24 -26 -27 -25 -19 -23
right_child=2 -3 5 -5 -6 7 10 14 -10 -11 11 -13 -14 -15 15 17 -18 18 22 -21 21 29 23 27 25 26 -28 -29 -30 -31
leaf_value=0.030602191458456218 -0.015119381714612246 -0.17007080027833582 -0.050072332145646214 0.10781458588317036 0.03899082331627142 0.040433050518662764 -0.016835735487152954 0.018461314849376392 -0.062428604811429977 0.0037077776995781612 -0.014567402333745526 0.032561652207126222 0.012424487528870955 0.014814024195185908 -0.030720156506868081 0.015692309607402422 -0.0023754024595925302 0.024073775419743641 -0.017078572547891073 -0.032075804375511198 -0.024901936198836443 -0.011875370792113244 -0.0028901802447979293 1.4925314993526434e-05 0.028181449042339983 -0.010475041503086686 0.025959100696213898 0.017954669892787933 0.0040230129903648052 0.010239646154721933
leaf_weight=32 28 20 20 20 20 29 28 26 20 38 27 27 33 21 20 32 33 21 27 28 37 25 42 11858 27 25 21 21 50 21
leaf_count=32 28 20 20 20 20 29 28 26 20 38 27 27 33 21 20 32 33 21 27 28 37 25 42 11858 27 25 21 21 50 21
internal_value=0 -0.0465797 0.000191853 0.0369524 0.00742654 -7.21666e-06 -0.00985406 0.000136794 -0.02704 -0.0148371 0.00316057 0.0106259 0.0255253 -0.00171303 8.96527e-06 -3.00778e-05 -0.0130715 2.64157e-05 -1.46651e-05 -0.00656399 -0.00192548 -0.012087 8.44928e-05 0.000123129 0.00802414 0.0143036 0.00615794 4.66397e-05 0.00995352 -0.00177938
internal_weight=0 52 12625 68 48 12557 181 12376 78 58 103 75 62 48 12314 12288 53 12235 12203 182 154 83 12021 11994 115 73 46 11879 71 46
internal_count=12677 52 12625 68 48 12557 181 12376 78 58 103 75 62 48 12314 12288 53 12235 12203 182 154 83 12021 11994 115 73 46 11879 71 46
is_linear=0
shrinkage=0.5


Tree=14
num_leaves=31
num_cat=0
split_feature=22 14 28 26 21 36 36 7 22 16 26 20 32 11 10 36 22 9 11 7 7 7 3 7 7 7 10 21 10 16
split_gain=0.483553 1.06035 0.308538 0.12655 0.0700601 0.123845 0.124445 0.0316783 0.0226754 0.0380472 0.051355 0.0283843 0.0441582 0.0486261 0.0280941 0.045306 0.032451 0.0263202 0.0402329 0.0330416 0.244863 0.233618 0.0857567 0.0475796 0.152606 0.0754958 0.0415962 0.0670439 0.057787 0.0571825
threshold=1401.6200000000001 29995.500000000004 78.468700400000003 4.0312500000000009 78.562450400000003 0.59150001450000012 0.60249999150000011 74.851497650000013 1790.0600000000002 261.49999990000003 2.1562500000000004 0.63378849650000013 234.82970085000002 342.43079985000003 0.11621050150000002 0.63049998850000011 1530.1850000000002 30.902299900000003 343.69574965000004 90.226497650000013 90.08589935000002 90.288997650000013 29.175700200000005 89.570301050000012 89.64839935000002 89.36714935000002 1.0527300250000002 100.94499950000001 1.1386650200000001 243.59999980000001
decision_type=2 2 2 2 2 2 2 2 2 2 2 2 2 2 2 2 2 2 2 2 2 2 2 2 2 2 2 2 2 2
left_child=1 -1 -2 4 -4 -6 -7 -8 9 10 11 12 13 -9 -14 -16 -17 18 -10 20 23 -21 -23 25 -25 -19 29 28 -28 -24
right_child=2 -3 3 -5 5 6 7 8 17 -11 -12 -13 14 -15 15 16 -18 19 -20 21 -22 22 26 24 -26 -27 27 -29 -30 -31
leaf_value=-0.13825119896791876 0.049228457020944916 0.010377913728977244 -0.025921487786735479 0.039810975338332354 0.0289449312950711 -0.030233653364976978 0.015528157092348643 -0.0079021778239455834 0.012367115226076093 -0.020582023096115638 0.020000404786939423 -3.45678564136998e-05 0.010333597976568853 0.0039976041327016857 -0.027157147911070337 0.011447432470959029 -0.0047208975974515335 -7.3435163346884552e-05 0.0014001453120181875 -0.057135113654658197 0.042487318531664854 -0.03297196172310838 -0.029195617889941093 -0.042246939834772741 -0.00039183669866119721 0.021274663599407568 0.02433069438302482 0.032486121430771335 -0.0027484786688794635 -0.0019089246504466115
leaf_weight=20 32 30 26 20 37 34 33 110 86 24 30 4049 32 391 22 32 1028 2967 3031 20 34 21 21 28 98 42 24 21 110 224
leaf_count=20 32 30 26 20 37 34 33 110 86 24 30 4049 32 391 22 32 1028 2967 3031 20 34 21 21 28 98 42 24 21 110 224
internal_value=0 -0.0490737 0.000194321 6.974e-05 6.53331e-06 6.0253e-05 -2.51636e-05 5.71483e-05 1.61244e-05 -0.000715923 -0.000632188 -0.00074147 -0.00251376 0.00138488 -0.0042671 -0.00469891 -0.0042328 0.00063837 0.00170273 -0.000280637 0.000283657 -0.00433562 -0.00182733 -0.000174054 -0.00969297 0.000224544 -0.000192236 0.00621815 0.00210152 -0.00424778
internal_weight=0 50 12627 12595 12575 12549 12512 12478 12445 5718 5694 5664 1615 501 1114 1082 1060 6727 3117 3610 3169 441 421 3135 126 3009 400 155 134 245
internal_count=12677 50 12627 12595 12575 12549 12512 12478 12445 5718 5694 5664 1615 501 1114 1082 1060 6727 3117 3610 3169 441 421 3135 126 3009 400 155 134 245
is_linear=0
shrinkage=0.5


Tree=15
num_leaves=31
num_cat=0
split_feature=26 24 3 31 36 26 36 36 10 10 26 22 20 36 0 26 7 3 9 7 17 11 34 19 7 34 21 21 14 7
split_gain=0.492259 0.150427 0.198533 0.0567487 0.0332431 0.0479473 0.0340511 0.106559 0.0849242 0.0635854 0.0497666 0.0448811 0.0258204 0.0233135 0.0604977 0.0387393 0.0341672 0.0326282 0.0384638 0.0951255 0.0699153 0.034791 0.0474446 0.0554003 0.0389007 0.0315835 0.0296429 0.0268419 0.0376465 0.0269483
threshold=3.8437500000000004 48.828100200000009 34.886699700000008 317.31201200000004 0.58049997650000018 3.2187500000000004 0.61649999050000004 0.63300001600000011 0.56933549050000021 0.33691349650000008 2.7812500000000004 1561.4350000000002 0.66699150200000001 0.72349998350000011 99.656250000000014 -3.2187499999999996 79.74214935000002 28.597600000000003 36.52729990000001 76.788997650000013 657.68750000000011 355.35139695000004 75.936450950000008 -33.805555749999989 79.27339935000002 72.507846850000007 87.96089935000002 101.42899700000001 36004.500000000007 81.163997650000013
decision_type=2 2 2 2 2 2 2 2 2 2 2 2 2 2 2 2 2 2 2 2 2 2 2 2 2 2 2 2 2 2
left_child=1 2 -1 -3 -5 6 8 9 10 -8 12 -11 -6 14 -9 -16 -15 21 19 -19 -20 22 23 -17 -24 -22 -18 29 -29 -28
right_child=-2 3 -4 4 5 -7 7 13 -10 11 -12 -13 -14 16 15 17 26 18 20 -21 25 -23 24 -25 -26 -27 27 28 -30 -31
leaf_value=0.064340641245334632 -0.065068455734129615 0.02075807626048724 -0.0052664149552583694 -0.01859439489392874 0.0024706562240184708 0.023353750711645593 -0.0026462697120302396 -0.021826258457794383 0.011845765078987824 0.046723408136694206 -0.038314528426702091 0.016372056031631756 -0.022040529338742738 0.019464625693533733 -0.02322743259719573 0.00038369069194519207 -0.012356672880141946 0.030986399756959424 -0.026060574655084087 0.0003646779608625841 0.011842947739007121 0.0013139472202004154 0.016736914820891496 -0.022500194596453173 -0.0067230105559070554 -0.0085220516478228901 0.0064809126713212782 0.028495001833653076 -0.0021833870443515478 7.9124909110931036e-05
leaf_weight=21 29 33 20 24 22 22 23 37 32 21 23 29 21 23 20 38 47 26 38 1033 33 123 24 87 67 45 167 20 20 10509
leaf_count=21 29 33 20 24 22 22 23 37 32 21 23 29 21 23 20 38 47 26 38 1033 33 123 24 87 67 45 167 20 20 10509
internal_value=0 0.000149192 0.030386 5.08575e-05 -3.48787e-06 3.20645e-05 -8.88997e-06 6.43035e-05 -0.00929251 0.0191112 -0.0195414 0.0291196 -0.00949992 -4.82175e-05 -0.00184775 -0.00136587 0.000213888 -0.00107708 0.000169687 0.00111649 -0.00847394 -0.00539846 -0.0092208 -0.0155435 -0.000535777 9.39096e-05 0.00017275 0.000227703 0.0131558 0.000179265
internal_weight=0 12648 41 12607 12574 12550 12528 12430 98 73 66 50 43 12357 1571 1534 10786 1514 1175 1059 116 339 216 125 91 78 10763 10716 40 10676
internal_count=12677 12648 41 12607 12574 12550 12528 12430 98 73 66 50 43 12357 1571 1534 10786 1514 1175 1059 116 339 216 125 91 78 10763 10716 40 10676
is_linear=0
shrinkage=0.5


Tree=16
num_leaves=31
num_cat=0
split_feature=0 24 26 22 21 26 24 3 26 34 34 28 0 16 26 26 0 36 14 0 11 36 10 28 7 7 7 1 20 34
split_gain=0.338543 1.0493 0.567564 0.0445771 0.0401429 0.0487279 0.099885 0.032916 0.0504924 0.0856844 0.0682248 0.0441796 0.0841812 0.0436138 0.0225556 0.0195601 0.0494091 0.057806 0.021343 0.0364197 0.0363245 0.0289159 0.0212692 0.020063 0.0192895 0.0803688 0.0690017 0.0495066 0.0361869 0.0302768
threshold=97.468750000000014 54.171850200000009 3.9062500000000004 1401.6200000000001 78.562450400000003 3.2187500000000004 49.515600200000009 57.886650100000004 1.7812500000000002 76.507846850000007 73.20634840000001 81.695301050000012 113.71849800000001 263.40000000000003 1.5312500000000002 1.1562500000000002 115.59349800000001 0.65349999050000018 29994.500000000004 117.65599800000001 355.80320205000004 0.64849999550000004 0.58886650200000001 82.96089935000002 93.58589935000002 93.39839935000002 93.757801050000012 1.0000000180025095e-35 0.92480400200000001 76.761852250000018
decision_type=2 2 2 2 2 2 2 2 2 2 2 2 2 2 2 2 2 2 2 2 2 2 2 2 2 2 2 2 2 2
left_child=1 -1 3 -2 -5 6 -6 8 14 10 11 12 -10 -13 15 18 -17 -18 19 -8 22 -20 -21 -22 25 -23 -26 29 -29 -28
right_child=2 -3 -4 4 5 -7 7 -9 9 -11 -12 13 -14 -15 -16 16 17 -19 21 20 23 24 -24 -25 26 -27 27 28 -30 -31
leaf_value=-0.13038057736703196 0.018657614153198665 0.013951098597745466 0.075431211739778514 -0.020457117507855099 -0.026330225428359375 0.023004312594623669 -0.023836536090011181 -0.01549121514750261 -0.0020832076319493354 0.03880909646284722 -0.015250319350426171 -0.015198350215897612 0.04106419999152422 0.01418654651414337 -0.013281624364481104 0.028635963464954069 -0.021031422074884176 0.013909989626724916 0.014829476383579966 -0.00068286046125861104 -0.020770929558202623 1.1856243089142843e-05 0.017222306365578401 -0.004720163645370948 -0.028035651800954447 0.027322248486732995 0.0037488041591132058 0.022128781284360837 -0.005328353578806855 -0.021538896951824427
leaf_weight=20 32 34 25 24 36 23 23 34 20 21 33 23 26 28 32 21 20 29 33 43 25 11803 27 88 28 27 20 30 20 29
leaf_count=20 32 34 25 24 36 23 23 34 20 21 33 23 26 28 32 21 20 29 33 43 25 11803 27 88 28 27 20 30 20 29
internal_value=0 -0.0395051 0.000168999 1.96455e-05 -2.78171e-05 1.12758e-05 -3.09672e-05 4.48778e-05 8.73091e-05 0.00917481 0.00438774 0.0110687 0.0223045 0.000934534 -2.4271e-05 1.03152e-05 0.00834452 -0.000351811 -3.75197e-05 -0.00508373 -0.00272682 4.91792e-05 0.00622342 -0.00827122 8.38723e-06 7.41877e-05 -0.0061209 7.72166e-05 0.0111459 -0.0112174
internal_weight=0 54 12623 12598 12566 12542 12519 12483 12449 151 130 97 46 51 12298 12266 70 49 12196 206 183 11990 70 113 11957 11830 127 99 50 49
internal_count=12677 54 12623 12598 12566 12542 12519 12483 12449 151 130 97 46 51 12298 12266 70 49 12196 206 183 11990 70 113 11957 11830 127 99 50 49
is_linear=0
shrinkage=0.5


Tree=17
num_leaves=31
num_cat=0
split_feature=26 0 21 24 21 10 0 0 10 7 3 31 14 10 17 7 7 7 20 3 32 32 10 3 3 16 3 10 20 9
split_gain=0.443209 0.151247 0.178385 0.0557585 0.026318 0.163262 0.073875 0.0787792 0.0372244 0.0361383 0.0405279 0.0195757 0.0579779 0.0404976 0.0559142 0.0369803 0.15263 0.104179 0.0389252 0.0356061 0.0432251 0.0352998 0.0340779 0.033821 0.033175 0.0285212 0.0498454 0.032804 0.0260581 0.0257466
threshold=3.8437500000000004 97.468750000000014 90.163997650000013 48.828100200000009 81.17964935000002 0.33300750000000007 113.71849800000001 121.65599800000001 0.27441349650000008 75.632801050000012 35.199199700000008 338.31250000000006 30999.500000000004 0.74804651750000006 624.56250000000011 80.538997650000013 80.64839935000002 80.413997650000013 2.1367149350000005 53.449199700000008 251.12659970000001 249.07969990000001 0.8583979905000001 29.706999800000002 28.355400100000004 241.00000035000002 31.113200200000005 0.82519447800000012 1.4062450500000001 30.777299900000003
decision_type=2 2 2 2 2 2 2 2 2 2 2 2 2 2 2 2 2 2 2 2 2 2 2 2 2 2 2 2 2 2
left_child=1 2 -1 -3 5 8 -7 -8 -5 10 -6 12 22 14 -14 17 -17 18 19 20 21 24 23 -11 -13 26 -26 28 -28 -27
right_child=-2 3 -4 4 9 6 7 -9 -10 11 -12 15 13 -15 -16 16 -18 -19 -20 -21 -22 -23 -24 -25 25 29 27 -29 -30 -31
leaf_value=0.059924572787207107 -0.061741616801712022 0.01890583132327988 0.0013967418897664174 -0.018721111700870097 -0.00047486535428712767 -0.021849312307313084 0.02998590360483136 -0.0031432875793574282 -0.047928293712902817 -0.034960579931397333 0.030974672711454331 -0.0081552205869056277 0.024550153721065726 -0.010034302840582453 2.9086078211548738e-05 -0.027152747692105968 -2.0420410805794629e-06 0.024494425487831574 0.021187509534647687 -0.018240066680490323 0.012187249509520898 -0.020510939310770481 0.0032302845550778634 -0.012042233776446665 0.0089242746476388256 -0.00445332618513324 -0.011148250532015914 0.0079685500308568046 0.0038461660365819148 0.014218905073357746
leaf_weight=23 29 39 30 24 21 20 34 38 20 22 20 84 32 52 85 52 11342 55 25 23 86 20 24 60 110 24 122 43 38 80
leaf_count=23 29 39 30 24 21 20 34 38 20 22 20 84 32 52 85 52 11342 55 25 23 86 20 24 60 110 24 122 43 38 80
internal_value=0 0.000141564 0.0267956 2.94037e-05 -2.92281e-05 -0.00694693 0.00503358 0.0125011 -0.0319971 4.65213e-05 0.0148664 -2.56291e-06 -0.00417399 0.0015757 0.0067357 9.22109e-05 -0.000125953 0.00359327 0.00183821 0.00107039 0.00180208 8.78328e-05 -0.0133409 -0.0181911 0.000910139 0.00273625 0.00035267 -0.00429204 -0.00758708 0.00990993
internal_weight=0 12648 53 12595 12556 136 92 72 44 12420 41 12379 275 169 117 12104 11394 710 655 630 607 521 106 82 501 417 313 203 160 104
internal_count=12677 12648 53 12595 12556 136 92 72 44 12420 41 12379 275 169 117 12104 11394 710 655 630 607 521 106 82 501 417 313 203 160 104
is_linear=0
shrinkage=0.5


Tree=18
num_leaves=31
num_cat=0
split_feature=0 23 26 11 17 26 36 31 36 10 26 28 19 19 9 24 11 36 21 34 0 22 19 10 20 14 10 20 34 11
split_gain=0.226743 0.812655 0.469444 0.0373986 0.131137 0.105841 0.0403334 0.0327998 0.0247162 0.0587448 0.0464933 0.0338919 0.0219315 0.0209669 0.0179917 0.0529372 0.0243009 0.0284734 0.028213 0.0175854 0.0220744 0.0204191 0.0184325 0.0168098 0.0292437 0.0451618 0.0255886 0.0243371 0.0280514 0.0317459
threshold=97.468750000000014 231.94999700000002 3.9062500000000004 338.99735105000002 582.50000000000011 1.2187500000000002 0.69949999450000011 324.40600600000005 0.59650000950000015 0.41015599700000005 2.9062500000000004 80.92964935000002 -35.027777361111106 -33.250000194444446 26.058549900000003 70.078098300000008 358.42345275000002 0.76850000050000011 91.96089935000002 82.285648350000017 128.53099800000004 1725.1850000000002 -34.083333527777775 2.2978450050000006 0.9033200145000001 35008.500000000007 1.6259700050000003 0.33593699350000006 76.825351700000013 350.02050245000004
decision_type=2 2 2 2 2 2 2 2 2 2 2 2 2 2 2 2 2 2 2 2 2 2 2 2 2 2 2 2 2 2
left_child=1 -1 3 5 -5 6 -2 13 9 -9 14 -11 -8 -6 15 16 18 -18 -10 23 21 22 -21 26 -25 -26 -16 -28 -29 -30
right_child=2 -3 -4 4 7 -7 12 8 10 11 -12 -13 -14 -15 19 -17 17 -19 -20 20 -22 -23 -24 24 25 -27 27 28 29 -31
leaf_value=0.018527816753703519 0.015625423123841149 -0.10630637425029735 0.068586414265446372 0.030637708106743437 -0.0028580145677551626 -0.04223744997289032 0.00056932471731367207 0.028802704410627485 0.006109344450234813 0.011732732347974723 -0.020013120185969204 -0.016706376220099628 -0.021556286019317451 -0.025752822053618729 -0.00027413011184147221 0.024453817310536072 0.0094571328992577603 -0.0020000723570341335 -0.0050702514380952394 0.00067782575799221246 0.017816302908333734 -0.00037067685794283652 0.018293471325181821 -0.017548111340673994 -0.013085783496008892 0.01084106476472942 0.018491856476220373 0.00022409381108752041 -0.0066837486152982583 0.014336496255099319
leaf_weight=32 24 22 25 35 20 20 24 25 82 22 29 20 21 20 11011 27 153 84 181 27 26 169 33 38 38 41 26 297 23 82
leaf_count=32 24 22 25 35 20 20 24 25 82 22 29 20 21 20 11011 27 153 84 181 27 26 169 33 38 38 41 26 297 23 82
internal_value=0 -0.0323306 0.000138307 2.47577e-06 7.51416e-05 -0.0102108 -0.000927653 -1.06119e-05 3.53743e-05 0.00961284 -1.6513e-05 -0.0018097 -0.00975596 -0.0143054 3.04882e-05 0.00288888 0.00172437 0.00539635 -0.0015846 -9.70515e-05 0.00401006 0.00244254 0.0103664 -0.000187681 -0.00615046 -0.000668052 -0.000126693 0.00366638 0.00270752 0.00973206
internal_weight=0 54 12623 12598 12509 89 69 12474 12434 67 12367 42 45 40 12338 527 500 237 263 11811 255 229 60 11556 117 79 11439 428 402 105
internal_count=12677 54 12623 12598 12509 89 69 12474 12434 67 12367 42 45 40 12338 527 500 237 263 11811 255 229 60 11556 117 79 11439 428 402 105
is_linear=0
shrinkage=0.5


Tree=19
num_leaves=31
num_cat=0
split_feature=26 0 23 20 24 28 20 34 10 20 36 26 3 20 11 20 0 26 19 14 7 7 7 36 16 10 3 36 28 19
split_gain=0.419338 0.175878 0.124118 0.0203659 0.0388596 0.0225306 0.0823147 0.0814209 0.157016 0.114031 0.163466 0.0618594 0.0571918 0.0645426 0.0404291 0.0245734 0.0296481 0.0169745 0.0163493 0.0313717 0.0161649 0.0891577 0.0769497 0.0310545 0.0565821 0.0387312 0.0375562 0.0461015 0.0908755 0.055096
threshold=4.0312500000000009 97.468750000000014 231.94999700000002 0.16210900250000002 54.765600200000009 79.92964935000002 0.29101499900000005 75.047550200000003 0.35253849650000008 1.6562450500000001 0.60050001750000004 3.1562500000000004 35.722600950000007 0.56054651750000006 345.50280225 0.65527299050000021 112.90599800000001 -1.1562499999999998 -15.861111222222222 24994.000000000004 91.46089935000002 91.382801050000012 91.55464935000002 0.76649999650000011 251.09999980000001 0.94531199350000017 27.949199650000004 0.74649998550000018 86.913997650000013 -26.583333527777778
decision_type=2 2 2 2 2 2 2 2 2 2 2 2 2 2 2 2 2 2 2 2 2 2 2 2 2 2 2 2 2 2
left_child=1 2 -1 4 -3 6 -5 9 -9 10 -8 18 13 -12 15 -10 -17 -6 19 -7 21 -21 -22 26 -25 -26 -24 -28 -29 -30
right_child=-2 3 -4 5 17 11 7 8 14 -11 12 -13 -14 -15 -16 16 -18 -19 -20 20 22 -23 23 24 25 -27 27 28 29 -31
leaf_value=0.0092639079812215641 -0.067451886670744934 0.026328901341184974 0.058733833155461719 -0.029556412683350259 0.0057462441233443002 -0.014780309723897113 -0.047877693518755898 0.034150286395556458 0.011696669376558728 0.014643942680544196 -0.00069186548353172839 0.023110243202797299 0.012388482555377715 -0.031087532834780794 -0.022675265203274432 0.0058893486515444234 -0.01959466515108943 -0.0080086256925353851 0.010484200442914624 4.0482604893429111e-05 -0.028443367669491897 0.02935268667463858 -0.0096711663955949979 -0.028503037330945238 0.0070814997295383366 -0.014605071056368095 -0.0078654152603121474 0.041282958746887741 -0.010511766390827222 0.01260568200712585
leaf_weight=32 23 20 21 29 99 36 31 39 36 39 40 29 29 31 21 25 21 29 37 11609 28 26 53 26 50 35 48 20 39 76
leaf_count=32 23 20 21 29 99 36 31 39 36 39 40 29 29 31 21 25 21 29 37 11609 28 26 53 26 50 35 48 20 39 76
internal_value=0 0.000122601 0.0288652 1.70923e-06 0.00583247 -6.75876e-05 -0.0040758 -0.00170741 0.00713033 -0.00908951 -0.0161552 4.52591e-05 -0.00632122 -0.0139632 -0.00310053 0.00191251 -0.00574466 0.00262991 -1.00984e-05 -4.23322e-05 1.84488e-06 0.000105985 -0.00322927 -0.0011947 -0.00809172 -0.00184826 0.00204924 0.00544367 0.0101758 0.00476585
internal_weight=0 12654 53 12601 148 12453 341 312 142 170 131 12112 100 71 103 82 46 128 12083 12046 12010 11635 375 347 111 85 236 183 135 115
internal_count=12677 12654 53 12601 148 12453 341 312 142 170 131 12112 100 71 103 82 46 128 12083 12046 12010 11635 375 347 111 85 236 183 135 115
is_linear=0
shrinkage=0.5


end of trees

feature_importances:
Column_7=303
Column_26=35
Column_36=24
Column_10=20
Column_21=20
Column_0=18
Column_3=17
Column_11=16
Column_20=16
Column_19=15
Column_9=14
Column_14=14
Column_17=14
Column_24=14
Column_34=13
Column_28=11
Column_22=10
Column_16=9
Column_23=6
Column_31=6
Column_32=4
Column_1=1

parameters:
[boosting: gbdt]
[objective: regression]
[metric: rmse,l2]
[tree_learner: serial]
[device_type: cpu]
[data: ]
[valid: ]
[num_iterations: 20]
[learning_rate: 0.5]
[num_leaves: 31]
[num_threads: -1]
[deterministic: 0]
[force_col_wise: 0]
[force_row_wise: 0]
[histogram_pool_size: -1]
[max_depth: 20]
[min_data_in_leaf: 20]
[min_sum_hessian_in_leaf: 0.001]
[bagging_fraction: 1]
[pos_bagging_fraction: 1]
[neg_bagging_fraction: 1]
[bagging_freq: 0]
[bagging_seed: 3]
[feature_fraction: 1]
[feature_fraction_bynode: 1]
[feature_fraction_seed: 2]
[extra_trees: 0]
[extra_seed: 6]
[early_stopping_round: 1000]
[first_metric_only: 0]
[max_delta_step: 0]
[lambda_l1: 0]
[lambda_l2: 0]
[linear_lambda: 0]
[min_gain_to_split: 0]
[drop_rate: 0.1]
[max_drop: 50]
[skip_drop: 0.5]
[xgboost_dart_mode: 0]
[uniform_drop: 0]
[drop_seed: 4]
[top_rate: 0.2]
[other_rate: 0.1]
[min_data_per_group: 100]
[max_cat_threshold: 32]
[cat_l2: 10]
[cat_smooth: 10]
[max_cat_to_onehot: 4]
[top_k: 20]
[monotone_constraints: ]
[monotone_constraints_method: basic]
[monotone_penalty: 0]
[feature_contri: ]
[forcedsplits_filename: ]
[refit_decay_rate: 0.9]
[cegb_tradeoff: 1]
[cegb_penalty_split: 0]
[cegb_penalty_feature_lazy: ]
[cegb_penalty_feature_coupled: ]
[path_smooth: 0]
[interaction_constraints: ]
[verbosity: -1]
[saved_feature_importance_type: 0]
[linear_tree: 0]
[max_bin: 255]
[max_bin_by_feature: ]
[min_data_in_bin: 3]
[bin_construct_sample_cnt: 200000]
[data_random_seed: 1]
[is_enable_sparse: 1]
[enable_bundle: 1]
[use_missing: 1]
[zero_as_missing: 0]
[feature_pre_filter: 1]
[pre_partition: 0]
[two_round: 0]
[header: 0]
[label_column: ]
[weight_column: ]
[group_column: ]
[ignore_column: ]
[categorical_feature: ]
[forcedbins_filename: ]
[precise_float_parser: 0]
[objective_seed: 5]
[num_class: 1]
[is_unbalance: 0]
[scale_pos_weight: 1]
[sigmoid: 1]
[boost_from_average: 1]
[reg_sqrt: 0]
[alpha: 0.9]
[fair_c: 1]
[poisson_max_delta_step: 0.7]
[tweedie_variance_power: 1.5]
[lambdarank_truncation_level: 30]
[lambdarank_norm: 1]
[label_gain: ]
[eval_at: ]
[multi_error_top_k: 1]
[auc_mu_weights: ]
[num_machines: 1]
[local_listen_port: 12400]
[time_out: 120]
[machine_list_filename: ]
[machines: ]
[gpu_platform_id: -1]
[gpu_device_id: -1]
[gpu_use_dp: 0]
[num_gpu: 1]

end of parameters

pandas_categorical:null
