tree
version=v3
num_class=1
num_tree_per_iteration=1
label_index=0
max_feature_idx=38
objective=regression
feature_names=Column_0 Column_1 Column_2 Column_3 Column_4 Column_5 Column_6 Column_7 Column_8 Column_9 Column_10 Column_11 Column_12 Column_13 Column_14 Column_15 Column_16 Column_17 Column_18 Column_19 Column_20 Column_21 Column_22 Column_23 Column_24 Column_25 Column_26 Column_27 Column_28 Column_29 Column_30 Column_31 Column_32 Column_33 Column_34 Column_35 Column_36 Column_37 Column_38
feature_infos=[0:154] [0:1] none [0:62.953098300000001] none [0:1] none [64.781196600000001:94.6875] [0:1] [0:58.828098300000001] [0:4.0039000500000004] [332.71769939999996:375.18399699999998] none none [17997:39005] none [224.35000079999998:274.75000001999996] [497.625:918.875] [0:1] [-39.611112833333337:223.24444222222223] [0.0410160013:3.4316399099999999] [0:102.875] [1035.75:2512.5] [0:306.39999399999999] [43.3125:72.406196600000001] [0:1] [-4:6.6875] none [75.781196600000001:89.5] [0:1] none [0:475.875] [223.16570129999997:273.93124999999998] none [64.158698999999999:87.460296600000007] none [0.555999994:0.79299998299999996] none none
tree_sizes=2671 2737 2743 2745 2748 2730 2701 2761 2728 2747 2769 2748 2784 2747 2772 2770 2733 2772 2780 2788

Tree=0
num_leaves=31
num_cat=0
split_feature=17 28 28 17 11 17 7 17 7 7 17 20 17 28 7 17 17 7 17 31 7 7 17 7 17 17 7 7 7 7
split_gain=78005.5 126373 88808.2 55641.1 46714.8 41301 73503.4 45529 38823.1 36434 41053.6 36081.3 26341.3 24388.9 24087.1 22706.1 20802.5 20488.8 28700.3 19739 19619.4 18338.4 18004.4 17326.8 18127 16340.1 16124.9 14381 13007.5 12380.1
threshold=752.56250000000011 83.726497650000013 84.24214935000002 726.06250000000011 350.02050245000004 772.43750000000011 87.24214935000002 793.68750000000011 86.195301050000012 89.788997650000013 845.06250000000011 0.33593699350000006 793.68750000000011 83.02339935000002 83.64839935000002 707.56250000000011 822.43750000000011 85.757801050000012 736.81250000000011 413.84350600000005 93.39839935000002 88.02339935000002 773.06250000000011 90.74214935000002 820.18750000000011 881.06250000000011 85.39839935000002 82.33589935000002 88.96089935000002 85.163997650000013
decision_type=2 2 2 2 2 2 2 2 2 2 2 2 2 2 2 2 2 2 2 2 2 2 2 2 2 2 2 2 2 2
left_child=1 3 22 4 -1 8 12 28 -4 16 23 -6 19 -5 15 27 21 18 -3 -7 -12 -9 26 24 -11 -22 -2 -13 -8 -24
right_child=2 17 5 13 11 6 7 9 -10 10 20 14 -14 -15 -16 -17 -18 -19 -20 -21 25 -23 29 -25 -26 -27 -28 -29 -30 -31
leaf_value=15.064378960590867 21.761305134621956 6.7687383519800344 14.63524013064133 19.881428299939294 4.5876207399401867 19.211510367662822 10.511007976031616 18.466353223543756 8.2833107690041672 7.6165372957362711 17.389272818948822 12.98601286955709 22.733480208635058 15.473773021179928 8.4243891013454153 16.107835472432598 20.618287543587279 4.1683688182511407 12.024771921494553 14.697953391394334 4.8677347888530207 13.862738915433649 36.782694359331956 6.1446285917434427 14.968580872956457 15.453748339685681 17.215219303359451 8.6446823328342006 2.3314231574489117 23.453119571163331
leaf_weight=2105 357 471 599 510 165 634 368 373 402 140 480 724 312 816 324 457 299 202 579 392 65 515 20 196 209 83 430 259 56 135
leaf_count=2105 357 471 599 510 165 634 368 373 402 140 480 724 312 816 324 457 299 202 579 392 65 515 20 196 209 83 430 259 56 135
internal_value=14.4906 13.3027 15.7856 14.3592 13.4356 14.9652 15.6648 14.2011 12.0843 15.0581 13.0819 11.6582 18.7104 17.169 12.3195 13.1959 17.0111 8.7799 9.66707 17.487 15.8374 15.7965 20.2475 9.9066 12.0193 10.8045 19.2774 11.8422 9.43069 25.1731
internal_weight=0 6612 6065 5360 4034 5123 4122 2784 1001 2360 1173 1929 1338 1326 1764 1440 1187 1252 1050 1026 628 888 942 545 349 148 787 983 424 155
internal_count=12677 6612 6065 5360 4034 5123 4122 2784 1001 2360 1173 1929 1338 1326 1764 1440 1187 1252 1050 1026 628 888 942 545 349 148 787 983 424 155
is_linear=0
shrinkage=1


Tree=1
num_leaves=31
num_cat=0
split_feature=3 17 7 28 17 31 17 7 17 28 17 11 17 17 7 7 7 7 17 17 28 7 17 1 3 7 7 7 10 7
split_gain=41865.2 22243.5 29284.3 24105.9 19945.2 17675.9 17615.2 18139.7 16697.8 16914.3 14359.2 13119 13635.7 12861.1 12669.4 11835.8 11815.2 9835.77 14541.3 9111.99 8727.58 7645.23 8366.04 7480.31 9199.32 7470.86 7383.34 7149.8 7035.82 6861.52
threshold=31.265599250000005 739.68750000000011 84.663997650000013 84.007801050000012 713.68750000000011 369.59350600000005 761.31250000000011 86.570301050000012 784.43750000000011 85.96089935000002 812.18750000000011 355.35139695000004 733.18750000000011 763.31250000000011 85.89839935000002 85.226497650000013 83.74214935000002 83.351497650000013 686.06250000000011 645.56250000000011 83.14839935000002 79.74214935000002 681.76998900000012 1.0000000180025095e-35 42.179649350000012 81.64839935000002 88.61714935000002 87.58589935000002 0.63183549050000021 91.21089935000002
decision_type=2 2 2 2 2 2 2 2 2 2 2 2 2 2 2 2 2 2 2 2 2 2 2 2 2 2 2 2 2 2
left_child=1 2 4 -3 5 19 15 -8 27 -10 26 12 -2 28 -15 -5 -6 18 -7 -1 -14 -21 -23 24 -16 -24 -11 -9 -13 -12
right_child=11 3 -4 6 16 17 7 8 9 10 29 13 20 14 23 -17 -18 -19 -20 21 -22 22 25 -25 -26 -27 -28 -29 -30 -31
leaf_value=-3.9853167186995022 1.0035135641067157 2.660822273689663 -6.3722367379978255 0.35110918611337411 2.9021056198526356 -8.4582831066988771 2.3834993265714353 -2.7436534813320148 1.9546442294273936 -3.0167895730762253 0.6683443189377628 0.25026644838031664 6.4522367458169656 4.4609221946448088 2.1954301983411639 -4.9059253913532617 -0.98646839555761701 -8.6871479435970915 -1.3373593963616717 3.7218096847989055 2.5466861905307638 -3.3969950803080384 5.5459847573736871 -0.2494594733802605 -1.8218690202061443 -0.56294575747970033 -9.6749153616635688 -8.0201222537749111 -1.7984172601905399 -2.8147530193072421
leaf_weight=244 1776 637 341 151 328 105 539 245 554 105 413 855 192 244 939 368 483 133 226 95 561 245 58 1114 168 365 69 87 822 215
leaf_count=244 1776 637 341 151 328 105 539 245 554 105 413 855 192 244 939 368 483 133 226 95 561 245 58 1114 168 365 69 87 822 215
internal_value=0 -0.957616 -2.05039 -0.110335 -1.40458 -2.50216 -0.753171 -0.141825 -0.948193 -0.170063 -1.63775 0.862156 1.75949 0.314264 1.04097 -3.37642 0.586222 -5.0555 -3.59626 -1.32564 3.54252 -0.475098 -1.07196 0.665258 1.58576 0.274685 -5.65708 -4.12634 -0.753918 -0.524117
internal_weight=0 6006 2623 3383 2282 1471 2746 2227 1688 1356 802 6671 2529 4142 2465 519 811 464 331 1007 753 763 668 2221 1107 423 174 332 1677 628
internal_count=12677 6006 2623 3383 2282 1471 2746 2227 1688 1356 802 6671 2529 4142 2465 519 811 464 331 1007 753 763 668 2221 1107 423 174 332 1677 628
is_linear=0
shrinkage=0.5


Tree=2
num_leaves=31
num_cat=0
split_feature=3 17 7 7 16 17 7 17 7 17 28 17 7 7 17 7 17 28 17 17 17 28 7 7 28 11 17 7 7 7
split_gain=12627.3 12940.7 19848.7 16026.6 12311.5 18796.8 11582.6 15768.5 16593.5 14632.8 14273.6 10464.5 10973 9319.48 12615.4 9497.45 8881.2 8703.54 7933.56 7890.03 7590.62 8015.84 7012.01 6677.12 6454.5 6190.44 6182.32 10026.3 6739.51 6159.4
threshold=34.71479990000001 696.81250000000011 82.67964935000002 81.80464935000002 243.59999980000001 733.18750000000011 84.445301050000012 778.93750000000011 87.67964935000002 808.18750000000011 84.882801050000012 660.18750000000011 80.538997650000013 88.55464935000002 861.43750000000011 91.46089935000002 805.43750000000011 85.46089935000002 758.31250000000011 718.18750000000011 835.93750000000011 87.413997650000013 84.39839935000002 80.038997650000013 82.351497650000013 342.43079985000003 745.93750000000011 85.132801050000012 86.08589935000002 93.39839935000002
decision_type=2 2 2 2 2 2 2 2 2 2 2 2 2 2 2 2 2 2 2 2 2 2 2 2 2 2 2 2 2 2
left_child=1 3 -3 11 19 22 -7 10 16 -10 18 23 -13 -11 15 20 17 -9 -8 -4 -15 -22 -6 -1 -21 -2 27 -26 -28 -16
right_child=25 2 4 -5 5 6 7 8 9 13 -12 12 -14 14 29 -17 -18 -19 -20 24 21 -23 -24 -25 26 -27 28 -29 -30 -31
leaf_value=-1.4740283734395385 3.7146247340590541 3.6014237192620593 -1.0020187374229546 -4.3603637936641615 -2.3279168794526317 3.013317509420216 -1.8803003543879628 2.4362124858831726 -3.6406769070096989 3.4847539409515802 -3.7596270656699993 3.8997550425568814 -0.70267803132750839 -2.2897074854920936 4.2810507379254403 -6.0732518294543931 5.4678446826421556 -0.75223993223190455 0.70192517075259742 4.3980912209019394 2.7975405812047529 -2.6726485371890694 -6.3768167048102429 -6.4784320935999089 0.69600063516569832 0.75918787845020419 3.0307142539491099 -3.3994552288102646 0.60506722743316677 -0.65893728571012611
leaf_weight=542 191 364 574 388 433 250 641 572 341 171 550 197 378 395 171 99 144 342 555 137 207 99 142 76 815 2449 499 183 672 100
leaf_count=542 191 364 574 388 433 250 641 572 341 171 550 197 378 395 171 99 144 342 555 137 207 99 142 76 815 2449 499 183 672 100
internal_value=0 -0.255927 -0.0104397 -1.56892 -0.172911 -0.63136 -0.296992 -0.485635 0.285126 -0.739482 -1.65149 -0.66106 0.874156 0.0570621 -0.490216 -1.48898 1.81816 1.24316 -0.682027 0.656754 -0.841563 1.02777 -3.32782 -2.08946 1.06965 0.973009 0.859415 -0.0549697 1.63871 2.45818
internal_weight=0 10037 8456 1581 8092 5212 4637 4387 2641 1583 1746 1193 575 1242 1071 800 1058 914 1196 2880 701 306 575 618 2306 2640 2169 998 1171 271
internal_count=12677 10037 8456 1581 8092 5212 4637 4387 2641 1583 1746 1193 575 1242 1071 800 1058 914 1196 2880 701 306 575 618 2306 2640 2169 998 1171 271
is_linear=0
shrinkage=0.5


Tree=3
num_leaves=31
num_cat=0
split_feature=5 32 17 31 17 7 7 7 17 7 7 17 17 7 7 17 17 28 7 17 7 28 17 17 7 17 7 17 7 17
split_gain=9427.1 7704.48 9952.25 10441.6 9315.92 12691.1 8891.12 8063.94 6183.68 7080.02 6381.76 6261.53 5727.29 8479.67 6079.55 5388.48 5324.33 17863.4 12841.2 5216.66 8342.55 5108.71 8878.77 8202.35 7514.49 6649.5 4928.47 5460.85 4809.71 4404.04
threshold=1.0000000180025095e-35 244.31409970000001 786.43750000000011 425.59350600000005 764.56250000000011 86.851497650000013 86.726497650000013 86.788997650000013 848.93750000000011 89.11714935000002 90.80464935000002 818.81250000000011 746.43750000000011 84.945301050000012 84.820301050000012 781.31250000000011 672.56250000000011 81.288997650000013 80.757801050000012 804.31250000000011 89.288997650000013 82.132801050000012 704.31250000000011 720.18750000000011 84.788997650000013 742.93750000000011 80.17964935000002 700.56250000000011 90.601497650000013 635.81250000000011
decision_type=2 2 2 2 2 2 2 2 2 2 2 2 2 2 2 2 2 2 2 2 2 2 2 2 2 2 2 2 2 2
left_child=-1 4 7 -4 6 15 16 12 9 11 -10 -5 14 -14 -3 -6 18 26 29 20 -7 22 -19 -23 25 -25 -18 -28 -21 -2
right_child=1 2 3 8 5 19 -8 -9 10 -11 -12 -13 13 -15 -16 -17 17 21 -20 28 -22 23 -24 24 -26 -27 27 -29 -30 -31
leaf_value=5.7452682743609795 -1.6772619982219572 -1.0133652871518668 1.6014342790202076 -1.1590832140299314 2.7510001881933097 0.26069293332751842 -5.7161448295369297 -3.2985392735361487 3.690034412689609 -2.5935341366242279 -0.14745804707275792 2.4936112059865678 2.8617148404468744 -0.52962436911541499 -3.810775466720786 6.8973864793777464 10.097446635365486 -0.022571042016202789 -5.4704939065945908 3.050317006899665 -5.2754344365945673 -1.5318906926473184 3.2443773966663207 0.66299178071393827 -0.61098936342509858 3.9153964638710024 2.4442226203167672 8.8360528588294986 -1.3652460970074298 0.6596848231145761
leaf_weight=71 321 1311 968 356 362 400 66 342 146 488 420 175 213 1369 228 100 32 584 134 240 82 849 323 909 1130 190 203 40 83 542
leaf_count=71 321 1311 968 356 362 400 66 342 146 488 420 175 213 1369 228 100 32 584 134 240 82 849 323 909 1130 190 203 40 83 542
internal_value=0 -0.0323587 -0.44147 0.307522 0.341119 1.55963 0.0510836 -0.993644 -0.482703 -1.21874 0.842425 0.0447238 -0.741073 -0.0730155 -1.4278 3.64849 0.123489 0.366921 -0.916648 0.36081 -0.681138 0.0979533 1.14085 -0.209359 0.294377 1.22528 4.2645 3.49638 1.91567 -0.209562
internal_weight=0 12606 6016 2553 6590 1267 5323 3463 1585 1019 566 531 3121 1582 1539 462 5257 4260 997 805 482 3985 907 3078 2229 1099 275 243 323 863
internal_count=12677 12606 6016 2553 6590 1267 5323 3463 1585 1019 566 531 3121 1582 1539 462 5257 4260 997 805 482 3985 907 3078 2229 1099 275 243 323 863
is_linear=0
shrinkage=0.5


Tree=4
num_leaves=31
num_cat=0
split_feature=36 17 7 31 17 17 28 7 17 7 7 17 7 7 17 7 17 28 31 31 17 7 17 17 17 7 17 17 7 17
split_gain=4737.54 8669.27 11312.1 6906.63 6327.61 6232.29 5972.04 5158.98 8606.18 5139.28 5101.84 4612.14 4274.1 4175.72 3891.44 7756.34 6073.02 4496.12 4309.38 3791.47 3716.26 3879.17 3738.25 3650.48 3341.06 6638.97 3414.85 3232.32 4426.3 3176.55
threshold=0.74649998550000018 688.81250000000011 81.89839935000002 347.03100600000005 731.31250000000011 651.31250000000011 82.89839935000002 85.58589935000002 767.93750000000011 79.070301050000012 78.86714935000002 759.43750000000011 86.413997650000013 83.99214935000002 801.18750000000011 88.820301050000012 826.68750000000011 85.52339935000002 432.03100600000005 438.90600600000005 898.62500000000011 91.71089935000002 869.31250000000011 619.68750000000011 710.06250000000011 83.39839935000002 732.68750000000011 628.68750000000011 79.61714935000002 675.43750000000011
decision_type=2 2 2 2 2 2 2 2 2 2 2 2 2 2 2 2 2 2 2 2 2 2 2 2 2 2 2 2 2 2
left_child=1 3 -3 5 6 10 -2 11 -9 -7 23 13 -10 -6 17 -16 19 -14 -18 -17 21 22 -20 -1 -4 -26 -27 -5 29 -29
right_child=4 2 24 27 7 9 -8 8 12 -11 -12 -13 14 -15 15 16 18 -19 20 -21 -22 -23 -24 -25 25 26 -28 28 -30 -31
leaf_value=-0.82554192599814591 -0.28714894232227955 3.9188902184666534 -0.56445998641712025 -4.9755758663703658 2.8646358138249886 7.5575758250469853 -2.3465995594679678 -1.7272437739674906 1.3461221634868901 1.6350347357241055 -3.1758579812808616 2.3739204425768903 -0.14573748492343086 0.0089052439194186352 1.7494206729362669 -1.5250336735547461 2.5891907719603502 -2.0228930282581827 -0.24278069847280467 -6.5064939953560055 5.7730851984024047 -2.4360575463972696 3.7922228369575279 2.1919753232542525 2.8500732227042316 -0.73530105220019382 0.84111781945799058 0.086832221779103644 -1.7694911873238504 6.0304597067832946
leaf_weight=216 801 280 515 58 143 47 628 861 526 166 117 337 875 1221 607 342 166 502 491 43 25 181 65 187 350 443 1530 223 706 25
leaf_count=216 801 280 515 58 143 47 628 861 526 166 117 337 875 1221 607 342 166 502 491 43 25 181 65 187 350 443 1530 223 706 25
internal_value=0 0.387456 0.886879 -0.504923 -0.241131 0.663886 -1.19221 -0.0282739 -0.299115 2.94189 -0.269217 0.717535 0.0225218 0.308296 -0.188644 0.271382 -0.411916 -0.830075 0.280706 -2.0814 -0.222192 -0.425559 0.228937 0.574646 0.587738 0.843176 0.487163 -1.3515 -1.13117 0.685988
internal_weight=0 4863 3118 1745 7814 733 1429 6385 4684 213 520 1701 3823 1364 3297 1920 1313 1377 928 385 762 737 556 403 2838 2323 1973 1012 954 248
internal_count=12677 4863 3118 1745 7814 733 1429 6385 4684 213 520 1701 3823 1364 3297 1920 1313 1377 928 385 762 737 556 403 2838 2323 1973 1012 954 248
is_linear=0
shrinkage=0.5


Tree=5
num_leaves=31
num_cat=0
split_feature=16 17 28 7 34 20 17 7 17 7 20 9 34 32 3 21 7 9 17 17 7 7 17 7 17 7 17 7 17 7
split_gain=3798.08 3817.02 5791.15 5427.23 2713.16 5151.52 2702.91 5644.63 3822.67 3962.59 2616.57 2686.21 4300.51 2505.53 7352.43 2472.8 2359.69 2134.78 2338.27 2081.17 2450.45 1934.19 1844.97 1743.03 1921.11 1597.32 1489.7 1460.02 1441.34 4578.3
threshold=253.09999980000001 781.93750000000011 85.08589935000002 86.99214935000002 74.920551300000014 1.4355450250000004 837.31250000000011 90.14839935000002 811.18750000000011 88.39839935000002 0.45410099650000008 31.300700200000005 71.365047450000006 235.67350045000001 46.210899350000012 90.101497650000013 91.788997650000013 36.52729990000001 781.93750000000011 801.18750000000011 86.05464935000002 86.663997650000013 677.06250000000011 90.601497650000013 875.00000000000011 91.788997650000013 664.18750000000011 88.11714935000002 857.31250000000011 90.14839935000002
decision_type=2 2 2 2 2 2 2 2 2 2 2 2 2 2 2 2 2 2 2 2 2 2 2 2 2 2 2 2 2 2
left_child=1 3 19 4 10 15 7 8 9 -4 11 12 -1 14 -12 26 -9 18 -2 20 -3 -20 -17 -8 25 -25 -6 -5 29 -23
right_child=17 2 6 27 5 -7 23 16 -10 -11 13 -13 -14 -15 -16 22 -18 -19 21 -21 -22 28 -24 24 -26 -27 -28 -29 -30 -31
leaf_value=-3.5903653395015431 -1.5728098396614911 4.4829779202523437 0.54946715476727415 -1.5683665734510437 0.95150469153744277 -0.47898795661175214 3.7685903256286437 -1.6043282670721888 1.9140353179477059 -1.9602869370926732 0.48782166616072548 0.42554794551635328 -0.67419155799135944 -0.24405701937543162 8.5409766117731731 -1.8581114188767969 -6.313296095530192 1.010332240107281 1.3788358870542783 4.5604314211901134 1.2407441736037532 -0.41391093230465947 0.5877606370074927 1.37897295669802 4.0394261659577833 -1.2120106532931962 2.6799615872446942 -4.311324192607989 0.37861904684188108 -3.5532688322684747
leaf_weight=188 621 69 558 237 278 1314 67 235 312 219 513 220 386 2708 30 80 30 183 138 77 375 706 2128 162 43 94 226 61 280 139
leaf_count=188 621 69 558 237 278 1314 67 235 312 219 513 220 386 2708 30 80 30 183 138 77 375 706 2128 162 43 94 226 61 280 139
internal_value=0 0.120797 0.700346 -0.0343911 0.0429779 0.333558 0.257976 -0.0679004 0.435701 -0.157915 -0.246237 -1.05996 -1.62931 -0.0475006 0.932747 0.727248 -2.13742 -0.620057 -0.778422 2.16076 1.7446 -0.387833 0.499142 1.46354 0.947023 0.427596 1.72657 -2.12984 -0.604544 -0.930326
internal_weight=0 10610 2241 8369 8071 4026 1720 1354 1089 777 4045 794 574 3251 543 2712 265 2067 1884 521 444 1263 2208 366 299 256 504 298 1125 845
internal_count=12677 10610 2241 8369 8071 4026 1720 1354 1089 777 4045 794 574 3251 543 2712 265 2067 1884 521 444 1263 2208 366 299 256 504 298 1125 845
is_linear=0
shrinkage=0.5


Tree=6
num_leaves=31
num_cat=0
split_feature=16 17 7 17 7 7 17 7 7 7 17 28 17 7 17 7 17 17 5 17 7 17 0 17 7 17 17 11 32 7
split_gain=2219.61 3032.11 5123.73 5213.92 3339.93 3205.19 3794.21 4139.5 3786.48 3080.68 3004.31 3633.86 2398.99 2357.26 2312.37 2392.58 2461.47 2298.74 2097.33 1954.7 1881.73 1635.09 1625.26 1543.79 2151.95 2456.75 2248.68 1745.78 1731.43 1461.72
threshold=249.3000006 743.43750000000011 84.163997650000013 715.93750000000011 85.163997650000013 82.99214935000002 684.93750000000011 81.55464935000002 81.27339935000002 83.05464935000002 667.56250000000011 79.788997650000013 639.56250000000011 79.27339935000002 614.25000000000011 76.226497650000013 582.50000000000011 700.56250000000011 1.0000000180025095e-35 859.31250000000011 77.89839935000002 721.56250000000011 116.53099800000001 758.31250000000011 88.08589935000002 799.68750000000011 808.18750000000011 355.84919965 240.82970085000002 91.99214935000002
decision_type=2 2 2 2 2 2 2 2 2 2 2 2 2 2 2 2 2 2 2 2 2 2 2 2 2 2 2 2 2 2
left_child=1 2 3 5 -3 6 7 10 -8 -5 11 14 20 -14 15 16 -1 -7 -2 23 -13 -4 -18 -6 25 28 -26 -27 -25 -28
right_child=18 4 21 9 19 17 8 -9 -10 -11 -12 12 13 -15 -16 -17 22 -19 -20 -21 -22 -23 -24 24 26 27 29 -29 -30 -31
leaf_value=-2.1573121660947798 2.6932328908067 1.6080446449454726 -2.4739644282677316 3.4038472238683353 -0.47520277747445233 -3.5051907158082294 4.0701116310903824 -2.5539954673456751 0.53917858791699602 0.82668199696584255 1.2036685265589289 -0.74046665952811319 1.1278150407632701 -1.362746592366568 2.3846055008994038 -4.3582821426492542 3.8589413829218104 -0.78730641980655491 -0.36245922347733489 3.7546154449228197 -4.2532211226044279 -0.78679660889138359 -1.3386205821519805 1.4932556072509364 -1.1443510606296752 7.2962728321552275 0.74520982140517333 2.0923632194837891 0.28810078283362212 -1.8557295859715
leaf_weight=50 57 554 167 137 615 97 83 199 891 755 327 62 132 339 138 31 53 393 3787 40 99 1025 21 395 380 20 472 83 1214 61
leaf_count=50 57 554 167 137 615 97 83 199 891 755 327 62 132 339 138 31 53 393 3787 40 99 1025 21 395 380 20 472 83 1214 61
internal_value=0 0.138019 -0.118532 0.164717 0.472525 -0.158969 0.0767095 -0.435704 0.840069 1.2225 -0.0990109 -0.559526 -1.2343 -0.664755 0.895959 -0.429416 0.5528 -1.32534 -0.317148 0.280733 -2.90048 -1.02317 2.38396 0.237845 0.404902 0.735503 -0.215021 3.10283 0.583959 0.447541
internal_weight=0 8833 4999 3807 3834 2915 2425 1451 974 892 1252 925 632 471 293 155 124 490 3844 3280 161 1192 74 3240 2625 1712 913 103 1609 533
internal_count=12677 8833 4999 3807 3834 2915 2425 1451 974 892 1252 925 632 471 293 155 124 490 3844 3280 161 1192 74 3240 2625 1712 913 103 1609 533
is_linear=0
shrinkage=0.5


Tree=7
num_leaves=31
num_cat=0
split_feature=19 9 17 28 21 14 17 7 31 20 7 17 16 17 7 36 17 7 7 17 7 17 32 17 32 0 17 34 17 14
split_gain=1893.73 2361.56 2615.07 4875.31 3662.72 1845.32 2123.15 3210.78 2995 1560.56 1451.12 2557.74 1667.43 1536.55 1484.92 1330.98 1129.46 2175.25 1774.35 1094.06 2052.35 1983.14 1645.85 1049.04 953.531 900.046 898.113 875.993 866.91 1053.12
threshold=-31.027777972222221 34.769498850000012 721.56250000000011 83.14839935000002 89.538997650000013 33998.500000000007 832.56250000000011 89.99214935000002 436.31250000000006 0.33593699350000006 89.36714935000002 798.93750000000011 247.59999980000001 765.18750000000011 87.070301050000012 0.57049998650000011 691.31250000000011 82.132801050000012 82.507801050000012 898.62500000000011 93.070301050000012 875.00000000000011 250.40784970000001 701.56250000000011 254.36099950000002 124.96849800000001 889.62500000000011 74.222148900000022 748.31250000000011 35003.500000000007
decision_type=2 2 2 2 2 2 2 2 2 2 2 2 2 2 2 2 2 2 2 2 2 2 2 2 2 2 2 2 2 2
left_child=16 2 3 15 -4 -6 8 -8 10 -3 11 12 28 -14 -15 -2 18 -18 -1 20 21 24 -22 -5 -9 -17 -24 -11 -7 -30
right_child=1 9 4 23 5 6 7 19 -10 27 -12 -13 13 14 -16 25 17 -19 -20 -21 22 -23 26 -25 -26 -27 -28 -29 29 -31
leaf_value=-0.0080253964681798601 3.1872484041377902 3.2187639948473694 3.4377821381761655 -4.3876659296341796 0.53536035331581477 -0.59836453754059937 2.6882326382756752 0.54479447508729528 -2.672061746530499 -0.034922678618720372 -1.4403707898718163 0.65144080071765587 -1.5856522773211073 -0.083930574948879177 -1.4546893645121652 -0.62595646601498267 2.590472019277513 0.34635350918880214 -2.7628557420065327 2.8439386014008159 -0.18428335133438045 3.8615964103389429 -5.1505479693412779 -2.1479597307150762 -0.93368881300485096 0.88095051726013163 -1.2294129185054614 0.83649494376608624 0.63627174072898929 -0.31370690536848922
leaf_weight=1021 26 51 72 67 843 599 136 338 141 588 274 654 462 689 277 805 112 3011 62 33 69 37 40 238 161 113 23 566 560 609
leaf_count=1021 26 51 72 67 843 599 136 338 141 588 274 654 462 689 277 805 112 3011 62 33 69 37 40 238 161 113 23 566 560 609
internal_value=0 -0.136172 -0.243682 -0.902055 -0.107017 -0.149949 -0.263182 0.464912 -0.406069 0.512098 -0.328594 -0.249471 -0.433825 -0.835678 -0.476995 -0.34055 0.274254 0.426834 -0.165735 0.0335688 -0.105267 0.329656 -1.87132 -2.63996 0.0677688 -0.440466 -3.71902 0.39248 -0.109251 0.141373
internal_weight=0 8471 7266 1249 6017 5945 5102 837 4265 1205 4124 3850 3196 1428 966 944 4206 3123 1083 701 668 536 132 305 499 918 63 1154 1768 1169
internal_count=12677 8471 7266 1249 6017 5945 5102 837 4265 1205 4124 3850 3196 1428 966 944 4206 3123 1083 701 668 536 132 305 499 918 63 1154 1768 1169
is_linear=0
shrinkage=0.5


Tree=8
num_leaves=31
num_cat=0
split_feature=14 17 7 17 7 7 17 28 31 17 17 7 36 32 17 7 17 7 31 28 17 28 7 28 22 16 17 7 17 17
split_gain=1454.36 1165.68 3351.07 2257.25 2445.79 2017.16 2285.81 1777.73 1527.73 1468.58 1168.55 1855.98 1334.08 1103.94 1927.08 1703.04 1189.57 1654.52 1435.71 1046.76 1036.38 1388.95 1391.92 899.354 891.668 858.19 936.436 822.901 822.359 809.068
threshold=35990.500000000007 665.81250000000011 81.05464935000002 704.31250000000011 82.507801050000012 78.46089935000002 639.56250000000011 81.39839935000002 357.53100600000005 628.68750000000011 606.87500000000011 76.788997650000013 0.57949998950000003 238.45470085000002 720.18750000000011 83.96089935000002 776.18750000000011 86.226497650000013 405.96850600000005 82.67964935000002 697.81250000000011 82.83589935000002 79.27339935000002 79.007801050000012 1726.6850000000002 256.40000000000003 816.68750000000011 87.83589935000002 742.93750000000011 741.18750000000011
decision_type=2 2 2 2 2 2 2 2 2 2 2 2 2 2 2 2 2 2 2 2 2 2 2 2 2 2 2 2 2 2
left_child=1 5 20 19 -5 6 7 10 9 -7 12 -12 -1 -6 -15 28 18 -18 29 -4 21 22 -3 -14 -8 26 27 -19 -16 -17
right_child=-2 2 3 4 13 8 24 -9 -10 -11 11 -13 23 14 15 16 17 25 -20 -21 -22 -23 -24 -25 -26 -27 -28 -29 -30 -31
leaf_value=1.6435550244318113 -0.22919781533739123 4.2629329760869341 -0.35515215938911415 2.0787414638218524 0.72596081036194815 -4.6866716959259724 3.1091371183175336 -3.7439174067341918 -3.1073343622220029 -0.49995503152264559 2.4523772365250385 -0.42834599914424348 -0.2963044107252476 -1.0513525632280059 0.94437714883165957 -0.38258659493916763 1.8252671127750848 0.46823321674004725 -0.78243004963271146 -1.7332397282617278 4.6407467356094951 -0.89877582642070031 1.3480002179801944 -3.1309158673449868 -0.018629569199777419 -0.45201237208191875 1.1529820186960009 -0.57761488748046586 3.3465402454603463 0.35110411076106468
leaf_weight=36 4477 48 811 174 782 22 86 33 77 437 97 132 51 346 326 580 180 648 655 166 26 57 279 62 31 361 325 265 40 1067
leaf_count=36 4477 48 811 174 782 22 86 33 77 437 97 132 51 346 326 580 180 648 655 166 26 57 279 62 31 361 325 265 40 1067
internal_value=0 0.125136 0.197931 0.113335 0.232743 -0.363077 0.330564 -0.224503 -1.04637 -0.700626 0.0827476 0.791873 -1.00712 0.175128 0.0852566 0.173691 0.0810277 0.388105 -0.156283 -0.5893 1.58571 1.37886 1.77588 -1.85158 2.28041 0.226323 0.424125 0.164674 1.20691 0.0927309
internal_weight=0 8200 7136 6726 5749 1064 528 411 536 459 378 229 149 5575 4793 4447 4081 1779 2302 977 410 384 327 113 117 1599 1238 913 366 1647
internal_count=12677 8200 7136 6726 5749 1064 528 411 536 459 378 229 149 5575 4793 4447 4081 1779 2302 977 410 384 327 113 117 1599 1238 913 366 1647
is_linear=0
shrinkage=0.5


Tree=9
num_leaves=31
num_cat=0
split_feature=14 26 17 28 7 7 17 17 7 17 7 16 7 24 32 17 7 17 24 17 3 3 20 28 7 17 28 7 17 7
split_gain=892.401 1161.16 1119.27 1585.78 1171.14 870.212 1626.31 1613.21 2420.97 1119.32 2047.34 1198.01 1144.86 1106.99 1051.68 1005.8 1972.49 1314.86 1108.6 987.796 886.86 857.803 1113.91 993.501 848.508 815.812 1124.84 892.593 737.172 725.228
threshold=34993.500000000007 -1.5312499999999998 692.43750000000011 81.74214935000002 82.070301050000012 84.39839935000002 735.81250000000011 756.43750000000011 85.726497650000013 787.56250000000011 86.788997650000013 244.59999980000001 89.02339935000002 62.953100200000009 235.45470085000002 814.18750000000011 89.476497650000013 855.18750000000011 69.796848300000008 847.06250000000011 34.83979990000001 32.050699250000001 0.76269447800000012 79.007801050000012 88.08589935000002 716.68750000000011 83.24214935000002 83.507801050000012 841.06250000000011 88.226497650000013
decision_type=2 2 2 2 2 2 2 2 2 2 2 2 2 2 2 2 2 2 2 2 2 2 2 2 2 2 2 2 2 2
left_child=2 5 3 21 -4 6 -2 13 14 -10 20 12 -12 -7 -9 29 19 -18 -19 24 -11 -1 -23 -24 -17 26 -6 -27 -14 -13
right_child=1 -3 4 -5 25 7 -8 8 9 10 11 15 28 -15 -16 16 17 18 -20 -21 -22 22 23 -25 -26 27 -28 -29 -30 -31
leaf_value=0.589746284828356 0.19379216594105211 -0.48323789559230701 1.4627704840512514 -0.93804717692390982 0.14842830128036438 -0.46699055891619839 2.2092617124319078 4.854984080791473 -0.39067267473553452 1.3140509615356966 1.8160759444038073 -0.27553126738197975 -0.10339486039815377 -2.5855426833606683 1.1193397039798303 2.4215515090303645 -0.77894929535434776 1.4418210777112785 -0.20692995635176198 4.3955449407750908 4.5110061307251454 -0.9453069306910038 3.2417011073342077 0.10776185619724765 0.49497162584823917 1.4849197051828347 -1.5109314096713424 0.32979584242266674 2.5548906952206947 -1.356144861971361
leaf_weight=603 772 1576 231 449 440 1200 115 20 1485 164 165 522 259 65 325 74 517 161 278 22 25 305 27 399 251 186 133 1658 29 221
leaf_count=603 772 1576 231 449 440 1200 115 20 1485 164 165 522 259 65 325 74 517 161 278 22 25 305 27 399 251 186 133 1658 29 221
internal_value=0 -0.0972458 0.180973 -0.125273 0.387179 -0.00604292 0.455099 -0.0767731 0.0629637 -0.0422754 0.150199 0.0301938 0.765927 -0.575849 1.3359 -0.132703 0.132022 -0.238609 0.397737 1.15313 1.73693 0.148292 -0.215863 0.306392 0.933639 0.284382 -0.236728 0.446311 0.16428 -0.596952
internal_weight=0 8246 4431 1783 2648 6670 887 5783 4518 4173 2688 2499 453 1265 345 2046 1303 956 439 347 189 1334 731 426 325 2417 573 1844 288 743
internal_count=12677 8246 4431 1783 2648 6670 887 5783 4518 4173 2688 2499 453 1265 345 2046 1303 956 439 347 189 1334 731 426 325 2417 573 1844 288 743
is_linear=0
shrinkage=0.5


Tree=10
num_leaves=31
num_cat=0
split_feature=7 17 7 26 32 23 34 20 1 34 17 7 7 16 17 17 7 17 7 7 3 17 11 7 17 17 20 31 17 24
split_gain=699.949 772.025 1500.12 790.992 837.276 782.793 722.908 653.996 889.63 1035.29 578.109 1774.45 1293.08 627.364 604.916 563.42 942.454 1421.89 845.691 791.051 558.192 539.716 527.435 772.397 765.401 701.86 589.974 548.146 705.146 518.687
threshold=94.265598300000008 869.31250000000011 91.64839935000002 -3.1562499999999996 229.78285065 238.34999850000003 82.984050750000009 1.8935500400000003 1.0000000180025095e-35 76.888851150000008 624.56250000000011 77.24214935000002 77.24214935000002 258.59999980000003 681.76998900000012 790.06250000000011 85.99214935000002 769.18750000000011 86.96089935000002 85.52339935000002 34.753900550000004 758.31250000000011 351.10479965000002 84.445301050000012 745.43750000000011 751.31250000000011 0.31933550550000006 365.84350600000005 740.68750000000011 62.578100200000009
decision_type=2 2 2 2 2 2 2 2 2 2 2 2 2 2 2 2 2 2 2 2 2 2 2 2 2 2 2 2 2 2
left_child=1 2 3 6 29 -6 -1 10 9 -9 12 -12 -7 15 -15 16 17 20 -17 -19 -13 -18 25 26 -25 -22 -24 -28 -29 -5
right_child=-2 -3 -4 4 5 7 -8 8 -10 -11 11 13 -14 14 -16 18 21 19 -20 -21 22 -23 23 24 -26 -27 27 28 -30 -31
leaf_value=0.47798438932789716 -2.7557827156523 0.96504618292583999 -1.5272068066814601 0.78079524584158899 -0.63153477009151704 -0.2589743407612497 3.342582022285332 0.41072872862137227 -0.79868055865911114 -0.70904082962875126 2.2370174881880698 0.11945087000538041 -3.778533525614729 -2.6538001153279436 -0.40920498433693997 1.2526436741636306 -1.0656939805506005 2.3426311022782582 0.18166011203420862 0.57016441325487743 -0.83078895615386394 -0.22643142608297834 2.5362326182199246 -1.707710042896897 -0.025096756632400439 1.8423426942183421 2.0184751829904752 -0.27516948077338049 1.997220074920915 -1.709768513048237
leaf_weight=519 23 206 161 420 541 165 23 554 592 329 92 4246 31 33 332 216 225 98 1257 176 442 1289 33 99 213 26 41 233 40 22
leaf_count=519 23 206 161 420 541 165 23 554 592 329 92 4246 31 33 332 216 225 98 1257 176 442 1289 33 99 213 26 41 233 40 22
internal_value=0 0.00500893 -0.0108786 0.0089903 -0.0182622 -0.0446615 0.599545 -0.0151597 -0.32444 -0.00649005 0.0339616 0.0522788 -0.815639 0.0299434 -0.612141 0.0570874 -0.000841407 0.0930806 0.338709 1.20411 0.0364227 -0.351157 -0.276388 0.0118643 -0.559003 -0.682282 0.525151 0.313796 0.0577814 0.656831
internal_weight=0 12654 12448 12287 11745 11303 542 10762 1475 883 9287 9091 196 8999 365 8634 7161 5647 1473 274 5373 1514 1127 659 312 468 347 314 273 442
internal_count=12677 12654 12448 12287 11745 11303 542 10762 1475 883 9287 9091 196 8999 365 8634 7161 5647 1473 274 5373 1514 1127 659 312 468 347 314 273 442
is_linear=0
shrinkage=0.5


Tree=11
num_leaves=31
num_cat=0
split_feature=19 20 17 7 31 34 17 28 7 3 28 7 7 23 17 17 7 28 17 3 7 17 21 7 21 10 17 3 31 1
split_gain=706.488 698.215 603.5 1052.89 556.107 545.795 546.414 1220.06 860.373 1024.31 721.816 781.205 653.478 564.796 580.795 550.697 1258.71 1085.97 790.994 996.525 706.276 557.133 910.316 598.044 544.094 532.205 529.237 633.322 492.636 487.044
threshold=-26.972221805555552 1.0693300350000003 828.06250000000011 90.36714935000002 416.53100600000005 82.857051850000019 735.06250000000011 83.33589935000002 83.86714935000002 31.996049900000003 83.695301050000012 84.913997650000013 83.695301050000012 245.55000300000003 789.56250000000011 655.81250000000011 80.288997650000013 80.27339935000002 680.18750000000011 31.265599250000005 80.757801050000012 632.81250000000011 87.257801050000012 78.195301050000012 97.445301050000012 0.57910099650000013 765.68750000000011 31.456999800000002 357.53100600000005 1.0000000180025095e-35
decision_type=2 2 2 2 2 2 2 2 2 2 2 2 2 2 2 2 2 2 2 2 2 2 2 2 2 2 2 2 2 2
left_child=2 -2 3 5 -4 6 8 12 15 -10 11 -11 -8 14 24 17 -17 21 19 -18 -20 22 -1 -23 -9 29 27 -14 -7 -3
right_child=1 25 4 -5 -6 28 7 13 9 10 -12 -13 26 -15 -16 16 18 -19 20 -21 -22 23 -24 -25 -26 -27 -28 -29 -30 -31
leaf_value=0.10189715718625339 0.012483330826891089 0.57765873950485869 3.0956562459468842 -1.489528017592701 0.55130159840660375 3.1383838628729186 2.8395622884615874 -0.52287848953682492 -0.11372001978383196 -1.2561058273994785 0.34083007489804362 -3.9252058988617313 1.1650560452567733 0.15273797984554519 0.41787447000607708 1.2944277600913141 0.19871053900907462 -1.3086490553077399 2.7035891822090856 -1.39392608565744 0.12907085895996401 2.6816260017454625 -2.5060033082235149 0.30866631136953154 -2.511678176490884 -0.63905154507304363 2.6547290339614404 0.022212817613792613 0.62063450882138282 -0.40535372458910995
leaf_weight=182 1923 205 23 110 324 24 39 362 600 237 61 31 239 3322 159 217 193 209 27 200 1994 35 41 110 38 1064 33 246 102 327
leaf_count=182 1923 205 23 110 324 24 39 362 600 237 61 31 239 3322 159 217 193 209 27 200 1994 35 41 110 38 1064 33 246 102 327
internal_value=0 -0.190417 0.0731684 0.0476965 0.719948 0.0671305 0.0519506 0.173811 -0.0787762 -0.502497 -1.21151 -1.56485 0.86582 0.0744942 -0.39049 0.0439285 0.140943 -0.398437 0.0372536 -0.611792 0.163466 0.118504 -0.377582 0.88145 -0.711814 -0.434888 0.717218 0.585387 1.10021 -0.0265613
internal_weight=0 3519 9158 8811 347 8701 8575 4438 4137 929 329 268 557 3881 559 3208 2631 577 2414 393 2021 368 223 145 400 1596 518 485 126 532
internal_count=12677 3519 9158 8811 347 8701 8575 4438 4137 929 329 268 557 3881 559 3208 2631 577 2414 393 2021 368 223 145 400 1596 518 485 126 532
is_linear=0
shrinkage=0.5


Tree=12
num_leaves=31
num_cat=0
split_feature=5 32 11 0 20 17 28 17 7 31 17 19 28 11 17 7 26 17 11 28 7 17 24 17 17 7 26 31 17 28
split_gain=539.822 507.771 583.214 526.026 527.319 452.977 513.579 506.888 1248.39 710.841 468.358 499.361 492.27 716.201 706.55 773.385 867.708 651.209 494.27 566.038 493.274 491.833 498.965 620.272 592.777 482.184 580.842 452.851 983.122 422.058
threshold=1.0000000180025095e-35 233.84535065 350.02050245000004 110.71849800000001 0.34765599700000005 597.87500000000011 79.788997650000013 648.81250000000011 79.27339935000002 368.59350600000005 675.43750000000011 -27.527777361111109 82.58589935000002 350.56265105000006 728.06250000000011 85.30464935000002 -1.7187499999999998 766.31250000000011 350.02050245000004 84.038997650000013 83.21089935000002 742.31250000000011 63.546850200000009 798.93750000000011 829.43750000000011 89.02339935000002 -2.9062499999999996 456.15600600000005 889.62500000000011 83.726497650000013
decision_type=2 2 2 2 2 2 2 2 2 2 2 2 2 2 2 2 2 2 2 2 2 2 2 2 2 2 2 2 2 2
left_child=-1 2 -2 4 -3 -5 -7 9 -9 -8 11 -10 13 -12 18 17 21 20 -14 -20 -16 -17 24 -24 25 26 -23 28 -25 -22
right_child=1 3 -4 5 -6 6 7 8 10 -11 12 -13 14 -15 15 16 -18 -19 19 -21 29 22 23 27 -26 -27 -28 -29 -30 -31
leaf_value=1.3748223565938607 0.13192178908790078 0.66938217803288036 0.9943019054350053 -1.3422742837499226 -0.35096083398887212 1.925454886576959 -0.37725007430002183 1.5623857701555468 -0.36883737201789557 -2.979523241519928 0.0065520651893664714 -2.3121164955007725 -1.436302397187267 1.1063821753028811 2.7740642293356359 -1.1047881832548783 -0.54449568867183673 2.0813123031898781 -0.14161615998108434 -1.4122898883722497 -0.021440849575271651 1.1895499689382141 -0.79428550313590773 0.02962485452202139 1.5666870035944724 -1.4454024255923603 0.13143140652552485 -0.83938279751738587 3.5613762199878694 0.54859211994691781
leaf_weight=71 1438 136 227 62 1837 35 171 130 217 31 365 39 105 249 20 92 738 54 764 99 631 137 302 1334 77 46 2433 148 20 669
leaf_count=71 1438 136 227 62 1837 35 171 130 217 31 365 39 105 249 20 92 738 54 764 99 631 137 302 1334 77 46 2433 148 20 669
internal_value=0 -0.00774333 0.249496 -0.0468899 -0.280628 0.00453352 0.0139095 0.00636757 0.024612 -0.776609 0.00120055 -0.664884 0.021787 0.452574 -0.0127029 0.044979 -0.0412891 0.37944 -0.412007 -0.287383 0.309818 0.0396363 0.063049 -0.140441 0.199364 0.159118 0.187837 -0.00897575 0.0817925 0.271907
internal_weight=0 12606 1665 10941 1973 8968 8906 8871 8669 202 8539 256 8283 614 7669 6701 5327 1374 968 863 1320 4589 4497 1804 2693 2616 2570 1502 1354 1300
internal_count=12677 12606 1665 10941 1973 8968 8906 8871 8669 202 8539 256 8283 614 7669 6701 5327 1374 968 863 1320 4589 4497 1804 2693 2616 2570 1502 1354 1300
is_linear=0
shrinkage=0.5


Tree=13
num_leaves=31
num_cat=0
split_feature=7 17 17 3 28 22 17 7 17 7 17 7 17 3 36 19 11 17 28 17 31 7 3 17 7 21 7 20 17 17
split_gain=369.413 752.875 625.303 464.744 405.098 395.712 394.223 549.546 996.057 839.626 714.183 616.283 669.693 667.342 552.033 476.614 615.631 459.909 512.825 414.249 554.571 402.41 460.057 717.865 502.391 482.736 395.587 369.136 356.036 350.93
threshold=76.226497650000013 624.56250000000011 619.68750000000011 31.371049900000003 79.46089935000002 1488.4350000000002 648.81250000000011 81.27339935000002 710.06250000000011 82.92964935000002 728.81250000000011 83.163997650000013 680.18750000000011 31.074199650000004 0.75149998050000011 -32.583333138888882 355.44179765000007 675.43750000000011 82.24214935000002 789.56250000000011 408.21850600000005 84.33589935000002 31.456999800000002 740.68750000000011 86.351497650000013 95.132801050000012 77.89839935000002 0.33007749950000004 802.56250000000011 737.31250000000011
decision_type=2 2 2 2 2 2 2 2 2 2 2 2 2 2 2 2 2 2 2 2 2 2 2 2 2 2 2 2 2 2
left_child=2 5 3 -1 -3 -2 -6 17 11 10 14 12 27 -13 -10 21 19 18 26 -17 -21 29 -23 25 -25 -24 -8 -9 -26 -11
right_child=1 4 -4 -5 6 -7 7 8 9 15 -12 13 -14 -15 -16 16 -18 -19 -20 20 -22 22 23 24 28 -27 -28 -29 -30 -31
leaf_value=1.626047670096159 -0.04665244311878556 1.6740867965337303 1.8951882560573079 -0.30194026757995568 -0.58681703222090409 -2.0611473570084748 2.2725636968389153 0.34458009120734301 0.31565096026403461 0.52365857758819723 3.6312540132891047 -0.53148095947901974 -0.096828456647926942 -2.2115061729727836 2.2478924492994943 -0.48094863761503792 0.024077570490116922 0.90793577752332444 -1.288784264407137 1.4400173165835439 -0.41060525876431103 0.42378612520121089 -0.82092503711317821 0.82164728782274798 -1.1155740985540248 -3.2798656368255616 0.19576161491126548 -1.4835390073681238 1.1889691040629433 2.0520837540488417
leaf_weight=40 38 36 68 143 285 68 24 34 207 447 22 176 1024 89 45 1037 6894 287 57 70 96 429 99 131 83 25 514 147 21 41
leaf_count=40 38 36 68 143 285 68 24 34 207 447 22 176 1024 89 45 1037 6894 287 57 70 96 429 99 131 83 25 514 147 21 41
internal_value=0 -0.0121308 0.600547 0.119478 -0.000714808 -1.33897 -0.00562305 0.00818146 -0.0219583 0.0364643 0.899206 -0.405362 -0.253541 -1.09572 0.660694 0.0112438 -0.0335149 0.388072 0.137315 -0.363558 0.369778 0.295265 0.0742989 -0.343333 0.170262 -1.31668 0.288407 -1.14014 -0.650234 0.652071
internal_weight=0 12426 251 183 12320 106 12284 11999 11117 9647 274 1470 1205 265 252 9373 8097 882 595 1203 166 1276 788 359 235 124 538 181 104 488
internal_count=12677 12426 251 183 12320 106 12284 11999 11117 9647 274 1470 1205 265 252 9373 8097 882 595 1203 166 1276 788 359 235 124 538 181 104 488
is_linear=0
shrinkage=0.5


Tree=14
num_leaves=31
num_cat=0
split_feature=7 17 31 7 17 7 17 7 17 26 21 26 26 19 17 3 21 26 14 17 31 21 26 31 17 3 28 31 17 7
split_gain=365.196 1149.89 758.457 589.534 543.896 1068.85 514.695 466.675 914.762 755.763 578.025 522.324 412.839 409.373 421.806 551.983 400.11 499.208 491.495 575.764 794.006 464.521 375.238 370.493 429.175 369.436 352.645 552.032 331.486 319.251
threshold=91.132801050000012 841.06250000000011 432.59350600000005 90.36714935000002 810.31250000000011 87.726497650000013 898.62500000000011 87.413997650000013 770.43750000000011 -2.5312499999999996 94.132801050000012 -2.5312499999999996 -3.2187499999999996 -24.24999980555555 822.43750000000011 31.691399550000003 94.52339935000002 -2.0312499999999996 33991.500000000007 756.43750000000011 405.65600600000005 93.195301050000012 -0.96874999999999989 353.34350600000005 648.81250000000011 34.785100950000007 84.21089935000002 397.53100600000005 859.31250000000011 85.36714935000002
decision_type=2 2 2 2 2 2 2 2 2 2 2 2 2 2 2 2 2 2 2 2 2 2 2 2 2 2 2 2 2 2
left_child=1 2 4 28 7 -6 13 9 -9 10 -1 26 -4 14 -2 -16 17 21 19 20 22 -11 -19 25 -25 -24 -10 -28 -3 -21
right_child=6 3 12 -5 5 -7 -8 8 11 16 -12 -13 -14 -15 15 -17 -18 18 -20 29 -22 -23 23 24 -26 -27 27 -29 -30 -31
leaf_value=1.5904846573751923 -2.5670478984713556 1.3779851388685482 1.166286307387054 0.4245184750961406 2.0156082350172495 0.19033331678529242 1.4069981152812641 -2.5491005717052353 -1.86543398771597 0.70253402038026969 0.33032241186108624 -0.74994688468865178 -0.82456956135787529 -1.5270573392256417 0.410510275996604 -0.82094504351376507 -0.58648122380946988 0.44927179699176889 -0.16193157214608145 1.6130732785610633 -1.1101840761053812 0.095754338545842324 0.49728071040364802 -1.127008316655443 -0.081366964235958461 -0.19594323858111895 2.2954004802075878 0.015283976199238427 3.3883845869165201 0.40463141884122578
leaf_weight=111 20 97 28 210 95 515 36 45 23 427 505 318 372 88 181 183 296 596 4242 87 143 1207 555 107 1184 294 28 511 26 147
leaf_count=111 20 97 28 210 95 515 36 45 23 427 505 318 372 88 181 183 296 596 4242 87 143 1207 555 107 1184 294 28 511 26 147
internal_value=0 0.0173392 -0.00844126 0.933668 0.0152302 0.474597 -0.415356 -0.0106532 -0.350288 0.0210772 0.557397 -0.237849 -0.68521 -0.554349 -0.331436 -0.208601 -0.0145042 0.00433049 -0.0512074 0.0996733 0.0383691 0.254319 0.0983995 0.000679956 -0.168031 0.257224 0.0519152 0.133732 1.80295 0.853924
internal_weight=0 12169 11836 333 11436 610 508 10826 925 9901 616 880 400 472 384 364 9285 8989 7355 3113 2879 1634 2736 2140 1291 849 562 539 123 234
internal_count=12677 12169 11836 333 11436 610 508 10826 925 9901 616 880 400 472 384 364 9285 8989 7355 3113 2879 1634 2736 2140 1291 849 562 539 123 234
is_linear=0
shrinkage=0.5


Tree=15
num_leaves=31
num_cat=0
split_feature=14 17 7 19 34 22 3 20 31 22 16 1 19 17 7 7 28 7 17 31 26 20 19 32 9 19 20 11 7 17
split_gain=333.195 347.967 389.785 330.984 262.378 318.615 260.972 618.812 254.376 253.495 250.233 495.109 220.861 314.809 417.429 348.045 261.989 500.129 566.895 387.824 268.329 255.554 243.914 237.769 225.465 211.117 403.914 316.455 292.781 423.836
threshold=35992.500000000007 798.93750000000011 86.92964935000002 -22.027777583333329 72.444396950000012 1814.4350000000002 46.210899350000012 0.96484300500000009 429.59350600000005 1530.1850000000002 237.69999924999999 1.0000000180025095e-35 -28.305555972222219 872.06250000000011 91.99214935000002 92.61714935000002 84.24214935000002 86.351497650000013 769.81250000000011 401.15600600000005 -2.3437499999999996 1.9482399850000003 -36.305556833333327 236.67350045000001 28.933549900000003 -30.750000194444443 0.32519450800000005 350.02050245000004 73.820247650000013 723.68750000000011
decision_type=2 2 2 2 2 2 2 2 2 2 2 2 2 2 2 2 2 2 2 2 2 2 2 2 2 2 2 2 2 2
left_child=1 6 -3 -4 5 -2 8 10 25 -6 11 -8 16 14 -14 -15 17 18 22 -18 -20 23 -11 -21 -17 27 -27 -1 -28 -30
right_child=4 2 3 -5 9 -7 7 -9 -10 12 -12 -13 13 15 -16 24 19 -19 20 21 -22 -23 -24 -25 -26 26 28 -29 29 -31
leaf_value=0.032296686471045756 -0.10694373662858693 1.7214763862441997 0.35893950031721467 -0.8223488824442029 -0.8706820708929851 -0.7693714535822278 -2.5977525104505892 1.4555274403908036 -1.1501606834142215 0.52098604221238842 -0.30892168026816241 -0.30173432773326414 -0.2483046348177762 1.8733112454414367 -2.2394985324806638 1.1096685289630841 0.86037051679718735 -0.97559981859794398 2.8813973567025228 1.6437348586127714 0.72584806701966698 -0.75030821329557607 -0.14414695749022671 0.12879963345465445 -0.52010022396487854 0.64448881008346304 0.92110615692935982 0.40494623505929583 -0.29549238299180719 0.048792263275900465
leaf_weight=1491 440 49 807 64 93 309 39 44 44 158 341 59 1046 35 27 32 208 141 22 27 42 81 1080 636 63 224 77 922 1324 2752
leaf_count=1491 440 49 807 64 93 309 39 44 44 158 341 59 1046 35 27 32 208 141 22 27 42 81 1080 636 63 224 77 922 1324 2752
internal_value=0 0.0595138 0.349333 0.27214 -0.110409 -0.380228 0.0230735 -0.33212 0.0481772 -0.0556554 -0.511291 -1.21546 -0.0345889 -0.20938 -0.298409 0.525454 0.0532081 -0.0811131 0.0157553 0.256806 1.46682 0.0880678 -0.0592592 0.190494 0.0288745 0.0559425 -0.00951906 0.174685 -0.0447942 -0.0630411
internal_weight=0 8237 920 871 4440 749 7317 483 6834 3691 439 98 3598 1203 1073 130 2395 1443 1302 952 64 744 1238 663 95 6790 4377 2413 4153 4076
internal_count=12677 8237 920 871 4440 749 7317 483 6834 3691 439 98 3598 1203 1073 130 2395 1443 1302 952 64 744 1238 663 95 6790 4377 2413 4153 4076
is_linear=0
shrinkage=0.5


Tree=16
num_leaves=31
num_cat=0
split_feature=23 36 17 7 3 19 17 28 28 7 17 17 7 17 7 7 34 26 3 31 19 17 7 17 7 7 0 36 24 26
split_gain=286.665 331.746 325.345 309.49 412.833 229.697 208.914 530.921 356.763 232.266 718.263 361.708 332.264 272.923 478.141 299.945 303.118 259.786 246.253 220.01 186.487 364.45 410.724 231.232 324.821 265.808 256.453 216.471 207.723 368.383
threshold=249.94999700000002 0.58849999350000004 606.87500000000011 76.788997650000013 34.503900550000004 -35.805555972222216 837.31250000000011 86.601497650000013 86.570301050000012 86.351497650000013 785.06250000000011 817.68750000000011 90.14839935000002 758.81250000000011 84.74214935000002 85.58589935000002 82.03170015000002 -2.9062499999999996 33.52729990000001 392.46850600000005 -23.749999999999996 661.81250000000011 79.61714935000002 864.31250000000011 92.61714935000002 93.757801050000012 127.65599800000001 0.73950001600000015 66.640598300000008 -2.3437499999999996
decision_type=2 2 2 2 2 2 2 2 2 2 2 2 2 2 2 2 2 2 2 2 2 2 2 2 2 2 2 2 2 2
left_child=6 -2 -3 4 -4 -5 7 9 -8 10 13 12 17 15 -15 16 -1 -11 19 -17 23 -22 -23 24 26 -25 28 -28 29 -7
right_child=1 2 3 5 -6 20 8 -9 -10 11 -12 -13 -14 14 -16 18 -18 -19 -20 -21 21 22 -24 25 -26 -27 27 -29 -30 -31
leaf_value=-0.13776706880329465 2.0854475237429142 -1.3584118841624842 2.5414811850621781 0.68662877111435683 0.14255939820345412 0.2946628486953668 1.8814942418248393 -1.7755605544590829 0.10418081683261941 0.043825272407013713 1.950793673242019 0.5337557080342914 -2.061618335545063 2.3805085695706882 0.15855103406416179 -1.0363530138937327 0.85827367468678117 -0.628706405399723 -2.1761961953136426 0.58243353460584912 -2.1713453907033671 1.2621220736764371 -0.25577344744612746 1.2705660203448783 -1.3941216680448121 -0.23442684332637684 1.0484232056493823 0.23277996067869289 -0.40348664967380737 -0.013785076829176868
leaf_weight=2306 20 41 29 137 47 1180 32 49 240 212 44 99 32 26 352 65 79 445 29 31 23 48 623 81 39 46 95 566 273 5388
leaf_count=2306 20 41 29 137 47 1180 32 49 240 212 44 99 32 26 352 65 79 445 29 31 23 48 623 81 39 46 95 566 273 5388
internal_value=0 0.0514325 0.046711 0.0534294 1.05794 0.0444468 -0.109916 -0.140457 0.313277 -0.118919 -0.0541495 -0.359915 -0.488324 -0.0846957 0.311384 -0.144344 -0.104775 -0.411695 -0.899338 -0.51362 0.0339256 -0.214274 -0.147191 0.0563891 0.0451212 0.72545 0.0526033 0.350006 0.0238673 0.0416304
internal_weight=0 8636 8616 8575 76 8499 4041 3769 272 3720 2932 788 689 2888 378 2510 2385 657 125 96 8362 694 671 7668 7541 127 7502 661 6841 6568
internal_count=12677 8636 8616 8575 76 8499 4041 3769 272 3720 2932 788 689 2888 378 2510 2385 657 125 96 8362 694 671 7668 7541 127 7502 661 6841 6568
is_linear=0
shrinkage=0.5


Tree=17
num_leaves=31
num_cat=0
split_feature=14 17 31 1 20 11 28 34 17 7 7 7 17 16 7 28 19 7 31 17 17 17 17 17 3 26 19 24 31 7
split_gain=192.833 189.618 514.654 416.308 168.57 196.308 792.214 307.245 184.909 779.167 602.823 297.214 558.535 495.596 448.015 435.614 479.014 458.112 478.496 421.156 315.178 304.125 266.232 265.739 258.344 249.805 241.013 274.566 354.019 237.213
threshold=36998.500000000007 582.50000000000011 317.31201200000004 1.0000000180025095e-35 0.33593699350000006 350.20125045000003 83.42964935000002 73.523746500000001 703.31250000000011 82.507801050000012 82.132801050000012 85.038997650000013 766.31250000000011 250.99999940000001 85.757801050000012 83.726497650000013 -31.527777777777775 83.601497650000013 394.71850600000005 718.18750000000011 748.31250000000011 723.68750000000011 744.18750000000011 715.18750000000011 31.265599250000005 -1.2812499999999998 -31.805555555555554 50.921850200000009 369.09350600000005 85.49214935000002
decision_type=2 2 2 2 2 2 2 2 2 2 2 2 2 2 2 2 2 2 2 2 2 2 2 2 2 2 2 2 2 2
left_child=1 3 -3 -1 5 7 -7 -4 9 24 23 15 13 21 -14 16 20 -17 -19 -20 -12 -13 -15 -10 26 -23 -6 -28 -29 -24
right_child=-2 2 4 -5 8 6 -8 -9 10 -11 11 12 14 22 -16 17 -18 18 19 -21 -22 25 29 -25 -26 -27 27 28 -30 -31
leaf_value=-2.4007748430967331 -0.27837520676176575 2.4907825759478976 -1.4538561363632863 0.48473289072513581 0.47408136357438324 1.295419362500398 0.031725723140517276 0.09567366440497925 0.79292299677671374 -0.89011462887774417 0.19231589341097907 -1.9482079710966598 0.72800120977550054 -2.1904706541146779 0.0067564577625982098 1.7737030493876627 -0.20529948905922199 1.1181085305465268 -1.6316731557308231 0.2397241209941903 1.3678742607434591 -0.11000422342132762 -0.1056962114191432 2.7039646013923315 -0.1636650105405609 -1.1973204721104016 1.583833511594845 -0.64238631436433258 0.39242126617823991 -1.1900579328571135
leaf_weight=25 593 21 39 25 405 169 466 178 87 294 1147 24 228 37 3869 62 1101 158 32 497 60 1335 87 23 1179 55 23 194 144 120
leaf_count=25 593 21 39 25 405 169 466 178 87 294 1147 24 228 37 3869 62 1101 158 32 497 60 1335 87 23 1179 55 23 194 144 120
internal_value=0 0.0136607 0.017698 -0.958021 0.0133748 0.227746 0.368047 -0.182813 -0.00298974 -0.13146 0.0292501 0.0147292 -0.0521964 -0.297054 0.0468941 0.140721 0.0331993 0.472043 0.354571 0.126521 0.250753 -0.183497 -0.955123 1.1925 -0.0167837 -0.153028 0.209291 -0.0877732 -0.201522 -0.734312
internal_weight=0 12084 12034 50 12013 852 635 217 11161 2239 8922 8812 5755 1658 4097 3057 2308 749 687 529 1207 1414 244 110 1945 1390 766 361 338 207
internal_count=12677 12084 12034 50 12013 852 635 217 11161 2239 8922 8812 5755 1658 4097 3057 2308 749 687 529 1207 1414 244 110 1945 1390 766 361 338 207
is_linear=0
shrinkage=0.5


Tree=18
num_leaves=31
num_cat=0
split_feature=32 14 26 0 17 21 31 17 11 34 28 17 31 36 34 36 7 17 26 17 19 3 28 9 7 31 14 11 7 26
split_gain=191.899 215.361 358.189 344.257 236.516 260.32 229.622 291.901 495.907 226.493 211.68 238.783 196.595 261.11 192.92 186.507 181.939 1212.37 398.885 305.502 345.624 306.072 464.177 289.193 211.49 190.807 190.009 230.807 281.396 315.155
threshold=263.33750000000003 32994.500000000007 -1.2812499999999998 116.03099800000001 745.93750000000011 90.288997650000013 360.90600600000005 706.81250000000011 350.02050245000004 73.079349500000021 84.24214935000002 723.06250000000011 383.15600600000005 0.74850001950000011 69.968250250000011 0.71050000200000019 88.39839935000002 826.68750000000011 -3.0312499999999996 814.18750000000011 -24.749999583333331 33.003900550000004 85.96089935000002 29.074199650000004 89.476497650000013 413.84350600000005 34004.500000000007 355.71285095000002 86.382801050000012 -2.4687499999999996
decision_type=2 2 2 2 2 2 2 2 2 2 2 2 2 2 2 2 2 2 2 2 2 2 2 2 2 2 2 2 2 2
left_child=1 4 6 14 10 -6 -3 8 -8 -10 11 12 -1 -14 -4 -9 17 18 -17 20 21 22 23 24 -18 -21 -20 -28 29 -29
right_child=-2 2 3 -5 5 -7 7 15 9 -11 -12 -13 13 -15 -16 16 19 -19 26 25 -22 -23 -24 -25 -26 -27 27 28 -30 -31
leaf_value=0.1504173759208316 -0.7974198650320371 0.42120264222224552 0.45762292275233474 -0.6600588543100202 1.6840618698236842 0.33952615657795426 -1.2829153559106434 -0.81538347928756982 -0.41250716307415414 1.0282823587668704 -0.58932774359899986 0.75029648241811786 -0.58361202904650256 0.6541281894573735 -0.17840070963348489 0.91976481147867162 -0.4599007419398371 2.879472997676777 0.23945688135535034 1.005326421485971 -2.4943991305306552 -0.93063161434142982 0.8404313052087673 0.069622637545865659 -1.9522776413102483 -0.030231293661517122 -0.1685167269404072 1.0086658239607942 -0.095047571416683907 0.14050622801205614
leaf_weight=1551 75 336 132 371 48 144 116 67 65 47 107 145 202 54 1232 128 53 38 899 46 20 159 95 106 43 1348 1579 111 1565 1795
leaf_count=1551 75 336 132 371 48 144 116 67 65 47 107 145 202 54 1232 128 53 38 899 46 20 159 95 106 43 1348 1579 111 1565 1795
internal_value=0 0.00474579 -0.0257353 -0.233006 0.14491 0.67566 0.0160027 -0.000440172 -0.558342 0.19211 0.095418 0.132953 0.0834149 -0.322526 -0.11685 0.0153573 0.0223279 0.0640646 0.0464596 -0.114153 -0.46 -0.370772 -0.0710495 -0.499716 -1.12836 0.00394063 0.0276693 -0.010033 0.0620631 0.191065
internal_weight=0 12602 10351 1735 2251 192 8616 8280 228 112 2059 1952 1807 256 1364 8052 7985 6115 6077 1870 476 456 297 202 96 1394 5949 5050 3471 1906
internal_count=12677 12602 10351 1735 2251 192 8616 8280 228 112 2059 1952 1807 256 1364 8052 7985 6115 6077 1870 476 456 297 202 96 1394 5949 5050 3471 1906
is_linear=0
shrinkage=0.5


Tree=19
num_leaves=31
num_cat=0
split_feature=34 7 17 14 17 0 31 17 7 21 3 16 17 3 7 36 24 17 31 21 22 7 17 16 3 28 23 28 34 22
split_gain=189.829 155.882 183.204 132.887 294.193 201.562 153.43 309.273 307.609 264.094 173.086 170.482 254.821 227.592 211.964 194.875 250.815 208.152 449.948 318.053 246.664 240.014 292.189 225.117 209.056 433.81 250.984 208.603 184.483 171.757
threshold=67.301548000000011 83.507801050000012 683.43750000000011 26996.500000000004 597.87500000000011 111.90599800000001 327.71850600000005 655.81250000000011 79.89839935000002 90.038997650000013 34.71479990000001 238.00000035000002 680.18750000000011 31.214799900000003 80.64839935000002 0.71150001850000011 56.703100200000009 780.31250000000011 425.15600600000005 94.99214935000002 1894.6850000000002 86.538997650000013 785.06250000000011 242.49999940000001 34.08979990000001 84.695301050000012 252.94999700000002 84.17964935000002 74.03170015000002 1902.3100000000002
decision_type=2 2 2 2 2 2 2 2 2 2 2 2 2 2 2 2 2 2 2 2 2 2 2 2 2 2 2 2 2 2
left_child=1 2 -1 5 -5 -2 -6 9 10 -8 -9 -10 13 -13 -14 -16 -17 18 19 24 27 22 -19 -23 26 -26 -18 -21 -25 -24
right_child=3 -3 -4 4 6 -7 7 8 11 -11 -12 12 14 -15 15 16 17 21 -20 20 -22 23 29 28 25 -27 -28 -29 -30 -31
leaf_value=-1.1708990181485812 1.6143523502562727 -1.7629321865164316 0.57649960229173303 -1.4715855016427881 0.72394372186023892 0.20323330564592601 -0.31527372793490555 0.27142786103873873 0.13010958229041777 -2.1700425267219545 1.2973028020419672 -0.068874998340526447 1.2513219321315938 -1.1336158696062786 -0.45899439246067397 0.35429126777234754 -0.18915036100453428 -0.10818053969535335 -2.3489331643689764 -1.2094518847360805 -1.5348459216183983 0.48652881684546895 0.62424179928508616 -0.21179774477213284 -0.10198703849896794 -0.92010877985563688 0.091954076445280225 0.29534540286470878 0.063786017736445585 1.8740619521122426
leaf_weight=30 28 26 30 34 73 263 475 104 2157 20 68 104 33 97 244 458 1184 145 22 37 64 241 195 855 892 198 2411 61 2096 32
leaf_count=30 28 26 30 34 73 263 475 104 2157 20 68 104 33 97 244 458 1184 145 22 37 64 241 195 855 892 198 2411 61 2096 32
internal_value=0 -0.740328 -0.2972 0.00505665 -0.00284423 0.339011 0.00122696 -0.00309997 0.0132807 -0.390214 0.677006 0.00337609 -0.0258014 -0.582705 -0.0135918 -0.0181613 -0.0060633 -0.0256343 -0.0928419 -0.0826017 -0.771381 0.066182 0.446266 0.0218865 -0.0587848 -0.2506 -0.000626634 -0.272792 -0.0160595 0.800428
internal_weight=0 86 60 12591 12300 291 12266 12193 11698 495 172 11526 9369 201 9168 9135 8891 8433 4869 4847 162 3564 372 3192 4685 1090 3595 98 2951 227
internal_count=12677 86 60 12591 12300 291 12266 12193 11698 495 172 11526 9369 201 9168 9135 8891 8433 4869 4847 162 3564 372 3192 4685 1090 3595 98 2951 227
is_linear=0
shrinkage=0.5


end of trees

feature_importances:
Column_17=186
Column_7=158
Column_28=43
Column_31=30
Column_3=23
Column_26=16
Column_19=14
Column_20=14
Column_11=13
Column_34=13
Column_16=11
Column_21=11
Column_32=11
Column_14=10
Column_36=9
Column_24=7
Column_0=6
Column_22=6
Column_1=5
Column_9=5
Column_23=4
Column_5=3
Column_10=2

parameters:
[boosting: gbdt]
[objective: regression]
[metric: rmse,l2]
[tree_learner: serial]
[device_type: cpu]
[data: ]
[valid: ]
[num_iterations: 20]
[learning_rate: 0.5]
[num_leaves: 31]
[num_threads: -1]
[deterministic: 0]
[force_col_wise: 0]
[force_row_wise: 0]
[histogram_pool_size: -1]
[max_depth: 20]
[min_data_in_leaf: 20]
[min_sum_hessian_in_leaf: 0.001]
[bagging_fraction: 1]
[pos_bagging_fraction: 1]
[neg_bagging_fraction: 1]
[bagging_freq: 0]
[bagging_seed: 3]
[feature_fraction: 1]
[feature_fraction_bynode: 1]
[feature_fraction_seed: 2]
[extra_trees: 0]
[extra_seed: 6]
[early_stopping_round: 1000]
[first_metric_only: 0]
[max_delta_step: 0]
[lambda_l1: 0]
[lambda_l2: 0]
[linear_lambda: 0]
[min_gain_to_split: 0]
[drop_rate: 0.1]
[max_drop: 50]
[skip_drop: 0.5]
[xgboost_dart_mode: 0]
[uniform_drop: 0]
[drop_seed: 4]
[top_rate: 0.2]
[other_rate: 0.1]
[min_data_per_group: 100]
[max_cat_threshold: 32]
[cat_l2: 10]
[cat_smooth: 10]
[max_cat_to_onehot: 4]
[top_k: 20]
[monotone_constraints: ]
[monotone_constraints_method: basic]
[monotone_penalty: 0]
[feature_contri: ]
[forcedsplits_filename: ]
[refit_decay_rate: 0.9]
[cegb_tradeoff: 1]
[cegb_penalty_split: 0]
[cegb_penalty_feature_lazy: ]
[cegb_penalty_feature_coupled: ]
[path_smooth: 0]
[interaction_constraints: ]
[verbosity: -1]
[saved_feature_importance_type: 0]
[linear_tree: 0]
[max_bin: 255]
[max_bin_by_feature: ]
[min_data_in_bin: 3]
[bin_construct_sample_cnt: 200000]
[data_random_seed: 1]
[is_enable_sparse: 1]
[enable_bundle: 1]
[use_missing: 1]
[zero_as_missing: 0]
[feature_pre_filter: 1]
[pre_partition: 0]
[two_round: 0]
[header: 0]
[label_column: ]
[weight_column: ]
[group_column: ]
[ignore_column: ]
[categorical_feature: ]
[forcedbins_filename: ]
[precise_float_parser: 0]
[objective_seed: 5]
[num_class: 1]
[is_unbalance: 0]
[scale_pos_weight: 1]
[sigmoid: 1]
[boost_from_average: 1]
[reg_sqrt: 0]
[alpha: 0.9]
[fair_c: 1]
[poisson_max_delta_step: 0.7]
[tweedie_variance_power: 1.5]
[lambdarank_truncation_level: 30]
[lambdarank_norm: 1]
[label_gain: ]
[eval_at: ]
[multi_error_top_k: 1]
[auc_mu_weights: ]
[num_machines: 1]
[local_listen_port: 12400]
[time_out: 120]
[machine_list_filename: ]
[machines: ]
[gpu_platform_id: -1]
[gpu_device_id: -1]
[gpu_use_dp: 0]
[num_gpu: 1]

end of parameters

pandas_categorical:null
