tree
version=v3
num_class=1
num_tree_per_iteration=1
label_index=0
max_feature_idx=41
objective=regression
feature_names=Column_0 Column_1 Column_2 Column_3 Column_4 Column_5 Column_6 Column_7 Column_8 Column_9 Column_10 Column_11 Column_12 Column_13 Column_14 Column_15 Column_16 Column_17 Column_18 Column_19 Column_20 Column_21 Column_22 Column_23 Column_24 Column_25 Column_26 Column_27 Column_28 Column_29 Column_30 Column_31 Column_32 Column_33 Column_34 Column_35 Column_36 Column_37 Column_38 Column_39 Column_40 Column_41
feature_infos=[0:1] [0:1] [0:1] [0:1] [0:1] [0:94.629997299999999] [0:1] [0:1] none [0:1] [0:1.8550000200000001] [0:1] [273.14999999999998:1041.1500000000001] none none [-473:41051] [223.64999999999998:372.14999999999998] [0:1] [0:768] [0:1] [0:1] [0:1] none none [0:12288] [0:1] [0:1] [0:1] [0:1] [0:1] [0:127.129997] [0:163800] [-64:96.75] [0:1] none none [0:1016] [0:1] [0:0.99900001299999996] [0:1] [0:1] [0:1]
tree_sizes=2719 2769 2759 2766 2764 2786 2758 2745 2774 2761 2764 2741 2725 2770 2753 2781 2745 2756 2788 2737

Tree=0
num_leaves=31
num_cat=0
split_feature=5 40 11 25 10 41 1 10 1 41 12 36 10 10 16 38 36 18 2 30 24 11 30 18 10 2 17 10 28 18
split_gain=334631 211473 427398 41578.1 46879.4 82437 296302 6920.56 18964.5 54115.9 36814.5 21561.9 5520.89 4452.15 4975.87 6214.61 3876.2 3656.75 3045.07 3002.05 2510.15 2459.5 2163.73 2907.53 2049.1 1798.42 1557.5 1518.07 1441.91 1297.39
threshold=24.754999200000004 1.0000000180025095e-35 1.0000000180025095e-35 1.0000000180025095e-35 0.17050000300000004 1.0000000180025095e-35 1.0000000180025095e-35 0.28049999450000002 1.0000000180025095e-35 1.0000000180025095e-35 370.08999865000004 46.985000600000006 0.51449999250000011 0.12949999400000003 246.07999935000001 0.77590000650000013 53.985000600000006 642.0499880000001 1.0000000180025095e-35 91.904998800000016 2636.0000000000005 1.0000000180025095e-35 90.755001050000018 608.0499880000001 0.24849999700000003 1.0000000180025095e-35 1.0000000180025095e-35 0.41050000450000007 1.0000000180025095e-35 618.95001200000013
decision_type=2 2 2 2 2 2 2 2 2 2 2 2 2 2 2 2 2 2 2 2 2 2 2 2 2 2 2 2 2 2
left_child=-1 3 16 4 5 21 -7 8 18 26 24 -12 25 -8 15 -15 -3 22 -6 -19 -13 -2 23 -9 -11 -5 28 -21 -10 -24
right_child=1 2 -4 12 7 6 13 17 9 10 11 20 -14 14 -16 -17 -18 19 -20 27 -22 -23 29 -25 -26 -27 -28 -29 -30 -31
leaf_value=20.905155478171935 43.886389256976805 42.029129926399072 20.905155478171935 42.19347421819802 44.612061360334692 44.445295694262036 21.293321251836137 45.142506940486193 46.556048937686633 39.748315314973553 41.555464418893528 29.256963322810758 38.393114103713913 23.714458399820312 22.26845419659033 34.544907263248518 39.999642641866487 42.688796622033742 42.656487099366679 43.654556240077909 22.873931213144534 45.903019178687281 46.348567052993218 43.417450059203745 44.834816615534258 40.19588192784925 42.430449598761285 44.484677818478893 44.117711568166975 44.959206680225961
leaf_weight=188 271 722 335 178 962 476 140 442 98 44 23 20 385 27 56 26 349 437 251 979 67 342 198 546 36 307 73 1259 159 1110
leaf_count=188 271 722 335 178 962 476 140 442 98 44 23 20 385 27 56 26 349 437 251 979 67 342 198 546 36 307 73 1259 159 1110
internal_value=41.8103 42.1912 36.4923 43.0903 43.4455 40.7433 37.1345 43.9848 43.1244 40.5982 33.876 27.9406 39.8068 23.1589 25.555 29.0275 41.3678 44.2848 44.2074 43.8875 24.3413 45.0115 44.7477 44.1892 42.0372 40.929 44.4686 44.1215 45.0475 45.1695
internal_weight=0 10318 1406 8912 8042 1338 725 6704 1733 520 190 110 870 249 109 53 1071 4971 1213 2675 87 613 2296 988 80 485 330 2238 257 1308
internal_count=10506 10318 1406 8912 8042 1338 725 6704 1733 520 190 110 870 249 109 53 1071 4971 1213 2675 87 613 2296 988 80 485 330 2238 257 1308
is_linear=0
shrinkage=1


Tree=1
num_leaves=31
num_cat=0
split_feature=15 40 11 28 7 36 10 41 1 25 31 25 1 10 1 12 11 12 7 10 11 1 10 15 24 18 10 38 12 32
split_gain=83780.6 52833.3 106849 10662.1 10835.5 11995 14696.8 26344.7 51493.7 5404.75 3252.34 2795.27 2126.17 1632.4 4468.94 6783.57 1446.38 1386.34 1358.23 1289.02 2462.04 6643.64 9747.64 3081.64 2399.09 986.597 1632.9 2092.65 1377.4 900.856
threshold=2186.0000000000005 1.0000000180025095e-35 1.0000000180025095e-35 1.0000000180025095e-35 1.0000000180025095e-35 47.045000100000003 0.23550000000000001 1.0000000180025095e-35 1.0000000180025095e-35 1.0000000180025095e-35 115637.45300000001 1.0000000180025095e-35 1.0000000180025095e-35 0.33050000650000005 1.0000000180025095e-35 375.08999850000004 1.0000000180025095e-35 368.05999985 1.0000000180025095e-35 0.36550000350000006 1.0000000180025095e-35 1.0000000180025095e-35 0.23550000000000001 37003.44920000001 2656.3499750000005 649.95001200000013 0.12949999400000003 0.77735000850000013 367.08500135000003 3.2450000050000005
decision_type=2 2 2 2 2 2 2 2 2 2 2 2 2 2 2 2 2 2 2 2 2 2 2 2 2 2 2 2 2 2
left_child=-1 3 17 4 5 11 7 16 -9 13 12 19 -6 14 -8 29 -7 -3 -5 20 21 -2 23 -23 -24 26 -10 -28 -29 -16
right_child=1 2 -4 18 10 6 9 8 25 -11 -12 -13 -14 -15 15 -17 -18 -19 -20 -21 -22 22 24 -25 -26 -27 27 28 -30 -31
leaf_value=-10.517349289309594 1.1026834742913794 -1.0793273390049332 -10.452577590942383 1.9214856994618406 1.5719044187009847 -0.14845780233342393 0.4371432035742866 0.94666636375351831 -10.351695568665214 -1.3928153849964566 0.60727590160022371 -0.61016475483516441 3.1935756467539687 0.7201263972825831 0.71795928547548693 -9.809650940627888 1.9021898477670105 0.15587662551322826 1.0576919375703464 1.6014281714560918 2.1422487775835979 -3.5431020855903625 1.9432730162198739 -9.8741528279072526 -3.5233347750125596 -10.954015541076661 -9.4190108864395707 -1.7134428970515727 -7.5815689325332638 -3.2158085412599822
leaf_weight=186 672 327 335 1380 667 170 346 213 92 523 640 270 290 1306 43 29 174 744 679 782 251 40 88 37 26 80 54 20 20 22
leaf_count=186 672 327 335 1380 667 170 346 213 92 523 640 270 290 1306 43 29 174 744 679 782 251 40 88 37 26 80 54 20 20 22
internal_value=0 0.189557 -2.65902 0.638861 0.339166 -0.00727815 -0.639354 -2.44936 -4.84669 0.0171612 1.47981 0.89502 2.06332 0.439508 -0.393418 -3.45059 0.888788 -0.221258 1.63663 1.10937 0.763951 0.363079 -2.23909 -6.5853 0.696503 -9.48573 -8.85421 -7.38858 -4.64751 -0.61347
internal_weight=0 10320 1406 8914 6855 5258 3092 823 479 2269 1597 2166 957 1746 440 94 344 1071 2059 1896 1114 863 191 77 114 266 186 94 40 65
internal_count=10506 10320 1406 8914 6855 5258 3092 823 479 2269 1597 2166 957 1746 440 94 344 1071 2059 1896 1114 863 191 77 114 266 186 94 40 65
is_linear=0
shrinkage=0.5


Tree=2
num_leaves=31
num_cat=0
split_feature=38 40 11 2 36 41 10 1 10 17 10 18 1 10 12 30 36 16 36 12 15 36 5 30 30 5 10 24 32 1
split_gain=21954.3 13250.2 26712.4 3927.56 3223.28 4571.09 6493.19 18490.4 1466.63 1275.93 1246.93 1405.78 1382.15 5795.16 3479.4 1793.28 2723.61 1750.37 991.58 892.189 997.15 1582.59 2161.28 822.359 811.511 657.633 634.81 621.818 617.733 681.049
threshold=0.17100000400000001 1.0000000180025095e-35 1.0000000180025095e-35 1.0000000180025095e-35 46.574998850000007 1.0000000180025095e-35 0.18050000050000001 1.0000000180025095e-35 0.56949999950000019 1.0000000180025095e-35 0.54649999750000011 624.95001200000013 1.0000000180025095e-35 0.33050000650000005 371.96000135000003 92.24499895000001 48.395000450000005 247.37999955000001 50.895000450000005 373.05999985000005 37000.050800000005 48.895000450000005 86.729999550000016 91.375000000000014 90.159999850000005 87.344997400000011 0.17950000600000002 2740.0000000000005 2.8199999300000003 1.0000000180025095e-35
decision_type=2 2 2 2 2 2 2 2 2 2 2 2 2 2 2 2 2 2 2 2 2 2 2 2 2 2 2 2 2 2
left_child=-1 3 18 4 -2 9 7 -7 -5 -6 11 24 23 14 17 -16 -17 -14 26 20 21 22 -9 -13 27 -22 -3 -8 -26 -30
right_child=1 2 -4 8 5 6 10 19 -10 -11 -12 12 13 -15 15 16 -18 -19 -20 -21 25 -23 -24 -25 28 -27 -28 -29 29 -31
leaf_value=-5.3838699761257374 1.0554277049333067 -0.59828475520534574 -5.2262887954711914 -0.16721606834384439 0.92236172049261089 0.55236996120944326 0.28712248455663708 -4.7196992692493254 -1.3794752547934137 -0.071623457832848306 0.82020637843701016 -1.0864836147595798 -3.3212595628253343 0.26227643936190842 -9.4855610495028291 -0.84178339664278357 -7.6944322873806135 2.2730754501427763 -0.77696396052908423 -7.1089054743448896 -8.3140701566423694 -4.8499725924597845 2.4537989752633229 0.29344265923729379 1.7632310360000985 -5.0409501477291707 0.50670459827310166 -2.6453868351876735 1.3231033620386556 -1.615296931655118
leaf_weight=186 1753 172 335 995 2213 409 188 21 333 378 688 124 29 304 23 29 29 27 367 39 21 90 21 835 206 57 532 20 49 33
leaf_count=186 1753 172 335 995 2213 409 188 21 333 378 688 124 29 304 23 29 29 27 367 39 21 90 21 835 206 57 532 20 49 33
internal_value=0 0.0970349 -1.32951 0.322043 0.460906 0.282234 -0.113461 -1.51571 -0.471194 0.77735 0.243613 0.0343856 -0.221878 -0.954489 -3.65446 -5.74961 -4.26811 -0.623991 -0.110629 -4.91268 -4.50481 -3.66728 -1.13295 0.115016 0.75771 -5.92217 0.236736 0.00515043 1.30123 0.140576
internal_weight=0 10320 1406 8914 7586 5833 3242 658 1328 2591 2584 1896 1400 441 137 81 58 56 1071 249 210 132 42 959 496 78 704 208 288 82
internal_count=10506 10320 1406 8914 7586 5833 3242 658 1328 2591 2584 1896 1400 441 137 81 58 56 1071 249 210 132 42 959 496 78 704 208 288 82
is_linear=0
shrinkage=0.5


Tree=3
num_leaves=31
num_cat=0
split_feature=5 40 11 36 12 18 30 15 31 30 18 36 30 30 18 41 10 1 15 15 30 18 18 10 12 10 30 18 18 30
split_gain=5557.11 3317.94 6678.09 1353.37 981.113 1019.66 1117.02 909.972 881.909 701.365 1164.82 671.973 626.01 573.617 536.395 504.127 1051.85 1751.34 605.894 482.362 481.587 494.176 416.871 412.412 698.405 426.693 405.169 660.517 542.777 399.82
threshold=24.754999200000004 1.0000000180025095e-35 1.0000000180025095e-35 47.395000450000005 363.21499865000004 652.0499880000001 91.74499895000001 37004.050800000005 115637.45300000001 91.654998800000016 617.95001200000013 45.48000145000001 91.375000000000014 92.284999850000005 663.95001200000013 1.0000000180025095e-35 0.19049999900000003 1.0000000180025095e-35 35004.099600000009 38007.050800000005 88.909999850000005 590.0499880000001 626.0499880000001 0.21550000500000002 372.71499865000004 0.14950000500000002 90.465000150000023 633.95001200000013 651.95001200000013 92.935001350000007
decision_type=2 2 2 2 2 2 2 2 2 2 2 2 2 2 2 2 2 2 2 2 2 2 2 2 2 2 2 2 2 2
left_child=-1 3 26 7 14 6 15 8 9 10 12 -9 20 -7 -5 22 17 -17 -19 -13 -2 -22 -6 24 -12 -26 27 -3 -28 -8
right_child=1 2 -4 4 5 13 29 11 -10 -11 23 19 -14 -15 -16 16 -18 18 -20 -21 21 -23 -24 -25 25 -27 28 -29 -30 -31
leaf_value=-2.6939808485355785 -0.49741026984527709 -0.073613098957854464 -2.6131446361541748 -0.28608149295215513 0.77023644779541656 -0.89429733677183465 0.70724085815298043 0.58477792724897149 0.16097487683161915 1.3048124737396203 0.28384654944681603 0.070608973843679979 3.2865399866094513 -0.02098899799497975 -1.7673104381901794 0.16694989211528616 0.042630196548998356 -2.0613722562789918 -5.7536087179183957 -0.73263851360879773 2.4811158824743607 0.89504600279176216 -0.11770890863697296 0.20389907646816796 -0.93980691283941264 -4.2058921493589878 0.69558394452542416 -2.1492737384284273 -0.16566319049095557 2.013004004482239
leaf_weight=188 50 117 335 1358 278 209 844 500 687 530 46 778 31 1874 64 51 328 20 25 246 59 293 252 286 20 20 256 57 641 63
leaf_count=188 50 117 335 1358 278 209 844 500 687 530 46 778 31 1874 64 51 328 20 25 246 59 293 252 286 20 20 256 57 641 63
internal_value=0 0.0490859 -0.664755 0.161705 0.00331253 0.131689 0.400657 0.401393 0.621288 0.858169 0.564105 0.109642 1.12159 -0.108613 -0.352747 0.0229482 -0.383421 -1.8391 -4.11261 -0.122359 0.954636 1.16089 0.348044 -0.0847901 -1.04485 -2.57285 -0.0553146 -0.753571 0.0801331 0.797939
internal_weight=0 10318 1406 8912 5366 3944 1861 3546 2022 1335 805 1524 433 2083 1422 954 424 96 45 1024 402 352 530 372 86 40 1071 174 897 907
internal_count=10506 10318 1406 8912 5366 3944 1861 3546 2022 1335 805 1524 433 2083 1422 954 424 96 45 1024 402 352 530 372 86 40 1071 174 897 907
is_linear=0
shrinkage=0.5


Tree=4
num_leaves=31
num_cat=0
split_feature=38 18 30 30 18 18 30 30 18 18 10 10 1 41 18 24 30 30 5 30 18 5 10 18 24 16 1 41 5 30
split_gain=1431.41 941.673 2510.29 1341.07 1621.68 963.585 945.022 851.838 680.455 590.69 541.53 487.565 442.391 1255.75 436.708 732.959 411.115 391.55 376.136 368.04 490.283 382.498 341.016 355.365 543.524 326.273 418.758 868.211 314.591 309.844
threshold=0.70149999850000011 631.0499880000001 91.24499895000001 90.215000150000023 601.20001200000013 654.75000000000011 92.284999850000005 92.875000000000014 684.0499880000001 667.95001200000013 0.14549999700000002 0.070500001300000018 1.0000000180025095e-35 1.0000000180025095e-35 655.95001200000013 2719.6500250000004 89.029998800000016 93.904998800000016 84.505001050000018 91.505001050000018 613.95001200000013 86.060001400000019 0.26049999850000005 642.0499880000001 2719.6500250000004 249.12999955000001 1.0000000180025095e-35 1.0000000180025095e-35 88.045002000000011 93.904998800000016
decision_type=2 2 2 2 2 2 2 2 2 2 2 2 2 2 2 2 2 2 2 2 2 2 2 2 2 2 2 2 2 2
left_child=-1 3 -3 4 16 6 28 9 14 -7 11 -5 -13 -14 15 -9 -2 -10 -6 20 -12 -22 23 24 -8 -25 -27 -28 -4 -16
right_child=1 2 5 10 18 7 22 8 17 -11 19 12 13 -15 29 -17 -18 -19 -20 -21 21 -23 -24 25 -26 26 27 -29 -30 -31
leaf_value=-1.3248383806087076 -0.075337577946807732 -0.99036502932504578 -0.21770502504775696 0.79345136191299626 -2.1754966013133528 -0.26847104190207705 0.24607092300628094 0.67650450991156197 -0.79599251597567255 -1.0585524255756278 0.93232845753898086 0.11891805595781618 0.62583299262803938 -3.0827381041646005 0.15569632789045995 -3.2311774251550864 0.76296679340102658 -0.10576657012122699 -0.59506072935764676 1.0475127066796024 -0.71815763968367907 0.38506947722023699 0.97420209533397151 0.73188201546491616 3.1316076485812663 0.15414822687644783 0.60638113992966036 -3.6614311750118551 0.22761468680778352 0.73708359344777741
leaf_weight=200 241 682 653 94 40 823 47 24 295 332 423 103 42 50 1375 24 372 677 640 360 86 909 490 84 25 82 22 26 1010 275
leaf_count=200 241 682 653 94 40 823 47 24 295 332 423 103 42 50 1375 24 372 677 640 360 86 909 490 84 25 82 22 26 1010 275
internal_value=0 0.02571 -0.079408 0.243017 -0.156374 0.0197734 0.265357 -0.136822 0.0183695 -0.495577 0.492853 -0.141934 -0.592838 -1.38969 0.209345 -1.27734 0.433389 -0.315249 -0.688028 0.596033 0.481412 0.289715 0.720974 0.287122 1.24799 -0.0361616 -0.532436 -1.70535 0.0527537 0.252594
internal_weight=0 10306 6946 3360 1293 6264 2439 3825 2670 1155 2067 289 195 92 1698 48 613 972 680 1778 1418 995 776 286 72 214 130 48 1663 1650
internal_count=10506 10306 6946 3360 1293 6264 2439 3825 2670 1155 2067 289 195 92 1698 48 613 972 680 1778 1418 995 776 286 72 214 130 48 1663 1650
is_linear=0
shrinkage=0.5


Tree=5
num_leaves=31
num_cat=0
split_feature=10 2 33 36 18 30 30 30 18 16 41 1 15 32 15 10 39 7 36 15 32 30 18 10 1 39 12 5 5 1
split_gain=607.762 544.387 999.514 638.613 450.678 559.68 473.275 423.01 852.85 807.047 539.293 1370.31 1044.25 946.236 530.78 333.937 373.263 325.201 364.382 436.377 336.941 320.354 356.934 372.017 574.602 2353.18 2116.7 375.389 355.728 319.743
threshold=0.17449999600000002 1.0000000180025095e-35 1.0000000180025095e-35 51.954999900000011 635.95001200000013 91.654998800000016 89.465000150000023 91.24499895000001 622.95001200000013 246.07999935000001 1.0000000180025095e-35 1.0000000180025095e-35 34005.150400000006 0.60500001900000011 36024.701200000003 0.62950000150000018 1.0000000180025095e-35 1.0000000180025095e-35 48.23000145000001 36000.94920000001 17.590000150000005 92.185001350000007 608.0499880000001 0.30449999850000004 1.0000000180025095e-35 1.0000000180025095e-35 371.96000135000003 87.094997400000011 88.229999550000016 1.0000000180025095e-35
decision_type=2 2 2 2 2 2 2 2 2 2 2 2 2 2 2 2 2 2 2 2 2 2 2 2 2 2 2 2 2 2
left_child=7 2 4 -3 6 -6 -2 10 9 -9 -1 -12 -13 14 -14 17 -17 18 19 29 -21 22 -8 24 -24 -26 -27 -25 -23 -7
right_child=1 3 -4 -5 5 15 21 8 -10 -11 11 12 13 -15 -16 16 -18 -19 -20 20 -22 28 23 27 25 26 -28 -29 -30 -31
leaf_value=-0.18693559082011271 -0.31980565470390826 -0.19807486520699516 0.74029881640575046 -2.9785393731934682 -0.44551369701289623 -0.0063205516121039784 0.6639734712065174 3.3083843245533191 -0.14663530303575023 -0.14263584172294941 -0.19213162399177727 -0.35446766534676921 -3.4480831248419626 -5.5824604002492766 -0.6069968960458233 0.17644269593062575 1.2030554671063383 0.19578855841399287 -0.44184758827541482 -0.08392082468946202 -1.7098809672576007 0.53541970286422813 0.20984204098051212 -0.0047804765155734985 0.40608623791466292 -0.65969836508685897 -6.5148660972200592 0.58449831107806594 3.0499119379303674 1.1077743239915199
leaf_weight=584 343 1243 581 21 718 120 468 36 982 32 229 52 35 28 31 364 117 1082 677 924 33 39 324 475 118 33 29 627 22 139
leaf_count=584 343 1243 581 21 718 120 468 36 982 32 229 52 35 28 31 364 117 1082 677 924 33 39 324 475 118 33 29 627 22 139
internal_value=0 0.0584757 0.111382 -0.244269 0.0564508 -0.0438262 0.22536 -0.247321 -0.0280556 1.68437 -0.487393 -0.955304 -2.15234 -3.1469 -2.11363 0.0396262 0.426159 -0.0228687 -0.147849 0.0158333 -0.139988 0.312944 0.279728 0.167756 -0.188084 -0.90435 -3.39841 0.330499 1.44229 0.591591
internal_weight=0 8497 7233 1264 6652 4174 2478 2009 1050 68 959 375 146 94 66 3456 481 2975 1893 1216 957 2135 2074 1606 504 180 62 1102 61 259
internal_count=10506 8497 7233 1264 6652 4174 2478 2009 1050 68 959 375 146 94 66 3456 481 2975 1893 1216 957 2135 2074 1606 504 180 62 1102 61 259
is_linear=0
shrinkage=0.5


Tree=6
num_leaves=31
num_cat=0
split_feature=18 30 18 18 38 18 30 30 18 30 5 30 18 30 10 24 15 30 18 5 25 10 1 5 18 18 12 18 16 18
split_gain=323.784 360.668 783.704 508.647 436.756 454.541 406.177 393.123 384.919 282.398 268.362 256.464 376.661 365.521 241.914 303.001 291.572 241.11 238.732 451.819 424.532 298.548 688.07 368.223 227.023 226.874 219.713 217.025 206.141 203.196
threshold=700.0499880000001 90.965000150000023 623.0499880000001 646.95001200000013 0.73749998250000004 586.20001200000013 92.125000000000014 92.935001350000007 643.95001200000013 89.849998500000012 89.625000000000014 94.284999850000005 674.20001200000013 93.375000000000014 0.35050000250000007 3008.3499750000005 38998.94920000001 93.465000150000023 617.95001200000013 87.534999850000005 1.0000000180025095e-35 0.27950000750000009 1.0000000180025095e-35 86.965000150000023 660.95001200000013 615.0499880000001 360.9999985 653.95001200000013 238.42000045 663.0499880000001
decision_type=2 2 2 2 2 2 2 2 2 2 2 2 2 2 2 2 2 2 2 2 2 2 2 2 2 2 2 2 2 2
left_child=1 2 4 7 -1 -6 24 10 -9 25 18 12 14 -14 15 16 -8 29 21 26 -21 22 -3 -24 -5 -7 -20 -4 -11 -16
right_child=-2 3 27 6 5 9 11 8 -10 28 -12 -13 13 -15 17 -17 -18 -19 19 20 -22 -23 23 -25 -26 -27 -28 -29 -30 -31
leaf_value=-0.67870482845447166 -0.48217356147366169 0.49424774222811607 -0.50084579948223396 -0.20470274452708165 0.73660814460866975 -0.13820968309756029 0.03372509984728822 3.34616583106108 0.31539564829489047 0.45618387838641361 -1.4133841130137443 0.47204259014986932 -0.68137151442980726 -0.053373422046711687 0.35366800715760688 -1.4158026231214023 -1.8918736057356 0.80864416312702081 -1.3315286940584581 0.27556288052111239 1.485486707699142 0.11288862128782531 1.3983820653097196 4.3254885701906112 -0.83319775460663381 -1.0204482775150696 -0.068045417446455175 -1.5992729358064632 -0.016461866465028906 -0.11893804537192675
leaf_weight=199 337 119 712 580 244 550 1152 20 22 388 25 312 332 767 609 39 20 179 36 1574 76 138 22 21 191 84 778 48 569 363
leaf_count=199 337 119 712 580 244 550 1152 20 22 388 25 312 332 767 609 39 20 179 36 1574 76 138 22 21 191 84 778 48 569 363
internal_value=0 0.0159792 -0.137007 0.0739376 0.0248622 0.101162 -0.0297072 0.240297 1.75862 0.00370808 0.217432 0.0378687 -0.00127091 -0.243087 0.111242 -0.0447584 0.000865054 0.275375 0.232182 0.180909 0.331293 0.653313 1.11367 2.8279 -0.3604 -0.255099 -0.123924 -0.57022 0.175165 0.17717
internal_weight=0 10169 2794 7375 2034 1835 4544 2831 42 1591 2789 3773 3461 1099 2362 1211 1172 1151 2764 2464 1650 300 162 43 771 634 814 760 957 972
internal_count=10506 10169 2794 7375 2034 1835 4544 2831 42 1591 2789 3773 3461 1099 2362 1211 1172 1151 2764 2464 1650 300 162 43 771 634 814 760 957 972
is_linear=0
shrinkage=0.5


Tree=7
num_leaves=31
num_cat=0
split_feature=2 33 12 10 38 16 10 36 39 41 1 10 16 15 36 11 30 18 12 30 10 39 5 1 41 15 30 30 15 36
split_gain=247.848 577.259 257.994 263.338 284.477 275.25 234.327 550.229 346.912 593.468 1059.81 837.573 671.119 368.45 465.837 319.627 205.892 206.654 198.928 348.082 330.867 1233.97 303.152 284.837 1292.55 2081.5 919.806 807.204 720.721 712.009
threshold=1.0000000180025095e-35 1.0000000180025095e-35 352.93499985 0.16749999700000004 0.75609999900000002 246.92000045 0.24450000400000002 48.23000145000001 1.0000000180025095e-35 1.0000000180025095e-35 1.0000000180025095e-35 0.15949999500000003 247.62999955000001 36000.94920000001 49.014999400000008 1.0000000180025095e-35 88.659999850000005 580.20001200000013 366.12000120000005 90.534999850000005 0.13049999600000003 1.0000000180025095e-35 87.125000000000014 1.0000000180025095e-35 1.0000000180025095e-35 36000.94920000001 91.125000000000014 91.375000000000014 37000.349600000009 47.98000145000001
decision_type=2 2 2 2 2 2 2 2 2 2 2 2 2 2 2 2 2 2 2 2 2 2 2 2 2 2 2 2 2 2
left_child=1 6 -2 5 -5 -4 7 18 15 -10 -11 13 -13 14 -12 -9 -8 -18 19 22 -21 -22 -1 -20 -25 26 -26 -27 -29 -30
right_child=2 -3 3 4 -6 -7 16 8 9 10 11 12 -14 -15 -16 -17 17 -19 23 20 21 -23 -24 24 25 27 -28 28 29 -31
leaf_value=0.16321227075266873 -1.8249265984632075 0.46017061138510262 -2.0746522946283221 -1.6417222819291055 -0.083354375006919362 0.015574154942961676 -0.65884938986971975 0.048022290055888657 -0.036302673863247037 0.031071974062139081 1.2123824257690172 -5.9045827269554136 -2.2737846168024198 -2.2565378505498805 -1.5650588902644813 -0.73664335516546775 1.4199806149782879 0.058157315285940252 0.11430055747993839 0.22973772956430441 0.43529908837494896 5.0692508071660995 -1.8401900665834545 0.26989153763139273 -0.77611538905488409 -4.8396783610805869 3.8602042287588119 -4.3379222466832115 1.3086516152728687 -2.3635447561515099
leaf_weight=338 24 717 36 30 1229 28 100 472 180 105 26 20 35 47 36 179 28 5475 819 74 51 20 20 266 23 32 20 21 22 33
leaf_count=338 24 717 36 30 1229 28 100 472 180 105 26 20 35 47 36 179 28 5475 819 74 51 20 20 266 23 32 20 21 22 33
internal_value=0 0.0294512 -0.200255 -0.170783 -0.120488 -1.16018 -0.00713083 -0.124158 -0.400924 -0.739028 -1.20925 -2.00336 -3.59407 -1.20071 -0.400325 -0.167731 0.052166 0.0650865 0.0509096 0.316 0.969558 1.74064 0.0512904 -0.0569709 -0.393353 -1.56172 1.38031 -2.73308 -1.84609 -0.894666
internal_weight=0 9159 1347 1323 1259 64 8442 2839 1100 449 269 164 55 109 62 651 5603 5503 1739 503 145 71 358 1236 417 151 43 108 76 55
internal_count=10506 9159 1347 1323 1259 64 8442 2839 1100 449 269 164 55 109 62 651 5603 5503 1739 503 145 71 358 1236 417 151 43 108 76 55
is_linear=0
shrinkage=0.5


Tree=8
num_leaves=31
num_cat=0
split_feature=16 18 5 36 18 5 36 30 15 15 30 18 5 18 32 5 18 2 5 18 30 24 16 1 10 5 12 18 1 18
split_gain=231.055 189.457 291.442 146.5 174.012 326.633 220.274 189.483 179.309 171.174 184.84 338.267 287.639 220.986 249.743 220.105 284.169 343.321 245.114 201.606 188.393 157.056 233.523 397.693 156.159 153.124 226.226 290.096 552.774 165.576
threshold=321.02500000000003 691.0499880000001 91.395000500000023 45.675001150000007 597.2999880000001 85.505001050000018 54.434999450000007 89.755001050000018 36011.349600000009 39005.150400000006 92.654998800000016 638.75000000000011 88.215000150000023 644.0499880000001 -8.6700000799999994 87.005001050000018 627.95001200000013 1.0000000180025095e-35 89.229999550000016 662.0499880000001 89.99499895000001 2526.0999750000005 246.87999955000001 1.0000000180025095e-35 0.14950000500000002 88.49499895000001 372.27500000000003 620.0499880000001 1.0000000180025095e-35 624.95001200000013
decision_type=2 2 2 2 2 2 2 2 2 2 2 2 2 2 2 2 2 2 2 2 2 2 2 2 2 2 2 2 2 2
left_child=1 3 -3 -1 7 -6 9 8 -5 10 11 15 -13 14 -12 16 21 -18 20 -14 -17 -7 -23 -24 -10 26 29 28 -28 -22
right_child=-2 2 -4 4 5 6 -8 -9 24 -11 13 12 19 -15 -16 18 17 -19 -20 -21 25 22 23 -25 -26 -27 27 -29 -30 -31
leaf_value=0.20160893110830932 -1.697848628461361 -0.59567618203110095 0.066136224796104925 -0.13027503483488848 -0.48850890574844136 0.24498836546463323 0.4448552312699901 0.8023320921465642 1.8911332881876401 -1.2238099038889954 2.171468683414989 -0.43794088687417321 0.014054398398721192 0.082561993569144829 0.27063204677930724 -0.89516454811305979 -0.3551952809211798 -2.1241572549915873 -1.4757844368842514 -0.41354546335461584 0.58889631255981789 -0.037993554883438668 0.039817546828999184 -2.3461365777559791 0.33394474471392838 0.69487581376452001 -0.0088707985522341916 0.070764061492786745 -2.7836408613781845 0.1582804699938816
leaf_weight=1005 20 323 343 240 351 429 274 133 21 29 27 809 1326 2263 48 38 192 32 22 348 340 546 40 31 69 160 50 319 28 650
leaf_count=1005 20 323 343 240 351 429 274 133 21 29 27 809 1326 2263 48 38 192 32 22 348 340 546 40 31 69 160 50 319 28 650
internal_value=0 0.00323832 -0.254833 0.0207409 0.000120099 -0.0164202 0.00429011 0.298488 0.0954242 -0.0113324 -0.0067647 -0.0579352 -0.193142 0.110547 0.954933 0.0587554 -0.096813 -0.607904 0.1817 -0.0748373 0.204706 0.0126367 -0.148917 -1.00194 0.697289 0.231723 0.178295 -0.140584 -1.00494 0.306169
internal_weight=0 10486 666 9820 8815 8352 8001 463 330 7727 7698 5360 2483 2338 75 2877 1270 224 1607 1674 1585 1046 617 71 90 1547 1387 397 78 990
internal_count=10506 10486 666 9820 8815 8352 8001 463 330 7727 7698 5360 2483 2338 75 2877 1270 224 1607 1674 1585 1046 617 71 90 1547 1387 397 78 990
is_linear=0
shrinkage=0.5


Tree=9
num_leaves=31
num_cat=0
split_feature=38 31 12 5 18 31 10 30 18 5 1 18 15 30 1 7 18 10 10 39 12 10 10 18 16 41 12 24 30 18
split_gain=159.583 154.567 131.184 130.608 149.62 120.15 119.921 112.435 205.014 217.427 234.787 156.715 147.876 179.585 124.602 195.249 175.232 210.477 217.339 191.273 203.552 198.158 615.057 127.983 109.727 203.574 107.263 310.885 198.943 106.256
threshold=0.77175000350000011 162121.54700000005 351.52500000000003 84.99499895000001 613.95001200000013 111827.50000000001 0.47049999250000002 91.625000000000014 625.95001200000013 87.389999400000008 1.0000000180025095e-35 653.95001200000013 33001.099600000009 90.625000000000014 1.0000000180025095e-35 1.0000000180025095e-35 624.95001200000013 0.14050000200000004 0.19950000200000004 1.0000000180025095e-35 358.42999880000002 0.29950000350000006 0.14050000200000004 634.95001200000013 242.09999980000001 1.0000000180025095e-35 372.12000120000005 2541.7500000000005 91.125000000000014 668.0499880000001
decision_type=2 2 2 2 2 2 2 2 2 2 2 2 2 2 2 2 2 2 2 2 2 2 2 2 2 2 2 2 2 2
left_child=3 2 -2 6 5 -5 -1 11 9 -9 -11 12 13 -4 -14 16 17 24 -19 20 23 22 -21 -18 25 -16 28 -28 -20 -10
right_child=1 -3 7 4 -6 -7 -8 8 29 10 -12 -13 14 -15 15 -17 19 18 26 21 -22 -23 -24 -25 -26 -27 27 -29 -30 -31
leaf_value=-0.025554695378256536 -1.2205869488728542 0.38168814584246968 -2.0248144599185749 0.26466911325883802 0.090049095665018938 0.91721100018996937 -0.65425941635571094 -0.24444250262728551 0.047259309755948685 0.31557715870440006 2.1477468090460583 -0.68268304664974777 -0.20060448417156529 -0.11583995228699807 0.15952862507623175 -0.30122763351422266 -1.6198441347350245 1.8842473816255043 0.46159804692909678 -0.2491246238434022 0.3667561868876707 0.0089263606675748907 -3.4792948318645358 0.048163342836272459 0.87759926631337115 -1.2366562975304467 0.656418505013876 -1.699747225003583 2.0742902599629902 -0.11225602854556734
leaf_weight=432 24 210 22 274 2335 95 92 41 2541 36 34 123 1217 28 69 334 23 29 214 56 229 86 20 23 21 42 42 21 21 1772
leaf_count=432 24 210 22 274 2335 95 92 41 2541 36 34 123 1217 28 69 334 23 29 214 56 229 86 20 23 21 42 42 21 21 1772
internal_value=0 -0.0410398 -0.0535996 0.0925302 0.136804 0.432668 -0.135938 -0.0496235 -0.00101034 0.669928 1.20549 -0.131709 -0.104569 -0.955789 -0.0871756 0.0250544 0.146682 0.362435 0.577554 -0.079933 0.173958 -0.510921 -1.09917 -0.78584 -0.170474 -0.368758 0.450392 -0.12897 0.605711 -0.0182777
internal_weight=0 7278 7068 3228 2704 369 524 7044 4424 111 70 2620 2497 50 2447 1230 896 459 327 437 275 162 76 46 132 111 298 63 235 4313
internal_count=10506 7278 7068 3228 2704 369 524 7044 4424 111 70 2620 2497 50 2447 1230 896 459 327 437 275 162 76 46 132 111 298 63 235 4313
is_linear=0
shrinkage=0.5


Tree=10
num_leaves=31
num_cat=0
split_feature=10 40 11 11 30 38 36 5 30 18 18 30 18 30 24 18 5 5 10 39 1 5 12 38 24 12 24 10 30 15
split_gain=102.957 78.7543 424.325 223.903 231.589 134.803 131.375 132.769 104.293 134.201 97.2075 110.451 95.5576 216.963 229.118 159.324 153.788 131.252 117.854 260.97 667.906 1600.16 1181.44 567.415 515.665 697.649 1172.55 699.029 412.499 835.085
threshold=1.0875000350000001 1.0000000180025095e-35 1.0000000180025095e-35 1.0000000180025095e-35 88.034999850000005 0.79390001300000013 47.98000145000001 90.310001400000019 94.875000000000014 696.2999880000001 643.0499880000001 91.74499895000001 605.95001200000013 90.375000000000014 2864.3499750000005 625.0499880000001 84.889999400000008 86.99499895000001 0.33699999750000004 1.0000000180025095e-35 1.0000000180025095e-35 89.74499895000001 375.08999850000004 0.78575000150000007 2864.3499750000005 372.71499865000004 2656.3499750000005 0.23550000000000001 92.24499895000001 36006.050800000005
decision_type=2 2 2 2 2 2 2 2 2 2 2 2 2 2 2 2 2 2 2 2 2 2 2 2 2 2 2 2 2 2
left_child=1 3 10 5 -5 8 -6 -8 9 12 -3 -12 -1 14 15 16 -14 -17 19 -15 -21 23 -23 24 25 28 27 -27 -22 -30
right_child=-2 2 -4 4 6 -7 7 -9 -10 -11 11 -13 13 18 -16 17 -18 -19 -20 20 21 22 -24 -25 -26 26 -28 -29 29 -31
leaf_value=0.11755535953732688 -1.133361445274204 0.50488133506971544 -0.37340950646590204 -0.99583419386974792 0.15613043315766276 -1.2713224180466072 0.52943740706211828 1.796975288702094 0.34342922855847779 -0.47093221685707065 -0.17149630882259873 0.27585807703900295 -1.3408385268770731 0.022853302162577478 -1.9329029776960274 -1.4693090701673894 -0.087116599345233595 -0.26768574211746454 0.032243795861262595 -0.00096547018079178124 -0.59100871797572896 -1.2118456962963808 -5.1679610611172393 2.0763509241135223 1.7297127800993621 -1.7582287997938693 -3.8993213346275764 1.9543078662384124 3.5914650976657869 -0.50303905841076013
leaf_weight=957 20 305 342 33 307 22 203 23 181 177 180 591 26 1682 22 47 413 44 3781 737 143 46 32 23 24 32 39 21 20 33
leaf_count=957 20 305 342 33 307 22 203 23 181 177 180 591 26 1682 22 47 413 44 3781 737 143 46 32 23 24 32 39 21 20 33
internal_value=0 0.00216167 0.111739 -0.0149733 0.289533 -0.0352451 0.369115 0.658435 -0.0320383 -0.0402272 0.26594 0.171417 -0.030841 -0.0506617 -0.351813 -0.286182 -0.161369 -0.888304 -0.0255241 -0.10265 -0.286212 -0.795235 -2.83487 -0.320336 -0.497014 -0.682575 -1.81844 -0.287224 -0.149414 1.04206
internal_weight=0 10486 1418 9068 566 8502 533 226 8480 8299 1076 771 8122 7165 552 530 439 91 6613 2832 1150 413 78 335 312 288 92 53 196 53
internal_count=10506 10486 1418 9068 566 8502 533 226 8480 8299 1076 771 8122 7165 552 530 439 91 6613 2832 1150 413 78 335 312 288 92 53 196 53
is_linear=0
shrinkage=0.5


Tree=11
num_leaves=31
num_cat=0
split_feature=18 18 30 17 18 18 30 18 5 5 5 38 24 12 39 1 10 5 16 16 18 30 18 15 10 16 15 15 12 32
split_gain=66.2874 138.419 75.3658 122.183 101.606 97.637 133.977 255.147 130.565 101.171 93.6876 83.8288 77.6914 301.162 505.735 1346.88 1662.27 228.959 146.996 136.806 129.724 215.481 134.859 130.328 243.786 300.97 119.311 180.579 115.446 107.06
threshold=519.00000000000011 570.95001200000013 88.659999850000005 1.0000000180025095e-35 583.0499880000001 706.0499880000001 93.720001200000013 676.95001200000013 89.045002000000011 91.395000500000023 84.770000450000012 0.73085001100000013 2687.6500250000004 377.02500000000003 1.0000000180025095e-35 1.0000000180025095e-35 0.41700001100000006 88.889999400000008 254.67000045 253.67000045 658.95001200000013 93.154998800000016 659.0499880000001 36011.349600000009 0.30949999350000007 246.07999935000001 35997.349600000009 36000.44920000001 360.9999985 1.8949999850000003
decision_type=2 2 2 2 2 2 2 2 2 2 2 2 2 2 2 2 2 2 2 2 2 2 2 2 2 2 2 2 2 2
left_child=-1 -2 3 -3 10 6 7 11 -9 -7 -4 -6 -13 17 -15 -16 -17 18 19 -14 21 23 -22 26 25 -25 -19 -28 -24 -20
right_child=1 2 4 -5 5 9 -8 8 -10 -11 -12 12 13 14 15 16 -18 20 29 -21 22 -23 28 24 -26 -27 27 -29 -30 -31
leaf_value=-0.31538941770246842 0.69107158489729448 -0.46324030188000848 0.17010896402196243 0.81815052227604956 -1.0133962742984295 -1.1381829880616243 0.17219853151396836 -1.6040621335618197 -0.30138742910312938 -0.18292097589466721 1.3045329746923275 0.052000388348971339 -0.10165262099201908 -0.0011857584534500469 0.092627986938807 -6.9154880627989765 -0.46904010586440564 0.29960170227374572 -1.8329171515291645 1.1815409780967803 -0.97802452039468335 1.5982941779674906 -1.1044480226933957 -0.092669523024762224 0.4128578070192408 -2.3933276012539864 2.3112558707594872 0.53357837628573179 0.11790722952679158 -0.21651299968361853
leaf_weight=164 73 163 52 21 20 34 1105 20 503 150 28 4836 1906 149 57 20 20 240 21 21 32 33 20 44 98 21 20 50 565 20
leaf_count=164 73 163 52 21 20 34 1105 20 503 150 28 4836 1906 149 57 20 20 240 21 21 32 33 20 44 98 21 20 50 565 20
internal_value=0 0.00500134 0.000124223 -0.316995 0.00591003 0.00142229 0.00818312 -0.0126105 -0.351203 -0.359437 0.567157 0.00900356 0.0115055 -0.04718 -0.579624 -1.46815 -3.69226 -0.00480503 -0.107601 -0.0876687 0.17534 0.362994 0.0214454 0.27681 -0.0851366 -0.835959 0.467124 1.04149 0.0761173 -1.04443
internal_weight=0 10342 10269 184 10085 10005 9821 8716 523 184 80 8193 8173 3337 246 97 40 3091 1968 1927 1123 506 617 473 163 65 310 70 585 41
internal_count=10506 10342 10269 184 10085 10005 9821 8716 523 184 80 8193 8173 3337 246 97 40 3091 1968 1927 1123 506 617 473 163 65 310 70 585 41
is_linear=0
shrinkage=0.5


Tree=12
num_leaves=31
num_cat=0
split_feature=1 17 7 15 36 31 10 10 12 32 24 18 38 30 18 5 15 15 32 18 10 30 18 24 10 39 10 10 16 10
split_gain=89.9015 91.1511 110.235 150.924 169.617 550.574 392.486 703.139 183.446 196.207 201.181 295.267 187.512 149.554 208.843 405.87 145.563 262.819 133.338 139.299 189.462 132.091 358.932 574.039 156.091 234.697 586.281 134.604 131.941 318.942
threshold=1.0000000180025095e-35 1.0000000180025095e-35 1.0000000180025095e-35 38005.500000000007 49.530000700000009 114869.3515 0.41949999350000006 0.19049999900000003 375.08999850000004 -31.385000199999997 2687.6500250000004 644.0499880000001 0.76609998950000013 90.404998800000016 617.95001200000013 87.215000150000023 36006.050800000005 36990.349600000009 4.5750000450000012 608.0499880000001 0.31949999950000002 92.24499895000001 642.0499880000001 2684.0000000000005 0.21049999400000002 1.0000000180025095e-35 0.32950000450000005 0.15949999500000003 247.67000045 0.30449999850000004
decision_type=2 2 2 2 2 2 2 2 2 2 2 2 2 2 2 2 2 2 2 2 2 2 2 2 2 2 2 2 2 2
left_child=-1 2 3 4 8 6 7 -6 13 -10 -11 -12 -13 -2 15 18 -14 -18 19 -15 -21 28 23 -23 27 -26 -27 -24 -16 -30
right_child=1 -3 -4 -5 5 -7 -8 -9 9 10 11 12 16 14 21 -17 17 -19 -20 20 -22 22 24 -25 25 26 -28 -29 29 -31
leaf_value=-0.046129339806191702 -0.021011658775588048 0.21994156122356287 -0.1262960156247892 -0.28901463320003229 -0.84067748004282028 0.089305397088338317 0.2509770010847871 -4.0758051648736 0.51498467927765956 0.097326839152886882 -1.9673196574853313 -1.5637237089168694 0.26617035424650304 0.91853249693910277 0.1763439307841756 2.4512145482876804 -1.8863998775237374 -0.097571432315510118 1.1211632061295393 -1.6933430027216674 0.4830166045576334 0.13393357545137405 0.13942422246456973 3.3438026670079966 0.18784561672628208 3.2859708718631579 0.51233138337202777 -0.99344205201880353 -1.8625700404601437 0.23770079071469166
leaf_weight=5267 464 661 991 282 71 566 41 22 114 268 31 27 101 24 673 32 28 77 41 20 20 30 90 26 289 23 111 37 28 51
leaf_count=5267 464 661 991 282 71 566 41 22 114 268 31 27 101 24 673 32 28 77 41 20 20 30 90 26 289 23 111 37 28 51
internal_value=0 0.0463759 0.0213154 0.0620968 0.0920555 -0.126456 -1.0378 -1.60598 0.150772 -0.0802857 -0.207844 -0.517638 -0.324762 0.226966 0.303931 0.892298 -0.162374 -0.574592 0.417199 -0.0337773 -0.605163 0.244574 0.418286 1.62423 0.295499 0.44145 0.988404 -0.190623 0.104588 -0.506699
internal_weight=0 5239 4578 3587 3305 700 134 93 2605 646 532 264 233 1959 1495 137 206 105 105 64 40 1358 606 56 550 423 134 127 752 79
internal_count=10506 5239 4578 3587 3305 700 134 93 2605 646 532 264 233 1959 1495 137 206 105 105 64 40 1358 606 56 550 423 134 127 752 79
is_linear=0
shrinkage=0.5


Tree=13
num_leaves=31
num_cat=0
split_feature=2 33 12 18 30 10 33 18 10 5 32 28 1 7 36 10 10 18 12 18 5 10 1 5 32 30 18 24 15 16
split_gain=75.7901 243.435 818.615 817.238 260.076 197.169 153.472 141.483 112.717 111.114 307.38 103.076 144.04 115.895 182.129 102.93 99.6573 91.0797 90.0815 69.6562 132.013 103.455 78.9669 70.7221 64.8208 84.8812 392.96 264.429 86.1217 79.9386
threshold=1.0000000180025095e-35 1.0000000180025095e-35 367.58999865000004 652.75000000000011 91.24499895000001 0.28949999850000002 1.0000000180025095e-35 610.95001200000013 0.31949999950000002 86.99499895000001 -29.130000099999997 1.0000000180025095e-35 1.0000000180025095e-35 1.0000000180025095e-35 49.889999350000004 0.25049999350000002 0.41949999350000006 630.95001200000013 371.55999985000005 679.0499880000001 88.284999850000005 0.77199998500000011 1.0000000180025095e-35 90.255001050000018 -32.520000449999991 92.845001200000013 662.95001200000013 2688.3499750000005 35020.050800000005 254.62999955000001
decision_type=2 2 2 2 2 2 2 2 2 2 2 2 2 2 2 2 2 2 2 2 2 2 2 2 2 2 2 2 2 2
left_child=6 5 3 4 -3 -2 11 -7 -4 10 -9 24 16 15 -15 -14 -13 -11 -12 20 -19 22 -22 -21 25 -1 27 -27 -29 -26
right_child=1 2 8 -5 -6 7 -8 9 -10 17 18 12 13 14 -16 -17 -18 19 -20 23 21 -23 -24 -25 29 26 -28 28 -30 -31
leaf_value=0.047819568330815208 0.42920518065062918 -1.8979655559150836 0.49429077630715995 -4.2749036899344484 -0.22818429138639879 0.86161921278592979 0.23837371266839444 -2.2072801577548185 -0.34726185177171986 0.70129182721887318 0.29727015427488368 -0.20336671694715813 1.3425504582002759 -0.35097333272627862 0.16169395995111419 0.17438650140538811 -0.71452366240453302 -0.39611571793549161 -0.92378376521494077 -0.91074402316720515 -0.18635960566914744 -0.96009641215205188 0.36474750656957944 -0.1970194446807336 -0.025655769852908173 0.43735169409774244 0.048186166556457022 1.470531925931573 2.937856987118721 0.15276818359637481
leaf_weight=1108 214 39 108 22 58 36 717 24 63 35 44 583 20 371 325 330 114 169 23 49 90 20 234 119 4482 45 294 20 20 730
leaf_count=1108 214 39 108 22 58 36 717 24 63 35 44 583 20 371 325 330 114 169 23 49 90 20 234 119 4482 45 294 20 20 730
internal_value=0 -0.110738 -0.516542 -1.52356 -0.89954 0.00059872 0.0162861 -0.108205 0.184245 -0.151469 -0.671889 -0.00257634 -0.11089 0.00644167 -0.111581 0.241139 -0.286971 -0.0853261 -0.121898 -0.125754 -0.0342435 0.143537 0.211662 -0.405189 0.0256055 0.117686 0.32194 1.26881 2.20419 -0.000665462
internal_weight=0 1347 290 119 97 1057 9159 843 171 807 91 8442 1743 1046 696 350 697 716 67 681 513 344 324 168 6699 1487 379 85 40 5212
internal_count=10506 1347 290 119 97 1057 9159 843 171 807 91 8442 1743 1046 696 350 697 716 67 681 513 344 324 168 6699 1487 379 85 40 5212
is_linear=0
shrinkage=0.5


Tree=14
num_leaves=31
num_cat=0
split_feature=15 15 5 18 18 5 30 24 15 30 18 5 24 31 5 18 5 5 38 10 16 38 16 24 16 25 10 38 30 36
split_gain=60.8333 59.78 58.3613 144.03 104.397 82.742 77.863 166.12 355.405 369.668 117.415 152.608 98.3961 284.889 109.458 92.9932 137.298 88.5277 108.706 84.2761 91.905 100.523 114.096 80.9619 151.998 79.9779 123.647 78.3273 98.4514 78.291
threshold=39024.650400000006 39005.150400000006 90.384998350000004 669.95001200000013 679.0499880000001 89.889999400000008 92.935001350000007 2832.3499750000005 35003.650400000006 93.375000000000014 647.75000000000011 89.610000600000021 2999.4500750000002 124846.8515 87.560001400000019 605.95001200000013 85.889999400000008 86.215000150000023 0.75674998750000011 0.42049999550000006 252.62999955000001 0.7800499795000001 251.12999955000001 2767.6500250000004 242.87999955000001 1.0000000180025095e-35 0.53450000250000007 0.77439999550000016 93.465000150000023 47.824998850000007
decision_type=2 2 2 2 2 2 2 2 2 2 2 2 2 2 2 2 2 2 2 2 2 2 2 2 2 2 2 2 2 2
left_child=1 2 3 6 -4 -5 10 19 27 -10 12 29 14 -14 15 16 -1 23 -19 20 21 -8 -23 -17 -25 -16 -27 -9 -29 -12
right_child=-2 -3 4 5 -6 -7 7 8 9 -11 11 -13 13 -15 25 17 -18 18 -20 -21 -22 22 -24 24 -26 26 -28 28 -30 -31
leaf_value=0.011656492112222035 0.41397376318292861 -0.80869762364612974 0.33840431067060878 -0.32471305747271412 0.013904349212191899 -0.030337175026458378 0.4500028109894349 0.60959744994651599 0.020910128764808179 -2.9492122632536022 -0.3529770189962026 0.21188669567856924 -2.0095520945994751 0.042146766907535493 0.1074715844508136 -0.18783208809108509 0.4481498251652698 0.82917562590257543 -0.036961897290658581 -0.00021685147385673914 0.24191533108297514 0.47345059309154747 2.0756838732957839 -0.11388331252549376 -1.9186288617551326 -0.11181869140515725 1.0984586227466078 0.24003032144418981 -1.0415767057110434 -0.10788098361624465
leaf_weight=873 88 23 334 553 961 420 91 53 20 22 460 296 23 64 1912 532 227 37 1732 171 251 20 25 28 20 36 51 43 23 1117
leaf_count=873 88 23 334 553 961 420 91 53 20 22 460 296 23 64 1912 532 227 37 1732 171 251 20 25 28 20 36 51 43 23 1117
internal_value=0 -0.0034968 -0.00171521 -0.0158482 0.0975978 -0.197644 0.00591721 0.16301 -0.284415 -1.53487 -0.00932979 -0.117541 0.027288 -0.500256 0.0357124 -0.0182431 0.101733 -0.0744259 -0.018846 0.292106 0.421272 0.752289 1.36358 -0.243945 -0.865861 0.128805 0.597654 0.156922 -0.20659 -0.179374
internal_weight=0 10418 10395 9100 1295 973 8127 719 161 42 7408 1873 5535 87 5448 3449 1100 2349 1769 558 387 136 45 580 48 1999 87 119 66 1577
internal_count=10506 10418 10395 9100 1295 973 8127 719 161 42 7408 1873 5535 87 5448 3449 1100 2349 1769 558 387 136 45 580 48 1999 87 119 66 1577
is_linear=0
shrinkage=0.5


Tree=15
num_leaves=31
num_cat=0
split_feature=40 18 24 24 10 38 11 12 18 30 18 15 15 39 24 10 15 38 18 38 38 12 38 16 12 12 2 5 38 15
split_gain=62.1625 64.9966 59.8928 76.1104 348.602 65.6581 52.9254 70.4476 54.5554 47.5529 172.954 64.9472 119.128 273.241 332.85 294.506 104.02 87.8698 72.683 68.3402 68.1628 96.8929 105.757 113.04 75.4908 210.101 227.693 198.373 144.335 128.947
threshold=1.0000000180025095e-35 696.2999880000001 3040.3499750000005 3023.6500250000004 0.29950000350000006 0.77390000200000009 1.0000000180025095e-35 358.42999880000002 621.95001200000013 93.404998800000016 675.0499880000001 36047.900400000006 36005.150400000006 1.0000000180025095e-35 2746.2500000000005 0.35950000550000005 36004.849600000009 0.7513000070000001 656.95001200000013 0.76625001450000008 0.78209999200000013 360.9999985 0.78690001350000005 240.87999955000001 360.17999880000002 356.71000135000003 1.0000000180025095e-35 87.24499895000001 0.75244998900000015 34009.500000000007
decision_type=2 2 2 2 2 2 2 2 2 2 2 2 2 2 2 2 2 2 2 2 2 2 2 2 2 2 2 2 2 2
left_child=2 6 3 9 -5 -6 7 -2 -9 10 11 12 16 -14 -15 -16 18 -13 20 -20 24 22 23 -22 25 -1 29 -28 -26 -27
right_child=1 -3 -4 4 5 -7 -8 8 -10 -11 -12 17 13 14 15 -17 -18 -19 19 -21 21 -23 -24 -25 28 26 27 -29 -30 -31
leaf_value=0.079120333941484045 -0.20667281965725123 -0.21323964768860315 0.26478375175987734 -2.3179389663040637 0.74680233066496637 -0.29981498992027239 -0.047670810766445068 0.77255106632494264 0.20722151976264788 0.069325306101427953 -0.50193927640397662 -0.83959971920683463 0.17038747497800311 -0.39909909208441469 -3.3650396196171641 -0.68411802865254379 0.9221436622153435 0.034235698689487414 -0.95953833211608452 -0.19651766809951163 0.51835583599253754 0.015871221417126186 -0.12070383976508932 1.8633431050749052 0.61992076589641243 -0.95716942777676928 -2.7297254404751583 -0.55397326812486758 -0.035976565339863979 -0.12565424770334774
leaf_weight=308 100 151 187 20 23 43 306 45 826 1362 191 29 150 164 20 21 28 3607 33 265 61 334 41 21 88 62 20 22 1790 188
leaf_count=308 100 151 187 20 23 43 306 45 826 1362 191 29 150 164 20 21 28 3607 33 265 61 334 41 21 88 62 20 22 1790 188
internal_value=0 0.096972 -0.015254 -0.0211439 -0.489237 0.0649153 0.133653 0.190796 0.236429 -0.016572 -0.0322904 -0.019921 -0.0673691 -0.342426 -0.717656 -1.99188 -0.0374257 0.0272662 -0.0457362 -0.281013 -0.0218478 0.155584 0.534968 0.862804 -0.0545704 -0.208967 -0.51284 -1.59005 -0.00524229 -0.33187
internal_weight=0 1428 9078 8891 86 66 1277 971 871 8805 7443 7252 3616 355 205 41 3261 3636 3233 298 2935 457 123 82 2478 600 292 42 1878 250
internal_count=10506 1428 9078 8891 86 66 1277 971 871 8805 7443 7252 3616 355 205 41 3261 3636 3233 298 2935 457 123 82 2478 600 292 42 1878 250
is_linear=0
shrinkage=0.5


Tree=16
num_leaves=31
num_cat=0
split_feature=36 38 36 32 32 32 38 24 24 10 10 38 12 32 38 31 16 18 12 16 10 30 16 12 18 5 15 15 12 16
split_gain=50.4147 49.872 44.0136 50.0757 100.3 73.714 79.2897 61.515 54.4494 47.7131 192.305 112.244 279.205 83.8863 74.0815 58.6062 56.5415 51.2061 50.8339 50.152 48.5235 45.1859 59.6139 40.2269 39.3325 48.9201 41.2291 61.8355 46.9835 86.6101
threshold=59.059999450000007 0.77024999250000015 47.045000100000003 10.474999900000002 9.335000035000002 12.060000450000002 0.76089999100000016 2735.6500250000004 2351.6500250000004 0.21550000500000002 0.20949999950000001 0.7513000070000001 372.12000120000005 7.2300000200000012 0.76190000750000009 123598.1015 239.87999955000001 615.0499880000001 367.08500135000003 234.72500075000002 0.13700000200000004 90.375000000000014 242.87999955000001 361.96500240000006 723.50000000000011 92.154998800000016 37048.050800000005 37006.050800000005 379.08999850000004 251.70000020000001
decision_type=2 2 2 2 2 2 2 2 2 2 2 2 2 2 2 2 2 2 2 2 2 2 2 2 2 2 2 2 2 2
left_child=1 2 9 4 8 7 -7 -5 -4 10 13 12 -11 16 -15 21 18 -17 19 -1 -16 -13 -23 -2 25 26 27 28 -3 -30
right_child=23 24 3 5 -6 6 -8 -9 -10 11 -12 15 -14 14 20 17 -18 -19 -20 -21 -22 22 -24 -25 -26 -27 -28 -29 29 -31
leaf_value=0.45128696129239837 -1.0078635776246136 -0.013787553883218279 0.72876985766924918 0.35020408863201735 -0.92714651642988122 -0.67135386338288139 0.38311111367248157 1.5903152760118247 0.087924216317462681 -2.2233251877129079 1.6313668172806501 -0.42712528007453149 0.41866911873221396 -0.044379365519372695 -0.30197834578298388 0.78573663535945371 0.079291789870724452 0.076106486839210633 -0.029687182127457599 1.4804827797284816 -1.3901902059093119 0.28189329539115232 -0.17134450891142183 -0.097042053661964556 -0.64461162833496932 0.345970537017464 0.048531269214026146 -0.2195085149530881 -0.59944475093865857 -0.044631692981535478
leaf_weight=29 22 5090 34 20 24 22 94 20 1319 20 20 107 20 109 21 29 244 206 23 20 20 96 297 27 25 92 1668 446 99 243
leaf_count=29 22 5090 34 20 24 22 94 20 1319 20 20 107 20 109 21 29 244 206 23 20 20 96 297 27 25 92 1668 446 99 243
internal_value=0 0.00237096 0.0595558 0.116472 0.0860557 0.384955 0.183126 0.97026 0.104028 -0.00963742 0.113181 -0.0866565 -0.902328 0.0480229 -0.259885 -0.0422662 0.194182 0.163678 0.58353 0.871367 -0.832813 -0.13906 -0.0606299 -0.505982 -0.0184792 -0.0164298 -0.0208481 -0.0405359 -0.0258412 -0.205235
internal_weight=0 10457 2794 1533 1377 156 116 40 1353 1261 486 775 40 466 150 735 316 235 72 49 41 500 393 49 7663 7638 7546 5878 5432 342
internal_count=10506 10457 2794 1533 1377 156 116 40 1353 1261 486 775 40 466 150 735 316 235 72 49 41 500 393 49 7663 7638 7546 5878 5432 342
is_linear=0
shrinkage=0.5


Tree=17
num_leaves=31
num_cat=0
split_feature=18 24 18 31 16 32 16 30 30 16 18 36 18 30 38 10 10 5 18 24 24 15 32 32 32 18 38 30 24 15
split_gain=45.5355 47.7596 90.3477 89.8316 85.4129 133.354 107.191 91.4015 69.2006 98.7216 63.4625 61.4066 58.5884 104.128 100.355 277.705 206.982 92.0528 99.1667 79.5583 95.7684 130.234 131.889 239.405 99.5913 99.2199 88.8056 66.5713 74.1228 185.853
threshold=762.00000000000011 2124.3499750000005 588.0499880000001 123598.1015 238.94999924999999 -3.7949999549999993 236.25499955000001 88.034999850000005 89.375000000000014 238.67000045 616.0499880000001 45.889999400000008 634.0499880000001 91.715000150000023 0.77974998950000007 0.23550000000000001 0.18050000050000001 88.389999400000008 659.95001200000013 2893.7500000000005 2736.3499750000005 36011.349600000009 -19.185000399999996 -32.520000449999991 -54.884998349999996 630.0499880000001 0.74524998650000007 91.215000150000023 2385.9000250000004 38013.300800000005
decision_type=2 2 2 2 2 2 2 2 2 2 2 2 2 2 2 2 2 2 2 2 2 2 2 2 2 2 2 2 2 2
left_child=1 11 3 4 6 -6 7 -3 9 10 -4 -1 13 19 -15 16 -16 18 -14 20 26 22 23 24 -22 -24 -10 28 -28 -30
right_child=-2 2 8 -5 5 -7 -8 -9 12 -11 -12 -13 17 14 15 -17 -18 -19 -20 -21 21 -23 25 -25 -26 -27 27 -29 29 -31
leaf_value=-0.13077738053949647 0.73553102711836493 -0.57288455567322671 -0.041983349451319117 0.99580410428536248 1.6244568313148036 0.091309017300404402 -0.94969784561544657 0.39916768174787814 1.0435559234835885 -1.285635463538624 -0.63734974958268664 -0.92821819431803843 -0.086872352564514851 0.11848813828411464 0.59857854049187154 0.14491671744311593 2.6975952542346455 0.012285390183323081 -0.52872332294498559 0.39868255503781475 -0.79635636661859122 -1.3813013606907234 0.19810442163826741 -1.6565893943318062 0.2960535823195069 -0.74982154509052634 0.22613251681029986 0.20117280712793706 -0.031697124658718635 -1.2697407812360795
leaf_weight=228 21 32 223 39 23 37 26 99 22 21 56 27 1591 293 24 97 23 4835 138 134 34 23 201 36 54 32 272 465 1369 31
leaf_count=228 21 32 223 39 23 37 26 99 22 21 56 27 1591 293 24 97 23 4835 138 134 34 23 201 36 54 32 272 465 1369 31
internal_value=0 -0.00147317 0.00385464 0.29715 0.171586 0.679016 -0.0223366 0.16172 -0.0036733 -0.240174 -0.161483 -0.215212 0.00366082 0.0601906 0.286463 0.628247 1.62576 -0.0231228 -0.122139 0.0231979 0.00338111 -0.228083 -0.153786 -0.570375 -0.126014 0.0679172 0.0441206 0.0338316 -0.0127077 -0.0591109
internal_weight=0 10485 10230 256 217 60 157 131 9974 300 279 255 9674 3110 437 144 47 6564 1729 2673 2539 380 357 124 88 233 2159 2137 1672 1400
internal_count=10506 10485 10230 256 217 60 157 131 9974 300 279 255 9674 3110 437 144 47 6564 1729 2673 2539 380 357 124 88 233 2159 2137 1672 1400
is_linear=0
shrinkage=0.5


Tree=18
num_leaves=31
num_cat=0
split_feature=18 5 16 40 16 36 16 25 10 36 10 2 12 30 10 32 41 1 30 24 36 10 10 41 15 16 10 10 1 36
split_gain=37.9222 48.5027 47.7985 44.6409 43.8936 70.7689 40.3781 40.2997 39.6931 38.5051 50.5507 45.2341 42.1673 99.8892 131.302 71.9889 120.818 176.247 69.9045 62.8155 70.0614 63.4988 60.8788 57.7916 200.663 102.557 115.934 169.367 413.043 843.967
threshold=696.2999880000001 91.755001050000018 253.17000045 1.0000000180025095e-35 229.67000045 47.98000145000001 305.65000000000003 1.0000000180025095e-35 0.32050000150000008 44.120000850000004 0.22050000000000003 1.0000000180025095e-35 363.37000120000005 91.564998650000021 0.77199998500000011 -17.935000399999996 1.0000000180025095e-35 1.0000000180025095e-35 89.755001050000018 2447.6500250000004 47.98000145000001 0.42949999850000004 0.21949999800000003 1.0000000180025095e-35 39000.099600000009 252.09999980000001 0.33050000650000005 0.28949999850000002 1.0000000180025095e-35 46.985000600000006
decision_type=2 2 2 2 2 2 2 2 2 2 2 2 2 2 2 2 2 2 2 2 2 2 2 2 2 2 2 2 2 2
left_child=1 3 -2 4 5 -1 9 -4 -7 10 11 -6 13 -11 15 22 -17 -18 19 21 -21 -14 -15 -20 25 26 27 -25 -29 -30
right_child=2 -3 7 -5 6 8 -8 -9 -10 12 -12 -13 18 14 -16 16 17 -19 23 20 -22 -23 -24 24 -26 -27 -28 28 29 -31
leaf_value=-0.043650467013191828 -0.48710092444570713 0.54932223726063967 -0.0042341407795070804 0.091756748714595979 -0.16238914080895483 1.3010140362949598 -0.67381087706788723 -0.46830121110434886 0.32886458436648053 -0.0046367525868392526 0.27923449579941056 0.56081139415502546 0.2042895005444032 -0.47506416814796854 -0.86953055807812651 0.34045458128558426 0.3612001332640648 2.2790654508963875 0.019489164680453246 -1.3083896315831225 -0.25263688306916843 -0.7265462383834852 0.32127407287374476 -0.14837231458893888 -1.2188613701636266 0.10058640898618273 -0.018487621120078276 -0.066319582387361492 -0.19602026003299328 -3.757138223520347
leaf_weight=56 81 41 350 1275 160 21 23 54 21 1462 253 25 57 33 22 119 25 23 3085 30 33 27 88 832 38 733 1365 105 41 28
leaf_count=56 81 41 350 1275 160 21 23 54 21 1462 253 25 57 33 22 119 25 23 3085 30 33 27 88 832 38 733 1365 105 41 28
internal_value=0 0.00660866 -0.136547 0.00437908 -0.00841892 0.324317 -0.0122075 -0.0662629 0.814939 -0.0104348 0.133983 -0.0646593 -0.0181999 0.0500277 0.307832 0.397769 0.610555 1.28018 -0.0371675 -0.377966 -0.755376 -0.0949077 0.104091 -0.0291223 -0.0768519 -0.0628711 -0.113404 -0.242193 -0.690806 -1.64111
internal_weight=0 10021 485 9980 8705 98 8607 404 42 8584 438 185 8146 1772 310 288 167 48 6374 147 63 84 121 6227 3142 3104 2371 1006 174 69
internal_count=10506 10021 485 9980 8705 98 8607 404 42 8584 438 185 8146 1772 310 288 167 48 6374 147 63 84 121 6227 3142 3104 2371 1006 174 69
is_linear=0
shrinkage=0.5


Tree=19
num_leaves=31
num_cat=0
split_feature=15 16 30 18 18 5 24 12 18 5 38 18 5 5 10 2 18 5 32 16 18 24 1 10 18 24 12 30 24 5
split_gain=34.4456 90.2933 60.2358 47.418 35.0756 87.2054 94.7859 88.4743 201.227 143.972 237.76 126.425 141.58 78.7022 74.3353 231.702 73.3167 72.7221 74.3047 65.9418 55.7703 66.8688 98.7479 54.3959 55.9938 53.2372 49.6833 47.8492 44.5302 129.121
threshold=39001.500000000007 251.37999955000001 91.74499895000001 668.75000000000011 664.0499880000001 89.110000600000021 2528.3499750000005 375.08999850000004 644.0499880000001 89.99499895000001 0.7763500215000001 638.75000000000011 89.810001400000019 89.889999400000008 0.27050000450000006 1.0000000180025095e-35 644.0499880000001 87.215000150000023 -60.284999849999991 247.37999955000001 646.0499880000001 2796.0000000000005 1.0000000180025095e-35 0.34450000550000009 685.0499880000001 2893.7500000000005 363.93499985 93.24499895000001 2954.2500000000005 88.625000000000014
decision_type=2 2 2 2 2 2 2 2 2 2 2 2 2 2 2 2 2 2 2 2 2 2 2 2 2 2 2 2 2 2
left_child=4 2 -2 -4 5 16 -7 11 -9 27 -11 -8 14 23 15 20 28 -18 -19 -16 -13 22 -22 -6 -25 -23 -15 -10 -1 -30
right_child=1 -3 3 -5 13 6 7 8 9 10 -12 12 -14 26 19 -17 17 18 -20 -21 21 25 -24 24 -26 -27 -28 -29 29 -31
leaf_value=0.028988269368056107 0.10473838724406823 -0.76596288737796603 1.1916316231263095 0.31527417514360312 -0.045872854062058196 0.72403292109568917 1.4177738620589178 -1.2735819612262826 0.087263665912936189 -1.6141247433261015 0.21439968615304678 0.72727568965891132 0.6001935989564906 0.69478041707323146 0.022418808511058572 -1.6887186993237422 -0.52611391273482389 -1.0100208623778253 -0.062472487229866341 0.48381696963209475 0.09055515640276543 0.83375826162787581 -0.99337856148026493 -0.25057720171508641 -1.0503263405483703 -0.12947150498803239 -0.0015371777063171109 0.61653319135816265 -0.057655965146097471 -1.3653229599479924
leaf_weight=4848 106 21 29 33 444 66 21 33 191 32 40 23 150 26 212 23 96 21 1400 122 47 26 38 452 23 32 1741 55 133 22
leaf_count=4848 106 21 29 33 444 66 21 33 191 32 40 23 150 26 212 23 96 21 1400 122 47 26 38 452 23 32 1741 55 133 22
internal_value=0 0.211526 0.333712 0.725183 -0.003875 0.0134215 0.142906 0.106203 -0.098369 0.023587 -0.598278 0.209668 0.171971 -0.0530148 0.0491541 -0.201433 -0.0086425 -0.10493 -0.0764757 0.190953 0.00463659 -0.111592 -0.394027 -0.171693 -0.289302 0.302321 0.00870858 0.205596 0.0205536 -0.24326
internal_weight=0 189 168 62 10317 7631 1111 1045 351 318 72 694 673 2686 523 189 6520 1517 1421 334 166 143 85 919 475 58 1767 246 5003 155
internal_count=10506 189 168 62 10317 7631 1111 1045 351 318 72 694 673 2686 523 189 6520 1517 1421 334 166 143 85 919 475 58 1767 246 5003 155
is_linear=0
shrinkage=0.5


end of trees

feature_importances:
Column_18=93
Column_10=72
Column_30=66
Column_5=49
Column_15=37
Column_12=34
Column_16=32
Column_24=32
Column_1=30
Column_36=27
Column_38=27
Column_32=20
Column_41=13
Column_11=11
Column_2=10
Column_39=9
Column_31=8
Column_40=7
Column_7=6
Column_25=6
Column_17=4
Column_33=4
Column_28=3

parameters:
[boosting: gbdt]
[objective: regression]
[metric: rmse,l2]
[tree_learner: serial]
[device_type: cpu]
[data: ]
[valid: ]
[num_iterations: 20]
[learning_rate: 0.5]
[num_leaves: 31]
[num_threads: -1]
[deterministic: 0]
[force_col_wise: 0]
[force_row_wise: 0]
[histogram_pool_size: -1]
[max_depth: 20]
[min_data_in_leaf: 20]
[min_sum_hessian_in_leaf: 0.001]
[bagging_fraction: 1]
[pos_bagging_fraction: 1]
[neg_bagging_fraction: 1]
[bagging_freq: 0]
[bagging_seed: 3]
[feature_fraction: 1]
[feature_fraction_bynode: 1]
[feature_fraction_seed: 2]
[extra_trees: 0]
[extra_seed: 6]
[early_stopping_round: 1000]
[first_metric_only: 0]
[max_delta_step: 0]
[lambda_l1: 0]
[lambda_l2: 0]
[linear_lambda: 0]
[min_gain_to_split: 0]
[drop_rate: 0.1]
[max_drop: 50]
[skip_drop: 0.5]
[xgboost_dart_mode: 0]
[uniform_drop: 0]
[drop_seed: 4]
[top_rate: 0.2]
[other_rate: 0.1]
[min_data_per_group: 100]
[max_cat_threshold: 32]
[cat_l2: 10]
[cat_smooth: 10]
[max_cat_to_onehot: 4]
[top_k: 20]
[monotone_constraints: ]
[monotone_constraints_method: basic]
[monotone_penalty: 0]
[feature_contri: ]
[forcedsplits_filename: ]
[refit_decay_rate: 0.9]
[cegb_tradeoff: 1]
[cegb_penalty_split: 0]
[cegb_penalty_feature_lazy: ]
[cegb_penalty_feature_coupled: ]
[path_smooth: 0]
[interaction_constraints: ]
[verbosity: -1]
[saved_feature_importance_type: 0]
[linear_tree: 0]
[max_bin: 255]
[max_bin_by_feature: ]
[min_data_in_bin: 3]
[bin_construct_sample_cnt: 200000]
[data_random_seed: 1]
[is_enable_sparse: 1]
[enable_bundle: 1]
[use_missing: 1]
[zero_as_missing: 0]
[feature_pre_filter: 1]
[pre_partition: 0]
[two_round: 0]
[header: 0]
[label_column: ]
[weight_column: ]
[group_column: ]
[ignore_column: ]
[categorical_feature: ]
[forcedbins_filename: ]
[precise_float_parser: 0]
[objective_seed: 5]
[num_class: 1]
[is_unbalance: 0]
[scale_pos_weight: 1]
[sigmoid: 1]
[boost_from_average: 1]
[reg_sqrt: 0]
[alpha: 0.9]
[fair_c: 1]
[poisson_max_delta_step: 0.7]
[tweedie_variance_power: 1.5]
[lambdarank_truncation_level: 30]
[lambdarank_norm: 1]
[label_gain: ]
[eval_at: ]
[multi_error_top_k: 1]
[auc_mu_weights: ]
[num_machines: 1]
[local_listen_port: 12400]
[time_out: 120]
[machine_list_filename: ]
[machines: ]
[gpu_platform_id: -1]
[gpu_device_id: -1]
[gpu_use_dp: 0]
[num_gpu: 1]

end of parameters

pandas_categorical:null
