tree
version=v3
num_class=1
num_tree_per_iteration=1
label_index=0
max_feature_idx=41
objective=regression
feature_names=Column_0 Column_1 Column_2 Column_3 Column_4 Column_5 Column_6 Column_7 Column_8 Column_9 Column_10 Column_11 Column_12 Column_13 Column_14 Column_15 Column_16 Column_17 Column_18 Column_19 Column_20 Column_21 Column_22 Column_23 Column_24 Column_25 Column_26 Column_27 Column_28 Column_29 Column_30 Column_31 Column_32 Column_33 Column_34 Column_35 Column_36 Column_37 Column_38 Column_39 Column_40 Column_41
feature_infos=[0:1] [0:1] [0:1] [0:1] [0:1] [0:94.629997299999999] [0:1] [0:1] none [0:1] [0:1.8550000200000001] [0:1] [273.14999999999998:1041.1500000000001] none none [-473:41051] [223.64999999999998:372.14999999999998] [0:1] [0:768] [0:1] [0:1] [0:1] none none [0:12288] [0:1] [0:1] [0:1] [0:1] [0:1] [0:127.129997] [0:163800] [-64:96.75] [0:1] none none [0:1016] [0:1] [0:0.99900001299999996] [0:1] [0:1] [0:1]
tree_sizes=2881 2893 2909 2863

Tree=0
num_leaves=31
num_cat=0
split_feature=5 20 1 7 38 5 36 30 1 41 36 0 11 40 39 33 40 10 9 7 10 31 30 18 31 12 36 10 39 5
split_gain=46344 52840.8 3856.04 828.494 639.036 342.52 59.4119 38.7845 13.1412 7.1767 5.82341 4.55268 4.21339 2.95175 3.62352 1.99861 1.27465 1.26858 0.539875 0.4413 0.33797 0.253218 0.176531 0.285539 0.161152 0.132589 0.143409 0.130256 0.123779 0.121914
threshold=1.0000000180025095e-35 1.0000000180025095e-35 1.0000000180025095e-35 1.0000000180025095e-35 0.70149999850000011 16.689999600000004 40.500000000000007 55.005001100000008 1.0000000180025095e-35 1.0000000180025095e-35 54.434999450000007 1.0000000180025095e-35 1.0000000180025095e-35 1.0000000180025095e-35 1.0000000180025095e-35 1.0000000180025095e-35 1.0000000180025095e-35 0.22050000000000003 1.0000000180025095e-35 1.0000000180025095e-35 0.16749999700000004 114869.3515 91.99499895000001 656.95001200000013 137879.95300000004 371.46000135000003 47.98000145000001 0.16049999700000003 1.0000000180025095e-35 87.99499895000001
decision_type=2 2 2 2 2 2 2 2 2 2 2 2 2 2 2 2 2 2 2 2 2 2 2 2 2 2 2 2 2 2
left_child=2 5 -1 11 -3 -2 -6 -7 9 13 12 -4 15 14 27 17 20 19 -14 -10 -11 25 23 -15 -22 -19 -27 -8 -21 -23
right_child=1 4 3 -5 6 7 8 -9 10 16 -12 -13 18 22 -16 -17 -18 21 -20 28 24 29 -24 -25 -26 26 -28 -29 -30 -31
leaf_value=-4.754794883057226 11.877366985594691 2.4356863185663227 -13.78365220011686 -10.051664533179471 -0.86092065352863456 13.520909808109213 0.030992144928133205 14.459773432335176 -0.040802006332165276 0.018204217139419734 -0.078778468851437161 -13.49009501262776 -0.068154962144215542 0.081266909731451425 0.062711823647862888 0.029034125484423915 -0.025939233849369085 0.0012108810445071783 -0.02495350072186113 -0.017820790933371064 0.0012191948459909906 -0.018961829250967156 0.092981765340765965 0.028749837672911095 0.016116221904154147 -0.0027402190695769175 -0.015127674699820085 0.016614921922139383 0.016620730487878425 -0.0085438004234838719
leaf_weight=20 34 27 28 23 20 22 179 22 401 445 347 25 338 120 665 353 366 1003 92 200 1649 409 182 33 204 711 348 1314 30 896
leaf_count=20 34 27 28 23 20 22 179 22 401 445 347 25 338 120 665 353 366 1003 92 200 1649 409 182 33 204 711 348 1314 30 896
internal_value=0.00341027 0.104256 -10.9321 -12.5577 0.0063784 13.0693 1.34028e-05 13.9903 0.00168756 0.0195097 -0.0162354 -13.6452 -0.0116961 0.0387912 0.0320125 -0.00702986 0.00146595 -0.0102141 -0.0589119 -0.0307879 0.00583074 -0.00635843 0.0824581 0.0699397 0.00285923 -0.00290893 -0.00681088 0.0183386 -0.0133284 -0.0118089
internal_weight=0 10410 96 76 10332 78 10305 44 10285 5157 5128 53 4781 2493 2158 4351 2664 3998 430 631 2298 3367 335 153 1853 2062 1059 1493 230 1305
internal_count=10506 10410 96 76 10332 78 10305 44 10285 5157 5128 53 4781 2493 2158 4351 2664 3998 430 631 2298 3367 335 153 1853 2062 1059 1493 230 1305
is_linear=0
shrinkage=1


Tree=1
num_leaves=31
num_cat=0
split_feature=30 5 32 19 36 19 32 38 36 1 32 41 36 11 40 39 33 10 40 10 7 28 9 30 30 18 5 25 30 18
split_gain=12284.4 15241.1 1268.32 309.8 275.339 331.396 212.877 37.5734 6.81191 3.2425 2.14164 1.76969 1.44291 1.07415 0.733024 0.891072 0.497862 0.39273 0.319243 0.133437 0.129816 0.223544 0.118305 0.110592 0.103284 0.10894 0.0904506 0.086821 0.0855806 0.0718954
threshold=50.565000550000008 24.754999200000004 5.8949999800000006 1.0000000180025095e-35 28.500000000000004 1.0000000180025095e-35 -1.0000000180025095e-35 0.71999999900000011 41.309999450000007 1.0000000180025095e-35 13.929999850000002 1.0000000180025095e-35 54.434999450000007 1.0000000180025095e-35 1.0000000180025095e-35 1.0000000180025095e-35 1.0000000180025095e-35 0.27050000450000006 1.0000000180025095e-35 0.32950000450000005 1.0000000180025095e-35 1.0000000180025095e-35 1.0000000180025095e-35 90.375000000000014 91.654998800000016 654.75000000000011 88.729999550000016 1.0000000180025095e-35 92.375000000000014 644.69998200000009
decision_type=2 2 2 2 2 2 2 2 2 2 2 2 2 2 2 2 2 2 2 2 2 2 2 2 2 2 2 2 2 2
left_child=2 4 6 -4 5 -2 -1 -3 -9 11 -7 14 13 16 15 -10 17 20 19 26 21 -11 -15 -16 25 -14 -13 -19 -18 -25
right_child=1 7 3 -5 -6 10 -8 8 9 12 -12 18 24 22 23 -17 28 27 -20 -21 -22 -23 -24 29 -26 -27 -28 -29 -30 -31
leaf_value=-2.4852650413910546 4.5668744824149394 -0.58013299034376231 -5.540176896821885 -7.9693655014038089 8.1201697190602626 6.8671869039535522 -4.6385250958529385 0.22666163300869591 0.0074235918995390051 -0.023805435899779247 7.0985763072967529 0.0082273441915241136 -0.038541965740045807 -0.035782616717407491 0.015067596452753627 0.02949931249022484 0.0059237616719334677 -0.0027674384904534067 -0.014674754196566739 -0.0029351536312517321 -0.0089479935803911097 0.024693179596215486 -0.014815955777608213 0.06221064470890092 -0.048839182188862532 -0.0068974298425018791 -0.00044002327534256011 -0.0091001488856808019 0.021611000319206788 0.039633859247375752
leaf_weight=24 22 28 21 35 24 20 22 33 1487 479 20 743 122 338 41 660 198 2434 366 1048 358 25 84 41 189 35 506 696 155 252
leaf_count=24 22 28 21 35 24 20 22 33 1487 479 20 743 122 338 41 660 198 2434 366 1048 358 25 84 41 189 35 506 696 155 252
internal_value=0 0.0535338 -5.46045 -7.05842 6.68222 6.12559 -3.51509 -0.00171595 -0.000142024 -0.000871723 6.98288 0.00799141 -0.0097886 -0.00752569 0.0175996 0.0142098 -0.00518663 -0.00677818 -0.000960096 0.00122517 -0.0162284 -0.0213998 -0.0316092 0.0393896 -0.0409657 -0.0314875 0.00471598 -0.00417561 0.0128119 0.0427931
internal_weight=0 10404 102 56 86 62 46 10318 10290 10257 40 5144 5113 4767 2481 2147 4345 3992 2663 2297 862 504 422 334 346 157 1249 3130 353 293
internal_count=10506 10404 102 56 86 62 46 10318 10290 10257 40 5144 5113 4767 2481 2147 4345 3992 2663 2297 862 504 422 334 346 157 1249 3130 353 293
is_linear=0
shrinkage=0.5


Tree=2
num_leaves=31
num_cat=0
split_feature=36 18 30 32 15 18 18 31 36 16 1 41 36 11 17 38 30 28 2 33 10 16 15 5 15 40 15 36 18 28
split_gain=3707.6 3369.96 271.161 302.496 255.611 231.501 115.793 69.3267 62.7951 9.30939 0.833999 0.422434 0.334617 0.363058 0.230123 0.232996 0.201708 0.150124 0.150502 0.124345 0.154939 0.123167 0.0999601 0.0970279 0.0962237 0.0807634 0.0690051 0.0673784 0.0908644 0.0853247
threshold=1.0000000180025095e-35 519.00000000000011 51.565000550000008 10.699999800000002 284.00000000000006 1.0000000180025095e-35 734.00000000000011 35271.500000000007 40.500000000000007 265.52500000000003 1.0000000180025095e-35 1.0000000180025095e-35 53.110000600000006 1.0000000180025095e-35 1.0000000180025095e-35 0.74959999300000013 89.625000000000014 1.0000000180025095e-35 1.0000000180025095e-35 1.0000000180025095e-35 0.33050000650000005 258.52500000000003 34989.349600000009 88.610000600000021 38971.300800000005 1.0000000180025095e-35 39002.650400000006 47.98000145000001 586.20001200000013 1.0000000180025095e-35
decision_type=2 2 2 2 2 2 2 2 2 2 2 2 2 2 2 2 2 2 2 2 2 2 2 2 2 2 2 2 2 2
left_child=4 2 -2 7 -1 -6 8 -4 -3 10 11 14 13 19 15 -10 -16 18 26 20 21 27 -14 -20 -15 -13 -17 29 -29 -12
right_child=1 6 3 -5 5 -7 -8 -9 9 -11 12 25 22 24 16 17 -18 -19 23 -21 -22 -23 -24 -25 -26 -27 -28 28 -30 -31
leaf_value=-2.2116261402765911 1.4887148105353116 0.82578468581904541 1.8412299510978518 4.4928407248328712 -2.8755687630694844 -5.0164308037076681 -1.2037148443516343 3.1419615149497986 0.057545783419090397 -0.28921997532181976 -0.0074163445084596494 0.00069201793854764928 0.0042985045176465063 -0.015830324148407102 -0.052557530067861083 0.015855174388018558 -0.00067022090177919907 0.0004067556833263261 0.012078860433203413 0.0065012852961947561 -0.0013006576409262877 -0.042890643489081413 -0.022130024890692844 -0.00035831052765990197 -0.046665380605392985 -0.0073244200141813895 -0.0052777979581151158 0.023209619391127489 -0.010937308744611615 0.0086568732536031218
leaf_weight=30 25 23 21 34 23 28 20 20 26 28 236 2296 40 402 20 1126 295 347 298 351 2792 25 339 331 27 364 40 20 752 127
leaf_count=30 25 23 21 34 23 28 20 20 26 28 236 2296 40 402 20 1126 295 347 298 351 2792 25 339 331 27 364 40 20 752 127
internal_value=0 0.026182 2.9148 3.39016 -3.36972 -4.05094 -0.00179492 2.47573 0.000537769 -0.00130824 -0.000522057 0.00397316 -0.00504542 -0.00390047 0.00866338 0.0104982 -0.00396465 0.0099271 0.0117675 -0.0025176 -0.00331862 -0.00817566 -0.0193407 0.00553402 -0.017771 -0.000404968 0.0151302 -0.00741101 -0.0100527 -0.00179293
internal_weight=0 10425 100 75 81 51 10325 41 10305 10282 10254 5143 5111 4732 2483 2168 315 2142 1795 4303 3952 1160 379 629 429 2660 1166 1135 772 363
internal_count=10506 10425 100 75 81 51 10325 41 10305 10282 10254 5143 5111 4732 2483 2168 315 2142 1795 4303 3952 1160 379 629 429 2660 1166 1135 772 363
is_linear=0
shrinkage=0.5


Tree=3
num_leaves=31
num_cat=0
split_feature=30 38 12 18 16 19 16 30 30 32 38 18 36 16 1 11 36 10 30 18 30 16 7 10 16 30 30 18 15 12
split_gain=975.887 1088.67 274.132 582.799 221.065 135.535 81.8121 78.6979 74.4296 9.73518 5.09994 2.00744 1.48252 1.0638 0.19108 0.130826 0.105005 0.095336 0.0893099 0.0800844 0.0862669 0.14815 0.0694818 0.0763726 0.0661407 0.0800176 0.0590579 0.0886814 0.0832794 0.0630208
threshold=1.0000000180025095e-35 0.17100000400000001 335.65000000000003 1.0000000180025095e-35 301.77500000000003 1.0000000180025095e-35 290.02500000000003 87.159999850000005 95.689998650000021 10.699999800000002 0.71999999900000011 721.50000000000011 41.309999450000007 264.52500000000003 1.0000000180025095e-35 1.0000000180025095e-35 55.389999400000008 0.15949999500000003 93.215000150000023 666.0499880000001 91.465000150000023 241.32999935000001 1.0000000180025095e-35 0.14050000200000004 248.47499980000001 92.375000000000014 92.284999850000005 662.0499880000001 36976.750000000007 365.05999985000005
decision_type=2 2 2 2 2 2 2 2 2 2 2 2 2 2 2 2 2 2 2 2 2 2 2 2 2 2 2 2 2 2
left_child=2 4 3 -1 5 -2 -4 -3 10 -7 -9 12 -12 14 15 22 17 -16 19 20 21 -17 23 -14 25 -21 27 29 -29 -19
right_child=1 7 6 -5 -6 9 -8 8 -10 -11 11 -13 13 -15 16 18 -18 26 -20 24 -22 -23 -24 -25 -26 -27 -28 28 -30 -31
leaf_value=1.3117914110422135 3.2531558230519293 -0.90498387429155025 -3.0155286284593434 -2.3093937212228774 0.26805747151374815 1.9401681971549989 -1.7353474277382095 -0.22164974648218888 0.92016816965240811 1.5031792659025927 -0.10606941038911993 0.14451250733933799 0.0059398555937218546 0.10309382463106885 -0.0070244450041574841 0.011499912156759537 -0.011312395359271173 0.0019150125168287957 0.026177220820524805 -0.021543971875318042 0.022714590495542704 -0.027509070187807082 0.004990989880722746 -0.00066483646160344137 -0.029035382671281695 0.015144605100864456 0.0014510702252659058 -0.03416023532030877 -0.0056299740099348128 -0.0036716307979308025
leaf_weight=20 20 24 26 25 20 25 24 26 22 26 33 24 507 25 731 129 307 768 74 23 103 30 970 3202 23 42 1675 41 68 1473
leaf_count=20 20 24 26 25 20 25 24 26 22 26 33 24 507 25 731 129 307 768 74 23 103 30 970 3202 23 42 1675 41 68 1473
internal_value=0 0.0145568 -1.59527 -0.699978 1.73639 2.15 -2.40104 -0.000625972 0.00148209 1.71739 -0.00048512 7.59929e-05 -0.00026306 7.9557e-05 -0.000173773 0.00198543 -0.00235003 -0.00177151 0.0103955 0.00705876 0.0114421 0.00413973 0.00122333 0.000237989 -0.0059915 0.00216249 -0.000817503 -0.00243446 -0.0163615 -0.00175706
internal_weight=0 10411 95 45 91 71 50 10320 10296 51 10274 10248 10224 10191 10166 5103 5063 4756 424 350 262 159 4679 3709 88 65 4025 2350 109 2241
internal_count=10506 10411 95 45 91 71 50 10320 10296 51 10274 10248 10224 10191 10166 5103 5063 4756 424 350 262 159 4679 3709 88 65 4025 2350 109 2241
is_linear=0
shrinkage=0.5


end of trees

feature_importances:
Column_30=15
Column_36=12
Column_18=11
Column_10=8
Column_16=7
Column_5=6
Column_1=5
Column_15=5
Column_32=5
Column_38=5
Column_40=5
Column_7=4
Column_11=4
Column_12=3
Column_19=3
Column_28=3
Column_31=3
Column_33=3
Column_39=3
Column_41=3
Column_9=2
Column_0=1
Column_2=1
Column_17=1
Column_20=1
Column_25=1

parameters:
[boosting: gbdt]
[objective: regression]
[metric: rmse,l2]
[tree_learner: serial]
[device_type: cpu]
[data: ]
[valid: ]
[num_iterations: 20]
[learning_rate: 0.5]
[num_leaves: 31]
[num_threads: -1]
[deterministic: 0]
[force_col_wise: 0]
[force_row_wise: 0]
[histogram_pool_size: -1]
[max_depth: 20]
[min_data_in_leaf: 20]
[min_sum_hessian_in_leaf: 0.001]
[bagging_fraction: 1]
[pos_bagging_fraction: 1]
[neg_bagging_fraction: 1]
[bagging_freq: 0]
[bagging_seed: 3]
[feature_fraction: 1]
[feature_fraction_bynode: 1]
[feature_fraction_seed: 2]
[extra_trees: 0]
[extra_seed: 6]
[early_stopping_round: 1000]
[first_metric_only: 0]
[max_delta_step: 0]
[lambda_l1: 0]
[lambda_l2: 0]
[linear_lambda: 0]
[min_gain_to_split: 0]
[drop_rate: 0.1]
[max_drop: 50]
[skip_drop: 0.5]
[xgboost_dart_mode: 0]
[uniform_drop: 0]
[drop_seed: 4]
[top_rate: 0.2]
[other_rate: 0.1]
[min_data_per_group: 100]
[max_cat_threshold: 32]
[cat_l2: 10]
[cat_smooth: 10]
[max_cat_to_onehot: 4]
[top_k: 20]
[monotone_constraints: ]
[monotone_constraints_method: basic]
[monotone_penalty: 0]
[feature_contri: ]
[forcedsplits_filename: ]
[refit_decay_rate: 0.9]
[cegb_tradeoff: 1]
[cegb_penalty_split: 0]
[cegb_penalty_feature_lazy: ]
[cegb_penalty_feature_coupled: ]
[path_smooth: 0]
[interaction_constraints: ]
[verbosity: -1]
[saved_feature_importance_type: 0]
[linear_tree: 0]
[max_bin: 255]
[max_bin_by_feature: ]
[min_data_in_bin: 3]
[bin_construct_sample_cnt: 200000]
[data_random_seed: 1]
[is_enable_sparse: 1]
[enable_bundle: 1]
[use_missing: 1]
[zero_as_missing: 0]
[feature_pre_filter: 1]
[pre_partition: 0]
[two_round: 0]
[header: 0]
[label_column: ]
[weight_column: ]
[group_column: ]
[ignore_column: ]
[categorical_feature: ]
[forcedbins_filename: ]
[precise_float_parser: 0]
[objective_seed: 5]
[num_class: 1]
[is_unbalance: 0]
[scale_pos_weight: 1]
[sigmoid: 1]
[boost_from_average: 1]
[reg_sqrt: 0]
[alpha: 0.9]
[fair_c: 1]
[poisson_max_delta_step: 0.7]
[tweedie_variance_power: 1.5]
[lambdarank_truncation_level: 30]
[lambdarank_norm: 1]
[label_gain: ]
[eval_at: ]
[multi_error_top_k: 1]
[auc_mu_weights: ]
[num_machines: 1]
[local_listen_port: 12400]
[time_out: 120]
[machine_list_filename: ]
[machines: ]
[gpu_platform_id: -1]
[gpu_device_id: -1]
[gpu_use_dp: 0]
[num_gpu: 1]

end of parameters

pandas_categorical:null
