tree
version=v3
num_class=1
num_tree_per_iteration=1
label_index=0
max_feature_idx=41
objective=regression
feature_names=Column_0 Column_1 Column_2 Column_3 Column_4 Column_5 Column_6 Column_7 Column_8 Column_9 Column_10 Column_11 Column_12 Column_13 Column_14 Column_15 Column_16 Column_17 Column_18 Column_19 Column_20 Column_21 Column_22 Column_23 Column_24 Column_25 Column_26 Column_27 Column_28 Column_29 Column_30 Column_31 Column_32 Column_33 Column_34 Column_35 Column_36 Column_37 Column_38 Column_39 Column_40 Column_41
feature_infos=[0:1] [0:1] [0:1] [0:1] [0:1] [0:94.629997299999999] [0:1] [0:1] none [0:1] [0:1.8550000200000001] [0:1] [273.14999999999998:1041.1500000000001] none none [-473:41051] [223.64999999999998:372.14999999999998] [0:1] [0:768] [0:1] [0:1] [0:1] none none [0:12288] [0:1] [0:1] [0:1] [0:1] [0:1] [0:127.129997] [0:163800] [-64:96.75] [0:1] none none [0:1016] [0:1] [0:0.99900001299999996] [0:1] [0:1] [0:1]
tree_sizes=2828 2842 2877 2820 2868 2879 2878 2860 2901 2864 2851 2896 2862 2850 2859 2910 2882 2895 2891 2859

Tree=0
num_leaves=31
num_cat=0
split_feature=2 5 33 28 1 33 11 36 5 30 36 15 36 41 31 10 18 5 16 30 18 30 16 18 1 10 16 30 1 30
split_gain=40.6887 19.3135 16.4338 15.0494 14.6284 12.7879 8.15226 5.73027 5.03059 4.0492 3.9 3.32119 3.31639 3.81866 3.00701 2.91595 2.83008 4.22455 2.53036 3.63554 4.02515 3.19943 2.91629 2.36747 2.29546 2.28388 2.09292 2.27548 2.08316 2.0524
threshold=1.0000000180025095e-35 24.754999200000004 1.0000000180025095e-35 1.0000000180025095e-35 1.0000000180025095e-35 1.0000000180025095e-35 1.0000000180025095e-35 50.014999400000008 86.344997400000011 89.375000000000014 54.434999450000007 34001.050800000005 49.125000000000007 1.0000000180025095e-35 140225.95300000001 0.63949999250000011 621.0499880000001 87.889999400000008 243.92000045 91.74499895000001 634.0499880000001 90.625000000000014 238.35000075000002 609.0499880000001 1.0000000180025095e-35 0.17950000600000002 247.67000045 92.185001350000007 1.0000000180025095e-35 89.220001200000013
decision_type=2 2 2 2 2 2 2 2 2 2 2 2 2 2 2 2 2 2 2 2 2 2 2 2 2 2 2 2 2 2
left_child=1 -1 14 4 6 8 11 9 23 -5 16 -3 18 -14 15 24 -10 -18 21 20 -20 22 -13 -6 -2 -7 -19 -28 -16 -8
right_child=2 3 -4 7 5 25 29 -9 10 -11 -12 12 13 -15 28 -17 17 26 19 -21 -22 -23 -24 -25 -26 -27 27 -29 -30 -31
leaf_value=-0.15552789539229811 -0.32624600270389281 -0.36216046006150698 -0.12447989469204013 -0.45141679454307776 -0.37079920424024326 -0.32354692613693786 -0.35135218048832134 -0.42690691675784931 -0.28945350249804463 -0.34682168125669721 -0.39267969364898991 -0.29042659760209072 -0.23041449800406283 -0.31711285742087159 -0.2795409607226203 -0.3863848744089784 -0.38382898330188786 -0.30666687551033034 -0.32360598450886302 -0.30837948107038288 -0.4699924593140607 -0.25933275131353423 -0.38531354872497625 -0.44552306129099994 -0.22591146567906406 -0.22661188551429923 -0.48952415177586384 -0.33935067160809634 -0.22352590037567249 -0.21995657182789458
leaf_weight=169 107 210 290 98 318 78 32 305 324 1658 308 263 348 200 247 75 428 670 118 1192 78 522 117 159 122 275 26 846 506 417
leaf_count=169 107 210 290 98 318 78 32 305 324 1658 308 263 348 200 247 75 428 670 118 1192 78 522 117 159 122 275 26 846 506 417
internal_value=-0.311056 -0.322989 -0.229917 -0.326137 -0.31498 -0.33817 -0.29222 -0.363647 -0.348504 -0.352659 -0.339851 -0.301486 -0.296996 -0.262056 -0.258845 -0.300817 -0.332758 -0.33988 -0.305358 -0.318756 -0.381862 -0.28474 -0.319642 -0.395707 -0.272793 -0.248031 -0.327682 -0.343828 -0.2419 -0.229321
internal_weight=0 9159 1347 8990 6929 3432 3497 2061 3079 1756 2602 3048 2838 548 1057 304 2294 1970 2290 1388 196 902 380 477 229 353 1542 872 753 449
internal_count=10506 9159 1347 8990 6929 3432 3497 2061 3079 1756 2602 3048 2838 548 1057 304 2294 1970 2290 1388 196 902 380 477 229 353 1542 872 753 449
is_linear=0
shrinkage=1


Tree=1
num_leaves=31
num_cat=0
split_feature=2 15 30 16 30 16 18 30 16 18 30 18 30 18 30 33 18 18 18 16 16 30 18 16 30 16 12 16 30 16
split_gain=10.1722 5.0033 7.1629 8.93773 17.1447 8.21511 8.15593 7.50312 5.83438 5.59273 4.73036 5.27984 4.38195 5.80307 4.2203 4.10845 3.81502 3.37287 3.29604 2.96348 2.90299 2.90893 3.08883 2.72976 2.71281 2.40926 2.35171 2.27206 2.11571 2.1145
threshold=1.0000000180025095e-35 2186.0000000000005 89.314998650000021 239.17000045 91.154998800000016 246.17000045 633.0499880000001 91.965000150000023 234.97500075000002 639.95001200000013 90.465000150000023 613.95001200000013 91.784999850000005 651.95001200000013 90.465000150000023 1.0000000180025095e-35 596.0499880000001 604.0499880000001 616.0499880000001 241.32999935000001 252.09999980000001 92.435001350000007 645.75000000000011 235.87999955000001 89.849998500000012 242.87999955000001 360.17999880000002 242.87999955000001 93.875000000000014 242.09999980000001
decision_type=2 2 2 2 2 2 2 2 2 2 2 2 2 2 2 2 2 2 2 2 2 2 2 2 2 2 2 2 2 2
left_child=1 -1 8 10 6 12 14 9 16 -7 11 -4 13 29 17 26 -3 -5 -16 -8 21 22 -9 24 -13 -20 -2 -15 -22 -6
right_child=15 2 3 4 5 7 19 20 -10 -11 -12 23 -14 27 18 -17 -18 -19 25 -21 28 -23 -24 -25 -26 -27 -28 -29 -30 -31
leaf_value=0.079525188321158999 0.085490709038115009 0.011190478411507816 0.051372285494950619 -0.031553408851024173 0.060821750569390133 -0.029532693888681915 -0.070898696635182473 0.017149454460112876 -0.16148388040773037 -0.14522168361449184 0.076044174702191311 -0.060524540349602869 0.052978136362541062 -0.013471159254176876 0.02175738145305732 0.093287952831175566 -0.093057289473403984 -0.13370098898866475 -0.012817697466401807 -0.17513211879476503 -0.036276588200822656 0.021902268355536946 -0.058170562619869547 -0.078413902298572272 0.055626507773456617 -0.093723536477308481 0.0167390726044623 -0.12757533249172448 -0.001720380949541665 0.0067474133041664584
leaf_weight=168 144 199 403 146 250 271 108 264 122 170 450 86 883 78 286 290 157 181 202 185 910 1286 281 168 121 169 913 99 863 653
leaf_count=168 144 199 403 146 250 271 108 264 122 170 450 86 883 78 286 290 157 181 202 185 910 1286 281 168 121 169 913 99 863 653
internal_value=0 -0.00596647 -0.00756392 -0.00421979 -0.0108714 0.000311401 -0.063484 -0.0125685 -0.0671216 -0.0741294 0.0352403 0.0116391 0.026852 0.00549147 -0.0416794 0.0405694 -0.034784 -0.0880938 -0.0185781 -0.136712 -0.00503567 0.00892837 -0.0216853 -0.0310609 0.00737052 -0.0496724 0.0261054 -0.0772921 -0.0194565 0.0217182
internal_weight=0 9159 8991 8513 7285 6008 1277 4045 478 441 1228 778 1963 1080 984 1347 356 327 657 293 3604 1831 545 375 207 371 1057 177 1773 903
internal_count=10506 9159 8991 8513 7285 6008 1277 4045 478 441 1228 778 1963 1080 984 1347 356 327 657 293 3604 1831 545 375 207 371 1057 177 1773 903
is_linear=0
shrinkage=0.5


Tree=2
num_leaves=31
num_cat=0
split_feature=28 33 9 15 1 2 10 31 33 36 11 18 10 30 18 30 30 18 30 16 36 18 30 18 30 10 24 15 18 30
split_gain=4.50789 3.3351 2.94861 2.28507 2.45063 1.82563 2.05803 2.36519 1.77932 2.51538 1.63704 1.59991 1.41575 1.06988 1.04366 2.3863 2.25459 1.47513 2.32462 1.94332 1.464 1.04276 1.39695 1.01133 1.15271 0.952407 1.28381 1.14081 1.16201 0.939523
threshold=1.0000000180025095e-35 1.0000000180025095e-35 1.0000000180025095e-35 37011.150400000006 1.0000000180025095e-35 1.0000000180025095e-35 0.45649999350000009 147925.89850000004 1.0000000180025095e-35 47.98000145000001 1.0000000180025095e-35 648.95001200000013 0.39949999750000004 91.74499895000001 629.50000000000011 91.465000150000023 90.965000150000023 590.0499880000001 89.909999850000005 246.07999935000001 45.48000145000001 642.75000000000011 91.465000150000023 651.95001200000013 92.314998650000021 0.27050000450000006 2193.9000250000004 34002.849600000009 637.0499880000001 89.99499895000001
decision_type=2 2 2 2 2 2 2 2 2 2 2 2 2 2 2 2 2 2 2 2 2 2 2 2 2 2 2 2 2 2
left_child=1 2 3 4 10 25 -7 -8 9 -2 14 -9 -10 -14 16 -16 17 -1 -19 -20 -17 -5 -23 -22 -25 26 -6 -27 29 -29
right_child=8 -3 -4 21 5 6 7 11 12 -11 -12 -13 13 -15 15 20 -18 18 19 -21 23 22 -24 24 -26 27 -28 28 -30 -31
leaf_value=0.041671914536081739 -0.0065245463736419897 0.03970008378567487 0.043788100002113306 0.034678735593448931 0.041247792296344413 0.05987575240250604 -0.058434817653413081 0.076230132006290738 0.039662971215985832 -0.044668159611464947 0.042761696109992864 -0.0096480474926971104 -0.066598156827048546 0.014603590172576323 -0.050448588701973371 -0.053650136247764282 0.049982835734053023 -0.061179516719927808 0.022840723583596463 -0.12845273063842044 0.025151857101039864 -0.056361109299785633 0.01253608998700252 -0.05088345908006886 0.0034644499628075989 -0.060045848398469388 -0.041675453417189638 -0.035460639964488415 -0.021267192159481529 0.019554136366364949
leaf_weight=146 793 646 406 526 50 153 147 87 198 950 266 144 76 87 254 109 309 177 275 23 475 79 1071 112 757 125 702 96 862 405
leaf_count=146 793 646 406 526 50 153 147 87 198 950 266 144 76 87 254 109 309 177 275 23 475 79 1071 112 757 125 702 96 862 405
internal_value=0 0.00518286 0.00230791 1.66223e-05 -0.00477484 -0.0154106 0.0109487 -0.00885507 -0.020697 -0.0273142 0.00537733 0.0226957 0.011253 -0.0232573 0.00160629 -0.00573581 0.0150826 -0.00228323 -0.0157937 0.0111637 0.00208046 0.0162379 0.00780315 0.00660028 -0.00354011 -0.0216592 -0.0361619 -0.0143299 -0.0101373 0.00901238
internal_weight=0 8402 7756 7350 5674 2771 531 378 2104 1743 2903 231 361 163 2637 1707 930 621 475 298 1453 1676 1150 1344 869 2240 752 1488 1363 501
internal_count=10506 8402 7756 7350 5674 2771 531 378 2104 1743 2903 231 361 163 2637 1707 930 621 475 298 1453 1676 1150 1344 869 2240 752 1488 1363 501
is_linear=0
shrinkage=0.5


Tree=3
num_leaves=31
num_cat=0
split_feature=30 16 18 16 30 5 30 16 30 16 30 16 16 18 18 30 38 16 30 5 18 30 30 30 30 24 16 18 18 30
split_gain=2.24267 6.14341 4.99288 2.6331 3.99123 3.18516 2.84678 2.41525 5.30473 3.39145 2.8142 2.41517 2.31075 2.27362 2.2052 2.70427 1.97327 1.9183 1.88347 3.039 1.86107 1.93366 1.82662 1.65703 1.55873 2.82267 1.30805 1.25014 1.16606 1.13817
threshold=91.564998650000021 243.67000045 642.0499880000001 248.82999935000001 92.284999850000005 88.255001050000018 93.034999850000005 241.42000045 89.909999850000005 233.94999924999999 88.909999850000005 240.42000045 254.67000045 660.95001200000013 625.95001200000013 90.814998650000021 0.7610999945000001 237.10000075000002 90.755001050000018 86.215000150000023 604.95001200000013 89.029998800000016 91.875000000000014 91.064998650000021 90.99499895000001 2257.9000250000004 247.62999955000001 580.20001200000013 613.95001200000013 90.064998650000021
decision_type=2 2 2 2 2 2 2 2 2 2 2 2 2 2 2 2 2 2 2 2 2 2 2 2 2 2 2 2 2 2
left_child=2 -2 7 4 5 -3 13 8 9 10 27 23 -8 -5 24 -16 -13 -10 19 -19 21 -11 -7 -4 25 -9 -17 -1 -12 -27
right_child=1 3 11 6 -6 22 12 14 17 20 28 16 -14 -15 15 26 -18 18 -20 -21 -22 -23 -24 -25 -26 29 -28 -29 -30 -31
leaf_value=0.019763020717461284 0.055512977458979901 0.019427061307363113 -0.043028271342625393 -0.014153885158429471 0.037804373282159721 -0.10548586256113159 0.018085662159308999 0.028684702784483953 0.062065967505373153 -0.091146966203342422 0.064635667276719211 0.026987964344188209 -0.014093418861891435 -0.064418175618418741 -0.13291452275365845 -0.020543590305270545 -0.089376820425345602 0.058489515830373109 0.042373698340644257 -0.024309058945206984 -0.083339265823244635 0.0030230115376444363 -0.020922540678389744 0.051236544358166491 0.019454436651414702 -0.10500933609538428 -0.10938711739752603 -0.059845612753027431 -0.0062349757091254444 -0.033439677110730197
leaf_weight=75 572 648 126 775 1002 73 1145 186 326 74 193 41 1088 317 73 417 327 153 438 402 218 207 510 74 419 69 46 144 83 285
leaf_count=75 572 648 126 775 1002 73 1145 186 326 74 193 41 1088 317 73 417 327 153 438 402 218 207 510 74 419 69 46 144 83 285
internal_value=0 0.00617223 -0.00864621 0.00109435 0.0143743 -0.00469718 -0.00782417 -0.00212343 0.00800018 -0.0195829 0.00974069 -0.0523764 0.00240683 -0.0287453 -0.0177862 -0.0434725 -0.0764123 0.0287868 0.0178614 -0.00148351 -0.0486715 -0.0217762 -0.0315111 -0.00815029 -0.00342981 -0.0211863 -0.0293704 -0.0325824 0.0433231 -0.0473897
internal_weight=0 6130 4376 5558 2233 1231 3325 3808 2313 994 495 568 2233 1092 1495 536 368 1319 993 555 499 281 583 200 959 540 463 219 276 354
internal_count=10506 6130 4376 5558 2233 1231 3325 3808 2313 994 495 568 2233 1092 1495 536 368 1319 993 555 499 281 583 200 959 540 463 219 276 354
is_linear=0
shrinkage=0.5


Tree=4
num_leaves=31
num_cat=0
split_feature=12 30 24 18 30 40 30 16 18 41 16 30 18 16 16 30 18 18 30 18 18 16 30 30 16 16 18 5 5 16
split_gain=1.21801 2.26552 1.90379 1.55378 2.63239 1.49889 1.49763 1.67944 1.51526 1.38022 1.26567 1.45713 1.08611 1.4727 1.08477 1.32846 1.08479 0.932791 0.896462 1.05842 0.965832 0.894838 0.999979 0.869604 0.997916 0.791306 0.786581 0.7526 0.749967 0.800847
threshold=367.58999865000004 91.465000150000023 2618.2500000000005 655.95001200000013 92.595001200000013 1.0000000180025095e-35 90.255001050000018 245.42000045 603.20001200000013 1.0000000180025095e-35 233.52500000000001 89.154998800000016 615.95001200000013 246.07999935000001 250.12999955000001 93.255001050000018 678.95001200000013 677.95001200000013 90.715000150000023 614.0499880000001 638.75000000000011 253.37999955000001 94.005001050000018 92.064998650000021 250.62999955000001 256.42000045000003 678.95001200000013 87.594997400000011 85.864997900000006 237.67000045
decision_type=2 2 2 2 2 2 2 2 2 2 2 2 2 2 2 2 2 2 2 2 2 2 2 2 2 2 2 2 2 2
left_child=6 2 18 9 5 -5 8 28 -1 -3 11 -10 -4 -14 -6 16 -16 -7 19 -2 -20 -17 26 24 -9 -24 -23 -12 -8 -30
right_child=1 3 12 4 14 17 7 23 10 -11 27 -13 13 -15 15 21 -18 -19 20 -21 -22 22 25 -25 -26 -27 -28 -29 29 -31
leaf_value=0.010379030575598429 -0.0069697748123665453 0.024825465674275946 0.0081196029137388086 -0.062656540300859195 0.018791465829935523 0.01021869711358939 0.10095361896674149 -0.016905158521310328 -0.045288593241518051 -0.00052915088349987432 -0.03274919434979872 0.038539056759974405 -0.046116657988828504 -0.13257895923077556 -0.020974610304103938 0.022467719850012783 -0.097026874306956654 -0.097871022784839501 0.01293624128540097 -0.055174300263340817 -0.033653141496769318 -0.007079857249859915 0.031201071381060541 0.0083026071161330876 -0.12581363808282692 -0.0044474225058107487 -0.047398422336578844 -0.12553399817451186 0.050205534689944292 0.018360701915775286
leaf_weight=725 282 1002 69 293 590 151 32 246 81 1156 439 144 298 59 356 370 54 23 489 191 144 316 222 567 23 521 196 23 236 1208
leaf_count=725 282 1002 69 293 590 151 32 246 81 1156 439 144 298 59 356 370 54 23 489 191 144 316 222 567 23 521 196 23 236 1208
internal_value=0 -0.00398936 -0.0209064 0.000947211 -0.00623886 -0.0408274 0.00726526 0.0151012 -0.00556525 0.0112435 -0.0223915 0.0083611 -0.0493067 -0.0604059 -8.54043e-05 -0.00555831 -0.0309912 -0.00406902 -0.00996745 -0.026435 0.00233771 0.000858622 -0.00551219 -0.00280479 -0.026217 0.00620394 -0.0225143 -0.0373684 0.0252431 0.0235653
internal_weight=0 6782 1532 5250 3092 467 3724 2312 1412 2158 687 225 426 357 2625 2035 410 174 1106 473 633 1625 1255 836 269 743 512 462 1476 1444
internal_count=10506 6782 1532 5250 3092 467 3724 2312 1412 2158 687 225 426 357 2625 2035 410 174 1106 473 633 1625 1255 836 269 743 512 462 1476 1444
is_linear=0
shrinkage=0.5


Tree=5
num_leaves=31
num_cat=0
split_feature=40 18 25 10 30 18 16 30 30 16 16 30 10 39 7 7 41 24 30 16 18 16 18 30 18 16 18 30 5 16
split_gain=1.18639 1.94142 1.33151 1.24578 0.835802 2.06786 1.33373 1.25693 1.25075 1.08868 0.926515 0.784855 0.850827 0.780139 1.81197 0.92915 0.758566 0.703987 0.701607 1.64003 1.54145 1.77259 0.962179 0.735501 1.1158 0.679066 0.67232 0.631844 0.854321 0.630675
threshold=1.0000000180025095e-35 649.0499880000001 1.0000000180025095e-35 0.56949999950000019 92.154998800000016 630.95001200000013 245.37999955000001 91.255001050000018 91.064998650000021 247.67000045 252.62999955000001 91.375000000000014 0.26449999250000006 1.0000000180025095e-35 1.0000000180025095e-35 1.0000000180025095e-35 1.0000000180025095e-35 2382.0999750000005 89.564998650000021 243.92000045 589.20001200000013 232.22500075000002 612.95001200000013 88.419998200000023 559.0499880000001 240.60000075000002 663.95001200000013 90.625000000000014 86.389999400000008 240.17000045
decision_type=2 2 2 2 2 2 2 2 2 2 2 2 2 2 2 2 2 2 2 2 2 2 2 2 2 2 2 2 2 2
left_child=2 -2 4 -4 5 7 8 18 -7 26 -9 12 -3 15 -15 -11 -13 -8 20 22 23 -22 -20 24 -1 -10 -6 -21 -29 -24
right_child=1 11 3 -5 9 6 17 10 25 13 -12 16 -14 14 -16 -17 -18 -19 19 27 21 -23 29 -25 -26 -27 -28 28 -30 -31
leaf_value=0.011050287466142563 0.038397388486787594 -0.084309660001761377 0.030424643786656526 -0.0087775251785030921 0.028419794053279615 -0.040991721197046929 0.0070290380076455349 0.024741016908308003 0.031923228314908778 -0.0018413936715963549 -0.082268703019335157 0.019299369851953053 0.014117192401475197 -0.004401075201479929 0.039822450612933893 -0.028691199725180382 -0.010869910631263874 -0.046144273097314621 0.022465277032417505 -0.071769992617937997 0.0085573113447187082 -0.06802778245557356 0.0074412236299394863 0.036569394876822404 -0.06555084461733178 -0.0081070444476889769 -0.0077668050434166452 0.0041859464555444731 -0.058210739329603786 -0.021014431115659527
leaf_weight=158 503 54 565 316 524 278 70 550 123 1020 21 428 37 925 309 471 406 562 602 78 113 228 488 119 68 764 170 143 89 324
leaf_count=158 503 54 565 316 524 278 70 550 123 1020 21 428 37 925 309 471 406 562 602 78 113 228 488 119 68 764 170 143 89 324
internal_value=0 0.0133967 -0.00210734 0.0163635 -0.00409255 -0.00836347 -0.0217607 -0.000287381 -0.0117278 0.00187598 0.0208055 -0.000198312 -0.04429 -0.00262665 0.00667273 -0.0103231 0.00461265 -0.0402548 -0.0052849 9.65855e-05 -0.0188092 -0.0426491 0.00731735 0.00475434 -0.0119978 -0.00255606 0.0195556 -0.0328394 -0.0197507 -0.003913
internal_weight=0 1428 9078 881 8197 4778 1797 2981 1165 3419 571 925 91 2725 1234 1491 834 632 2410 1724 686 341 1414 345 226 887 694 310 232 812
internal_count=10506 1428 9078 881 8197 4778 1797 2981 1165 3419 571 925 91 2725 1234 1491 834 632 2410 1724 686 341 1414 345 226 887 694 310 232 812
is_linear=0
shrinkage=0.5


Tree=6
num_leaves=31
num_cat=0
split_feature=38 30 16 30 18 18 30 16 16 30 5 16 30 18 16 30 5 16 5 30 5 40 18 30 16 18 16 5 30 32
split_gain=0.661704 0.582492 1.05329 0.67186 0.70651 0.60358 0.838229 1.60474 0.955591 1.56444 0.955804 0.743987 0.666489 1.00503 0.637264 0.75337 0.956149 0.969923 0.90514 0.584085 0.570355 0.508574 0.489888 0.478794 1.07963 0.931361 0.518046 0.458408 0.580716 0.437423
threshold=0.77074998600000011 87.934997600000017 229.92000045 89.029998800000016 584.0499880000001 598.0499880000001 90.159999850000005 237.44999924999999 244.92000045 91.845001200000013 87.634998350000004 250.87999955000001 92.064998650000021 665.0499880000001 236.52500000000001 90.904998800000016 87.255001050000018 240.60000075000002 88.420002000000025 91.314998650000021 86.215000150000023 1.0000000180025095e-35 621.95001200000013 92.784999850000005 250.95000020000001 670.95001200000013 248.20000020000001 85.764999400000008 89.74499895000001 10.090000150000002
decision_type=2 2 2 2 2 2 2 2 2 2 2 2 2 2 2 2 2 2 2 2 2 2 2 2 2 2 2 2 2 2
left_child=29 -2 -3 4 -4 -5 7 27 12 10 11 19 13 14 -8 16 17 -16 21 20 -10 -17 -11 25 -25 26 -24 -7 -29 -1
right_child=1 2 3 5 -6 6 8 -9 9 22 -12 -13 -14 -15 15 18 -18 -19 -20 -21 -22 -23 23 24 -26 -27 -28 28 -30 -31
leaf_value=0.0090658815463132113 -0.075739989188655779 0.054899948033562393 0.035099311982496426 0.025441980369568806 -0.057140552963229639 0.033845438156519476 0.036893127865246123 -0.071442930484495487 0.0083166490464160834 0.070170268882066011 -0.068246247817466479 -0.10993833345405403 0.029629722076822958 -0.060378343573150535 0.023311031761598617 0.014189376636215376 -0.038947236807906023 -0.024648616569082033 -0.0084232949941388784 0.0045086011921485081 -0.063044817972695455 0.050147061460717977 0.001918906948856072 0.019322144069422103 -0.0051112888947953735 -0.052485120237300481 -0.018720410433926069 -0.039771793786712806 0.0039859693106238841 -0.0082822428854423379
leaf_weight=2438 27 80 26 193 103 60 148 126 42 23 137 21 273 60 240 806 210 188 469 193 84 112 755 615 1707 120 509 128 186 427
leaf_count=2438 27 80 26 193 103 60 148 126 42 23 137 21 273 60 240 806 210 188 469 193 84 112 755 615 1707 120 509 128 186 427
internal_value=0 -0.0024298 -0.00216983 -0.00277583 -0.0385496 -0.00215263 -0.00289109 -0.022641 -0.00141985 -0.00602492 -0.0329869 -0.0187794 0.00630917 0.00345806 0.00522069 0.00290586 -0.0113138 0.00224464 0.00944671 -0.0127784 -0.0392577 0.0185764 -0.00257604 -0.00302752 0.0013601 -0.0103888 -0.00639234 -0.00619966 -0.0138516 0.00648031
internal_weight=0 7641 7614 7534 129 7405 7212 500 6712 4206 477 340 2506 2233 2173 2025 638 428 1387 319 126 918 3729 3706 2322 1384 1264 374 314 2865
internal_count=10506 7641 7614 7534 129 7405 7212 500 6712 4206 477 340 2506 2233 2173 2025 638 428 1387 319 126 918 3729 3706 2322 1384 1264 374 314 2865
is_linear=0
shrinkage=0.5


Tree=7
num_leaves=31
num_cat=0
split_feature=32 30 24 16 30 30 18 5 30 16 5 16 32 15 16 30 30 16 2 16 18 30 30 16 18 31 32 24 40 38
split_gain=0.377597 0.390399 0.826504 0.548773 0.497685 0.426299 0.571107 0.411519 0.460302 0.703298 0.549211 0.384593 0.373821 0.515216 0.472671 0.679363 0.374354 0.621138 0.344773 0.394136 0.339194 0.447726 0.356946 0.331246 0.392072 0.313117 0.299427 0.289333 0.283854 0.270183
threshold=3.0499999500000006 91.654998800000016 2760.0000000000005 247.12999955000001 90.625000000000014 93.534999850000005 672.0499880000001 86.99499895000001 92.005001050000018 249.87999955000001 87.99499895000001 258.22499980000003 -18.449999799999997 32993.400400000006 232.02500000000001 89.154998800000016 90.654998800000016 240.87999955000001 1.0000000180025095e-35 236.75499955000001 617.0499880000001 91.125000000000014 90.314998650000021 247.12999955000001 628.50000000000011 105144.3515 -46.094999299999991 2399.6500250000004 1.0000000180025095e-35 0.76735001800000013
decision_type=2 2 2 2 2 2 2 2 2 2 2 2 2 2 2 2 2 2 2 2 2 2 2 2 2 2 2 2 2 2
left_child=12 2 20 -3 -4 6 7 -5 9 10 -9 -7 13 26 15 -14 18 -18 25 -20 21 -2 27 24 -6 -15 -1 -22 -26 -16
right_child=1 3 4 5 23 11 -8 8 -10 -11 -12 -13 14 16 29 -17 17 -19 19 -21 22 -23 -24 -25 28 -27 -28 -29 -30 -31
leaf_value=-0.019059020596054885 -0.0029627220870991288 0.012993277124533338 0.023858770566142124 0.049889494453964289 0.0099382160567781999 0.013158182038232411 -0.036149545793580873 0.010023975771394345 -0.0031357817091815605 -0.11601389142806115 -0.078863217616453762 -0.012806765395372607 0.0073368134125022686 -0.0164633831462698 0.013369170824156628 0.07345468056250791 0.025217309584300306 -0.00091031666500420653 -0.0052806861483706878 -0.090772456512890384 -0.0040881063429300084 0.039450225861573186 -0.01006078475302829 -0.1001980917299079 -0.077528515586163846 0.0060310508515723504 -0.1004342787899077 -0.075475861720042309 -0.012197904025568911 0.0022262886020198835
leaf_weight=26 391 573 23 32 27 449 190 57 668 23 25 209 107 414 663 61 254 2178 26 28 22 74 533 32 60 247 20 40 23 3031
leaf_count=26 391 573 23 32 27 449 190 57 668 23 25 209 107 414 663 61 254 2178 26 28 22 74 533 32 60 247 20 40 23 3031
internal_value=0 -0.0042859 -0.0114547 -0.000340803 -0.0443728 -0.00496296 -0.0114926 -0.00567301 -0.00797314 -0.0387479 -0.0170758 0.00491096 0.00209647 -0.00190629 0.00540586 0.0313439 -0.00113841 0.00181847 -0.0111959 -0.0496098 -0.00633064 0.00378687 -0.0142376 -0.0554244 -0.0423994 -0.00805775 -0.0544396 -0.0501447 -0.0594249 0.00422622
internal_weight=0 3451 1225 2226 165 1653 995 805 773 105 82 658 7055 3193 3862 168 3147 2432 715 54 1060 465 595 142 110 661 46 62 83 3694
internal_count=10506 3451 1225 2226 165 1653 995 805 773 105 82 658 7055 3193 3862 168 3147 2432 715 54 1060 465 595 142 110 661 46 62 83 3694
is_linear=0
shrinkage=0.5


Tree=8
num_leaves=31
num_cat=0
split_feature=18 17 7 7 1 15 5 10 38 10 31 18 10 10 2 10 5 30 30 10 30 11 5 30 16 36 24 16 30 30
split_gain=0.322148 0.327513 1.14209 0.517253 0.781681 0.476285 0.458811 0.404309 0.362274 0.359134 0.343921 0.573958 0.478571 0.475383 0.467971 0.42348 0.49046 0.420877 0.414028 0.391914 0.368651 0.36668 0.35789 0.332827 0.502164 0.331354 0.32474 0.319856 0.307934 0.290178
threshold=762.00000000000011 1.0000000180025095e-35 1.0000000180025095e-35 1.0000000180025095e-35 1.0000000180025095e-35 36047.900400000006 88.99499895000001 0.35050000250000007 0.77390000200000009 0.26700000500000004 105144.3515 675.0499880000001 0.36050000750000005 0.19049999900000003 1.0000000180025095e-35 0.60950002050000018 86.43999860000001 93.154998800000016 88.659999850000005 0.71750000150000015 91.465000150000023 1.0000000180025095e-35 85.864997900000006 90.625000000000014 238.12999955000001 50.170000050000006 2850.2500000000005 248.37999955000001 90.064998650000021 90.375000000000014
decision_type=2 2 2 2 2 2 2 2 2 2 2 2 2 2 2 2 2 2 2 2 2 2 2 2 2 2 2 2 2 2
left_child=1 3 9 10 5 7 -4 26 -9 -3 13 12 14 -1 18 16 28 27 -12 -14 -17 -19 29 24 -24 -16 -5 -13 -15 -20
right_child=-2 2 6 4 -6 -7 -8 8 -10 -11 11 17 19 15 25 20 -18 21 22 -21 -22 -23 23 -25 -26 -27 -28 -29 -30 -31
leaf_value=-0.012166479237431452 0.061866183166525195 -0.01171229113641593 -0.0093236914552085933 -0.00012489858267877204 -7.9656175221611686e-05 0.035786423165498911 -0.035854112347471892 0.053363394637724722 0.0075759200640108989 0.014115358885708485 -0.027843685218443472 -0.010740278657182183 0.021584039782351443 0.0052766649017576125 -0.014578163724891506 -0.032266672632036003 -0.0012884751521763478 -0.0073100750085426987 0.024237742471198042 -0.00078828735503624914 -0.00011673423117080521 0.030852022420133348 0.0028315695066733486 0.011731637589225628 -0.066316702422530696 0.031221719947372845 -0.067848023225087678 -0.052045990588403375 0.031862608423632074 0.086642516817411655
leaf_weight=1204 21 186 331 154 986 325 321 72 108 487 75 103 705 250 484 184 2333 457 98 271 173 73 97 607 36 43 20 86 193 23
leaf_count=1204 21 186 331 154 986 325 321 72 108 487 75 103 705 250 484 184 2333 457 98 271 173 73 97 607 36 43 20 86 193 23
internal_value=0 -0.000123909 -0.00747141 0.000938911 0.00891064 0.0219658 -0.0223854 0.00927731 0.0258909 0.00697726 -0.000831993 0.0031372 0.00679704 -0.00372217 0.00107646 -0.000477059 0.00160758 -0.00927776 0.0077865 0.0153721 -0.016687 -0.00205379 0.0108902 0.00676806 -0.0158853 -0.0108412 -0.00790917 -0.0295355 0.0168593 0.0360998
internal_weight=0 10485 1325 9160 1665 679 652 354 180 673 7495 3158 2439 4337 1463 3133 2776 719 936 976 357 530 861 740 133 527 174 189 443 121
internal_count=10506 10485 1325 9160 1665 679 652 354 180 673 7495 3158 2439 4337 1463 3133 2776 719 936 976 357 530 861 740 133 527 174 189 443 121
is_linear=0
shrinkage=0.5


Tree=9
num_leaves=31
num_cat=0
split_feature=30 18 30 16 18 16 40 16 30 25 15 16 16 30 5 16 30 16 5 5 30 30 5 5 30 5 5 5 30 16
split_gain=0.325514 0.889268 0.463025 0.90725 0.662669 0.573485 0.480383 0.449695 0.667581 0.626609 0.439295 0.475962 0.429548 0.416301 0.402298 0.443441 0.596544 0.680977 0.503661 0.403508 0.505782 0.401326 0.442576 0.401123 0.401898 0.390909 0.378903 0.365215 0.300299 0.353036
threshold=92.685001350000007 647.75000000000011 90.755001050000018 254.92000045 619.95001200000013 240.35000075000002 1.0000000180025095e-35 246.87999955000001 91.375000000000014 1.0000000180025095e-35 34046.349600000009 252.92000045 241.67000045 88.755001050000018 87.125000000000014 238.42000045 91.654998800000016 242.92000045 88.045002000000011 87.889999400000008 91.314998650000021 89.220001200000013 87.875000000000014 90.24499895000001 92.215000150000023 88.99499895000001 89.534999850000005 88.229999550000016 94.220001200000013 256.67000045000003
decision_type=2 2 2 2 2 2 2 2 2 2 2 2 2 2 2 2 2 2 2 2 2 2 2 2 2 2 2 2 2 2
left_child=1 2 4 14 6 21 -1 8 9 -3 -2 -12 -10 -8 -4 -16 17 19 -19 -17 -21 -6 -23 24 27 -26 -9 -14 29 -13
right_child=10 7 3 -5 5 -7 13 26 12 -11 11 28 23 -15 15 16 -18 18 -20 20 -22 22 -24 -25 25 -27 -28 -29 -30 -31
leaf_value=-0.00082743731776778386 0.033882626339982382 -0.022922775064195166 0.016855946105025076 -0.093553813741258957 -0.068920266635429397 -0.041231563607410253 -0.00066103486577048895 -0.018936073359972369 0.02485827369976808 -0.11651524498593062 0.0093593420565570972 -0.0043427274187679762 0.016621410135137901 0.060882880040644821 0.030560295871417613 0.015606709050277969 0.0092613188924712559 -0.01598279217768675 -0.068353177334826723 -0.037769298305474444 0.0049398981588869816 0.0017751945186319062 -0.03814722655113742 -0.053584535009576939 0.052145664675199259 0.0037871760806654133 -0.06754885774192422 -0.019168580021284961 0.0057300185391722944 -0.030383187717750608
leaf_weight=1640 120 169 679 23 26 180 50 591 144 20 1517 812 89 61 138 328 1154 392 52 105 204 400 84 40 49 284 43 358 599 155
leaf_count=1640 120 169 679 23 26 180 50 591 144 20 1517 812 89 61 138 328 1154 392 52 105 204 400 84 40 49 284 43 358 599 155
internal_value=0 -0.00184316 0.00129724 0.00537876 -0.00384436 -0.016968 0.00132713 -0.0115368 -0.00565516 -0.0328267 0.00420251 0.00304726 -0.000327947 0.0331604 0.00612432 0.00305361 0.00135522 -0.00708479 -0.0221163 0.00339241 -0.00957294 -0.00840435 -0.00515349 -0.00475089 -0.0022466 0.010903 -0.0222332 -0.0120426 -0.00306731 -0.00851674
internal_weight=0 7303 5516 3075 2441 690 1751 1787 1153 189 3203 3083 964 111 3052 2373 2235 1081 444 637 309 510 484 820 780 333 634 447 1566 967
internal_count=10506 7303 5516 3075 2441 690 1751 1787 1153 189 3203 3083 964 111 3052 2373 2235 1081 444 637 309 510 484 820 780 333 634 447 1566 967
is_linear=0
shrinkage=0.5


Tree=10
num_leaves=31
num_cat=0
split_feature=18 30 16 5 16 30 18 16 15 30 5 16 5 30 16 30 30 5 30 5 16 30 15 16 16 18 30 16 5 5
split_gain=0.285525 0.485981 0.855364 0.564445 0.510269 0.404084 0.379565 0.377936 0.402071 0.364837 0.474733 0.37113 0.343996 0.502727 0.286639 0.722746 0.448058 0.46269 0.605825 0.471707 0.43815 0.306417 0.351786 0.380726 0.303816 0.302975 0.29186 0.477646 0.503406 0.368731
threshold=584.0499880000001 89.755001050000018 236.25499955000001 81.689998650000021 233.94999924999999 88.419998200000023 573.50000000000011 245.52500000000001 34001.050800000005 88.505001050000018 84.770000450000012 231.67000045 86.344997400000011 89.154998800000016 244.42000045 91.215000150000023 91.904998800000016 86.545002000000011 90.625000000000014 87.965000150000023 238.12999955000001 90.314998650000021 34998.050800000005 238.67000045 240.35000075000002 603.20001200000013 92.595001200000013 254.92000045 88.729999550000016 86.389999400000008
decision_type=2 2 2 2 2 2 2 2 2 2 2 2 2 2 2 2 2 2 2 2 2 2 2 2 2 2 2 2 2 2
left_child=5 2 9 -4 -3 6 -1 8 -7 -2 -11 -12 13 -13 16 25 17 21 20 -20 -19 22 -6 -24 -23 -16 27 28 29 -17
right_child=1 4 3 -5 14 7 -8 -9 -10 10 11 12 -14 -15 15 26 -18 18 19 -21 -22 24 23 -25 -26 -27 -28 -29 -30 -31
leaf_value=0.0094739325577393174 -0.037657862542889026 0.036007366206504229 0.040401128099931939 -0.045517884836962723 0.037444440758918063 0.1066347531893331 -0.04643266064647053 -0.026840292982524262 0.032116985793554167 0.055250671959947796 0.021201283497724772 -0.038691821774073806 -0.039953373437565935 0.013136258171367651 0.0085458073172379623 0.029557841036457831 0.02020111008219359 -0.0076255332185042393 0.0095159612263018348 -0.0060263719347923529 -0.045054314034838956 0.056324847373396165 0.015363441069921741 -0.022264064768249388 0.017103219428092266 -0.032273987957759841 0.0022060701776296281 -0.078461379818194968 -0.017023050985456593 -0.0017994867212873943
leaf_weight=229 62 100 21 213 64 23 35 20 85 40 126 65 77 167 55 100 372 221 1002 952 121 66 132 137 196 262 3460 22 581 1500
leaf_count=229 62 100 21 213 64 23 35 20 85 40 126 65 77 167 55 100 372 221 1002 952 121 66 132 137 196 262 3460 22 581 1500
internal_value=0 -0.000513162 -0.0125783 -0.0378072 0.000482477 0.0132401 0.00206207 0.0362948 0.0479865 -0.00158477 0.00312372 -0.00166957 -0.0109955 -0.00138454 9.81333e-05 -0.00195865 0.00386754 0.00176582 -0.00145424 0.00194365 -0.0208679 0.0141914 0.00412685 -0.00380001 0.0269835 -0.0251917 -0.000658129 -0.0051566 -0.00441717 0.000160346
internal_weight=0 10114 771 234 9343 392 264 128 108 537 475 435 309 232 9243 5980 3263 2891 2296 1954 342 595 333 269 262 317 5663 2203 2181 1600
internal_count=10506 10114 771 234 9343 392 264 128 108 537 475 435 309 232 9243 5980 3263 2891 2296 1954 342 595 333 269 262 317 5663 2203 2181 1600
is_linear=0
shrinkage=0.5


Tree=11
num_leaves=31
num_cat=0
split_feature=16 30 36 16 30 16 24 16 30 5 18 30 12 37 38 18 5 5 30 16 25 30 18 16 30 16 16 30 5 30
split_gain=0.219737 0.541139 0.19403 0.268471 0.20945 0.46591 0.39912 0.519632 0.421334 0.381677 0.326464 0.356083 0.32788 0.298837 0.307206 0.287334 0.2575 0.225863 0.23995 0.239167 0.212031 0.202159 0.360533 0.27432 0.215889 0.319203 0.297226 0.233996 0.207309 0.332195
threshold=229.27500000000001 87.404998800000016 50.895000450000005 255.20000020000001 91.314998650000021 239.87999955000001 2496.3499750000005 240.60000075000002 89.654998800000016 87.875000000000014 643.95001200000013 92.064998650000021 372.12000120000005 1.0000000180025095e-35 0.78125000000000011 666.0499880000001 88.49499895000001 83.775001550000013 90.99499895000001 247.77500000000001 1.0000000180025095e-35 94.715000150000023 691.0499880000001 258.02500000000003 93.720001200000013 259.47499980000003 250.37999955000001 92.375000000000014 89.505001050000018 92.965000150000023
decision_type=2 2 2 2 2 2 2 2 2 2 2 2 2 2 2 2 2 2 2 2 2 2 2 2 2 2 2 2 2 2
left_child=1 -1 4 -4 6 -6 -2 8 -8 17 20 12 -12 14 21 -14 -10 -9 -19 -20 -7 22 24 -24 26 -26 28 -28 -13 -30
right_child=2 -3 3 -5 5 10 7 9 16 -11 11 13 15 -15 -16 -17 -18 18 19 -21 -22 -23 23 -25 25 -27 27 -29 29 -31
leaf_value=-0.038447977453470228 0.0023063317072935367 0.0477527352883967 0.0080823386871220274 -0.01239434531795465 0.041234279846373414 0.0050364557160040169 -0.019396290165236103 0.029896776358677577 0.0057080066067189614 -0.051165633693059112 -0.0022304925243318823 0.014130830310108679 -0.020460167592052759 -0.021778427853623963 -0.0069709662689320124 -0.074652219709672937 -0.023289360134752794 -0.028606848007407655 -0.0037058616021260291 -0.059131590937752096 0.031938632680314848 0.021620612253920552 -0.0093763321155075144 -0.058744733070136244 0.019384536098864084 -0.024740700697293505 -0.058849733212264256 -0.0040429494090275051 -0.01101104084808748 0.015891804180103185
leaf_weight=25 1297 67 1188 185 70 1501 284 26 771 87 317 553 260 154 949 27 85 266 266 21 77 146 191 33 376 46 20 742 283 193
leaf_count=25 1297 67 1188 185 70 1501 284 26 771 87 317 553 260 154 949 27 85 266 266 21 77 146 191 33 376 46 20 742 283 193
internal_value=0 0.0243286 -0.000214925 0.00532328 -0.00105598 0.000683714 -0.00438511 -0.00919065 -0.00270813 -0.0202868 0.000199982 -0.00206189 -0.0133151 -0.0002179 0.000722169 -0.0255584 0.0028286 -0.015647 -0.0177883 -0.0077614 0.00634917 0.00354864 0.00246596 -0.0166494 0.00440081 0.0145747 0.00200362 -0.00548145 0.00754649 -0.000102955
internal_weight=0 92 10414 1373 9041 5938 3103 1806 1140 666 5868 4290 604 3686 3532 287 856 579 553 287 1578 2583 2437 224 2213 422 1791 762 1029 476
internal_count=10506 92 10414 1373 9041 5938 3103 1806 1140 666 5868 4290 604 3686 3532 287 856 579 553 287 1578 2583 2437 224 2213 422 1791 762 1029 476
is_linear=0
shrinkage=0.5


Tree=12
num_leaves=31
num_cat=0
split_feature=16 30 5 30 5 30 5 30 16 18 18 16 36 24 5 18 7 30 12 24 16 25 15 18 30 5 30 5 10 16
split_gain=0.176222 0.403624 0.467349 0.470286 0.472875 0.348483 0.345223 0.338323 0.425346 0.341197 0.322361 0.314506 0.25918 0.314406 0.252941 0.2491 0.247731 0.239083 0.256887 0.223324 0.194416 0.181211 0.279582 0.179663 0.174712 0.261329 0.172977 0.355505 0.194773 0.17253
threshold=247.92000045 93.404998800000016 89.389999400000008 92.314998650000021 86.389999400000008 91.784999850000005 88.170002000000025 88.659999850000005 235.87999955000001 576.5499880000001 686.20001200000013 250.67000045 47.139999350000004 2703.6500250000004 87.125000000000014 633.95001200000013 1.0000000180025095e-35 90.715000150000023 358.71499865000004 2831.6500250000004 251.62999955000001 1.0000000180025095e-35 37004.750000000007 659.0499880000001 92.784999850000005 89.844997400000011 87.934997600000017 83.639999400000008 0.16749999700000004 253.07999935000001
decision_type=2 2 2 2 2 2 2 2 2 2 2 2 2 2 2 2 2 2 2 2 2 2 2 2 2 2 2 2 2 2
left_child=7 2 3 4 -2 -6 11 8 16 -9 20 -7 21 -14 -13 -5 26 18 -15 -20 -3 -11 -23 -22 25 -19 -1 -28 -29 -17
right_child=1 10 -4 15 5 6 -8 9 -10 12 -12 14 13 17 -16 29 -18 24 19 -21 23 22 -24 -25 -26 -27 27 28 -30 -31
leaf_value=-0.025470591340518486 0.00061370865639229569 0.029841510564438067 -0.019227731485267116 0.046810933607048355 -0.052327362947058705 0.0078891133104602249 -0.046566059667794167 0.059446934037483655 -0.07413165119540846 -0.0030856093226737111 -0.0041878524252059448 0.0015146933015315763 0.0091489487074607884 0.0022786586779308411 -0.058028919131694626 0.0072135126694394865 -0.053438740127064566 0.003483266686899817 -0.012821966581149879 -0.049642895353387978 0.03199119046797877 -0.011098593485418378 0.030210882007117267 0.0047788739810030638 0.022098028632304208 -0.021640235712589228 0.057030885287656867 -0.037052428438045987 0.012847381993196905 -0.0068991200767413831
leaf_weight=52 348 105 577 33 89 137 71 26 29 2306 788 31 1917 187 42 670 27 1232 142 58 66 68 103 749 110 113 29 33 48 320
leaf_count=52 348 105 577 33 89 137 71 26 29 2306 788 31 1917 187 42 670 27 1232 142 58 66 68 103 749 110 113 29 33 48 320
internal_value=0 -0.00259796 -0.00689539 -0.00280822 -0.0126173 -0.0250616 -0.0164258 0.0016141 -0.0177491 0.0022882 0.00323427 -0.00623548 0.00204988 0.00466652 -0.0327433 0.00407634 -0.00909776 1.58689e-06 -0.0110437 -0.0235 0.00959147 -0.00192103 0.0137837 0.00698257 0.0029394 0.00137252 -0.0017076 0.00952582 -0.00748217 0.00265185
internal_weight=0 4026 2318 1741 718 370 281 6480 218 6262 1708 210 6236 3759 73 1023 189 1842 387 200 920 2477 171 815 1455 1345 162 110 81 990
internal_count=10506 4026 2318 1741 718 370 281 6480 218 6262 1708 210 6236 3759 73 1023 189 1842 387 200 920 2477 171 815 1455 1345 162 110 81 990
is_linear=0
shrinkage=0.5


Tree=13
num_leaves=31
num_cat=0
split_feature=36 2 5 18 16 30 15 38 10 30 30 16 24 30 18 16 5 30 24 30 16 5 5 16 16 30 18 5 16 36
split_gain=0.177643 0.142239 0.311016 0.38311 0.258498 0.25998 0.250988 0.213846 0.232971 0.205541 0.194582 0.190867 0.1579 0.135592 0.190322 0.153945 0.13245 0.303669 0.322522 0.30351 0.289792 0.407157 0.240657 0.204698 0.197306 0.224052 0.193239 0.318428 0.245489 0.218751
threshold=59.934999450000007 1.0000000180025095e-35 87.99499895000001 628.50000000000011 242.09999980000001 91.74499895000001 38000.650400000006 0.75244998900000015 0.29950000350000006 91.24499895000001 89.99499895000001 250.37999955000001 2831.6500250000004 94.654998800000016 693.20001200000013 261.42000000000002 87.170002000000025 90.064998650000021 3072.3499750000005 91.064998650000021 238.12999955000001 85.864997900000006 85.764999400000008 242.09999980000001 234.97500075000002 89.465000150000023 629.0499880000001 85.344997400000011 243.17000045 49.889999350000004
decision_type=2 2 2 2 2 2 2 2 2 2 2 2 2 2 2 2 2 2 2 2 2 2 2 2 2 2 2 2 2 2
left_child=1 16 3 6 -4 -6 7 -3 -9 -5 -10 -7 -11 14 -13 -15 17 20 26 23 22 -22 -1 -18 25 -24 27 28 -19 -30
right_child=-2 2 4 9 5 11 -8 8 10 12 -12 13 -14 15 -16 -17 19 18 -20 -21 21 -23 24 -25 -26 -27 -28 -29 29 -31
leaf_value=0.010604004203197921 0.031003617205778541 0.042838379525131094 0.030933669387278231 -0.054410540848039091 -0.055235215547409927 0.0077402695614523509 -0.054919918575747448 -0.020124344828773399 -0.027314459146172913 -0.012463474520183074 0.020324092339321326 -0.007338633402080662 -0.058053623085193663 0.03060433795880748 -0.042489025079541734 -0.021026292942803015 -0.0084171605930866214 0.069066163934379199 -0.054558235174044969 0.00047058615652924676 -0.0082553151690711573 -0.064644136279821393 -0.01580580707862585 -0.041464264808347057 -0.02350976607214824 0.014320886984731059 0.019612770590032302 0.0028601235207267673 0.002186850880853076 0.054586392893855064
leaf_weight=473 46 27 66 67 22 384 22 118 27 109 104 267 23 42 45 22 577 30 20 5803 375 35 108 51 116 144 348 938 69 28
leaf_count=473 46 27 66 67 22 384 22 118 27 109 104 267 23 42 45 22 577 30 20 5803 375 35 108 51 116 144 348 938 69 28
internal_value=0 -0.000136345 -0.00493623 -0.0148678 0.000884544 -0.00165157 -0.00352369 0.000573111 -0.00400987 -0.0318556 0.0105055 -0.000100466 -0.0204072 -0.00810803 -0.0124084 0.0128563 0.000571921 0.00352222 0.0084914 -0.000659395 -0.0021699 -0.013069 0.00314357 -0.0111009 -0.00644552 0.00140945 0.00938382 0.0060414 0.0295378 0.0173125
internal_weight=0 10460 1345 497 848 782 298 276 249 199 131 760 132 376 312 64 9115 2684 1433 6431 1251 410 841 628 368 252 1413 1065 127 97
internal_count=10506 10460 1345 497 848 782 298 276 249 199 131 760 132 376 312 64 9115 2684 1433 6431 1251 410 841 628 368 252 1413 1065 127 97
is_linear=0
shrinkage=0.5


Tree=14
num_leaves=31
num_cat=0
split_feature=16 30 5 5 30 16 16 30 16 30 5 30 5 16 16 30 16 30 16 5 30 16 5 5 30 31 5 18 16 30
split_gain=0.110438 0.261656 0.312249 0.301081 0.258394 0.292542 0.251053 0.211491 0.207738 0.244968 0.436545 0.403623 0.293864 0.285516 0.221473 0.211831 0.215604 0.202961 0.286882 0.223949 0.321297 0.222847 0.219131 0.217399 0.197116 0.184149 0.179219 0.196279 0.183384 0.211404
threshold=242.87999955000001 91.904998800000016 88.670002000000025 87.965000150000023 88.755001050000018 229.47500075000002 247.12999955000001 87.934997600000017 232.77500000000001 90.159999850000005 84.889999400000008 89.654998800000016 86.860000600000021 241.62999955000001 238.42000045 89.654998800000016 234.97500075000002 91.465000150000023 246.67000045 85.625000000000014 90.625000000000014 247.12999955000001 87.344997400000011 86.68999860000001 91.064998650000021 142202.14850000004 86.344997400000011 617.0499880000001 235.52500000000001 90.654998800000016
decision_type=2 2 2 2 2 2 2 2 2 2 2 2 2 2 2 2 2 2 2 2 2 2 2 2 2 2 2 2 2 2
left_child=4 3 6 17 5 -1 -3 -7 -6 10 11 14 13 15 -10 16 -12 19 -19 -2 -21 23 -20 -22 -25 -9 27 -11 -28 -30
right_child=1 2 -4 -5 8 7 -8 25 9 26 12 -13 -14 -15 -16 -17 -18 18 22 20 21 -23 -24 24 -26 -27 28 -29 29 -31
leaf_value=0.011086232285812176 0.0026497964013582295 0.023752102761472233 -0.0011822189217005638 -0.016888455722008679 0.018416374930687884 -0.073311118641868234 0.0046184453983953268 -0.01135895923320864 0.023467512658568852 0.0117761019060483 -0.0019549116338814861 0.068744519594474696 -0.037100424708829918 -0.06496678336989134 -0.017746205649538233 0.0041335999383591117 -0.032155747006964983 0.014823513460891823 0.003795718486416215 -0.053867024732320461 0.0093195177445886661 -0.030468215080103479 -0.027121518185357792 -0.03227472429644767 -0.0055229680961517902 -0.061903503701268209 0.026304770017754327 0.053733906714950465 -0.0075297648548357686 0.0058698754204380699
leaf_weight=84 417 214 3957 471 221 20 862 127 78 113 132 32 89 20 56 325 107 325 152 43 175 104 92 91 283 21 89 37 373 1396
leaf_count=84 417 214 3957 471 221 20 862 127 78 113 132 32 89 20 56 325 107 325 152 43 175 104 92 91 283 21 89 37 373 1396
internal_value=0 -0.00110188 0.00087145 -0.00571488 0.00238498 -0.0130061 0.00842384 -0.0250523 0.00364918 0.00250287 -0.0046723 0.0182922 -0.0103367 -0.00625793 0.00624387 -0.00417605 -0.0154758 -0.00258602 0.00509563 -0.00651311 -0.012003 -0.00924622 -0.0078616 -0.00522602 -0.0120321 -0.0185308 0.00550086 0.0221257 0.0041587 0.00304451
internal_weight=0 7186 5033 2153 3320 252 1076 168 3068 2847 839 166 673 584 134 564 239 1682 569 1113 696 653 244 549 374 148 2008 150 1858 1769
internal_count=10506 7186 5033 2153 3320 252 1076 168 3068 2847 839 166 673 584 134 564 239 1682 569 1113 696 653 244 549 374 148 2008 150 1858 1769
is_linear=0
shrinkage=0.5


Tree=15
num_leaves=31
num_cat=0
split_feature=30 18 18 1 30 16 16 18 36 30 15 30 16 2 39 41 2 12 31 15 12 30 40 31 18 5 18 5 16 30
split_gain=0.120361 0.209795 0.200241 0.150807 0.222096 0.243083 0.192459 0.183902 0.184702 0.177556 0.166966 0.224056 0.136164 0.133392 0.12972 0.190501 0.171225 0.167324 0.174884 0.165584 0.14765 0.129288 0.127882 0.119917 0.116758 0.116357 0.124496 0.403403 0.211057 0.182659
threshold=94.220001200000013 717.50000000000011 681.0499880000001 1.0000000180025095e-35 93.064998650000021 253.37999955000001 228.77500000000001 664.0499880000001 52.184999450000007 91.625000000000014 35003.050800000005 87.810001350000007 254.62999955000001 1.0000000180025095e-35 1.0000000180025095e-35 1.0000000180025095e-35 1.0000000180025095e-35 374.77500000000003 137742.50000000003 36017.550800000005 357.68499985000005 89.220001200000013 1.0000000180025095e-35 143089.35150000002 580.20001200000013 85.485000600000021 630.0499880000001 87.284999850000005 248.47499980000001 91.125000000000014
decision_type=2 2 2 2 2 2 2 2 2 2 2 2 2 2 2 2 2 2 2 2 2 2 2 2 2 2 2 2 2 2
left_child=2 12 3 6 7 -6 -1 8 10 -9 -5 -12 -2 -4 15 16 17 18 -8 -18 -17 -16 -22 -15 -13 -23 -27 28 29 -28
right_child=1 -3 13 4 5 -7 14 9 -10 -11 11 24 -14 23 21 20 19 -19 -20 -21 22 25 -24 -25 -26 26 27 -29 -30 -31
leaf_value=0.03408572483002334 0.030946227401280058 -0.022406015984240201 -0.0064598114115313396 -0.0050267297619618198 0.023346391404947639 0.0017677963470638957 0.007110605828962187 -0.051173556166759226 0.014600349485580345 -0.0067292828971197531 -0.047158488326451996 0.037520583560690282 0.006701298993219632 0.0026715813204646111 -0.016857802992354721 0.012931243244603225 0.00089066892905975692 0.015597701221296761 -0.007691182010640972 -0.016154273587125453 -0.013154296768109894 0.017134638287681192 -0.00080266398998881511 -0.043410230175747223 0.0031780659161246196 -0.004914955404551587 0.02905401811850342 0.0014455976312846605 -0.0046203871745438803 0.085090766589228928
leaf_weight=37 65 57 585 850 246 278 412 24 271 353 22 25 531 20 94 73 288 217 387 282 891 121 274 48 2468 564 33 943 21 26
leaf_count=37 65 57 585 850 246 278 412 24 271 353 22 25 531 20 94 73 288 217 387 282 891 121 274 48 2468 564 33 943 21 26
internal_value=0 0.00657389 -0.00043568 0.000164837 0.00221711 0.0118982 -0.00183198 0.000952994 0.0020429 -0.00955863 0.00103158 0.00307912 0.00934546 -0.00889625 -0.00211926 -0.00423429 -0.000606059 0.00328522 -5.87207e-05 -0.00754209 -0.00888241 0.0011953 -0.0102493 -0.0298568 0.00352246 0.00218886 0.00104932 0.00433755 0.0384264 0.0537482
internal_weight=0 653 9853 9200 4537 524 4663 4013 3636 377 3365 2515 596 653 4626 2824 1586 1016 799 570 1238 1802 1165 68 2493 1708 1587 1023 80 59
internal_count=10506 653 9853 9200 4537 524 4663 4013 3636 377 3365 2515 596 653 4626 2824 1586 1016 799 570 1238 1802 1165 68 2493 1708 1587 1023 80 59
is_linear=0
shrinkage=0.5


Tree=16
num_leaves=31
num_cat=0
split_feature=16 30 30 5 30 38 2 16 5 2 5 5 16 30 30 5 30 5 5 30 16 5 30 16 18 16 16 30 36 16
split_gain=0.0909523 0.186926 0.173664 0.309774 0.192014 0.235525 0.292404 0.195276 0.161019 0.150366 0.122479 0.12163 0.120381 0.271041 0.243903 0.301529 0.2542 0.20675 0.186238 0.198501 0.17623 0.163662 0.172149 0.222211 0.21643 0.14856 0.136265 0.273088 0.138611 0.132899
threshold=238.35000075000002 89.564998650000021 90.904998800000016 87.094997400000011 90.534999850000005 0.75975000850000007 1.0000000180025095e-35 248.37999955000001 86.344997400000011 1.0000000180025095e-35 87.889999400000008 86.68999860000001 249.70000020000001 92.595001200000013 93.314998650000021 90.384998350000004 92.685001350000007 88.255001050000018 88.905002600000017 91.505001050000018 252.17000045 87.875000000000014 93.784999850000005 254.62999955000001 691.0499880000001 247.62999955000001 245.67000045 92.465000150000023 51.954999900000011 257.72499980000003
decision_type=2 2 2 2 2 2 2 2 2 2 2 2 2 2 2 2 2 2 2 2 2 2 2 2 2 2 2 2 2 2
left_child=1 8 3 4 5 -2 -7 11 9 -1 -5 -6 14 17 15 16 18 20 -4 -20 -14 -15 24 -24 29 -18 27 -21 -28 -23
right_child=2 -3 12 10 7 6 -8 -9 -10 -11 -12 -13 13 21 -16 -17 25 -19 19 26 -22 22 23 -25 -26 -27 28 -29 -30 -31
leaf_value=0.0019018493531529229 0.0042970479753596854 0.0081782930800101093 0.0028735763122059292 -0.018125332564930357 0.018002667857074234 -0.0097648197867826105 -0.05534917046315968 -0.040145482617663222 -0.025877426123664969 -0.031966077429907661 -0.051995886069151662 -0.002893631082941901 -0.0013394963275080347 0.023093490176607803 0.026218316690664333 -0.019158979925207879 0.026460194523679093 -0.046483428850162614 -0.039175369887521898 -0.0030815806786320872 -0.026367096629975415 -0.0025362571394180939 0.016492021319301026 -0.00029328807573048742 -0.03180577067126121 0.0068986079343912104 -0.014379951540809911 0.029242110008118816 0.016106784386335806 -0.035142742228345014
leaf_weight=515 311 900 2996 192 203 474 38 20 69 35 31 106 192 72 101 172 150 46 41 466 111 1334 257 847 70 275 332 76 42 32
leaf_count=515 311 900 2996 192 203 474 38 20 69 35 31 106 192 72 101 172 150 46 41 466 111 1334 257 847 70 275 332 76 42 32
internal_value=0 0.00357838 -0.000604825 -0.00577632 -0.0024744 -0.00655579 -0.013148 0.00773528 -0.0031097 -0.000253382 -0.0228338 0.0108344 0.000329333 -0.0021627 0.00191585 0.00137639 0.00218317 -0.0152498 0.000933916 -0.00513842 -0.010508 -0.000414078 -0.00108043 0.00361416 -0.00468965 0.0138027 -0.00361493 0.00145089 -0.0109563 -0.0033001
internal_weight=0 1519 8987 1375 1152 823 512 329 619 550 223 309 7612 2961 4651 4550 4378 349 3953 957 303 2612 2540 1104 1436 425 916 542 374 1366
internal_count=10506 1519 8987 1375 1152 823 512 329 619 550 223 309 7612 2961 4651 4550 4378 349 3953 957 303 2612 2540 1104 1436 425 916 542 374 1366
is_linear=0
shrinkage=0.5


Tree=17
num_leaves=31
num_cat=0
split_feature=24 30 16 5 5 16 24 16 5 30 36 30 16 18 30 16 30 5 16 30 16 15 24 32 16 30 5 5 30 1
split_gain=0.0733153 0.0646896 0.279369 0.196368 0.187452 0.200173 0.206509 0.162279 0.161718 0.158247 0.120325 0.119063 0.194101 0.116386 0.111346 0.110772 0.153698 0.181948 0.255317 0.127851 0.174107 0.110087 0.108016 0.104235 0.0935169 0.119954 0.181212 0.118257 0.115581 0.11456
threshold=3253.9000250000004 92.314998650000021 243.17000045 89.670002000000025 89.329998000000003 245.67000045 3024.3499750000005 241.67000045 89.755001050000018 91.965000150000023 51.954999900000011 92.904998800000016 247.42000045 665.95001200000013 92.125000000000014 248.12999955000001 93.314998650000021 88.704998000000018 253.45000020000001 92.965000150000023 251.45000020000001 33006.500000000007 2879.6500250000004 -2.4999999999999996 242.17000045 90.715000150000023 87.634998350000004 87.045002000000011 90.215000150000023 1.0000000180025095e-35
decision_type=2 2 2 2 2 2 2 2 2 2 2 2 2 2 2 2 2 2 2 2 2 2 2 2 2 2 2 2 2 2
left_child=1 4 -3 15 5 9 10 -6 14 21 22 12 -5 -13 -9 -4 17 -17 19 20 -19 -1 -7 -24 25 26 -23 -27 -26 -29
right_child=-2 2 3 11 7 6 -8 8 -10 -11 -12 13 -14 -15 -16 16 -18 18 -20 -21 -22 24 23 -25 28 27 -28 29 -30 -31
leaf_value=0.014871572026310079 0.030243957822676748 0.053154192591766611 0.012342451724534952 -0.0032109932696027096 0.0008279582517570816 -0.0049495110673519957 -0.054707788152708894 -0.042364270876972906 -0.058054258429910986 0.012377681258315723 0.010011002946171969 0.011712419054003994 -0.030361198570072693 -0.0016652463157144145 -0.007245475379197861 0.0078815058370407792 0.013425896473316762 -0.0033652576397192511 -0.031150558407605829 0.0084933185579887192 -0.040017974950994052 0.00031597495320588999 0.0015130979571646699 -0.034388489893547466 -0.028465108159515591 0.02018531357496977 -0.020716918407434195 -0.0015649067982958815 -0.0026800404302804504 0.0094782520138252408
leaf_weight=127 20 26 405 238 100 1292 21 31 30 293 126 179 91 1773 83 465 280 324 82 210 36 1693 30 62 45 125 109 482 1270 458
leaf_count=127 20 26 405 238 100 1292 21 31 30 293 126 179 91 1773 83 465 280 324 82 210 36 1693 30 62 45 125 109 482 1270 458
internal_value=0 -5.76844e-05 0.00148943 0.00116044 -0.00105456 -0.000513851 -0.00546632 -0.0146455 -0.0253909 0.00113374 -0.00478151 -0.00192155 -0.0107206 -0.000438503 -0.0167953 0.00506166 0.0029509 0.000325122 -0.00506402 -0.00131122 -0.00703053 0.000369187 -0.00612822 -0.0226815 -7.12246e-05 0.00153007 -0.00095627 0.00573701 -0.00356242 0.0038157
internal_weight=0 10486 4109 4083 6377 6133 1531 244 144 4602 1510 2281 329 1952 114 1802 1397 1117 652 570 360 4309 1384 92 4182 2867 1802 1065 1315 940
internal_count=10506 10486 4109 4083 6377 6133 1531 244 144 4602 1510 2281 329 1952 114 1802 1397 1117 652 570 360 4309 1384 92 4182 2867 1802 1065 1315 940
is_linear=0
shrinkage=0.5


Tree=18
num_leaves=31
num_cat=0
split_feature=15 12 9 16 12 12 1 18 30 16 24 2 16 30 12 18 15 32 5 28 32 38 11 30 30 32 10 5 30 5
split_gain=0.0804408 0.145632 0.126416 0.117347 0.0940353 0.097244 0.138789 0.118087 0.103309 0.136227 0.12336 0.159514 0.102014 0.271048 0.105833 0.105381 0.0983443 0.0900754 0.0899423 0.112412 0.083252 0.0828079 0.0869899 0.122562 0.0890166 0.0801008 0.0802047 0.080016 0.165757 0.0789326
threshold=34001.050800000005 372.12000120000005 1.0000000180025095e-35 262.67000000000002 382.185 372.05999985000005 1.0000000180025095e-35 580.20001200000013 91.255001050000018 239.87999955000001 2772.0000000000005 1.0000000180025095e-35 237.67000045 89.625000000000014 360.17999880000002 648.95001200000013 34995.650400000006 -56.379999149999996 87.505001050000018 1.0000000180025095e-35 11.650000100000002 0.78490000950000016 1.0000000180025095e-35 91.654998800000016 92.185001350000007 0.86000001450000008 0.42450000350000006 85.505001050000018 89.154998800000016 86.215000150000023
decision_type=2 2 2 2 2 2 2 2 2 2 2 2 2 2 2 2 2 2 2 2 2 2 2 2 2 2 2 2 2 2
left_child=1 17 3 4 5 6 -2 -8 10 -10 12 25 16 -14 -15 20 -9 -1 -11 21 -16 22 23 -20 -24 26 -12 28 -18 -4
right_child=2 -3 29 -5 -6 -7 7 8 9 18 11 -13 13 14 15 -17 27 -19 19 -21 -22 -23 24 -25 -26 -27 -28 -29 -30 -31
leaf_value=0.028267819409458234 -0.0014573011120829016 0.015128020598761597 -0.00077571261390946365 -0.028174446826498653 0.012056472609037883 -0.0019081014563384487 0.038092628270387646 -0.024884759676007725 0.043024349264451305 0.01778621437115362 -0.01119344613304701 -0.043644980464402273 -0.054465347280104957 0.017110902621945905 -0.0031755085819814852 -0.033995212682594471 0.0084672611684270069 -0.00076555468690004747 -0.010635335539358066 0.014347018938925033 0.024655330199587704 -0.0097145757180717128 0.0086642653897048578 0.0079528820387059305 -0.02423707823730253 -0.029224262516773132 0.016175472441281438 0.0059831179247839565 0.056385678628710315 -0.016588337475241133
leaf_weight=28 2299 239 134 37 160 4280 25 22 25 140 59 33 24 76 366 26 59 582 102 231 29 129 34 679 52 27 49 342 26 192
leaf_count=28 2299 239 134 37 160 4280 25 22 25 140 59 33 24 76 366 26 59 582 102 231 29 129 34 679 52 27 49 342 26 192
internal_value=0 0.00466613 -0.000410225 -7.20863e-05 3.9791e-05 -0.000170705 0.00136124 0.00389737 0.00355948 0.00644836 2.57963e-05 -0.0124831 0.00219228 -0.00256784 -6.17274e-05 -0.00316177 0.00771572 0.000567125 0.00577945 0.00440949 -0.00113223 0.0021047 0.00386328 0.00552523 -0.0112296 -0.00486571 0.00122393 0.00939537 0.0231247 -0.0100887
internal_weight=0 849 9657 9331 9294 9134 4854 2555 2530 1392 1138 168 970 521 497 421 449 610 1367 1227 395 996 867 781 86 135 108 427 85 326
internal_count=10506 849 9657 9331 9294 9134 4854 2555 2530 1392 1138 168 970 521 497 421 449 610 1367 1227 395 996 867 781 86 135 108 427 85 326
is_linear=0
shrinkage=0.5


Tree=19
num_leaves=31
num_cat=0
split_feature=30 16 36 30 5 30 16 5 16 16 5 30 16 5 16 30 12 36 2 18 10 30 31 37 38 12 30 5 18 18
split_gain=0.0715497 0.10153 0.152017 0.117251 0.129555 0.114985 0.15674 0.169263 0.135557 0.129061 0.124049 0.119865 0.16356 0.104596 0.104221 0.120962 0.10366 0.103355 0.103275 0.113945 0.108252 0.106548 0.11249 0.101548 0.100884 0.13561 0.0973318 0.161634 0.100321 0.0963303
threshold=94.909999850000005 256.42000045000003 46.985000600000006 93.784999850000005 90.229999550000016 92.845001200000013 249.42000045 88.810001400000019 252.67000045 251.87999955000001 88.034999850000005 93.154998800000016 254.17000045 90.875000000000014 251.62999955000001 93.314998650000021 374.08999850000004 51.954999900000011 1.0000000180025095e-35 661.0499880000001 0.63949999250000011 91.125000000000014 141674.95300000004 1.0000000180025095e-35 0.76489999900000016 369.21000135000003 94.005001050000018 90.110000600000021 699.0499880000001 678.95001200000013
decision_type=2 2 2 2 2 2 2 2 2 2 2 2 2 2 2 2 2 2 2 2 2 2 2 2 2 2 2 2 2 2
left_child=1 3 -3 4 5 9 -7 8 -8 18 24 17 -13 -5 15 -6 -10 29 -1 20 23 22 -22 -20 -11 -26 27 -4 -28 -9
right_child=-2 2 26 13 14 6 7 11 16 10 -12 12 -14 -15 -16 -17 -18 -19 19 -21 21 -23 -24 -25 25 -27 28 -29 -30 -31
leaf_value=0.00072277388944145963 0.0099109640325588371 0.0046257382057378078 -0.014807637056427276 0.017692217113283715 -0.0093658461079447995 0.0188604843428558 0.044640264603205852 -0.0077631741461814006 -0.0053989584136208326 -0.023410106506802281 -0.033023012254421634 0.01180914498736518 -0.007710952442290934 0.0025977357741836246 -0.017324820248676199 0.0065786892224330073 0.024625419824906999 0.026808787870686503 -0.010722353552373715 -0.023559700628491602 0.018383955389920933 0.026059755958461512 -0.023919778685508805 0.0026793535416967176 -0.034771231329068543 0.01044640212590427 -0.00032259876317191374 -0.062466946034692231 -0.021028209908996731 -0.042160873809321361
leaf_weight=6260 179 234 161 171 305 175 36 272 58 54 54 294 169 349 175 195 57 20 402 77 30 57 33 218 20 97 234 20 78 22
leaf_count=6260 179 234 161 171 305 175 36 272 58 54 54 294 169 349 175 195 57 20 402 77 30 57 33 218 20 97 234 20 78 22
internal_value=0 -0.000171789 -0.00586882 0.000259643 -0.000158525 0.000376701 0.00513503 0.00254671 0.0178646 -0.000342065 -0.0121312 -0.000430128 0.0046841 0.0075615 -0.00682308 -0.00314748 0.00948269 -0.00797117 3.27473e-05 -0.00525436 -0.00334961 0.0103964 -0.00377514 -0.00601014 -0.00553374 0.00271689 -0.01085 -0.0200739 -0.005499 -0.0103372
internal_weight=0 10327 727 9600 9080 8405 1103 928 151 7302 225 777 463 520 675 500 115 314 7077 817 740 120 63 620 171 117 493 181 312 294
internal_count=10506 10327 727 9600 9080 8405 1103 928 151 7302 225 777 463 520 675 500 115 314 7077 817 740 120 63 620 171 117 493 181 312 294
is_linear=0
shrinkage=0.5


end of trees

feature_importances:
Column_30=157
Column_16=129
Column_5=80
Column_18=75
Column_10=17
Column_15=16
Column_24=16
Column_36=15
Column_2=12
Column_12=12
Column_38=9
Column_1=8
Column_31=8
Column_32=8
Column_40=6
Column_7=5
Column_33=5
Column_11=4
Column_25=4
Column_41=4
Column_28=3
Column_9=2
Column_37=2
Column_39=2
Column_17=1

parameters:
[boosting: gbdt]
[objective: regression]
[metric: rmse,l2]
[tree_learner: serial]
[device_type: cpu]
[data: ]
[valid: ]
[num_iterations: 20]
[learning_rate: 0.5]
[num_leaves: 31]
[num_threads: -1]
[deterministic: 0]
[force_col_wise: 0]
[force_row_wise: 0]
[histogram_pool_size: -1]
[max_depth: 20]
[min_data_in_leaf: 20]
[min_sum_hessian_in_leaf: 0.001]
[bagging_fraction: 1]
[pos_bagging_fraction: 1]
[neg_bagging_fraction: 1]
[bagging_freq: 0]
[bagging_seed: 3]
[feature_fraction: 1]
[feature_fraction_bynode: 1]
[feature_fraction_seed: 2]
[extra_trees: 0]
[extra_seed: 6]
[early_stopping_round: 1000]
[first_metric_only: 0]
[max_delta_step: 0]
[lambda_l1: 0]
[lambda_l2: 0]
[linear_lambda: 0]
[min_gain_to_split: 0]
[drop_rate: 0.1]
[max_drop: 50]
[skip_drop: 0.5]
[xgboost_dart_mode: 0]
[uniform_drop: 0]
[drop_seed: 4]
[top_rate: 0.2]
[other_rate: 0.1]
[min_data_per_group: 100]
[max_cat_threshold: 32]
[cat_l2: 10]
[cat_smooth: 10]
[max_cat_to_onehot: 4]
[top_k: 20]
[monotone_constraints: ]
[monotone_constraints_method: basic]
[monotone_penalty: 0]
[feature_contri: ]
[forcedsplits_filename: ]
[refit_decay_rate: 0.9]
[cegb_tradeoff: 1]
[cegb_penalty_split: 0]
[cegb_penalty_feature_lazy: ]
[cegb_penalty_feature_coupled: ]
[path_smooth: 0]
[interaction_constraints: ]
[verbosity: -1]
[saved_feature_importance_type: 0]
[linear_tree: 0]
[max_bin: 255]
[max_bin_by_feature: ]
[min_data_in_bin: 3]
[bin_construct_sample_cnt: 200000]
[data_random_seed: 1]
[is_enable_sparse: 1]
[enable_bundle: 1]
[use_missing: 1]
[zero_as_missing: 0]
[feature_pre_filter: 1]
[pre_partition: 0]
[two_round: 0]
[header: 0]
[label_column: ]
[weight_column: ]
[group_column: ]
[ignore_column: ]
[categorical_feature: ]
[forcedbins_filename: ]
[precise_float_parser: 0]
[objective_seed: 5]
[num_class: 1]
[is_unbalance: 0]
[scale_pos_weight: 1]
[sigmoid: 1]
[boost_from_average: 1]
[reg_sqrt: 0]
[alpha: 0.9]
[fair_c: 1]
[poisson_max_delta_step: 0.7]
[tweedie_variance_power: 1.5]
[lambdarank_truncation_level: 30]
[lambdarank_norm: 1]
[label_gain: ]
[eval_at: ]
[multi_error_top_k: 1]
[auc_mu_weights: ]
[num_machines: 1]
[local_listen_port: 12400]
[time_out: 120]
[machine_list_filename: ]
[machines: ]
[gpu_platform_id: -1]
[gpu_device_id: -1]
[gpu_use_dp: 0]
[num_gpu: 1]

end of parameters

pandas_categorical:null
