tree
version=v3
num_class=1
num_tree_per_iteration=1
label_index=0
max_feature_idx=38
objective=regression
feature_names=Column_0 Column_1 Column_2 Column_3 Column_4 Column_5 Column_6 Column_7 Column_8 Column_9 Column_10 Column_11 Column_12 Column_13 Column_14 Column_15 Column_16 Column_17 Column_18 Column_19 Column_20 Column_21 Column_22 Column_23 Column_24 Column_25 Column_26 Column_27 Column_28 Column_29 Column_30 Column_31 Column_32 Column_33 Column_34 Column_35 Column_36 Column_37 Column_38
feature_infos=[224.35000079999998:274.75000001999996] [0:1] [223.16570129999997:273.93124999999998] [497.625:918.875] [64.158698999999999:87.460296600000007] [0:102.875] [0:1] none [0:1] none [0:1] [0:475.875] [17997:39005] none [0:306.39999399999999] [0.0410160013:3.4316399099999999] [0:1] none [332.71769939999996:375.18399699999998] [0:62.953098300000001] none [-4:6.6875] none [0:154] none [43.3125:72.406196600000001] [0:1] none [0:4.0039000500000004] none [0:58.828098300000001] [0.555999994:0.79299998299999996] none none [64.781196600000001:94.6875] [75.781196600000001:89.5] [1035.75:2512.5] [-39.611112833333337:223.24444222222223] none
tree_sizes=2715 2728 2703 2714 2716 2732 2742 2734 2700 2747 2743 2741 2715 2734 2764 2724 2694 2731 2697 2726

Tree=0
num_leaves=31
num_cat=0
split_feature=15 6 6 19 4 30 30 19 4 36 4 18 30 28 4 15 23 35 30 4 4 2 28 21 4 36 23 3 34 11
split_gain=594146 338281 221262 267962 161623 208258 149272 140370 127725 104426 83855.3 71340.4 86659 71952.3 63389.3 60522.5 47882.7 47066.6 43376.3 94866.5 57527.5 42973.4 40896.1 39872.4 39505.1 34657 46354.2 44505.6 33549.9 28484.2
threshold=1.7998000400000003 1.0000000180025095e-35 1.0000000180025095e-35 42.179649350000012 69.460247050000007 30.988200200000005 31.355400100000004 42.179649350000012 75.111049650000012 1794.5600000000002 79.428546900000015 350.74334945000004 31.300700200000005 0.72851499900000005 82.476146700000015 0.99804502950000007 112.90599800000001 84.83589935000002 31.355400100000004 72.507846850000007 75.999950400000003 241.62659970000001 0.57519447800000012 -1.2187499999999998 71.555553450000005 1804.9350000000002 121.09349800000001 739.68750000000011 86.882801050000012 356.78100600000005
decision_type=2 2 2 2 2 2 2 2 2 2 2 2 2 2 2 2 2 2 2 2 2 2 2 2 2 2 2 2 2 2
left_child=2 24 3 4 5 -1 8 10 -3 14 11 25 -13 15 -6 -14 -11 -8 20 23 28 -10 -21 -20 -2 -4 27 -27 -18 -16
right_child=1 6 7 -5 9 -7 17 -9 21 16 -12 12 13 -15 29 -17 18 -19 19 22 -22 -23 -24 -25 -26 26 -28 -29 -30 -31
leaf_value=0.49185120663032944 7.5538098652160448 3.0706008686576789 1.8791090095214016 -7.6475583732285477 2.2810103808320794 27.898674157208053 -22.941950686491204 7.8148639084390235 -7.8328831126079388 15.026690238442971 -7.4232834288271361 0.81924172454088562 -3.8471778514010082 -1.6567351473997167 -26.442011580312514 -13.699834900384896 3.7623450882754415 -12.685283998338983 27.097457191755506 10.231410075216155 7.724366532680488 -16.738432288516599 3.7734933125672017 10.810730798647315 -1.335003718528998 30.317366004806907 2.9790490327868668 3.2069199413232758 -3.2668052411663342 -4.9645174625501181
leaf_weight=118 153 187 716 453 2127 168 327 455 284 155 512 1655 328 975 26 297 422 170 84 415 559 259 599 68 683 41 95 24 284 38
leaf_count=118 153 187 716 453 2127 168 327 455 284 155 512 1655 328 975 26 297 422 170 84 415 559 259 599 68 683 41 95 24 284 38
internal_value=0.299282 -7.46494 1.80838 4.00306 5.04548 16.591 -12.7499 -0.566247 -8.19944 4.35425 -1.38757 -0.639498 -1.71742 -4.34128 1.8145 -8.52916 6.50606 -19.4336 5.96279 8.16267 3.93507 -12.0806 6.41653 19.8113 0.291777 3.36579 10.0187 20.3074 0.934755 -13.6897
internal_weight=0 2063 10614 5516 5063 286 1227 5098 730 4777 4643 4131 3255 1600 2191 625 2586 497 2431 1166 1265 543 1014 152 836 876 160 65 706 64
internal_count=12677 2063 10614 5516 5063 286 1227 5098 730 4777 4643 4131 3255 1600 2191 625 2586 497 2431 1166 1265 543 1014 152 836 876 160 65 706 64
is_linear=0
shrinkage=1


Tree=1
num_leaves=31
num_cat=0
split_feature=15 6 19 4 3 6 30 4 4 19 18 19 18 19 4 19 19 28 4 4 18 28 4 21 36 21 34 4 28 15
split_gain=162955 87243 62036.4 66407.1 51502.2 49137.9 71147.7 112439 51973.9 48834.6 37136 35658.2 32129.7 29301.8 26274.4 26081.4 24883.2 24022 23522.6 26847.8 23371.5 22829.7 22607 21655.7 20560.5 32894.3 22143.7 21674.6 19420.2 17787.8
threshold=1.6874950500000001 1.0000000180025095e-35 31.417900100000004 76.444396950000012 757.68750000000011 1.0000000180025095e-35 31.035100000000003 72.507846850000007 84.063449850000012 46.210899350000012 364.11575165000005 37.99604990000001 355.71285095000002 46.210899350000012 75.365047450000006 1.0000000180025095e-35 32.199199700000008 0.41503849650000008 78.793602000000007 70.730152150000023 363.48330155000002 0.49706999950000008 72.126949300000021 1.0000000180025095e-35 1888.0600000000002 -2.9062499999999996 87.27339935000002 78.349147800000011 1.0859349950000003 2.2353500150000003
decision_type=2 2 2 2 2 2 2 2 2 2 2 2 2 2 2 2 2 2 2 2 2 2 2 2 2 2 2 2 2 2
left_child=5 17 3 4 29 6 11 10 21 20 23 14 -5 15 16 -7 -1 -2 19 -17 -4 -9 -19 -8 26 27 -16 -26 -27 -3
right_child=1 2 9 12 -6 13 7 8 -10 -11 -12 -13 -14 -15 24 18 -18 22 -20 -21 -22 -23 -24 -25 25 28 -28 -29 -30 -31
leaf_value=-0.96843297954744112 3.8085059453912993 -1.846095221703286 -13.006160299919971 -4.3196667360463437 7.1406537426842585 -11.666229483513337 15.584955252194103 5.0232984336754978 -19.800951446478184 11.683459396362304 0.75759717154858719 -3.9534980047734227 -13.005456646801504 3.7283522431300731 2.0185975169591375 -3.0943949917021909 7.6675945591558232 3.7100324799554256 -3.53150868378646 0.51382202353787609 -6.1795886520009775 1.4047465916679946 -3.0339671979431078 5.5639491734414621 -5.3714431929454376 10.290781801963439 -7.7843431962121814 6.6388680257476294 -3.3954518446377637 -13.659649883828513
leaf_weight=1328 285 143 403 307 198 53 276 681 26 25 67 419 163 420 673 614 89 158 561 3215 182 1211 582 67 89 244 63 65 29 41
leaf_count=1328 285 143 403 307 198 53 276 681 26 25 67 419 163 420 673 614 89 158 561 3215 182 1211 582 67 89 244 63 65 29 41
internal_value=0 -3.62865 -6.10827 -3.35236 1.54401 0.885619 1.93468 4.00867 2.40208 -9.95751 11.5244 0.324733 -7.33197 -0.263541 1.01953 -0.640897 -0.426015 -0.091863 -0.50779 -0.0647743 -10.8823 2.7072 -1.59403 13.6275 2.78079 5.54087 1.17949 -0.302156 8.83693 -4.47846
internal_weight=0 2487 1462 852 382 10190 5327 2328 1918 610 410 2999 470 4863 2580 4443 1417 1025 4390 3829 585 1892 740 343 1163 427 736 154 273 184
internal_count=12677 2487 1462 852 382 10190 5327 2328 1918 610 410 2999 470 4863 2580 4443 1417 1025 4390 3829 585 1892 740 343 1163 427 736 154 273 184
is_linear=0
shrinkage=0.5


Tree=2
num_leaves=31
num_cat=0
split_feature=15 6 30 36 35 23 4 36 4 23 23 23 21 4 28 23 36 34 36 23 35 21 36 35 4 4 28 36 28 4
split_gain=44577.3 26725 24948.8 24300 46880 65808.9 24514.1 24495 21788.3 20574.7 19437.1 19374.3 18970.7 25405.5 17614.2 15010.3 17372.7 17300.6 13449.8 31596.7 35750.4 14169.8 16140.9 13233.1 12872.5 12714.9 12572.8 12235.6 11805 13472.4
threshold=1.6249950500000001 1.0000000180025095e-35 31.675700200000005 1719.6850000000002 82.92964935000002 112.40599800000001 80.317447650000005 2053.5600600000002 75.682453150000015 120.21849800000001 115.96849800000001 109.09349800000001 -2.7187499999999996 73.523746500000001 0.52148401750000006 115.84349800000001 1879.8100000000002 83.96089935000002 1857.1850000000002 119.40599800000001 84.445301050000012 -2.5312499999999996 1912.7450000000001 84.49214935000002 79.428546900000015 69.333248150000017 0.47753849650000008 1761.3100000000002 1.0234349950000003 72.126949300000021
decision_type=2 2 2 2 2 2 2 2 2 2 2 2 2 2 2 2 2 2 2 2 2 2 2 2 2 2 2 2 2 2
left_child=3 12 8 -1 5 -5 15 11 10 -9 -3 23 13 -2 -10 17 -17 27 -13 20 -20 -22 -23 -6 28 -14 -27 -7 29 -4
right_child=1 2 24 4 7 6 -8 9 14 -11 -12 18 25 -15 -16 16 -18 -19 19 -21 21 22 -24 -25 -26 26 -28 -29 -30 -31
leaf_value=-0.75873520157257845 17.893490567803383 -2.3922295413911341 -3.5431128608232196 14.743497437989664 12.785782907237397 6.8074214429151816 -5.2635978930526308 17.660563930221226 2.6990821176007684 2.5021962134272022 5.1148184663392007 -0.96179227080352026 8.6648983677583082 1.8187020721160017 -4.4950858341206814 1.1437773501846642 7.5543981795127575 1.5543978921565655 9.3477149771695789 -0.70580586114099053 -0.92013362515450892 1.4031728560340602 7.8536383998002446 2.2149445027112962 1.9654960276988835 1.31053670057358 -2.3946147133053595 17.541885680340705 -1.6430689194904906 -9.2676829290380365
leaf_weight=2788 32 160 154 126 47 61 90 23 102 838 187 2466 35 106 513 565 130 74 176 1601 349 332 137 80 52 362 623 47 112 309
leaf_count=2788 32 160 154 126 47 61 90 23 102 838 187 2466 35 106 513 565 130 74 176 1601 349 332 137 80 52 362 623 47 112 309
internal_value=0 -1.78264 -3.11399 0.493143 0.981835 3.99543 2.59496 0.437305 -1.51451 2.90712 1.65336 0.0274143 0.044227 5.54619 -3.30191 3.40143 2.34289 7.44366 -0.125647 0.668932 2.88317 1.49227 3.28742 6.12699 -5.56806 -0.700156 -1.03292 11.4789 -6.24935 -7.36361
internal_weight=0 2747 1589 9930 7142 1093 967 6049 962 861 347 5188 1158 138 615 877 695 182 5061 2595 994 818 469 127 627 1020 985 108 575 463
internal_count=12677 2747 1589 9930 7142 1093 967 6049 962 861 347 5188 1158 138 615 877 695 182 5061 2595 994 818 469 127 627 1020 985 108 575 463
is_linear=0
shrinkage=0.5


Tree=3
num_leaves=31
num_cat=0
split_feature=4 36 23 35 35 23 15 36 23 35 23 36 35 11 36 23 34 21 15 14 36 34 6 36 23 21 23 15 19 36
split_gain=14257.6 13125.6 24859.1 26745.1 19122.8 13244.8 11576.5 11253.4 16485.2 14050.1 19218.5 21712.9 13098.8 12870 12729 11440.3 10787.2 10615.4 9691.21 8997.67 14409.5 12283.3 8351.22 7812.18 7677.81 7477.39 7093.53 7361.78 8098.4 6674.8
threshold=82.412647250000006 1741.8100000000002 110.96849800000001 84.24214935000002 81.132801050000012 118.40599800000001 2.2538999300000007 1894.6850000000002 116.53099800000001 84.11714935000002 115.71849800000001 1813.0600000000002 85.320301050000012 403.03100600000005 2181.1850600000002 123.65599800000001 83.99214935000002 -1.7812499999999998 0.48144450800000005 251.25000000000003 1678.1850000000002 80.17964935000002 1.0000000180025095e-35 1922.5600000000002 108.03099800000001 -1.0312499999999998 127.28099800000001 1.5087800050000002 31.738200200000005 1959.0600000000002
decision_type=2 2 2 2 2 2 2 2 2 2 2 2 2 2 2 2 2 2 2 2 2 2 2 2 2 2 2 2 2 2
left_child=1 6 3 -3 5 -4 17 9 12 10 11 16 -9 15 -15 23 -6 -1 -11 20 -19 -22 -5 -10 -23 -2 -16 -28 -29 -17
right_child=25 2 4 22 7 -7 -8 8 13 18 -12 -13 -14 14 26 29 -18 19 -20 -21 21 24 -24 -25 -26 -27 27 28 -30 -31
leaf_value=-1.9492902860677579 -2.8194793367241449 10.214514030538725 17.785301042639691 3.8744433944706214 6.2804311307424561 3.9794219787376868 -4.7674009409601705 11.395848426662507 2.1054958397419088 1.255685439191853 -0.51475042142786021 8.5727471685638346 2.5468136188399075 -0.2532545404890072 11.486136800050735 -0.90124208295556241 0.44052824683966169 0.08537646036333682 -1.7517169197781579 -0.95019485394879255 15.90015330016613 8.2207662363847103 -2.72422638815992 7.7922820518486695 1.6937234543523816 -11.930403313636781 1.0794926820482527 15.43666478565761 2.5439055022494546 3.2743443370741958
leaf_weight=937 227 132 23 110 94 71 163 61 108 316 1468 127 133 2396 25 219 498 1425 1759 1451 20 57 85 137 215 25 175 21 29 170
leaf_count=937 227 132 23 110 94 71 163 61 108 316 1468 127 133 2396 25 219 498 1425 1759 1451 20 57 85 137 215 25 175 21 29 170
internal_value=0 0.0755157 0.447246 4.71849 0.268869 7.35746 -0.634936 0.182735 0.850687 -0.361719 0.522555 2.64045 5.32924 0.585797 0.100986 2.60915 1.36781 -0.470845 -1.29372 -0.033565 0.741059 3.94088 0.9981 5.28545 3.06152 -3.72334 3.49603 2.60824 7.95886 0.923564
internal_weight=0 12425 8157 327 7830 94 4268 7736 3474 4262 2187 719 194 3280 2646 634 592 4105 2075 3168 1717 292 195 245 272 252 250 225 50 389
internal_count=12677 12425 8157 327 7830 94 4268 7736 3474 4262 2187 719 194 3280 2646 634 592 4105 2075 3168 1717 292 195 245 272 252 250 225 50 389
is_linear=0
shrinkage=0.5


Tree=4
num_leaves=31
num_cat=0
split_feature=4 15 21 18 28 15 4 18 21 28 4 15 3 15 21 15 36 23 35 18 19 28 35 30 15 4 18 34 36 23
split_gain=10667.8 7924.04 7677.6 7735.73 19207.4 11199.6 8189.47 7632.75 7668.15 7223.89 7666.38 7046.38 6732.93 6482.2 7799.82 5990.96 6135.55 11985 7311.39 8450.75 8242.87 7082.4 6063.52 5841.81 5803.25 8769.07 8040.44 5366.56 8548.07 12355.5
threshold=77.269798250000022 2.2197200050000006 -3.2187499999999996 348.30379715000004 0.8642575145000001 0.42089800550000006 74.222148900000022 346.13530195000004 -2.1562499999999996 0.20703100400000005 75.682453150000015 0.73046800500000009 660.18750000000011 0.8017575145000001 -0.15624999999999997 2.0644450200000004 2053.5600600000002 122.96849800000001 86.945301050000012 365.83249895 30.878899550000003 1.0703050500000002 87.64839935000002 29.527299900000003 1.4355450250000004 74.158649450000013 365.65179675000002 89.11714935000002 1837.3100000000002 113.90599800000001
decision_type=2 2 2 2 2 2 2 2 2 2 2 2 2 2 2 2 2 2 2 2 2 2 2 2 2 2 2 2 2 2
left_child=2 7 24 4 9 -6 -7 11 15 -4 12 -2 13 -11 -15 16 22 -18 20 -20 21 -19 -9 -13 25 -1 -26 28 -5 -30
right_child=1 -3 3 27 5 6 -8 8 -10 10 -12 23 -14 14 -16 -17 17 18 19 -21 -22 -23 -24 -25 26 -27 -28 -29 29 -31
leaf_value=5.1645501565542959 -0.029402679986727069 -4.7240885057654536 3.8518781120457302 -0.30051623155430296 -1.6888233153865888 10.031299087912478 3.9889679603385839 -1.1641244013635088 0.84026805828947226 0.71677258130530741 -2.1147215306427114 -6.0491213447363803 2.6073525624177369 -12.867789443920959 -1.460652862774565 -6.5627796792465709 7.9495294942305641 10.469552697658184 -4.1320242847861914 4.0769625302404169 -0.42724198852242395 -0.96229483038187025 -6.8758986261578237 -2.1098285082201795 8.1673017461307165 -1.2719816424317294 -0.79651083383295274 -1.5336148902612801 6.553778464158813 0.62449438308398919
leaf_weight=84 284 122 123 4588 52 94 139 898 1041 157 333 129 281 22 47 46 52 42 145 40 110 20 49 348 82 143 36 532 91 2547
leaf_count=84 284 122 123 4588 52 94 139 898 1041 157 333 129 281 22 47 46 52 42 145 40 110 20 49 348 82 143 36 532 91 2547
internal_value=0 -0.769071 0.273546 0.184872 1.34025 4.94593 6.42665 -0.618474 -0.187754 0.273142 -0.250887 -2.00119 0.973289 -1.05845 -5.09771 -0.951071 -0.760703 0.857675 -0.175312 -2.35711 2.17139 6.78186 -1.45966 -3.17517 2.58833 1.10982 5.43258 -0.000988729 0.111848 0.82903
internal_weight=0 3326 9351 9006 1248 285 233 3204 2443 963 840 761 507 226 69 1402 1356 409 357 185 172 62 947 477 345 227 118 7758 7226 2638
internal_count=12677 3326 9351 9006 1248 285 233 3204 2443 963 840 761 507 226 69 1402 1356 409 357 185 172 62 947 477 345 227 118 7758 7226 2638
is_linear=0
shrinkage=0.5


Tree=5
num_leaves=31
num_cat=0
split_feature=14 36 25 6 25 36 25 15 15 3 30 4 14 25 36 23 35 23 23 36 19 34 4 36 23 35 36 34 4 30
split_gain=5544.89 6056.1 9843.79 10046.7 9745.17 6048.22 9150.04 9260.48 10981.5 5838.21 5766.8 6008.92 5341.14 7999.54 5226.74 17447.7 7217.17 6063.47 5642.55 7895.61 6157.45 5908.77 5146.32 4953.9 5994.4 5588.31 5325.81 10794.9 4556.52 4487.23
threshold=276.84999100000005 1947.6850000000002 65.421848300000008 1.0000000180025095e-35 61.609350200000009 1568.0600000000002 57.171850200000009 1.1630800350000003 0.30761699400000003 642.31250000000011 34.878900550000004 76.063449850000012 241.34999850000003 54.328100200000009 1771.0600000000002 112.03099800000001 84.08589935000002 106.84349800000001 116.78099800000001 1814.4350000000002 31.581999800000002 86.351497650000013 69.841251350000007 1813.0600000000002 120.65599800000001 82.74214935000002 1695.4350000000002 80.17964935000002 76.097599050000014 31.206999800000002
decision_type=2 2 2 2 2 2 2 2 2 2 2 2 2 2 2 2 2 2 2 2 2 2 2 2 2 2 2 2 2 2
left_child=1 4 3 22 5 -1 7 8 -7 -9 11 -5 13 -10 17 16 -16 -8 19 21 -21 29 -3 24 26 -25 -14 -28 -19 -17
right_child=-2 2 -4 10 -6 6 14 9 12 -11 -12 -13 23 -15 15 18 -18 28 -20 20 -22 -23 -24 25 -26 -27 27 -29 -30 -31
leaf_value=-1.2555898730510489 -1.9538738984435207 7.6482053314646086 -0.17538501190038838 2.472165741438491 -1.2876377581747851 -2.5965777119172029 1.3665558386668777 -4.9726704495438074 14.505397373979742 0.20277645851538986 -3.994899534413384 -1.7839421590377811 1.3015786600319514 3.5166353516614257 8.6039644464468346 2.0122093117102522 2.4934016395741558 -0.32445515973946765 -0.53711667521594686 4.2627030736155707 0.93050946236177479 -3.3875630350138706 2.7675127965430839 8.8267943976180891 -1.2456038091182045 2.2974500365649599 12.169465323289236 2.8471235972128612 -1.7307380486835322 -1.1113313070214614
leaf_weight=755 353 60 1191 226 1493 116 349 59 22 713 72 131 458 67 78 227 127 1508 1706 221 372 130 541 56 140 79 36 226 932 233
leaf_count=755 353 60 1191 226 1493 116 349 59 22 713 72 131 458 67 78 227 127 1508 1706 221 372 130 541 56 140 79 36 226 932 233
internal_value=0 0.0559654 0.803518 1.93543 -0.108373 0.0961147 0.226037 1.15812 2.02718 -0.192756 0.0871335 0.910401 2.52198 6.23296 -0.0864003 0.361055 4.8184 -0.582789 0.0447677 0.883901 2.17236 -0.411105 3.25477 2.19004 1.74801 5.00592 2.3301 4.12806 -0.861609 0.430068
internal_weight=0 12324 2221 1030 10103 8610 7855 1972 1200 772 429 357 1084 89 5883 3094 205 2789 2889 1183 593 590 601 995 860 135 720 262 2440 460
internal_count=12677 12324 2221 1030 10103 8610 7855 1972 1200 772 429 357 1084 89 5883 3094 205 2789 2889 1183 593 590 601 995 860 135 720 262 2440 460
is_linear=0
shrinkage=0.5


Tree=6
num_leaves=31
num_cat=0
split_feature=35 3 4 19 34 3 19 4 4 6 21 3 35 15 36 35 4 23 36 23 34 6 30 28 4 15 4 18 0 4
split_gain=5051.31 10397.4 8089.01 7464.55 8495.08 10747.4 6589.94 6440.53 12300.2 20111.1 10316.5 9722.86 10016.5 10254.2 9910.4 7351.52 6931.51 6122.32 5914.48 10435.3 7928.05 5742.7 13099.5 14108.6 8240.46 16571.1 16397.3 10544.4 10923.9 7761.81
threshold=83.663997650000013 743.43750000000011 84.063449850000012 30.331999800000002 84.976497650000013 757.06250000000011 31.175700200000005 71.936450950000008 75.809452050000019 1.0000000180025095e-35 -2.1562499999999996 774.43750000000011 84.945301050000012 1.8623000400000003 1961.8100000000002 84.77339935000002 77.460247050000007 119.46849800000001 1806.6850000000002 122.21849800000001 83.601497650000013 1.0000000180025095e-35 29.933549900000003 0.78222599650000013 78.984050750000009 0.71191352600000013 73.460247050000007 364.74825135000003 252.20000020000001 71.492050150000026
decision_type=2 2 2 2 2 2 2 2 2 2 2 2 2 2 2 2 2 2 2 2 2 2 2 2 2 2 2 2 2 2
left_child=2 6 18 4 -3 -6 -2 -7 9 10 -9 15 -13 14 -14 -10 -15 -16 -1 20 -20 29 -23 24 25 -24 -27 28 -28 -5
right_child=1 3 -4 21 5 7 -8 8 11 -11 -12 12 13 16 17 -17 -18 -19 19 -21 -22 22 23 -25 -26 26 27 -29 -30 -31
leaf_value=0.1643957511222382 -3.132617626477741 4.8100032356962483 -7.8324011425177256 2.9544146222815302 -2.4256022381294304 -1.7245508804917336 -0.30088692955693613 -3.0437794512226466 -0.92226812284853721 4.8729117125948331 2.5661565215094013 4.3676383991801888 -1.5741222345941634 3.2586641907691956 8.0196912708607595 -7.1390760473802057 -6.5014895834456912 1.7170512051111269 7.0418526727568223 0.0092315605506040222 2.1101311748645393 1.7599315654724927 -1.0810615197241085 -0.23117220688520951 0.0091797637806576536 -2.7801885061532432 -8.7841761895425385 0.66444354707544495 -18.677848405308193 -0.2465892117859497
leaf_weight=4595 484 115 30 214 293 224 357 168 144 437 160 159 258 23 44 71 87 310 108 518 332 328 268 794 157 171 124 22 36 1646
leaf_count=4595 484 115 30 214 293 224 357 168 144 437 160 159 258 23 44 71 87 310 108 518 332 328 268 794 157 171 124 22 36 1646
internal_value=0 -0.279996 0.355775 -0.0580023 0.612902 0.40993 -1.93056 0.808401 1.11328 2.65189 -0.307225 0.0393448 0.775032 -0.0161379 0.782727 -2.97526 -4.46073 2.50043 0.400012 1.53013 3.32064 -0.502833 -1.11422 -1.71391 -3.22714 -4.04535 -6.29585 -9.59903 -11.0103 0.121698
internal_weight=0 7094 5583 6253 2493 2378 841 2085 1861 765 328 1096 881 722 612 215 110 354 5553 958 440 3760 1900 1572 778 621 353 182 160 1860
internal_count=12677 7094 5583 6253 2493 2378 841 2085 1861 765 328 1096 881 722 612 215 110 354 5553 958 440 3760 1900 1572 778 621 353 182 160 1860
is_linear=0
shrinkage=0.5


Tree=7
num_leaves=31
num_cat=0
split_feature=36 34 36 23 23 28 23 19 4 36 31 15 36 23 21 23 11 28 3 36 34 23 21 36 36 35 19 6 21 14
split_gain=4002.16 6853.76 4658.94 5578.41 4253.3 3828.27 3803.7 6927.87 5085.06 3615.28 3839.93 3584.71 4057.06 5940.26 5844.19 5634.03 4992.56 5194.02 4855.2 4435.73 8000 4406.11 4022.79 7778.18 4562.87 6973.63 4116.63 3870.03 3783.48 3819.63
threshold=2235.2451200000005 92.61714935000002 2138.6850600000002 131.28099800000004 130.90599800000004 0.46288999900000005 129.40599800000004 30.441399550000003 77.015850050000012 1968.5600000000002 0.75149998050000011 2.4638650400000004 2012.9350000000002 122.21849800000001 -1.9062499999999998 121.21849800000001 401.15600600000005 0.46777300550000006 835.93750000000011 1894.6850000000002 83.21089935000002 127.15599800000001 -1.6562499999999998 1780.9350000000002 1907.9350000000002 85.99214935000002 34.347600950000007 1.0000000180025095e-35 -2.5312499999999996 252.34999850000003
decision_type=2 2 2 2 2 2 2 2 2 2 2 2 2 2 2 2 2 2 2 2 2 2 2 2 2 2 2 2 2 2
left_child=1 2 3 11 -2 9 7 -4 -8 -5 -11 12 15 18 -15 22 19 -18 -14 -17 -21 -22 24 -24 28 -26 27 -25 -1 -30
right_child=4 -3 6 5 -6 -7 8 -9 -10 10 -12 -13 13 14 -16 16 17 -19 -20 20 21 -23 23 26 25 -27 -28 -29 29 -31
leaf_value=-1.3743721796675716 8.2186041607388436 -3.4582203647846148 12.990727616474032 -8.0525225221138932 1.2615439253402692 -0.91296346641294435 3.1913042482290721 2.4554387337305177 -3.2605670174727073 2.973467593504624 -6.266331291717032 -1.917419493307845 7.35855156769518 0.062065874345377324 5.7296745649405887 -0.79960375465274258 -4.4014968758520601 -1.1423588661658288 1.709113238250265 6.2212464612196472 1.3332139394123499 -3.435863186304386 0.18183077971250536 3.7173626037744856 2.438504122520937 -0.71017049158124634 -0.072060103311732016 1.0160040603100098 0.31093343873816348 -0.76059225385675355
leaf_weight=763 28 144 20 46 102 169 74 71 52 22 23 234 61 634 49 783 156 565 101 68 190 65 3401 336 386 323 185 219 1965 1442
leaf_count=763 28 144 20 46 102 169 74 71 52 22 23 234 61 634 49 783 156 565 101 68 190 65 3401 336 386 323 185 219 1965 1442
internal_value=0 -0.0285963 0.0112219 -0.0296711 2.75999 -2.32083 2.30764 4.77089 0.528627 -4.93544 -1.7491 0.0202787 0.0590592 1.11431 0.468673 -0.023147 -0.823827 -1.84753 3.83637 -0.156479 1.40255 0.117567 0.139031 0.501476 -0.168592 1.00406 1.97055 2.65142 -0.36797 -0.142586
internal_weight=0 12547 12403 12186 130 260 217 91 126 91 45 11926 11692 845 683 10847 1827 721 162 1106 323 255 9020 4141 4879 709 740 555 4170 3407
internal_count=12677 12547 12403 12186 130 260 217 91 126 91 45 11926 11692 845 683 10847 1827 721 162 1106 323 255 9020 4141 4879 709 740 555 4170 3407
is_linear=0
shrinkage=0.5


Tree=8
num_leaves=31
num_cat=0
split_feature=19 3 11 28 3 34 34 3 3 35 4 3 15 35 3 18 15 36 18 15 11 6 3 4 34 15 11 28 18 4
split_gain=3000.39 4458.29 5305.36 4617.3 4553.55 8634.85 7151.32 5649.19 4704.45 8103.21 6445.05 5112.72 4445.75 3994.02 4223.96 3845.89 3640.07 3525.15 3264.77 3226.33 3358.32 3581.33 3422.09 6126.93 3167.2 3162.84 3319.94 3135.62 4689.62 7278.47
threshold=30.331999800000002 864.31250000000011 446.53100600000005 1.1923750050000002 730.06250000000011 85.30464935000002 83.445301050000012 714.31250000000011 790.81250000000011 85.351497650000013 73.015850050000012 754.18750000000011 0.99218702300000017 86.070301050000012 825.18750000000011 363.93504945000001 0.71777302050000003 1746.9350000000002 349.47839965000003 0.50878852600000013 375.15600600000005 1.0000000180025095e-35 748.93750000000011 75.047550200000003 82.570301050000012 1.9160100250000003 381.78100600000005 1.1054649950000004 356.70674745000002 81.20634840000001
decision_type=2 2 2 2 2 2 2 2 2 2 2 2 2 2 2 2 2 2 2 2 2 2 2 2 2 2 2 2 2 2
left_child=1 2 3 4 6 12 7 -1 9 11 -10 -7 19 18 -15 -3 -11 -13 -12 -6 -21 22 -22 -24 -9 -14 -27 -2 29 -29
right_child=27 15 -4 -5 5 8 -8 24 10 16 13 17 25 14 -16 -17 -18 -19 -20 20 21 -23 23 -25 -26 26 -28 28 -30 -31
leaf_value=0.1493676353259471 -0.3414794812799114 -0.70733811152287018 -3.7157562187917175 -0.90950926055056913 3.4421608524758422 -1.635820218834795 -1.6966321995755134 8.1657278021176651 -2.0203673784326539 -0.19065798949777035 -2.5481985638087448 -1.5660398535106492 4.7582990212407381 -1.2892663027533757 2.6515569184941272 5.3737558546738748 -5.077210871741662 1.4604446600222523 3.7800050546357995 5.9472490984659929 -3.047816649112884 2.4219060158729553 -2.5212005567412046 6.7000989760121987 2.2943599420523615 5.5481180548667908 -2.6158460170933693 2.6643949851135877 -0.13950945975799137 -4.6174188801332523
leaf_weight=1035 6339 39 84 688 134 258 518 30 117 57 22 115 225 137 135 78 115 589 277 26 111 100 43 31 98 20 33 354 831 38
leaf_count=1035 6339 39 84 688 134 258 518 30 117 57 22 115 225 137 135 78 115 589 277 26 111 100 43 31 98 20 33 354 831 38
internal_value=0 0.295765 0.224344 0.291696 0.487254 0.909068 -0.151363 0.5369 0.328907 -0.296897 1.36039 0.26826 2.37111 2.05312 0.666657 3.34672 -3.45783 0.966062 3.31438 1.39113 0.507405 0.0111382 -1.29198 1.34178 3.67046 3.93977 0.464895 -0.200058 0.532953 1.9585
internal_weight=0 5115 4998 4914 4226 2545 1681 1163 1822 1134 688 962 723 571 272 117 172 704 299 445 311 285 185 74 128 278 53 7562 1223 392
internal_count=12677 5115 4998 4914 4226 2545 1681 1163 1822 1134 688 962 723 571 272 117 172 704 299 445 311 285 185 74 128 278 53 7562 1223 392
is_linear=0
shrinkage=0.5


Tree=9
num_leaves=31
num_cat=0
split_feature=34 36 4 12 3 12 5 36 25 23 34 36 23 35 6 30 23 36 37 23 15 36 15 31 23 6 30 5 4 36
split_gain=2653.02 3843.02 4151.41 4774.27 3083.53 2840.11 3118.19 2849.16 6742.99 4797.15 10774.5 4828.52 4242.4 4987.7 3471.62 3985.25 3300.66 5057.47 4360.28 3890.52 3262.27 3246.11 3141.08 3012.09 2822.56 5936.66 4152.56 3973.51 3507.85 3080.15
threshold=91.46089935000002 2072.0600600000002 69.333248150000017 35006.500000000007 852.93750000000011 36997.500000000007 97.27339935000002 1617.8100000000002 54.890600200000009 107.46849800000001 83.351497650000013 1658.9350000000002 114.84349800000001 80.99214935000002 1.0000000180025095e-35 31.160100000000003 127.28099800000001 1840.9350000000002 -22.027777583333329 111.65599800000001 0.53808549050000021 1693.4350000000002 1.3076150400000002 0.75450000150000018 115.40599800000001 1.0000000180025095e-35 34.542900100000004 89.351497650000013 75.301548000000011 1706.4350000000002
decision_type=2 2 2 2 2 2 2 2 2 2 2 2 2 2 2 2 2 2 2 2 2 2 2 2 2 2 2 2 2 2
left_child=1 5 -3 -4 -2 6 7 20 12 10 11 -10 13 -9 21 -16 17 18 24 -19 -1 -12 -15 -21 29 27 -27 -26 -29 -11
right_child=4 2 3 -5 -6 -7 -8 8 9 16 14 -13 -14 22 15 -17 -18 19 -20 23 -22 -23 -24 -25 25 26 -28 28 -30 -31
leaf_value=0.55066775239504462 -3.6665254316781417 7.0106772402922308 0.15047604092244476 3.5324490726689226 -0.44687848978061623 1.0195581031502834 -1.6496033478655259 9.2514501771865749 4.3822917099352239 -0.71171323343528958 0.65445715370645496 14.491243260247368 1.1504812965936519 4.7873598172196319 0.99646155438637618 -4.8909664778633317 -1.4339153652849899 7.415283244475722 -6.5600665552275519 1.1851576557739965 -1.2686242934764762 6.1145101829272948 -2.9476271498770941 0.10782332316381203 0.38765240649198307 0.49251922028842404 -2.2705067700547414 -1.2128357446543014 -3.5576587002082118 0.29782568929375641
leaf_weight=343 101 30 428 138 282 619 308 39 27 1132 81 21 357 35 74 47 443 20 28 913 875 41 21 2242 162 796 164 319 319 2272
leaf_count=343 101 30 428 138 282 619 308 39 27 1132 81 21 357 35 74 47 443 20 28 913 875 41 21 2242 162 796 164 319 319 2272
internal_value=0 0.0403724 1.27886 0.975056 -1.29592 -0.0227272 -0.0809613 -0.0361055 0.0557181 -0.0378981 1.95947 8.80496 1.94068 4.91015 0.607279 -1.29039 -0.103873 -0.033452 -0.33744 0.463652 -0.756295 2.48939 1.88674 0.419584 -0.3037 -0.817787 0.0205023 -1.82374 -2.38525 -0.0378964
internal_weight=0 12294 596 566 383 11698 11079 10771 9553 9101 291 48 452 95 243 121 8810 8367 5192 3175 1218 122 56 3155 5164 1760 960 800 638 3404
internal_count=12677 12294 596 566 383 11698 11079 10771 9553 9101 291 48 452 95 243 121 8810 8367 5192 3175 1218 122 56 3155 5164 1760 960 800 638 3404
is_linear=0
shrinkage=0.5


Tree=10
num_leaves=31
num_cat=0
split_feature=21 12 3 36 34 15 19 15 6 30 21 37 15 15 21 19 4 15 36 28 19 6 11 30 31 4 18 36 34 15
split_gain=2415.23 3245.42 3998.14 3525.99 3885.22 3127.12 2898.34 2877.34 3547.97 6214.22 4789.29 4799.65 7204.42 6025.68 4655.95 4552.82 4398.78 4228.09 3462.18 3383.3 5965.92 8244.52 7295.22 7904.59 6578.5 5072.79 8241.83 4312.49 3897.68 3690.61
threshold=-1.4062499999999998 33996.500000000007 688.81250000000011 2261.4350600000002 94.078098300000008 0.30761699400000003 33.699199700000008 1.1630800350000003 1.0000000180025095e-35 29.300700200000005 -3.5312499999999996 -26.138888472222217 0.83691352600000013 1.0693300350000003 -2.4687499999999996 32.33979990000001 81.142848950000015 0.7783200145000001 1695.4350000000002 0.66015601150000014 31.417900100000004 1.0000000180025095e-35 419.96850600000005 31.605400100000004 0.75149998050000011 76.063449850000012 351.19515075000004 1993.9350000000002 84.61714935000002 2.0419900450000004
decision_type=2 2 2 2 2 2 2 2 2 2 2 2 2 2 2 2 2 2 2 2 2 2 2 2 2 2 2 2 2 2
left_child=1 2 -1 4 7 -2 -5 8 14 -10 -11 17 -13 15 16 -14 -3 -12 -16 20 27 28 23 24 -23 26 -21 -9 -22 -28
right_child=5 3 -4 6 -6 -7 -8 19 9 10 11 12 13 -15 18 -17 -18 -19 -20 25 21 22 -24 -25 -26 -27 29 -29 -30 -31
leaf_value=-8.2688327133655548 -1.4481547602456186 -2.2733932431347257 -1.0682430231476321 7.7416319617858296 -5.3601550153323583 0.40071791318990774 0.52903947432835896 1.5045339937171629 1.1530959744571452 4.2577513292127724 -0.95383967141068315 -0.96918074699254009 -3.9399540434419378 0.71402956917881966 -2.0976450904582937 -13.048404033569728 1.8249114047582835 1.3314122442906309 0.032400820532032366 6.1302382522262633 3.7284416875501316 -4.1505814696613115 3.184363842010498 -1.5642639451265872 -15.177597636268253 -0.97210509703552639 0.8286134010792805 5.2177449398218316 0.48599181515938511 -1.5083083450134358
leaf_weight=20 242 635 534 26 35 4162 30 465 855 49 681 179 23 20 225 34 73 288 1254 64 127 38 59 222 21 959 697 94 343 223
leaf_count=20 242 635 534 26 35 4162 30 465 855 49 681 179 23 20 225 34 73 288 1254 64 127 38 59 222 21 959 697 94 343 223
internal_value=0 -0.159233 -1.32819 -0.0753357 -0.104224 0.299122 3.87774 -0.0801081 -0.349116 0.110353 -0.589447 -0.783335 -2.70886 -6.75304 -0.796399 -9.37306 -1.85083 -0.274632 -0.291643 0.270447 0.872493 0.00539076 -1.87012 -2.93138 -8.07545 -0.153743 0.643827 2.12894 1.36214 0.262164
internal_weight=0 8273 554 7719 7663 4404 56 7628 4316 2129 1274 1225 256 77 2187 57 708 969 1479 3312 1369 810 340 281 59 1943 984 559 470 920
internal_count=12677 8273 554 7719 7663 4404 56 7628 4316 2129 1274 1225 256 77 2187 57 708 969 1479 3312 1369 810 340 281 59 1943 984 559 470 920
is_linear=0
shrinkage=0.5


Tree=11
num_leaves=31
num_cat=0
split_feature=36 14 35 34 23 36 11 21 6 3 18 4 14 15 25 6 30 15 28 14 4 4 18 11 34 23 36 15 4 34
split_gain=1828.1 3099.98 3624.73 2786.5 3598.38 4694.88 8679.53 3576.65 3143.59 3627.68 3134.44 2829.5 2660.23 2657.85 2600.96 3086.85 5660.07 5195.21 5073.36 4663.84 4843.67 4494.97 5466.02 3699.23 3372.26 4250.47 6282.89 3336.7 3192.71 2653.02
threshold=1753.1250000000002 250.75000000000003 82.80464935000002 84.507801050000012 113.28099800000001 1678.1850000000002 359.59350600000005 -1.5937499999999998 1.0000000180025095e-35 735.06250000000011 361.49550095000001 73.460247050000007 251.65000150000003 1.8935500400000003 60.859350200000009 1.0000000180025095e-35 33.08979990000001 1.7373000400000003 0.46777300550000006 268.65000900000007 74.539649950000026 74.476146700000015 359.41734925000003 400.84350600000005 81.163997650000013 118.40599800000001 1872.6850000000002 1.2451150400000002 70.412647250000006 87.038997650000013
decision_type=2 2 2 2 2 2 2 2 2 2 2 2 2 2 2 2 2 2 2 2 2 2 2 2 2 2 2 2 2 2
left_child=3 2 -2 4 5 -1 -7 -8 9 -5 -10 -12 -13 -6 15 17 21 24 19 -18 27 28 -23 -20 -3 -26 -27 -21 -17 -24
right_child=1 14 -4 8 13 6 7 -9 10 -11 11 12 -14 -15 -16 16 18 -19 23 20 -22 22 29 -25 25 26 -28 -29 -30 -31
leaf_value=-0.05690305539156016 3.295859101293392 3.010020609503075 0.53743078026003044 -4.8967322563752536 -1.0378009792636478 8.7053220257163044 -0.24961575544475353 2.4068416061953277 0.57573643212907766 -1.2550262511488359 -0.21910833647208555 -1.696465348468182 -7.5533815371719273 1.2247900390785011 -0.34212752309872851 -0.70679742018894653 -1.3253555232897782 3.1693311872793801 0.64997629256138945 -4.6236503258347508 -0.7233593789013949 0.58905390097916555 -4.0498862196655239 -2.6215041582982472 1.1553855902281431 -2.3945162674273961 0.6296697514311197 -12.961186559995015 2.0496364269998262 1.4004816528478707
leaf_weight=1812 129 118 1551 80 1007 40 258 249 445 471 112 47 33 149 3094 138 78 199 234 20 22 279 129 137 641 293 415 30 440 27
leaf_count=1812 129 118 1551 80 1007 40 258 249 445 471 112 47 33 149 3094 138 78 199 234 20 22 279 129 137 641 293 415 30 440 27
internal_value=0 0.145818 0.749239 -0.247237 -0.0234892 0.330652 1.61447 1.05503 -0.90925 -1.78377 -0.152799 -1.84133 -4.11244 -0.746169 -0.0152475 0.300805 -0.210969 0.77203 -1.5502 -4.004 -6.90587 0.477814 -0.736267 -0.558091 0.446833 0.222626 -0.621865 -9.62617 1.39153 -3.10655
internal_weight=0 7974 1680 4703 3515 2359 547 507 1188 551 637 192 80 1156 6294 3200 1534 1666 521 150 72 1013 435 371 1467 1349 708 50 578 156
internal_count=12677 7974 1680 4703 3515 2359 547 507 1188 551 637 192 80 1156 6294 3200 1534 1666 521 150 72 1013 435 371 1467 1349 708 50 578 156
is_linear=0
shrinkage=0.5


Tree=12
num_leaves=31
num_cat=0
split_feature=36 34 23 5 2 15 15 6 3 25 18 11 4 15 4 4 28 28 30 23 19 6 21 35 36 30 14 2 15 12
split_gain=1628.18 3160.9 3650.31 4658.82 2892.56 2964.53 2797.89 3297.41 3403.98 2709.83 2130.57 2688.96 2386.37 2630.65 1908.07 3760.33 3784.02 3476.62 3340.62 3129.82 3190.3 3742.11 3663.15 2820.65 2629.56 2569.42 3120.67 2997.36 3710.11 2434.51
threshold=1975.7450000000001 90.226497650000013 137.59349800000004 89.27339935000002 236.45470085000002 2.1044900450000004 1.4062450500000001 1.0000000180025095e-35 802.56250000000011 68.265598300000008 363.93504945000001 456.15600600000005 73.333248150000017 0.59960901750000006 72.444396950000012 74.793602000000007 0.19824150200000004 0.38574150200000007 39.863199250000001 123.34349800000001 30.238200200000005 1.0000000180025095e-35 -1.3437499999999998 79.92964935000002 1556.6850000000002 31.035100000000003 239.84999850000003 234.40785065 1.6337800050000002 29994.500000000004
decision_type=2 2 2 2 2 2 2 2 2 2 2 2 2 2 2 2 2 2 2 2 2 2 2 2 2 2 2 2 2 2
left_child=9 2 3 -2 -5 6 -6 -8 -9 14 11 -3 13 -12 25 17 -17 -16 19 -18 21 22 -21 24 -19 -1 -27 28 -28 -25
right_child=1 10 -4 4 5 -7 7 8 -10 -11 12 -13 -14 -15 15 16 18 23 -20 20 -22 -23 -24 29 -26 26 27 -29 -30 -31
leaf_value=0.11044481195047839 8.6006317394120355 -0.7039259985689349 -2.1607110554265767 5.6109103928594024 0.70158479555181985 -2.1012128661076228 4.4283574445521445 -3.3885794665132249 3.2525549388902131 -3.1565327305923887 1.7834040663532309 -5.5939084708690645 1.22359518147408 -3.5128787226276472 -0.60262668025812938 1.7643272073473781 -0.18634686224290017 1.2064481268863421 4.9087635288315434 -10.567082892855009 -0.68864992096294619 -1.3264689096722051 -2.2794926936427751 -3.4040504577968802 7.5056796967983246 2.8891163687579908 -6.0725199802447172 -0.86460123035869263 1.5354423468763179 0.80197496696019144
leaf_weight=1145 21 447 86 34 707 75 123 35 43 71 37 30 312 64 525 240 4794 37 31 30 267 69 24 35 30 52 59 1212 22 2020
leaf_count=1145 21 447 86 34 707 75 123 35 43 71 37 30 312 64 525 240 4794 37 31 30 267 69 24 35 30 52 59 1212 22 2020
internal_value=0 0.41231 0.969698 1.22906 1.07684 0.920017 1.16957 2.81566 0.272559 -0.077876 -0.291628 -1.01147 0.539766 -1.57266 -0.0572392 0.0604079 -0.176875 0.549406 -0.266211 -0.297157 -1.65927 -3.76623 -6.88371 0.834428 4.027 -0.440041 -0.90867 -1.0614 -4.00616 0.730339
internal_weight=0 2014 1124 1038 1017 983 908 201 78 10663 890 477 413 101 10592 8102 5455 2647 5215 5184 390 123 54 2122 67 2490 1345 1293 81 2055
internal_count=12677 2014 1124 1038 1017 983 908 201 78 10663 890 477 413 101 10592 8102 5455 2647 5215 5184 390 123 54 2122 67 2490 1345 1293 81 2055
is_linear=0
shrinkage=0.5


Tree=13
num_leaves=31
num_cat=0
split_feature=36 35 23 2 36 25 23 36 34 23 34 36 30 23 36 34 36 21 18 21 30 2 4 3 25 6 30 15 0 36
split_gain=1807.94 5371.03 3097.58 3681.95 2013.81 1962.32 4392.47 2532.77 2522.98 2783.94 2980.25 2630.4 2068.58 1964.1 3357.16 4380.61 4917.29 3330.96 2555.62 2199.74 2585.4 2105.05 3206.25 1930.84 1852.18 2395.83 2279.64 1934 1912.09 1951.26
threshold=1521.9350000000002 79.007801050000012 101.53099800000001 243.50159970000001 1568.0600000000002 53.703100200000009 109.21849800000001 1819.4350000000002 82.27339935000002 116.15599800000001 87.24214935000002 1902.3100000000002 30.667900100000004 110.34349800000001 1639.4350000000002 83.913997650000013 1697.1850000000002 -1.4062499999999998 359.50770035000005 -0.84374999999999989 34.835899350000012 234.68910065000003 74.095150000000004 651.31250000000011 59.859350200000009 1.0000000180025095e-35 26.706999800000002 1.4970650050000003 257.40000000000003 1682.5600000000002
decision_type=2 2 2 2 2 2 2 2 2 2 2 2 2 2 2 2 2 2 2 2 2 2 2 2 2 2 2 2 2 2
left_child=-1 -2 3 4 -3 6 -4 13 -9 10 12 -12 -10 14 19 16 17 -16 -19 20 21 -7 -23 -8 28 -26 27 -27 29 -15
right_child=1 2 5 -5 -6 7 23 8 9 -11 11 -13 -14 24 15 -17 -18 18 -20 -21 -22 22 -24 -25 25 26 -28 -29 -30 -31
leaf_value=-1.0434004242406851 7.6677424305159114 2.6804254472255709 6.1270040437961235 -0.94090074313183625 9.612731588665735 0.23707055636415525 -0.35352209523024802 1.9743021991987204 3.3826937011047584 -0.01112594876975229 -0.87658350964097986 2.0652052824191438 1.1104169359932825 -1.0131048712433 -0.5720228879052458 0.18262882892241594 6.7752176324526472 5.2760957199793594 -0.43769063587699619 0.78202809054507982 -6.4678729711608449 -0.1042707924749337 -3.268156398664273 2.0127430542794276 -1.7544585081372717 0.40822140669583212 -0.69708858354748271 5.4975969818021566 -4.890610161152753 -0.0066219436582888209
leaf_weight=402 23 20 39 30 22 224 227 194 146 4677 275 105 319 605 103 893 54 65 28 198 22 153 168 139 545 56 535 28 22 2360
leaf_count=402 23 20 39 30 22 224 227 194 146 4677 275 105 319 605 103 893 54 65 28 198 22 153 168 139 545 56 535 28 22 2360
internal_value=0 0.0341708 0.0198408 3.28974 6.31163 0.000511274 1.08265 -0.0367089 0.20204 0.139777 0.975009 -0.0637208 1.82386 -0.261942 0.157951 0.700544 2.55054 1.38659 3.55582 -0.652747 -1.15378 -0.939266 -1.76014 0.545141 -0.454946 -0.989974 -0.316881 2.10468 -0.246451 -0.211992
internal_weight=0 12275 12252 72 42 12180 405 11775 5716 5522 845 380 465 6059 1908 1143 250 196 93 765 567 545 321 366 4151 1164 619 84 2987 2965
internal_count=12677 12275 12252 72 42 12180 405 11775 5716 5522 845 380 465 6059 1908 1143 250 196 93 765 567 545 321 366 4151 1164 619 84 2987 2965
is_linear=0
shrinkage=0.5


Tree=14
num_leaves=31
num_cat=0
split_feature=36 25 2 37 14 12 21 4 11 18 19 0 15 15 12 23 4 15 5 11 3 15 6 15 21 30 4 37 18 15
split_gain=1553.18 2178.9 2023.04 2321.24 1788.88 1711.44 1691.95 2358.93 2554.57 2243.29 2107.26 2814.59 4226.51 7555.77 6764.27 2689.09 2353.9 2406.62 2120.88 2270.02 2486.98 3232.47 6865.39 6812.93 3597.18 2073.21 1990.73 2390.43 1955.58 1946.26
threshold=2146.3750000000005 70.171848300000008 251.98599950000002 -26.249999999999996 252.15000150000003 35999.500000000007 -1.9687499999999998 75.619003300000017 429.15600600000005 344.78000105000007 31.949199650000004 234.29999964999999 1.0693300350000003 1.4775300050000002 33995.500000000007 130.90599800000004 69.460247050000007 2.1269450200000004 93.46089935000002 405.96850600000005 735.81250000000011 1.9062449950000002 1.0000000180025095e-35 1.5312450500000001 -0.093749999999999986 29.300700200000005 77.079349500000021 -33.416666472222211 362.67009965000005 0.99218702300000017
decision_type=2 2 2 2 2 2 2 2 2 2 2 2 2 2 2 2 2 2 2 2 2 2 2 2 2 2 2 2 2 2
left_child=1 5 3 4 -2 6 7 8 9 -1 15 12 -12 14 -14 16 -8 18 19 20 21 23 -23 26 -25 -26 29 -28 -10 -18
right_child=2 -3 -4 -5 -6 -7 10 -9 28 -11 11 -13 13 -15 -16 -17 17 -19 -20 -21 -22 22 -24 24 25 -27 27 -29 -30 -31
leaf_value=4.5948018928368883 3.165981626620999 -1.5045105282186977 2.5285011626997567 -4.4267972421646116 -0.11523572391856254 0.41432124428224804 -1.1925131422984931 -0.80880774350763562 4.8648255429206753 -0.28049422944383329 -0.13009014932992069 -0.060337910523522137 -11.786235694701855 -0.72683070098409563 -1.2504238314926623 -1.8695887186736972 0.60206127697069201 -1.0721642064147801 3.5008108745964748 -0.38218820426519418 1.6904184682350358 -3.4977894760668278 4.9164432118088008 -3.5574948263063932 -2.631031528674066 3.9410204034298659 0.63851887593720702 -2.6518070492893457 0.94120149281725551 2.1126717436161857
leaf_weight=24 54 246 137 25 180 2054 216 1626 39 1399 239 2746 39 101 25 135 1014 223 63 517 565 32 100 157 20 30 138 92 171 270
leaf_count=24 54 246 137 25 180 2054 216 1626 39 1399 239 2746 39 101 25 135 1014 223 63 517 565 32 100 157 20 30 138 92 171 270
internal_value=0 -0.031427 0.974635 0.152705 0.641968 -0.00131664 -0.0868512 -0.382505 0.0419703 -0.198269 0.0564895 -0.241623 -1.47382 -3.4202 -7.67068 0.319383 0.405362 0.512516 0.630389 0.568775 0.772103 0.492099 2.87663 0.309206 -2.38124 1.3122 0.677055 -0.677611 1.66987 0.919713
internal_weight=0 12281 396 259 234 12035 9981 3259 1633 1423 6722 3150 404 165 64 3572 3437 3221 2998 2935 2418 1853 132 1721 207 50 1514 230 210 1284
internal_count=12677 12281 396 259 234 12035 9981 3259 1633 1423 6722 3150 404 165 64 3572 3437 3221 2998 2935 2418 1853 132 1721 207 50 1514 230 210 1284
is_linear=0
shrinkage=0.5


Tree=15
num_leaves=31
num_cat=0
split_feature=11 36 35 11 4 15 30 28 4 3 4 28 3 34 15 21 25 3 4 3 4 6 15 35 15 19 3 35 18 15
split_gain=1344.4 1522.72 2139.61 4543.65 1968.91 1955.79 2695.32 3616.27 3493.21 4914.87 5313.32 2850 2522.4 3632.88 3542.33 2511.12 3188.39 2317.16 2274.05 2587.4 2033.69 2386.47 2717.56 1887.83 2057.86 1863.07 2794.72 4558.88 2507.15 2134.94
threshold=456.15600600000005 1850.8100000000002 83.30464935000002 382.46850600000005 69.460247050000007 0.48144450800000005 30.574199650000004 1.0136650200000001 76.063449850000012 780.31250000000011 73.841251350000007 0.75781199350000017 786.93750000000011 86.570301050000012 1.3408150050000003 -2.6562499999999996 60.390600200000009 785.81250000000011 74.158649450000013 758.31250000000011 71.619003300000017 1.0000000180025095e-35 0.99218702300000017 84.39839935000002 1.8759700050000003 30.605400100000004 711.68750000000011 82.27339935000002 343.15359725000002 0.9423825145000001
decision_type=2 2 2 2 2 2 2 2 2 2 2 2 2 2 2 2 2 2 2 2 2 2 2 2 2 2 2 2 2 2
left_child=1 2 4 -4 -1 -5 12 8 9 -8 17 -12 13 18 -14 16 -10 -11 -7 -20 -9 -22 -23 24 -21 26 27 -6 -28 -30
right_child=-2 -3 3 5 25 6 7 20 15 10 11 -13 14 -15 -16 -17 -18 -19 19 23 21 22 -24 -25 -26 -27 28 -29 29 -31
leaf_value=-1.3453093553769941 -1.4981426825822406 0.24525607981874589 -6.5347787747780481 0.5381074447449361 0.61742134740828269 -0.14830737253160853 -0.57069258947936452 -0.92990885164450721 -7.6916849344968794 -5.9927007451653482 -4.9679677986329605 -12.623611228168011 -1.1417871118444978 -3.528387764044389 2.8933763766000347 0.94629044661427308 0.7054893328593328 0.27698537840374876 -2.5337963080894639 0.065335643435405058 0.3010484117673326 -0.11191664927679559 4.4081385838799179 -1.6829697388246303 5.4718992276625196 -0.092814384509354253 -2.4112609215989345 -1.8853257024959051 0.75520460730019423 2.5870988224047107
leaf_weight=219 148 4633 30 521 857 475 549 81 20 20 31 20 131 158 93 419 26 56 331 88 131 46 120 127 22 2415 41 231 336 302
leaf_count=219 148 4633 30 521 857 475 549 81 20 20 31 20 131 158 93 419 26 56 331 88 131 46 120 127 22 2415 41 231 336 302
internal_value=0 0.017697 -0.115824 -0.407893 0.116119 -0.354847 -0.512873 -0.049496 -0.493539 -1.21913 -4.02222 -7.97018 -1.00682 -1.29411 0.533526 0.5613 -2.94546 -1.37293 -0.955646 -1.6308 1.29085 1.89652 3.15559 -0.369645 1.14665 0.19265 0.582802 0.0860477 1.37878 1.62234
internal_weight=0 12529 7896 3495 4401 3465 2944 1519 1141 676 127 51 1425 1201 224 465 46 76 1043 568 378 297 166 237 110 4182 1767 1088 679 638
internal_count=12677 12529 7896 3495 4401 3465 2944 1519 1141 676 127 51 1425 1201 224 465 46 76 1043 568 378 297 166 237 110 4182 1767 1088 679 638
is_linear=0
shrinkage=0.5


Tree=16
num_leaves=31
num_cat=0
split_feature=23 36 35 21 6 28 36 11 28 18 6 21 5 28 36 4 21 31 23 28 31 4 4 5 23 14 14 21 23 30
split_gain=1021.78 2087.77 2736.8 2607.6 1803.82 1764.83 1709.22 2776.13 2204.85 1520.09 1498.91 1497.68 1475.57 1353.05 1314.55 1186.1 1183.65 2319.65 2015.75 2666.89 1596.02 1199.12 1182.21 1174.6 1793.43 1169.77 1134.6 1131.9 2294.19 1594.45
threshold=104.90599800000001 1599.1850000000002 82.27339935000002 -1.7812499999999998 1.0000000180025095e-35 0.24121049750000004 1581.8100000000002 339.96850600000005 0.32812450850000002 338.99735105000002 1.0000000180025095e-35 -0.53124999999999989 93.36714935000002 0.68972650200000019 1572.1850000000002 74.730152150000023 0.71875000000000011 0.68050000050000004 132.21849800000004 0.28027300550000006 0.68750000000000011 73.142848950000015 72.761852250000018 88.476497650000013 114.40599800000001 230.94999700000002 241.34999850000003 -3.7187499999999996 129.90599800000004 31.777299900000003
decision_type=2 2 2 2 2 2 2 2 2 2 2 2 2 2 2 2 2 2 2 2 2 2 2 2 2 2 2 2 2 2
left_child=1 3 -3 12 26 -5 8 9 10 -8 -2 15 13 -1 -7 -10 17 22 19 -18 21 -21 -9 24 -11 -19 -4 28 29 -27
right_child=6 2 4 5 -6 14 7 16 11 23 -12 -13 -14 -15 -16 -17 18 25 -20 20 -22 -23 -24 -25 -26 27 -28 -29 -30 -31
leaf_value=-7.6280347734689711 -4.563601326258456 7.6373974442481991 1.9161005558239088 3.9113198220729828 -0.44620650617972663 -0.09682986909005592 -1.7247985154390335 0.21228618733584881 -0.44898546859622002 7.5413269948959352 -0.98105078775967869 0.16330518810288377 -0.0811844731370608 -1.8119931653141976 2.6994032450020313 -4.5989690576538891 5.9334370885044336 3.1472923221259284 -1.800298392176628 -0.73524721316537078 4.0308790075428345 2.5133675397373736 -3.4035684556349532 0.82273920007388701 2.3880257377257714 -0.38731851090084424 6.324653068184853 -0.015775433638362868 1.6892959531900045 -4.9021442616358399
leaf_weight=20 61 20 54 36 69 338 21 32 36 25 56 284 30 20 48 33 32 29 50 98 34 40 77 44 52 33 20 10900 37 48
leaf_count=20 61 20 54 36 69 338 21 32 36 25 56 284 30 20 48 33 32 29 50 98 34 40 77 44 52 33 20 10900 37 48
internal_value=0 0.608147 2.15903 0.094338 1.39283 0.563153 -0.033134 0.00489377 -0.967807 2.20204 -2.84888 -0.344336 -2.73194 -4.72001 0.250888 -2.43376 -0.0224503 -0.04675 1.04482 1.74216 0.962386 0.20638 -2.34203 2.88356 4.06118 -0.0241026 3.1076 -0.0324499 -1.57272 -3.06277
internal_weight=0 655 163 492 143 422 12022 11552 470 142 117 353 70 40 386 69 11410 11156 254 204 172 138 109 121 77 11047 74 11018 118 81
internal_count=12677 655 163 492 143 422 12022 11552 470 142 117 353 70 40 386 69 11410 11156 254 204 172 138 109 121 77 11047 74 11018 118 81
is_linear=0
shrinkage=0.5


Tree=17
num_leaves=31
num_cat=0
split_feature=36 23 5 35 23 36 23 21 14 28 23 30 23 15 30 15 34 36 23 37 25 34 36 37 4 3 18 28 12 3
split_gain=922.06 1769.98 1954.49 1461.39 2043.25 1464.22 2247.07 1826.51 1454.38 1510.28 1424.54 1329.29 1189.27 2000.86 1181.18 1461.19 1153.63 1116.72 1898.94 1674.43 1378.82 1319.24 1351.69 1261.82 1365.4 1255.74 1235.36 1120.54 1419.64 1116.9
threshold=1778.3100000000002 114.21849800000001 92.507801050000012 81.913997650000013 121.21849800000001 1625.6850000000002 107.84349800000001 1.6562500000000002 243.34999850000003 0.68972650200000019 117.90599800000001 38.132749600000004 122.09349800000001 0.88085901750000006 37.160100950000007 0.9033200145000001 86.570301050000012 1674.0600000000002 106.59349800000001 -30.972222222222218 62.390600200000009 80.882801050000012 1676.1850000000002 -36.305556833333327 77.777751900000013 667.56250000000011 349.29770125000005 0.53124949350000017 31995.500000000004 700.56250000000011
decision_type=2 2 2 2 2 2 2 2 2 2 2 2 2 2 2 2 2 2 2 2 2 2 2 2 2 2 2 2 2 2
left_child=3 2 -2 4 5 10 -7 -8 -4 -10 14 16 -6 -14 -1 -16 17 26 19 -19 21 25 -23 24 -24 -20 -5 -28 -29 -25
right_child=1 -3 8 11 12 6 7 -9 9 -11 -12 -13 13 -15 15 -17 -18 18 20 -21 -22 22 23 29 -26 -27 27 28 -30 -31
leaf_value=-0.085535659751581672 2.4420703111697506 0.030855078353566691 1.7642582054160962 -1.8064559842483985 -4.2917608961914526 5.0514412849180159 0.56826566233081877 5.4145520658639725 0.89481221195618232 -0.87348559767073519 -3.9415413218995798 -4.2074901651252397 -2.8683651106537513 1.7219371781792752 5.2003773500521975 -0.5863023981451988 -1.4711863283658086 5.7026855773650684 -0.87582154436544934 0.61984010387298671 -3.6788435765990504 3.2427646864590973 -0.51712219727536046 -1.5276598247133573 5.0035438587268191 3.8067742337404593 -1.1021984475664794 -3.8166009301481689 0.19531623647183752 -0.14671914847343936
leaf_weight=866 151 6353 157 193 33 31 697 20 242 241 23 22 53 43 24 20 202 26 22 43 27 29 21 158 24 41 360 23 534 1998
leaf_count=866 151 6353 157 193 33 31 697 20 242 241 23 22 53 43 24 20 202 26 22 43 27 29 21 158 24 41 360 23 534 1998
internal_value=0 0.118673 0.823989 -0.153226 0.215311 0.362475 0.883646 0.703448 0.442224 0.0124938 -0.0553551 -0.332396 -1.70239 -0.812292 0.0428672 2.57007 -0.309361 -0.242288 -0.049747 2.53512 -0.126624 -0.0847971 -0.148542 -0.193226 2.42723 2.17158 -0.656685 -0.414694 0.0296536 -0.24792
internal_weight=0 7144 791 5533 1810 1681 748 717 640 483 933 3723 129 96 910 44 3701 3499 2389 69 2320 2293 2230 2201 45 63 1110 917 557 2156
internal_count=12677 7144 791 5533 1810 1681 748 717 640 483 933 3723 129 96 910 44 3701 3499 2389 69 2320 2293 2230 2201 45 63 1110 917 557 2156
is_linear=0
shrinkage=0.5


Tree=18
num_leaves=31
num_cat=0
split_feature=30 6 4 3 28 19 19 18 4 15 28 15 3 25 21 36 15 15 2 5 28 21 19 21 5 36 28 18 23 5
split_gain=1065.37 3351.6 3860.6 2583.76 2357.9 2083.19 2055.07 1736.33 2441.45 1787.64 2328.88 2370.6 2543.33 1726.84 1607.56 2566.5 1684.71 1539.53 2818.37 1622.72 1533.83 1498.92 1486.82 1477.55 1965.57 1622.58 1287.12 1253.49 1298.05 1224.79
threshold=28.816399550000003 1.0000000180025095e-35 77.269798250000022 839.18750000000011 1.6601550000000003 29.660100000000003 27.394499800000002 360.04984895000001 75.682453150000015 0.7392575145000001 0.67578101150000014 2.0956950200000004 723.06250000000011 63.328100200000009 -3.0312499999999996 2089.4951200000005 0.46581999950000003 1.7011650200000001 237.09535065 91.14839935000002 0.48828099650000006 -1.5937499999999998 31.917900100000004 -2.2187499999999996 94.413997650000013 1831.0600000000002 0.75292950900000011 350.20125045000003 123.90599800000001 87.788997650000013
decision_type=2 2 2 2 2 2 2 2 2 2 2 2 2 2 2 2 2 2 2 2 2 2 2 2 2 2 2 2 2 2
left_child=1 4 3 7 5 14 20 9 -9 -3 -11 22 -13 -10 -1 16 -16 19 -19 -8 -4 26 -12 24 -18 -25 -20 -22 -29 -7
right_child=-2 2 6 -5 -6 29 17 8 13 10 11 12 -14 -15 15 -17 23 18 21 -21 27 -23 -24 25 -26 -27 -28 28 -30 -31
leaf_value=-1.8354772641323507 -0.096907114910105188 0.83003523604892604 2.3437199280375527 4.0957468822598457 -4.1516133456637982 2.6246626752874125 -4.7921938527198069 0.78881399949959774 -2.8799353491603616 4.1863412728876268 3.3490451699388877 -5.1639900350570676 1.6644648104906081 2.1892893725917455 1.6035835140865746 4.4910175823089151 -3.950223842561245 4.4680705574842596 -4.6431450780481098 -0.14628503656836861 -4.0415850971514979 3.0251773273379636 -0.59183118420262493 -0.095919054315302399 -0.38394144201541647 1.6921040789224207 0.029657752918345586 -0.47501627579331396 -4.640876834347222 -1.0971647844695762
leaf_weight=92 8761 450 21 69 38 23 21 494 84 114 105 25 30 21 182 36 50 52 20 179 60 29 31 613 170 160 56 100 23 568
leaf_count=92 8761 450 21 69 38 23 21 494 84 114 105 25 30 21 182 36 50 52 20 179 60 29 31 613 170 160 56 100 23 568
internal_value=0 0.216804 0.673269 1.1112 -0.251947 -0.173707 -0.437562 0.959107 0.32343 1.46344 2.39797 1.33056 -1.43938 -1.86609 0.179449 0.332523 0.205114 0.285845 1.45776 -0.634105 -1.70352 -0.033066 2.45076 -0.0512014 -1.19446 0.274176 -1.20003 -2.16796 -1.254 -0.952322
internal_weight=0 3916 1984 1423 1932 1894 561 1354 599 755 305 191 55 105 1303 1211 1175 357 157 200 204 105 136 993 220 773 76 183 123 591
internal_count=12677 3916 1984 1423 1932 1894 561 1354 599 755 305 191 55 105 1303 1211 1175 357 157 200 204 105 136 993 220 773 76 183 123 591
is_linear=0
shrinkage=0.5


Tree=19
num_leaves=31
num_cat=0
split_feature=21 3 35 15 15 35 2 19 30 19 6 15 4 15 6 30 0 4 30 15 23 6 15 30 34 18 31 5 36 12
split_gain=903.609 1881.13 2624.9 2319.16 2222.39 2355.44 2513.81 1919.87 1600.89 1596.29 3975.55 2434.27 2796.02 2299.11 2051.45 4344.54 3751.42 2301.51 3338.76 2567.3 2017.11 1859.95 1822.31 2419.69 1553.41 1534.78 1516.21 1514.89 1511.84 1434.79
threshold=-1.1562499999999998 741.68750000000011 84.36714935000002 1.2138650400000002 1.2587800050000002 83.663997650000013 235.20470085000002 35.128900550000004 34.191400550000004 42.179649350000012 1.0000000180025095e-35 1.4355450250000004 75.682453150000015 0.34765599700000005 1.0000000180025095e-35 35.824199700000008 251.70000020000001 72.126949300000021 33.769498850000012 1.7373000400000003 113.53099800000001 1.0000000180025095e-35 1.7597600250000003 30.746049900000003 85.820301050000012 347.40025175000005 0.74050000350000011 92.27339935000002 1695.4350000000002 33996.500000000007
decision_type=2 2 2 2 2 2 2 2 2 2 2 2 2 2 2 2 2 2 2 2 2 2 2 2 2 2 2 2 2 2
left_child=1 2 7 -4 -3 27 -7 24 -8 11 -11 13 14 21 -13 17 -17 18 -16 26 -21 -2 23 -14 29 -24 -19 -6 -29 -1
right_child=9 4 3 -5 5 6 8 -9 -10 10 -12 12 22 -15 15 16 -18 19 -20 20 -22 -23 25 -25 -26 -27 -28 28 -30 -31
leaf_value=-1.535180678607045 2.9841643746556907 -0.16374951835329926 -1.6226076857610183 -7.7992284255368372 5.7521271010239916 -3.695259146965467 0.54519645092434554 0.70196343088290347 -0.57726074670083993 -2.4903064522077329 1.6636063877907064 -0.25646898797746248 -5.0808075213873831 0.77641010650519071 4.460362434387207 -2.2959278170709259 -10.887356519699097 -2.225737913733437 -3.1530876917143664 -1.256235521286726 -6.5821753738448026 -1.2599744392519301 0.0049789029217901688 0.2422682249635531 -3.9817515658214688 2.5337922321449566 3.8572452157735824 -1.3340732647559128 2.2187493379660852 -0.32045606937191967
leaf_weight=278 29 4092 55 21 24 39 1862 373 383 160 90 282 27 1994 36 27 24 21 24 32 40 235 105 102 32 140 20 37 157 1936
leaf_count=278 29 4092 55 21 24 39 1862 373 383 160 90 282 27 1994 36 27 24 21 24 32 40 235 105 102 32 140 20 37 157 1936
internal_value=0 -0.0806194 -0.432577 -3.32931 0.0632273 0.434446 0.284566 -0.348517 0.353704 0.221037 -0.994898 0.317909 -0.387512 0.592829 -1.15374 -2.28335 -6.33895 -1.08776 1.41498 -2.41666 -4.21509 -0.793762 0.649153 -0.871864 -0.522974 1.45002 0.741571 2.00474 1.54115 -0.472982
internal_weight=0 9289 2695 76 6594 2502 2284 2619 2245 3388 250 3138 880 2258 506 224 51 173 60 113 72 264 374 129 2246 245 41 218 194 2214
internal_count=12677 9289 2695 76 6594 2502 2284 2619 2245 3388 250 3138 880 2258 506 224 51 173 60 113 72 264 374 129 2246 245 41 218 194 2214
is_linear=0
shrinkage=0.5


end of trees

feature_importances:
Column_4=68
Column_36=67
Column_15=62
Column_23=55
Column_21=33
Column_28=32
Column_3=31
Column_30=30
Column_34=30
Column_35=29
Column_6=28
Column_19=27
Column_18=25
Column_11=15
Column_25=13
Column_14=12
Column_5=11
Column_2=8
Column_12=8
Column_31=6
Column_37=6
Column_0=4

parameters:
[boosting: gbdt]
[objective: regression]
[metric: rmse,l2]
[tree_learner: serial]
[device_type: cpu]
[data: ]
[valid: ]
[num_iterations: 20]
[learning_rate: 0.5]
[num_leaves: 31]
[num_threads: -1]
[deterministic: 0]
[force_col_wise: 0]
[force_row_wise: 0]
[histogram_pool_size: -1]
[max_depth: 20]
[min_data_in_leaf: 20]
[min_sum_hessian_in_leaf: 0.001]
[bagging_fraction: 1]
[pos_bagging_fraction: 1]
[neg_bagging_fraction: 1]
[bagging_freq: 0]
[bagging_seed: 3]
[feature_fraction: 1]
[feature_fraction_bynode: 1]
[feature_fraction_seed: 2]
[extra_trees: 0]
[extra_seed: 6]
[early_stopping_round: 1000]
[first_metric_only: 0]
[max_delta_step: 0]
[lambda_l1: 0]
[lambda_l2: 0]
[linear_lambda: 0]
[min_gain_to_split: 0]
[drop_rate: 0.1]
[max_drop: 50]
[skip_drop: 0.5]
[xgboost_dart_mode: 0]
[uniform_drop: 0]
[drop_seed: 4]
[top_rate: 0.2]
[other_rate: 0.1]
[min_data_per_group: 100]
[max_cat_threshold: 32]
[cat_l2: 10]
[cat_smooth: 10]
[max_cat_to_onehot: 4]
[top_k: 20]
[monotone_constraints: ]
[monotone_constraints_method: basic]
[monotone_penalty: 0]
[feature_contri: ]
[forcedsplits_filename: ]
[refit_decay_rate: 0.9]
[cegb_tradeoff: 1]
[cegb_penalty_split: 0]
[cegb_penalty_feature_lazy: ]
[cegb_penalty_feature_coupled: ]
[path_smooth: 0]
[interaction_constraints: ]
[verbosity: -1]
[saved_feature_importance_type: 0]
[linear_tree: 0]
[max_bin: 255]
[max_bin_by_feature: ]
[min_data_in_bin: 3]
[bin_construct_sample_cnt: 200000]
[data_random_seed: 1]
[is_enable_sparse: 1]
[enable_bundle: 1]
[use_missing: 1]
[zero_as_missing: 0]
[feature_pre_filter: 1]
[pre_partition: 0]
[two_round: 0]
[header: 0]
[label_column: ]
[weight_column: ]
[group_column: ]
[ignore_column: ]
[categorical_feature: ]
[forcedbins_filename: ]
[precise_float_parser: 0]
[objective_seed: 5]
[num_class: 1]
[is_unbalance: 0]
[scale_pos_weight: 1]
[sigmoid: 1]
[boost_from_average: 1]
[reg_sqrt: 0]
[alpha: 0.9]
[fair_c: 1]
[poisson_max_delta_step: 0.7]
[tweedie_variance_power: 1.5]
[lambdarank_truncation_level: 30]
[lambdarank_norm: 1]
[label_gain: ]
[eval_at: ]
[multi_error_top_k: 1]
[auc_mu_weights: ]
[num_machines: 1]
[local_listen_port: 12400]
[time_out: 120]
[machine_list_filename: ]
[machines: ]
[gpu_platform_id: -1]
[gpu_device_id: -1]
[gpu_use_dp: 0]
[num_gpu: 1]

end of parameters

pandas_categorical:null
